%YAML:1.0
my_tree: !!opencv-ml-tree
   is_classifier: 1
   var_all: 8192
   var_count: 8192
   ord_var_count: 8192
   cat_var_count: 0
   training_params:
      use_surrogates: 1
      max_categories: 10
      max_depth: 25
      min_sample_count: 10
      cross_validation_folds: 10
      use_1se_rule: 1
      truncate_pruned_tree: 1
      priors: !!opencv-matrix
         rows: 1
         cols: 2
         dt: d
         data: [ 1., 1. ]
   var_type: [ 0, 0, 0, 0, 0, 0, 0, 0, 0, 0, 0, 0, 0, 0, 0, 0, 0, 0, 0,
       0, 0, 0, 0, 0, 0, 0, 0, 0, 0, 0, 0, 0, 0, 0, 0, 0, 0, 0, 0, 0, 0,
       0, 0, 0, 0, 0, 0, 0, 0, 0, 0, 0, 0, 0, 0, 0, 0, 0, 0, 0, 0, 0, 0,
       0, 0, 0, 0, 0, 0, 0, 0, 0, 0, 0, 0, 0, 0, 0, 0, 0, 0, 0, 0, 0, 0,
       0, 0, 0, 0, 0, 0, 0, 0, 0, 0, 0, 0, 0, 0, 0, 0, 0, 0, 0, 0, 0, 0,
       0, 0, 0, 0, 0, 0, 0, 0, 0, 0, 0, 0, 0, 0, 0, 0, 0, 0, 0, 0, 0, 0,
       0, 0, 0, 0, 0, 0, 0, 0, 0, 0, 0, 0, 0, 0, 0, 0, 0, 0, 0, 0, 0, 0,
       0, 0, 0, 0, 0, 0, 0, 0, 0, 0, 0, 0, 0, 0, 0, 0, 0, 0, 0, 0, 0, 0,
       0, 0, 0, 0, 0, 0, 0, 0, 0, 0, 0, 0, 0, 0, 0, 0, 0, 0, 0, 0, 0, 0,
       0, 0, 0, 0, 0, 0, 0, 0, 0, 0, 0, 0, 0, 0, 0, 0, 0, 0, 0, 0, 0, 0,
       0, 0, 0, 0, 0, 0, 0, 0, 0, 0, 0, 0, 0, 0, 0, 0, 0, 0, 0, 0, 0, 0,
       0, 0, 0, 0, 0, 0, 0, 0, 0, 0, 0, 0, 0, 0, 0, 0, 0, 0, 0, 0, 0, 0,
       0, 0, 0, 0, 0, 0, 0, 0, 0, 0, 0, 0, 0, 0, 0, 0, 0, 0, 0, 0, 0, 0,
       0, 0, 0, 0, 0, 0, 0, 0, 0, 0, 0, 0, 0, 0, 0, 0, 0, 0, 0, 0, 0, 0,
       0, 0, 0, 0, 0, 0, 0, 0, 0, 0, 0, 0, 0, 0, 0, 0, 0, 0, 0, 0, 0, 0,
       0, 0, 0, 0, 0, 0, 0, 0, 0, 0, 0, 0, 0, 0, 0, 0, 0, 0, 0, 0, 0, 0,
       0, 0, 0, 0, 0, 0, 0, 0, 0, 0, 0, 0, 0, 0, 0, 0, 0, 0, 0, 0, 0, 0,
       0, 0, 0, 0, 0, 0, 0, 0, 0, 0, 0, 0, 0, 0, 0, 0, 0, 0, 0, 0, 0, 0,
       0, 0, 0, 0, 0, 0, 0, 0, 0, 0, 0, 0, 0, 0, 0, 0, 0, 0, 0, 0, 0, 0,
       0, 0, 0, 0, 0, 0, 0, 0, 0, 0, 0, 0, 0, 0, 0, 0, 0, 0, 0, 0, 0, 0,
       0, 0, 0, 0, 0, 0, 0, 0, 0, 0, 0, 0, 0, 0, 0, 0, 0, 0, 0, 0, 0, 0,
       0, 0, 0, 0, 0, 0, 0, 0, 0, 0, 0, 0, 0, 0, 0, 0, 0, 0, 0, 0, 0, 0,
       0, 0, 0, 0, 0, 0, 0, 0, 0, 0, 0, 0, 0, 0, 0, 0, 0, 0, 0, 0, 0, 0,
       0, 0, 0, 0, 0, 0, 0, 0, 0, 0, 0, 0, 0, 0, 0, 0, 0, 0, 0, 0, 0, 0,
       0, 0, 0, 0, 0, 0, 0, 0, 0, 0, 0, 0, 0, 0, 0, 0, 0, 0, 0, 0, 0, 0,
       0, 0, 0, 0, 0, 0, 0, 0, 0, 0, 0, 0, 0, 0, 0, 0, 0, 0, 0, 0, 0, 0,
       0, 0, 0, 0, 0, 0, 0, 0, 0, 0, 0, 0, 0, 0, 0, 0, 0, 0, 0, 0, 0, 0,
       0, 0, 0, 0, 0, 0, 0, 0, 0, 0, 0, 0, 0, 0, 0, 0, 0, 0, 0, 0, 0, 0,
       0, 0, 0, 0, 0, 0, 0, 0, 0, 0, 0, 0, 0, 0, 0, 0, 0, 0, 0, 0, 0, 0,
       0, 0, 0, 0, 0, 0, 0, 0, 0, 0, 0, 0, 0, 0, 0, 0, 0, 0, 0, 0, 0, 0,
       0, 0, 0, 0, 0, 0, 0, 0, 0, 0, 0, 0, 0, 0, 0, 0, 0, 0, 0, 0, 0, 0,
       0, 0, 0, 0, 0, 0, 0, 0, 0, 0, 0, 0, 0, 0, 0, 0, 0, 0, 0, 0, 0, 0,
       0, 0, 0, 0, 0, 0, 0, 0, 0, 0, 0, 0, 0, 0, 0, 0, 0, 0, 0, 0, 0, 0,
       0, 0, 0, 0, 0, 0, 0, 0, 0, 0, 0, 0, 0, 0, 0, 0, 0, 0, 0, 0, 0, 0,
       0, 0, 0, 0, 0, 0, 0, 0, 0, 0, 0, 0, 0, 0, 0, 0, 0, 0, 0, 0, 0, 0,
       0, 0, 0, 0, 0, 0, 0, 0, 0, 0, 0, 0, 0, 0, 0, 0, 0, 0, 0, 0, 0, 0,
       0, 0, 0, 0, 0, 0, 0, 0, 0, 0, 0, 0, 0, 0, 0, 0, 0, 0, 0, 0, 0, 0,
       0, 0, 0, 0, 0, 0, 0, 0, 0, 0, 0, 0, 0, 0, 0, 0, 0, 0, 0, 0, 0, 0,
       0, 0, 0, 0, 0, 0, 0, 0, 0, 0, 0, 0, 0, 0, 0, 0, 0, 0, 0, 0, 0, 0,
       0, 0, 0, 0, 0, 0, 0, 0, 0, 0, 0, 0, 0, 0, 0, 0, 0, 0, 0, 0, 0, 0,
       0, 0, 0, 0, 0, 0, 0, 0, 0, 0, 0, 0, 0, 0, 0, 0, 0, 0, 0, 0, 0, 0,
       0, 0, 0, 0, 0, 0, 0, 0, 0, 0, 0, 0, 0, 0, 0, 0, 0, 0, 0, 0, 0, 0,
       0, 0, 0, 0, 0, 0, 0, 0, 0, 0, 0, 0, 0, 0, 0, 0, 0, 0, 0, 0, 0, 0,
       0, 0, 0, 0, 0, 0, 0, 0, 0, 0, 0, 0, 0, 0, 0, 0, 0, 0, 0, 0, 0, 0,
       0, 0, 0, 0, 0, 0, 0, 0, 0, 0, 0, 0, 0, 0, 0, 0, 0, 0, 0, 0, 0, 0,
       0, 0, 0, 0, 0, 0, 0, 0, 0, 0, 0, 0, 0, 0, 0, 0, 0, 0, 0, 0, 0, 0,
       0, 0, 0, 0, 0, 0, 0, 0, 0, 0, 0, 0, 0, 0, 0, 0, 0, 0, 0, 0, 0, 0,
       0, 0, 0, 0, 0, 0, 0, 0, 0, 0, 0, 0, 0, 0, 0, 0, 0, 0, 0, 0, 0, 0,
       0, 0, 0, 0, 0, 0, 0, 0, 0, 0, 0, 0, 0, 0, 0, 0, 0, 0, 0, 0, 0, 0,
       0, 0, 0, 0, 0, 0, 0, 0, 0, 0, 0, 0, 0, 0, 0, 0, 0, 0, 0, 0, 0, 0,
       0, 0, 0, 0, 0, 0, 0, 0, 0, 0, 0, 0, 0, 0, 0, 0, 0, 0, 0, 0, 0, 0,
       0, 0, 0, 0, 0, 0, 0, 0, 0, 0, 0, 0, 0, 0, 0, 0, 0, 0, 0, 0, 0, 0,
       0, 0, 0, 0, 0, 0, 0, 0, 0, 0, 0, 0, 0, 0, 0, 0, 0, 0, 0, 0, 0, 0,
       0, 0, 0, 0, 0, 0, 0, 0, 0, 0, 0, 0, 0, 0, 0, 0, 0, 0, 0, 0, 0, 0,
       0, 0, 0, 0, 0, 0, 0, 0, 0, 0, 0, 0, 0, 0, 0, 0, 0, 0, 0, 0, 0, 0,
       0, 0, 0, 0, 0, 0, 0, 0, 0, 0, 0, 0, 0, 0, 0, 0, 0, 0, 0, 0, 0, 0,
       0, 0, 0, 0, 0, 0, 0, 0, 0, 0, 0, 0, 0, 0, 0, 0, 0, 0, 0, 0, 0, 0,
       0, 0, 0, 0, 0, 0, 0, 0, 0, 0, 0, 0, 0, 0, 0, 0, 0, 0, 0, 0, 0, 0,
       0, 0, 0, 0, 0, 0, 0, 0, 0, 0, 0, 0, 0, 0, 0, 0, 0, 0, 0, 0, 0, 0,
       0, 0, 0, 0, 0, 0, 0, 0, 0, 0, 0, 0, 0, 0, 0, 0, 0, 0, 0, 0, 0, 0,
       0, 0, 0, 0, 0, 0, 0, 0, 0, 0, 0, 0, 0, 0, 0, 0, 0, 0, 0, 0, 0, 0,
       0, 0, 0, 0, 0, 0, 0, 0, 0, 0, 0, 0, 0, 0, 0, 0, 0, 0, 0, 0, 0, 0,
       0, 0, 0, 0, 0, 0, 0, 0, 0, 0, 0, 0, 0, 0, 0, 0, 0, 0, 0, 0, 0, 0,
       0, 0, 0, 0, 0, 0, 0, 0, 0, 0, 0, 0, 0, 0, 0, 0, 0, 0, 0, 0, 0, 0,
       0, 0, 0, 0, 0, 0, 0, 0, 0, 0, 0, 0, 0, 0, 0, 0, 0, 0, 0, 0, 0, 0,
       0, 0, 0, 0, 0, 0, 0, 0, 0, 0, 0, 0, 0, 0, 0, 0, 0, 0, 0, 0, 0, 0,
       0, 0, 0, 0, 0, 0, 0, 0, 0, 0, 0, 0, 0, 0, 0, 0, 0, 0, 0, 0, 0, 0,
       0, 0, 0, 0, 0, 0, 0, 0, 0, 0, 0, 0, 0, 0, 0, 0, 0, 0, 0, 0, 0, 0,
       0, 0, 0, 0, 0, 0, 0, 0, 0, 0, 0, 0, 0, 0, 0, 0, 0, 0, 0, 0, 0, 0,
       0, 0, 0, 0, 0, 0, 0, 0, 0, 0, 0, 0, 0, 0, 0, 0, 0, 0, 0, 0, 0, 0,
       0, 0, 0, 0, 0, 0, 0, 0, 0, 0, 0, 0, 0, 0, 0, 0, 0, 0, 0, 0, 0, 0,
       0, 0, 0, 0, 0, 0, 0, 0, 0, 0, 0, 0, 0, 0, 0, 0, 0, 0, 0, 0, 0, 0,
       0, 0, 0, 0, 0, 0, 0, 0, 0, 0, 0, 0, 0, 0, 0, 0, 0, 0, 0, 0, 0, 0,
       0, 0, 0, 0, 0, 0, 0, 0, 0, 0, 0, 0, 0, 0, 0, 0, 0, 0, 0, 0, 0, 0,
       0, 0, 0, 0, 0, 0, 0, 0, 0, 0, 0, 0, 0, 0, 0, 0, 0, 0, 0, 0, 0, 0,
       0, 0, 0, 0, 0, 0, 0, 0, 0, 0, 0, 0, 0, 0, 0, 0, 0, 0, 0, 0, 0, 0,
       0, 0, 0, 0, 0, 0, 0, 0, 0, 0, 0, 0, 0, 0, 0, 0, 0, 0, 0, 0, 0, 0,
       0, 0, 0, 0, 0, 0, 0, 0, 0, 0, 0, 0, 0, 0, 0, 0, 0, 0, 0, 0, 0, 0,
       0, 0, 0, 0, 0, 0, 0, 0, 0, 0, 0, 0, 0, 0, 0, 0, 0, 0, 0, 0, 0, 0,
       0, 0, 0, 0, 0, 0, 0, 0, 0, 0, 0, 0, 0, 0, 0, 0, 0, 0, 0, 0, 0, 0,
       0, 0, 0, 0, 0, 0, 0, 0, 0, 0, 0, 0, 0, 0, 0, 0, 0, 0, 0, 0, 0, 0,
       0, 0, 0, 0, 0, 0, 0, 0, 0, 0, 0, 0, 0, 0, 0, 0, 0, 0, 0, 0, 0, 0,
       0, 0, 0, 0, 0, 0, 0, 0, 0, 0, 0, 0, 0, 0, 0, 0, 0, 0, 0, 0, 0, 0,
       0, 0, 0, 0, 0, 0, 0, 0, 0, 0, 0, 0, 0, 0, 0, 0, 0, 0, 0, 0, 0, 0,
       0, 0, 0, 0, 0, 0, 0, 0, 0, 0, 0, 0, 0, 0, 0, 0, 0, 0, 0, 0, 0, 0,
       0, 0, 0, 0, 0, 0, 0, 0, 0, 0, 0, 0, 0, 0, 0, 0, 0, 0, 0, 0, 0, 0,
       0, 0, 0, 0, 0, 0, 0, 0, 0, 0, 0, 0, 0, 0, 0, 0, 0, 0, 0, 0, 0, 0,
       0, 0, 0, 0, 0, 0, 0, 0, 0, 0, 0, 0, 0, 0, 0, 0, 0, 0, 0, 0, 0, 0,
       0, 0, 0, 0, 0, 0, 0, 0, 0, 0, 0, 0, 0, 0, 0, 0, 0, 0, 0, 0, 0, 0,
       0, 0, 0, 0, 0, 0, 0, 0, 0, 0, 0, 0, 0, 0, 0, 0, 0, 0, 0, 0, 0, 0,
       0, 0, 0, 0, 0, 0, 0, 0, 0, 0, 0, 0, 0, 0, 0, 0, 0, 0, 0, 0, 0, 0,
       0, 0, 0, 0, 0, 0, 0, 0, 0, 0, 0, 0, 0, 0, 0, 0, 0, 0, 0, 0, 0, 0,
       0, 0, 0, 0, 0, 0, 0, 0, 0, 0, 0, 0, 0, 0, 0, 0, 0, 0, 0, 0, 0, 0,
       0, 0, 0, 0, 0, 0, 0, 0, 0, 0, 0, 0, 0, 0, 0, 0, 0, 0, 0, 0, 0, 0,
       0, 0, 0, 0, 0, 0, 0, 0, 0, 0, 0, 0, 0, 0, 0, 0, 0, 0, 0, 0, 0, 0,
       0, 0, 0, 0, 0, 0, 0, 0, 0, 0, 0, 0, 0, 0, 0, 0, 0, 0, 0, 0, 0, 0,
       0, 0, 0, 0, 0, 0, 0, 0, 0, 0, 0, 0, 0, 0, 0, 0, 0, 0, 0, 0, 0, 0,
       0, 0, 0, 0, 0, 0, 0, 0, 0, 0, 0, 0, 0, 0, 0, 0, 0, 0, 0, 0, 0, 0,
       0, 0, 0, 0, 0, 0, 0, 0, 0, 0, 0, 0, 0, 0, 0, 0, 0, 0, 0, 0, 0, 0,
       0, 0, 0, 0, 0, 0, 0, 0, 0, 0, 0, 0, 0, 0, 0, 0, 0, 0, 0, 0, 0, 0,
       0, 0, 0, 0, 0, 0, 0, 0, 0, 0, 0, 0, 0, 0, 0, 0, 0, 0, 0, 0, 0, 0,
       0, 0, 0, 0, 0, 0, 0, 0, 0, 0, 0, 0, 0, 0, 0, 0, 0, 0, 0, 0, 0, 0,
       0, 0, 0, 0, 0, 0, 0, 0, 0, 0, 0, 0, 0, 0, 0, 0, 0, 0, 0, 0, 0, 0,
       0, 0, 0, 0, 0, 0, 0, 0, 0, 0, 0, 0, 0, 0, 0, 0, 0, 0, 0, 0, 0, 0,
       0, 0, 0, 0, 0, 0, 0, 0, 0, 0, 0, 0, 0, 0, 0, 0, 0, 0, 0, 0, 0, 0,
       0, 0, 0, 0, 0, 0, 0, 0, 0, 0, 0, 0, 0, 0, 0, 0, 0, 0, 0, 0, 0, 0,
       0, 0, 0, 0, 0, 0, 0, 0, 0, 0, 0, 0, 0, 0, 0, 0, 0, 0, 0, 0, 0, 0,
       0, 0, 0, 0, 0, 0, 0, 0, 0, 0, 0, 0, 0, 0, 0, 0, 0, 0, 0, 0, 0, 0,
       0, 0, 0, 0, 0, 0, 0, 0, 0, 0, 0, 0, 0, 0, 0, 0, 0, 0, 0, 0, 0, 0,
       0, 0, 0, 0, 0, 0, 0, 0, 0, 0, 0, 0, 0, 0, 0, 0, 0, 0, 0, 0, 0, 0,
       0, 0, 0, 0, 0, 0, 0, 0, 0, 0, 0, 0, 0, 0, 0, 0, 0, 0, 0, 0, 0, 0,
       0, 0, 0, 0, 0, 0, 0, 0, 0, 0, 0, 0, 0, 0, 0, 0, 0, 0, 0, 0, 0, 0,
       0, 0, 0, 0, 0, 0, 0, 0, 0, 0, 0, 0, 0, 0, 0, 0, 0, 0, 0, 0, 0, 0,
       0, 0, 0, 0, 0, 0, 0, 0, 0, 0, 0, 0, 0, 0, 0, 0, 0, 0, 0, 0, 0, 0,
       0, 0, 0, 0, 0, 0, 0, 0, 0, 0, 0, 0, 0, 0, 0, 0, 0, 0, 0, 0, 0, 0,
       0, 0, 0, 0, 0, 0, 0, 0, 0, 0, 0, 0, 0, 0, 0, 0, 0, 0, 0, 0, 0, 0,
       0, 0, 0, 0, 0, 0, 0, 0, 0, 0, 0, 0, 0, 0, 0, 0, 0, 0, 0, 0, 0, 0,
       0, 0, 0, 0, 0, 0, 0, 0, 0, 0, 0, 0, 0, 0, 0, 0, 0, 0, 0, 0, 0, 0,
       0, 0, 0, 0, 0, 0, 0, 0, 0, 0, 0, 0, 0, 0, 0, 0, 0, 0, 0, 0, 0, 0,
       0, 0, 0, 0, 0, 0, 0, 0, 0, 0, 0, 0, 0, 0, 0, 0, 0, 0, 0, 0, 0, 0,
       0, 0, 0, 0, 0, 0, 0, 0, 0, 0, 0, 0, 0, 0, 0, 0, 0, 0, 0, 0, 0, 0,
       0, 0, 0, 0, 0, 0, 0, 0, 0, 0, 0, 0, 0, 0, 0, 0, 0, 0, 0, 0, 0, 0,
       0, 0, 0, 0, 0, 0, 0, 0, 0, 0, 0, 0, 0, 0, 0, 0, 0, 0, 0, 0, 0, 0,
       0, 0, 0, 0, 0, 0, 0, 0, 0, 0, 0, 0, 0, 0, 0, 0, 0, 0, 0, 0, 0, 0,
       0, 0, 0, 0, 0, 0, 0, 0, 0, 0, 0, 0, 0, 0, 0, 0, 0, 0, 0, 0, 0, 0,
       0, 0, 0, 0, 0, 0, 0, 0, 0, 0, 0, 0, 0, 0, 0, 0, 0, 0, 0, 0, 0, 0,
       0, 0, 0, 0, 0, 0, 0, 0, 0, 0, 0, 0, 0, 0, 0, 0, 0, 0, 0, 0, 0, 0,
       0, 0, 0, 0, 0, 0, 0, 0, 0, 0, 0, 0, 0, 0, 0, 0, 0, 0, 0, 0, 0, 0,
       0, 0, 0, 0, 0, 0, 0, 0, 0, 0, 0, 0, 0, 0, 0, 0, 0, 0, 0, 0, 0, 0,
       0, 0, 0, 0, 0, 0, 0, 0, 0, 0, 0, 0, 0, 0, 0, 0, 0, 0, 0, 0, 0, 0,
       0, 0, 0, 0, 0, 0, 0, 0, 0, 0, 0, 0, 0, 0, 0, 0, 0, 0, 0, 0, 0, 0,
       0, 0, 0, 0, 0, 0, 0, 0, 0, 0, 0, 0, 0, 0, 0, 0, 0, 0, 0, 0, 0, 0,
       0, 0, 0, 0, 0, 0, 0, 0, 0, 0, 0, 0, 0, 0, 0, 0, 0, 0, 0, 0, 0, 0,
       0, 0, 0, 0, 0, 0, 0, 0, 0, 0, 0, 0, 0, 0, 0, 0, 0, 0, 0, 0, 0, 0,
       0, 0, 0, 0, 0, 0, 0, 0, 0, 0, 0, 0, 0, 0, 0, 0, 0, 0, 0, 0, 0, 0,
       0, 0, 0, 0, 0, 0, 0, 0, 0, 0, 0, 0, 0, 0, 0, 0, 0, 0, 0, 0, 0, 0,
       0, 0, 0, 0, 0, 0, 0, 0, 0, 0, 0, 0, 0, 0, 0, 0, 0, 0, 0, 0, 0, 0,
       0, 0, 0, 0, 0, 0, 0, 0, 0, 0, 0, 0, 0, 0, 0, 0, 0, 0, 0, 0, 0, 0,
       0, 0, 0, 0, 0, 0, 0, 0, 0, 0, 0, 0, 0, 0, 0, 0, 0, 0, 0, 0, 0, 0,
       0, 0, 0, 0, 0, 0, 0, 0, 0, 0, 0, 0, 0, 0, 0, 0, 0, 0, 0, 0, 0, 0,
       0, 0, 0, 0, 0, 0, 0, 0, 0, 0, 0, 0, 0, 0, 0, 0, 0, 0, 0, 0, 0, 0,
       0, 0, 0, 0, 0, 0, 0, 0, 0, 0, 0, 0, 0, 0, 0, 0, 0, 0, 0, 0, 0, 0,
       0, 0, 0, 0, 0, 0, 0, 0, 0, 0, 0, 0, 0, 0, 0, 0, 0, 0, 0, 0, 0, 0,
       0, 0, 0, 0, 0, 0, 0, 0, 0, 0, 0, 0, 0, 0, 0, 0, 0, 0, 0, 0, 0, 0,
       0, 0, 0, 0, 0, 0, 0, 0, 0, 0, 0, 0, 0, 0, 0, 0, 0, 0, 0, 0, 0, 0,
       0, 0, 0, 0, 0, 0, 0, 0, 0, 0, 0, 0, 0, 0, 0, 0, 0, 0, 0, 0, 0, 0,
       0, 0, 0, 0, 0, 0, 0, 0, 0, 0, 0, 0, 0, 0, 0, 0, 0, 0, 0, 0, 0, 0,
       0, 0, 0, 0, 0, 0, 0, 0, 0, 0, 0, 0, 0, 0, 0, 0, 0, 0, 0, 0, 0, 0,
       0, 0, 0, 0, 0, 0, 0, 0, 0, 0, 0, 0, 0, 0, 0, 0, 0, 0, 0, 0, 0, 0,
       0, 0, 0, 0, 0, 0, 0, 0, 0, 0, 0, 0, 0, 0, 0, 0, 0, 0, 0, 0, 0, 0,
       0, 0, 0, 0, 0, 0, 0, 0, 0, 0, 0, 0, 0, 0, 0, 0, 0, 0, 0, 0, 0, 0,
       0, 0, 0, 0, 0, 0, 0, 0, 0, 0, 0, 0, 0, 0, 0, 0, 0, 0, 0, 0, 0, 0,
       0, 0, 0, 0, 0, 0, 0, 0, 0, 0, 0, 0, 0, 0, 0, 0, 0, 0, 0, 0, 0, 0,
       0, 0, 0, 0, 0, 0, 0, 0, 0, 0, 0, 0, 0, 0, 0, 0, 0, 0, 0, 0, 0, 0,
       0, 0, 0, 0, 0, 0, 0, 0, 0, 0, 0, 0, 0, 0, 0, 0, 0, 0, 0, 0, 0, 0,
       0, 0, 0, 0, 0, 0, 0, 0, 0, 0, 0, 0, 0, 0, 0, 0, 0, 0, 0, 0, 0, 0,
       0, 0, 0, 0, 0, 0, 0, 0, 0, 0, 0, 0, 0, 0, 0, 0, 0, 0, 0, 0, 0, 0,
       0, 0, 0, 0, 0, 0, 0, 0, 0, 0, 0, 0, 0, 0, 0, 0, 0, 0, 0, 0, 0, 0,
       0, 0, 0, 0, 0, 0, 0, 0, 0, 0, 0, 0, 0, 0, 0, 0, 0, 0, 0, 0, 0, 0,
       0, 0, 0, 0, 0, 0, 0, 0, 0, 0, 0, 0, 0, 0, 0, 0, 0, 0, 0, 0, 0, 0,
       0, 0, 0, 0, 0, 0, 0, 0, 0, 0, 0, 0, 0, 0, 0, 0, 0, 0, 0, 0, 0, 0,
       0, 0, 0, 0, 0, 0, 0, 0, 0, 0, 0, 0, 0, 0, 0, 0, 0, 0, 0, 0, 0, 0,
       0, 0, 0, 0, 0, 0, 0, 0, 0, 0, 0, 0, 0, 0, 0, 0, 0, 0, 0, 0, 0, 0,
       0, 0, 0, 0, 0, 0, 0, 0, 0, 0, 0, 0, 0, 0, 0, 0, 0, 0, 0, 0, 0, 0,
       0, 0, 0, 0, 0, 0, 0, 0, 0, 0, 0, 0, 0, 0, 0, 0, 0, 0, 0, 0, 0, 0,
       0, 0, 0, 0, 0, 0, 0, 0, 0, 0, 0, 0, 0, 0, 0, 0, 0, 0, 0, 0, 0, 0,
       0, 0, 0, 0, 0, 0, 0, 0, 0, 0, 0, 0, 0, 0, 0, 0, 0, 0, 0, 0, 0, 0,
       0, 0, 0, 0, 0, 0, 0, 0, 0, 0, 0, 0, 0, 0, 0, 0, 0, 0, 0, 0, 0, 0,
       0, 0, 0, 0, 0, 0, 0, 0, 0, 0, 0, 0, 0, 0, 0, 0, 0, 0, 0, 0, 0, 0,
       0, 0, 0, 0, 0, 0, 0, 0, 0, 0, 0, 0, 0, 0, 0, 0, 0, 0, 0, 0, 0, 0,
       0, 0, 0, 0, 0, 0, 0, 0, 0, 0, 0, 0, 0, 0, 0, 0, 0, 0, 0, 0, 0, 0,
       0, 0, 0, 0, 0, 0, 0, 0, 0, 0, 0, 0, 0, 0, 0, 0, 0, 0, 0, 0, 0, 0,
       0, 0, 0, 0, 0, 0, 0, 0, 0, 0, 0, 0, 0, 0, 0, 0, 0, 0, 0, 0, 0, 0,
       0, 0, 0, 0, 0, 0, 0, 0, 0, 0, 0, 0, 0, 0, 0, 0, 0, 0, 0, 0, 0, 0,
       0, 0, 0, 0, 0, 0, 0, 0, 0, 0, 0, 0, 0, 0, 0, 0, 0, 0, 0, 0, 0, 0,
       0, 0, 0, 0, 0, 0, 0, 0, 0, 0, 0, 0, 0, 0, 0, 0, 0, 0, 0, 0, 0, 0,
       0, 0, 0, 0, 0, 0, 0, 0, 0, 0, 0, 0, 0, 0, 0, 0, 0, 0, 0, 0, 0, 0,
       0, 0, 0, 0, 0, 0, 0, 0, 0, 0, 0, 0, 0, 0, 0, 0, 0, 0, 0, 0, 0, 0,
       0, 0, 0, 0, 0, 0, 0, 0, 0, 0, 0, 0, 0, 0, 0, 0, 0, 0, 0, 0, 0, 0,
       0, 0, 0, 0, 0, 0, 0, 0, 0, 0, 0, 0, 0, 0, 0, 0, 0, 0, 0, 0, 0, 0,
       0, 0, 0, 0, 0, 0, 0, 0, 0, 0, 0, 0, 0, 0, 0, 0, 0, 0, 0, 0, 0, 0,
       0, 0, 0, 0, 0, 0, 0, 0, 0, 0, 0, 0, 0, 0, 0, 0, 0, 0, 0, 0, 0, 0,
       0, 0, 0, 0, 0, 0, 0, 0, 0, 0, 0, 0, 0, 0, 0, 0, 0, 0, 0, 0, 0, 0,
       0, 0, 0, 0, 0, 0, 0, 0, 0, 0, 0, 0, 0, 0, 0, 0, 0, 0, 0, 0, 0, 0,
       0, 0, 0, 0, 0, 0, 0, 0, 0, 0, 0, 0, 0, 0, 0, 0, 0, 0, 0, 0, 0, 0,
       0, 0, 0, 0, 0, 0, 0, 0, 0, 0, 0, 0, 0, 0, 0, 0, 0, 0, 0, 0, 0, 0,
       0, 0, 0, 0, 0, 0, 0, 0, 0, 0, 0, 0, 0, 0, 0, 0, 0, 0, 0, 0, 0, 0,
       0, 0, 0, 0, 0, 0, 0, 0, 0, 0, 0, 0, 0, 0, 0, 0, 0, 0, 0, 0, 0, 0,
       0, 0, 0, 0, 0, 0, 0, 0, 0, 0, 0, 0, 0, 0, 0, 0, 0, 0, 0, 0, 0, 0,
       0, 0, 0, 0, 0, 0, 0, 0, 0, 0, 0, 0, 0, 0, 0, 0, 0, 0, 0, 0, 0, 0,
       0, 0, 0, 0, 0, 0, 0, 0, 0, 0, 0, 0, 0, 0, 0, 0, 0, 0, 0, 0, 0, 0,
       0, 0, 0, 0, 0, 0, 0, 0, 0, 0, 0, 0, 0, 0, 0, 0, 0, 0, 0, 0, 0, 0,
       0, 0, 0, 0, 0, 0, 0, 0, 0, 0, 0, 0, 0, 0, 0, 0, 0, 0, 0, 0, 0, 0,
       0, 0, 0, 0, 0, 0, 0, 0, 0, 0, 0, 0, 0, 0, 0, 0, 0, 0, 0, 0, 0, 0,
       0, 0, 0, 0, 0, 0, 0, 0, 0, 0, 0, 0, 0, 0, 0, 0, 0, 0, 0, 0, 0, 0,
       0, 0, 0, 0, 0, 0, 0, 0, 0, 0, 0, 0, 0, 0, 0, 0, 0, 0, 0, 0, 0, 0,
       0, 0, 0, 0, 0, 0, 0, 0, 0, 0, 0, 0, 0, 0, 0, 0, 0, 0, 0, 0, 0, 0,
       0, 0, 0, 0, 0, 0, 0, 0, 0, 0, 0, 0, 0, 0, 0, 0, 0, 0, 0, 0, 0, 0,
       0, 0, 0, 0, 0, 0, 0, 0, 0, 0, 0, 0, 0, 0, 0, 0, 0, 0, 0, 0, 0, 0,
       0, 0, 0, 0, 0, 0, 0, 0, 0, 0, 0, 0, 0, 0, 0, 0, 0, 0, 0, 0, 0, 0,
       0, 0, 0, 0, 0, 0, 0, 0, 0, 0, 0, 0, 0, 0, 0, 0, 0, 0, 0, 0, 0, 0,
       0, 0, 0, 0, 0, 0, 0, 0, 0, 0, 0, 0, 0, 0, 0, 0, 0, 0, 0, 0, 0, 0,
       0, 0, 0, 0, 0, 0, 0, 0, 0, 0, 0, 0, 0, 0, 0, 0, 0, 0, 0, 0, 0, 0,
       0, 0, 0, 0, 0, 0, 0, 0, 0, 0, 0, 0, 0, 0, 0, 0, 0, 0, 0, 0, 0, 0,
       0, 0, 0, 0, 0, 0, 0, 0, 0, 0, 0, 0, 0, 0, 0, 0, 0, 0, 0, 0, 0, 0,
       0, 0, 0, 0, 0, 0, 0, 0, 0, 0, 0, 0, 0, 0, 0, 0, 0, 0, 0, 0, 0, 0,
       0, 0, 0, 0, 0, 0, 0, 0, 0, 0, 0, 0, 0, 0, 0, 0, 0, 0, 0, 0, 0, 0,
       0, 0, 0, 0, 0, 0, 0, 0, 0, 0, 0, 0, 0, 0, 0, 0, 0, 0, 0, 0, 0, 0,
       0, 0, 0, 0, 0, 0, 0, 0, 0, 0, 0, 0, 0, 0, 0, 0, 0, 0, 0, 0, 0, 0,
       0, 0, 0, 0, 0, 0, 0, 0, 0, 0, 0, 0, 0, 0, 0, 0, 0, 0, 0, 0, 0, 0,
       0, 0, 0, 0, 0, 0, 0, 0, 0, 0, 0, 0, 0, 0, 0, 0, 0, 0, 0, 0, 0, 0,
       0, 0, 0, 0, 0, 0, 0, 0, 0, 0, 0, 0, 0, 0, 0, 0, 0, 0, 0, 0, 0, 0,
       0, 0, 0, 0, 0, 0, 0, 0, 0, 0, 0, 0, 0, 0, 0, 0, 0, 0, 0, 0, 0, 0,
       0, 0, 0, 0, 0, 0, 0, 0, 0, 0, 0, 0, 0, 0, 0, 0, 0, 0, 0, 0, 0, 0,
       0, 0, 0, 0, 0, 0, 0, 0, 0, 0, 0, 0, 0, 0, 0, 0, 0, 0, 0, 0, 0, 0,
       0, 0, 0, 0, 0, 0, 0, 0, 0, 0, 0, 0, 0, 0, 0, 0, 0, 0, 0, 0, 0, 0,
       0, 0, 0, 0, 0, 0, 0, 0, 0, 0, 0, 0, 0, 0, 0, 0, 0, 0, 0, 0, 0, 0,
       0, 0, 0, 0, 0, 0, 0, 0, 0, 0, 0, 0, 0, 0, 0, 0, 0, 0, 0, 0, 0, 0,
       0, 0, 0, 0, 0, 0, 0, 0, 0, 0, 0, 0, 0, 0, 0, 0, 0, 0, 0, 0, 0, 0,
       0, 0, 0, 0, 0, 0, 0, 0, 0, 0, 0, 0, 0, 0, 0, 0, 0, 0, 0, 0, 0, 0,
       0, 0, 0, 0, 0, 0, 0, 0, 0, 0, 0, 0, 0, 0, 0, 0, 0, 0, 0, 0, 0, 0,
       0, 0, 0, 0, 0, 0, 0, 0, 0, 0, 0, 0, 0, 0, 0, 0, 0, 0, 0, 0, 0, 0,
       0, 0, 0, 0, 0, 0, 0, 0, 0, 0, 0, 0, 0, 0, 0, 0, 0, 0, 0, 0, 0, 0,
       0, 0, 0, 0, 0, 0, 0, 0, 0, 0, 0, 0, 0, 0, 0, 0, 0, 0, 0, 0, 0, 0,
       0, 0, 0, 0, 0, 0, 0, 0, 0, 0, 0, 0, 0, 0, 0, 0, 0, 0, 0, 0, 0, 0,
       0, 0, 0, 0, 0, 0, 0, 0, 0, 0, 0, 0, 0, 0, 0, 0, 0, 0, 0, 0, 0, 0,
       0, 0, 0, 0, 0, 0, 0, 0, 0, 0, 0, 0, 0, 0, 0, 0, 0, 0, 0, 0, 0, 0,
       0, 0, 0, 0, 0, 0, 0, 0, 0, 0, 0, 0, 0, 0, 0, 0, 0, 0, 0, 0, 0, 0,
       0, 0, 0, 0, 0, 0, 0, 0, 0, 0, 0, 0, 0, 0, 0, 0, 0, 0, 0, 0, 0, 0,
       0, 0, 0, 0, 0, 0, 0, 0, 0, 0, 0, 0, 0, 0, 0, 0, 0, 0, 0, 0, 0, 0,
       0, 0, 0, 0, 0, 0, 0, 0, 0, 0, 0, 0, 0, 0, 0, 0, 0, 0, 0, 0, 0, 0,
       0, 0, 0, 0, 0, 0, 0, 0, 0, 0, 0, 0, 0, 0, 0, 0, 0, 0, 0, 0, 0, 0,
       0, 0, 0, 0, 0, 0, 0, 0, 0, 0, 0, 0, 0, 0, 0, 0, 0, 0, 0, 0, 0, 0,
       0, 0, 0, 0, 0, 0, 0, 0, 0, 0, 0, 0, 0, 0, 0, 0, 0, 0, 0, 0, 0, 0,
       0, 0, 0, 0, 0, 0, 0, 0, 0, 0, 0, 0, 0, 0, 0, 0, 0, 0, 0, 0, 0, 0,
       0, 0, 0, 0, 0, 0, 0, 0, 0, 0, 0, 0, 0, 0, 0, 0, 0, 0, 0, 0, 0, 0,
       0, 0, 0, 0, 0, 0, 0, 0, 0, 0, 0, 0, 0, 0, 0, 0, 0, 0, 0, 0, 0, 0,
       0, 0, 0, 0, 0, 0, 0, 0, 0, 0, 0, 0, 0, 0, 0, 0, 0, 0, 0, 0, 0, 0,
       0, 0, 0, 0, 0, 0, 0, 0, 0, 0, 0, 0, 0, 0, 0, 0, 0, 0, 0, 0, 0, 0,
       0, 0, 0, 0, 0, 0, 0, 0, 0, 0, 0, 0, 0, 0, 0, 0, 0, 0, 0, 0, 0, 0,
       0, 0, 0, 0, 0, 0, 0, 0, 0, 0, 0, 0, 0, 0, 0, 0, 0, 0, 0, 0, 0, 0,
       0, 0, 0, 0, 0, 0, 0, 0, 0, 0, 0, 0, 0, 0, 0, 0, 0, 0, 0, 0, 0, 0,
       0, 0, 0, 0, 0, 0, 0, 0, 0, 0, 0, 0, 0, 0, 0, 0, 0, 0, 0, 0, 0, 0,
       0, 0, 0, 0, 0, 0, 0, 0, 0, 0, 0, 0, 0, 0, 0, 0, 0, 0, 0, 0, 0, 0,
       0, 0, 0, 0, 0, 0, 0, 0, 0, 0, 0, 0, 0, 0, 0, 0, 0, 0, 0, 0, 0, 0,
       0, 0, 0, 0, 0, 0, 0, 0, 0, 0, 0, 0, 0, 0, 0, 0, 0, 0, 0, 0, 0, 0,
       0, 0, 0, 0, 0, 0, 0, 0, 0, 0, 0, 0, 0, 0, 0, 0, 0, 0, 0, 0, 0, 0,
       0, 0, 0, 0, 0, 0, 0, 0, 0, 0, 0, 0, 0, 0, 0, 0, 0, 0, 0, 0, 0, 0,
       0, 0, 0, 0, 0, 0, 0, 0, 0, 0, 0, 0, 0, 0, 0, 0, 0, 0, 0, 0, 0, 0,
       0, 0, 0, 0, 0, 0, 0, 0, 0, 0, 0, 0, 0, 0, 0, 0, 0, 0, 0, 0, 0, 0,
       0, 0, 0, 0, 0, 0, 0, 0, 0, 0, 0, 0, 0, 0, 0, 0, 0, 0, 0, 0, 0, 0,
       0, 0, 0, 0, 0, 0, 0, 0, 0, 0, 0, 0, 0, 0, 0, 0, 0, 0, 0, 0, 0, 0,
       0, 0, 0, 0, 0, 0, 0, 0, 0, 0, 0, 0, 0, 0, 0, 0, 0, 0, 0, 0, 0, 0,
       0, 0, 0, 0, 0, 0, 0, 0, 0, 0, 0, 0, 0, 0, 0, 0, 0, 0, 0, 0, 0, 0,
       0, 0, 0, 0, 0, 0, 0, 0, 0, 0, 0, 0, 0, 0, 0, 0, 0, 0, 0, 0, 0, 0,
       0, 0, 0, 0, 0, 0, 0, 0, 0, 0, 0, 0, 0, 0, 0, 0, 0, 0, 0, 0, 0, 0,
       0, 0, 0, 0, 0, 0, 0, 0, 0, 0, 0, 0, 0, 0, 0, 0, 0, 0, 0, 0, 0, 0,
       0, 0, 0, 0, 0, 0, 0, 0, 0, 0, 0, 0, 0, 0, 0, 0, 0, 0, 0, 0, 0, 0,
       0, 0, 0, 0, 0, 0, 0, 0, 0, 0, 0, 0, 0, 0, 0, 0, 0, 0, 0, 0, 0, 0,
       0, 0, 0, 0, 0, 0, 0, 0, 0, 0, 0, 0, 0, 0, 0, 0, 0, 0, 0, 0, 0, 0,
       0, 0, 0, 0, 0, 0, 0, 0, 0, 0, 0, 0, 0, 0, 0, 0, 0, 0, 0, 0, 0, 0,
       0, 0, 0, 0, 0, 0, 0, 0, 0, 0, 0, 0, 0, 0, 0, 0, 0, 0, 0, 0, 0, 0,
       0, 0, 0, 0, 0, 0, 0, 0, 0, 0, 0, 0, 0, 0, 0, 0, 0, 0, 0, 0, 0, 0,
       0, 0, 0, 0, 0, 0, 0, 0, 0, 0, 0, 0, 0, 0, 0, 0, 0, 0, 0, 0, 0, 0,
       0, 0, 0, 0, 0, 0, 0, 0, 0, 0, 0, 0, 0, 0, 0, 0, 0, 0, 0, 0, 0, 0,
       0, 0, 0, 0, 0, 0, 0, 0, 0, 0, 0, 0, 0, 0, 0, 0, 0, 0, 0, 0, 0, 0,
       0, 0, 0, 0, 0, 0, 0, 0, 0, 0, 0, 0, 0, 0, 0, 0, 0, 0, 0, 0, 0, 0,
       0, 0, 0, 0, 0, 0, 0, 0, 0, 0, 0, 0, 0, 0, 0, 0, 0, 0, 0, 0, 0, 0,
       0, 0, 0, 0, 0, 0, 0, 0, 0, 0, 0, 0, 0, 0, 0, 0, 0, 0, 0, 0, 0, 0,
       0, 0, 0, 0, 0, 0, 0, 0, 0, 0, 0, 0, 0, 0, 0, 0, 0, 0, 0, 0, 0, 0,
       0, 0, 0, 0, 0, 0, 0, 0, 0, 0, 0, 0, 0, 0, 0, 0, 0, 0, 0, 0, 0, 0,
       0, 0, 0, 0, 0, 0, 0, 0, 0, 0, 0, 0, 0, 0, 0, 0, 0, 0, 0, 0, 0, 0,
       0, 0, 0, 0, 0, 0, 0, 0, 0, 0, 0, 0, 0, 0, 0, 0, 0, 0, 0, 0, 0, 0,
       0, 0, 0, 0, 0, 0, 0, 0, 0, 0, 0, 0, 0, 0, 0, 0, 0, 0, 0, 0, 0, 0,
       0, 0, 0, 0, 0, 0, 0, 0, 0, 0, 0, 0, 0, 0, 0, 0, 0, 0, 0, 0, 0, 0,
       0, 0, 0, 0, 0, 0, 0, 0, 0, 0, 0, 0, 0, 0, 0, 0, 0, 0, 0, 0, 0, 0,
       0, 0, 0, 0, 0, 0, 0, 0, 0, 0, 0, 0, 0, 0, 0, 0, 0, 0, 0, 0, 0, 0,
       0, 0, 0, 0, 0, 0, 0, 0, 0, 0, 0, 0, 0, 0, 0, 0, 0, 0, 0, 0, 0, 0,
       0, 0, 0, 0, 0, 0, 0, 0, 0, 0, 0, 0, 0, 0, 0, 0, 0, 0, 0, 0, 0, 0,
       0, 0, 0, 0, 0, 0, 0, 0, 0, 0, 0, 0, 0, 0, 0, 0, 0, 0, 0, 0, 0, 0,
       0, 0, 0, 0, 0, 0, 0, 0, 0, 0, 0, 0, 0, 0, 0, 0, 0, 0, 0, 0, 0, 0,
       0, 0, 0, 0, 0, 0, 0, 0, 0, 0, 0, 0, 0, 0, 0, 0, 0, 0, 0, 0, 0, 0,
       0, 0, 0, 0, 0, 0, 0, 0, 0, 0, 0, 0, 0, 0, 0, 0, 0, 0, 0, 0, 0, 0,
       0, 0, 0, 0, 0, 0, 0, 0, 0, 0, 0, 0, 0, 0, 0, 0, 0, 0, 0, 0, 0, 0,
       0, 0, 0, 0, 0, 0, 0, 0, 0, 0, 0, 0, 0, 0, 0, 0, 0, 0, 0, 0, 0, 0,
       0, 0, 0, 0, 0, 0, 0, 0, 0, 0, 0, 0, 0, 0, 0, 0, 0, 0, 0, 0, 0, 0,
       0, 0, 0, 0, 0, 0, 0, 0, 0, 0, 0, 0, 0, 0, 0, 0, 0, 0, 0, 0, 0, 0,
       0, 0, 0, 0, 0, 0, 0, 0, 0, 0, 0, 0, 0, 0, 0, 0, 0, 0, 0, 0, 0, 0,
       0, 0, 0, 0, 0, 0, 0, 0, 0, 0, 0, 0, 0, 0, 0, 0, 0, 0, 0, 0, 0, 0,
       0, 0, 0, 0, 0, 0, 0, 0, 0, 0, 0, 0, 0, 0, 0, 0, 0, 0, 0, 0, 0, 0,
       0, 0, 0, 0, 0, 0, 0, 0, 0, 0, 0, 0, 0, 0, 0, 0, 0, 0, 0, 0, 0, 0,
       0, 0, 0, 0, 0, 0, 0, 0, 0, 0, 0, 0, 0, 0, 0, 0, 0, 0, 0, 0, 0, 0,
       0, 0, 0, 0, 0, 0, 0, 0, 0, 0, 0, 0, 0, 0, 0, 0, 0, 0, 0, 0, 0, 0,
       0, 0, 0, 0, 0, 0, 0, 0, 0, 0, 0, 0, 0, 0, 0, 0, 0, 0, 0, 0, 0, 0,
       0, 0, 0, 0, 0, 0, 0, 0, 0, 0, 0, 0, 0, 0, 0, 0, 0, 0, 0, 0, 0, 0,
       0, 0, 0, 0, 0, 0, 0, 0, 0, 0, 0, 0, 0, 0, 0, 0, 0, 0, 0, 0, 0, 0,
       0, 0, 0, 0, 0, 0, 0, 0, 0, 0, 0, 0, 0, 0, 0, 0, 0, 0, 0, 0, 0, 0,
       0, 0, 0, 0, 0, 0, 0, 0, 0, 0, 0, 0, 0, 0, 0, 0, 0, 0, 0, 0, 0, 0,
       0, 0, 0, 0, 0, 0, 0, 0, 0, 0, 0, 0, 0, 0, 0, 0, 0, 0, 0, 0, 0, 0,
       0, 0, 0, 0, 0, 0, 0, 0, 0, 0, 0, 0, 0, 0, 0, 0, 0, 0, 0, 0, 0, 0,
       0, 0, 0, 0, 0, 0, 0, 0, 0, 0, 0, 0, 0, 0, 0, 0, 0, 0, 0, 0, 0, 0,
       0, 0, 0, 0, 0, 0, 0, 0, 0, 0, 0, 0, 0, 0, 0, 0, 0, 0, 0, 0, 0, 0,
       0, 0, 0, 0, 0, 0, 0, 0, 0, 0, 0, 0, 0, 0, 0, 0, 0, 0, 0, 0, 0, 0,
       0, 0, 0, 0, 0, 0, 0, 0, 0, 0, 0, 0, 0, 0, 0, 0, 0, 0, 0, 0, 0, 0,
       0, 0, 0, 0, 0, 0, 0, 0, 0, 0, 0, 0, 0, 0, 0, 0, 0, 0, 0, 0, 0, 0,
       0, 0, 0, 0, 0, 0, 0, 0, 0, 0, 0, 0, 0, 0, 0, 0, 0, 0, 0, 0, 0, 0,
       0, 0, 0, 0, 0, 0, 0, 0, 0, 0, 0, 0, 0, 0, 0, 0, 0, 0, 0, 0, 0, 0,
       0, 0, 0, 0, 0, 0, 0, 0, 0, 0, 0, 0, 0, 0, 0, 0, 0, 0, 0, 0, 0, 0,
       0, 0, 0, 0, 0, 0, 0, 0, 0, 0, 0, 0, 0, 0, 0, 0, 0, 0, 0, 0, 0, 0,
       0, 0, 0, 0, 0, 0, 0, 0, 0, 0, 0, 0, 0, 0, 0, 0, 0, 0, 0, 0, 0, 0,
       0, 0, 0, 0, 0, 0, 0, 0, 0, 0, 0, 0, 0, 0, 0, 0, 0, 0, 0, 0, 0, 0,
       0, 0, 0, 0, 0, 0, 0, 0, 0, 0, 0, 0, 0, 0, 0, 0, 0, 0, 0, 0, 0, 0,
       0, 0, 0, 0, 0, 0, 0, 0, 0, 0, 0, 0, 0, 0, 0, 0, 0, 0, 0, 0, 0, 0,
       0, 0, 0, 0, 0, 0, 0, 0, 0, 0, 0, 0, 0, 0, 0, 0, 0, 0, 0, 0, 0, 0,
       0, 0, 0, 0, 0, 0, 0, 0, 0, 0, 0, 0, 0, 0, 0, 0, 0, 0, 0, 0, 0, 0,
       0, 0, 0, 0, 0, 0, 0, 0, 0, 0, 0, 0, 0, 0, 0, 0, 0, 0, 0, 0, 0, 0,
       0, 0, 0, 0, 0, 0, 0, 0, 0, 0, 0, 0, 0, 0, 0, 0, 0, 0, 0, 0, 0, 0,
       0, 0, 0, 0, 0, 0, 0, 0, 0, 0, 0, 0, 0, 0, 0, 0, 0, 0, 0, 0, 0, 0,
       0, 0, 0, 0, 0, 0, 0, 0, 0, 0, 0, 0, 0, 0, 0, 0, 0, 0, 0, 0, 0, 0,
       0, 0, 0, 0, 0, 0, 0, 0, 0, 0, 0, 0, 0, 0, 0, 0, 0, 0, 0, 0, 0, 0,
       0, 0, 0, 0, 0, 0, 0, 0, 0, 0, 0, 0, 0, 0, 0, 0, 0, 0, 0, 0, 0, 0,
       0, 0, 0, 0, 0, 0, 0, 0, 0, 0, 0, 0, 0, 0, 0, 0, 0, 0, 0, 0, 0, 0,
       0, 0, 0, 0, 0, 0, 0, 0, 0, 0, 0, 0, 0, 0, 0, 0, 0, 0, 0, 0, 0, 0,
       0, 0, 0, 0, 0, 0, 0, 0, 0, 0, 0, 0, 0, 0, 0, 0, 0, 0, 0, 0, 0, 0,
       0, 0, 0, 0, 0, 0, 0, 0, 0, 0, 0, 0, 0, 0, 0, 0, 0, 0, 0, 0, 0, 0,
       0, 0, 0, 0, 0, 0, 0, 0, 0, 0, 0, 0, 0, 0, 0, 0, 0, 0, 0, 0, 0, 0,
       0, 0, 0, 0, 0, 0, 0, 0, 0, 0, 0, 0, 0, 0, 0, 0, 0, 0, 0, 0, 0, 0,
       0, 0, 0, 0, 0, 0, 0, 0, 0, 0, 0, 0, 0, 0, 0, 0, 0, 0, 0, 0, 0, 0,
       0, 0, 0, 0, 0, 0, 0, 0, 0, 0, 0, 0, 0, 0, 0, 0, 0, 0, 0, 0, 0, 0,
       0, 0, 0, 0, 0, 0, 0, 0, 0, 0, 0, 0, 0, 0, 0, 0, 0, 0, 0, 0, 0, 0,
       0, 0, 0, 0, 0, 0, 0, 0, 0, 0, 0, 0, 0, 0, 0, 0, 0, 0, 0, 0, 0, 0,
       0, 0, 0, 0, 0, 0, 0, 0, 0, 0, 0, 0, 0, 0, 0, 0, 0, 0, 0, 0, 0, 0,
       0, 0, 0, 0, 0, 0, 0, 0, 0, 0, 0, 0, 0, 0, 0, 0, 0, 0, 0, 0, 0, 0,
       0, 0, 0, 0, 0, 0, 0, 0, 0, 0, 0, 0, 0, 0, 0, 0, 0, 0, 0, 0, 0, 0,
       0, 0, 0, 0, 0, 0, 0, 0, 0, 0, 0, 0, 0, 0, 0, 0, 0, 0, 0, 0, 0, 0,
       0, 0, 0, 0, 0, 0, 0, 0, 0, 0, 0, 0, 0, 0, 0, 0, 0, 0, 0, 0, 0, 0,
       0, 0, 0, 0, 0, 0, 0, 0, 0, 0, 0, 0, 0, 0, 0, 0, 0, 0, 0, 0, 0, 0,
       0, 0, 0, 0, 0, 0, 0, 0, 0, 0, 0, 0, 0, 0, 0, 0, 0, 0, 0, 0, 0, 0,
       0, 0, 0, 0, 0, 0, 0, 0, 0, 0, 0, 0, 0, 0, 0, 0, 0, 0, 0, 0, 0, 0,
       0, 0, 0, 0, 0, 0, 0, 0, 0, 0, 0, 0, 0, 0, 0, 0, 0, 0, 0, 0, 0, 0,
       0, 0, 0, 0, 0, 0, 0, 0, 0, 0, 0, 0, 0, 0, 0, 0, 0, 0, 0, 0, 0, 0,
       0, 0, 0, 0, 0, 0, 0, 0, 0, 0, 0, 0, 0, 0, 0, 0, 0, 0, 0, 0, 0, 0,
       0, 0, 0, 0, 0, 0, 0, 0, 0, 0, 0, 0, 0, 0, 0, 0, 0, 0, 0, 0, 0, 0,
       0, 0, 0, 0, 0, 0, 0, 0, 0, 0, 0, 0, 0, 0, 0, 0, 0, 0, 0, 0, 0, 0,
       0, 0, 0, 0, 0, 0, 0, 0, 0, 0, 0, 0, 0, 0, 0, 0, 0, 0, 0, 0, 0, 0,
       0, 0, 0, 0, 0, 0, 0, 0, 0, 0, 0, 0, 0, 0, 0, 0, 0, 0, 0, 0, 0, 0,
       0, 0, 0, 0, 0, 0, 0, 0, 0, 0, 0, 0, 0, 0, 0, 0, 0, 0, 0, 0, 0, 0,
       0, 0, 0, 0, 0, 0, 0, 0, 0, 0, 0, 0, 0, 0, 0, 0, 0, 0, 0, 0, 0, 0,
       0, 0, 0, 0, 0, 0, 0, 0, 0, 0, 0, 0, 0, 0, 0, 0, 0, 0, 0, 0, 0, 0,
       0, 0, 0, 0, 0, 0, 0, 0, 0, 0, 0, 0, 0, 0, 0, 0, 0, 0, 0, 0, 0, 0,
       0, 0, 0, 0, 0, 0, 0, 0, 0, 0, 0, 0, 0, 0, 0, 0, 0, 0, 0, 0, 0, 0,
       0, 0, 0, 0, 0, 0, 0, 0, 0, 0, 0, 0, 0, 0, 0, 0, 0, 0, 0, 0, 0, 0,
       0, 0, 0, 0, 0, 0, 0, 0, 0, 0, 0, 0, 0, 0, 0, 0, 0, 0, 0, 0, 0, 0,
       0, 0, 0, 0, 0, 0, 0, 0, 0, 0, 0, 0, 0, 0, 0, 0, 0, 0, 0, 0, 0, 0,
       0, 0, 0, 0, 0, 0, 0, 0, 0, 0, 0, 0, 0, 0, 0, 0, 0, 0, 0, 0, 0, 0,
       0, 0, 0, 0, 0, 0, 0, 0, 0, 0, 0, 0, 0, 0, 0, 0, 0, 0, 0, 0, 0, 0,
       0, 0, 0, 0, 0, 0, 0, 0, 0, 0, 0, 0, 0, 0, 0, 0, 0, 0, 0, 0, 0, 0,
       0, 0, 0, 0, 0, 0, 0, 0, 0, 0, 0, 0, 0, 0, 0, 0, 0, 0, 0, 0, 0, 0,
       0, 0, 0, 0, 0, 0, 0, 0, 0, 0, 0, 0, 0, 0, 0, 0, 0, 0, 0, 0, 0, 0,
       0, 0, 0, 0, 0, 0, 0, 0, 0, 0, 0, 0, 0, 0, 0, 0, 0, 0, 0, 0, 0, 0,
       0, 0, 0, 0, 0, 0, 0, 0, 0, 0, 0, 0, 0, 0, 0, 0, 0, 0, 0, 0, 0, 0,
       0, 0, 0, 0, 0, 0, 0, 0, 0, 0, 0, 0, 0, 0, 0, 0, 0, 0, 0, 0, 0, 0,
       0, 0, 0, 0, 0, 0, 0, 0, 0, 0, 0, 0, 0, 0, 0, 0, 0, 0, 0, 0, 0, 0,
       0, 0, 0, 0, 0, 0, 0, 0, 0, 0, 0, 0, 0, 0, 0, 0, 0, 0, 0, 0, 0, 0,
       0, 0, 0, 0, 0, 0, 0, 0, 0, 0, 0, 0, 0, 0, 0, 0, 0, 0, 0, 0, 0, 0,
       0, 0, 0, 0, 0, 0, 0, 0, 0, 0, 0, 0, 0, 0, 0, 0, 0, 0, 0, 0, 0, 0,
       0, 0, 0, 0, 0, 0, 0, 0, 0, 0, 0, 0, 0, 0, 0, 0, 0, 0, 0, 0, 0, 0,
       0, 0, 0, 0, 0, 0, 0, 0, 0, 0, 0, 0, 0, 0, 0, 0, 0, 0, 0, 0, 0, 0,
       0, 0, 0, 0, 0, 0, 0, 0, 0, 0, 0, 0, 0, 0, 0, 0, 0, 0, 0, 0, 0, 0,
       0, 0, 0, 0, 0, 0, 0, 0, 0, 0, 0, 0, 0, 0, 0, 0, 0, 0, 0, 0, 0, 0,
       0, 0, 0, 0, 0, 0, 0, 0, 0, 0, 0, 0, 0, 0, 0, 0, 0, 0, 0, 0, 0, 0,
       0, 0, 0, 0, 0, 0, 0, 0, 0, 0, 0, 0, 0, 0, 0, 0, 0, 0, 0, 0, 0, 0,
       0, 0, 0, 0, 0, 0, 0, 0, 0, 0, 0 ]
   cat_count: !!opencv-matrix
      rows: 1
      cols: 1
      dt: i
      data: [ 2 ]
   cat_map: !!opencv-matrix
      rows: 1
      cols: 2
      dt: i
      data: [ 0, 1 ]
   best_tree_idx: 24
   nodes:
      -
         depth: 0
         sample_count: 14000
         value: 0.
         norm_class_idx: 0
         Tn: 61
         complexity: 2
         alpha: 1511.
         node_risk: 7000.
         tree_risk: 4773.
         tree_error: 543.
         splits:
            - { var:2568, quality:7.4720639648437500e+03,
                le:2.3500000000000000e+01 }
      -
         depth: 1
         sample_count: 9636
         value: 0.
         norm_class_idx: 0
         Tn: 60
         complexity: 1
         alpha: 584.
         node_risk: 3976.
         tree_risk: 3558.
         tree_error: 418.
         splits:
            - { var:1552, quality:5.2904023437500000e+03,
                le:2.5500000000000000e+01 }
      -
         depth: 2
         sample_count: 7064
         value: 0.
         norm_class_idx: 0
         Tn: 59
         complexity: 1
         alpha: 323.
         node_risk: 2361.
         tree_risk: 2110.
         tree_error: 251.
         splits:
            - { var:624, quality:4.2055473632812500e+03,
                le:7.4500000000000000e+01 }
      -
         depth: 3
         sample_count: 5888
         value: 0.
         norm_class_idx: 0
         Tn: 55
         complexity: 1
         alpha: 54.
         node_risk: 1594.
         tree_risk: 1427.
         tree_error: 167.
         splits:
            - { var:2584, quality:3.6877163085937500e+03,
                le:1.5500000000000000e+01 }
      -
         depth: 4
         sample_count: 4705
         value: 0.
         norm_class_idx: 0
         Tn: 50
         complexity: 1
         alpha: 2.8500000000000000e+01
         node_risk: 1031.
         tree_risk: 925.
         tree_error: 106.
         splits:
            - { var:3632, quality:3.1646289062500000e+03,
                le:3.7500000000000000e+01 }
      -
         depth: 5
         sample_count: 3772
         value: 0.
         norm_class_idx: 0
         Tn: 41
         complexity: 1
         alpha: 1.6199999999999999e+01
         node_risk: 665.
         tree_risk: 602.
         tree_error: 63.
         splits:
            - { var:1744, quality:2.7192160644531250e+03,
                le:1.0150000000000000e+02 }
      -
         depth: 6
         sample_count: 3471
         value: 0.
         norm_class_idx: 0
         Tn: 2147483647
         complexity: 3
         alpha: 2.1500000000000000e+01
         node_risk: 535.
         tree_risk: 450.
         tree_error: 37.
         splits:
            - { var:2625, quality:2.6073393554687500e+03,
                le:1.3650000000000000e+02 }
      -
         depth: 7
         sample_count: 3369
         value: 0.
         norm_class_idx: 0
         Tn: 35
         complexity: 1
         alpha: 1.4500000000000000e+01
         node_risk: 474.
         tree_risk: 438.
         tree_error: 36.
         splits:
            - { var:496, quality:2.5867143554687500e+03,
                le:1.3150000000000000e+02 }
      -
         depth: 8
         sample_count: 3265
         value: 0.
         norm_class_idx: 0
         Tn: 2147483647
         complexity: 1
         alpha: 14.
         node_risk: 419.
         tree_risk: 385.
         tree_error: 34.
         splits:
            - { var:6605, quality:2.5595202636718750e+03,
                le:1.4250000000000000e+02 }
      -
         depth: 9
         sample_count: 3233
         value: 0.
         norm_class_idx: 0
         Tn: 23
         complexity: 1
         alpha: 9.
         node_risk: 395.
         tree_risk: 364.
         tree_error: 31.
      -
         depth: 9
         sample_count: 32
         value: 1.
         norm_class_idx: 1
         Tn: 19
         complexity: 1
         alpha: 7.
         node_risk: 8.
         tree_risk: 7.
         tree_error: 1.
      -
         depth: 8
         sample_count: 104
         value: 1.
         norm_class_idx: 1
         Tn: 2147483647
         complexity: 2
         alpha: 21.
         node_risk: 49.
         tree_risk: 24.
         tree_error: 0.
         splits:
            - { var:536, quality:6.7088508605957031e+01, le:46. }
      -
         depth: 9
         sample_count: 45
         value: 0.
         norm_class_idx: 0
         Tn: 17
         complexity: 1
         alpha: 6.
         node_risk: 10.
         tree_risk: 10.
         tree_error: 0.
      -
         depth: 9
         sample_count: 59
         value: 1.
         norm_class_idx: 1
         Tn: 19
         complexity: 1
         alpha: 7.
         node_risk: 14.
         tree_risk: 14.
         tree_error: 0.
      -
         depth: 7
         sample_count: 102
         value: 1.
         norm_class_idx: 1
         Tn: 2147483647
         complexity: 2
         alpha: 29.
         node_risk: 41.
         tree_risk: 12.
         tree_error: 1.
         splits:
            - { var:1716, quality:8.0500000000000000e+01, le:24. }
      -
         depth: 8
         sample_count: 48
         value: 0.
         norm_class_idx: 0
         Tn: 17
         complexity: 1
         alpha: 5.
         node_risk: 10.
         tree_risk: 9.
         tree_error: 1.
      -
         depth: 8
         sample_count: 54
         value: 1.
         norm_class_idx: 1
         Tn: 4
         complexity: 1
         alpha: 2.
         node_risk: 3.
         tree_risk: 3.
         tree_error: 0.
      -
         depth: 6
         sample_count: 301
         value: 0.
         norm_class_idx: 0
         Tn: 2147483647
         complexity: 3
         alpha: 19.
         node_risk: 130.
         tree_risk: 71.
         tree_error: 15.
         splits:
            - { var:1808, quality:1.7207125854492188e+02,
                le:2.6500000000000000e+01 }
      -
         depth: 7
         sample_count: 128
         value: 0.
         norm_class_idx: 0
         Tn: 28
         complexity: 1
         alpha: 10.
         node_risk: 29.
         tree_risk: 25.
         tree_error: 4.
         splits:
            - { var:3857, quality:9.8989707946777344e+01, le:75. }
      -
         depth: 8
         sample_count: 106
         value: 0.
         norm_class_idx: 0
         Tn: 10
         complexity: 1
         alpha: 4.
         node_risk: 12.
         tree_risk: 11.
         tree_error: 1.
      -
         depth: 8
         sample_count: 22
         value: 1.
         norm_class_idx: 1
         Tn: 13
         complexity: 1
         alpha: 4.
         node_risk: 5.
         tree_risk: 4.
         tree_error: 1.
      -
         depth: 7
         sample_count: 173
         value: 1.
         norm_class_idx: 1
         Tn: 38
         complexity: 2
         alpha: 18.
         node_risk: 72.
         tree_risk: 46.
         tree_error: 11.
         splits:
            - { var:4218, quality:1.0416791534423828e+02,
                le:2.2500000000000000e+01 }
      -
         depth: 8
         sample_count: 115
         value: 0.
         norm_class_idx: 0
         Tn: 2147483647
         complexity: 1
         alpha: 15.
         node_risk: 50.
         tree_risk: 39.
         tree_error: 11.
         splits:
            - { var:2621, quality:7.2564102172851562e+01,
                le:9.7500000000000000e+01 }
      -
         depth: 9
         sample_count: 91
         value: 0.
         norm_class_idx: 0
         Tn: 25
         complexity: 1
         alpha: 8.
         node_risk: 28.
         tree_risk: 22.
         tree_error: 6.
         splits:
            - { var:7939, quality:6.2125000000000000e+01, le:83. }
      -
         depth: 10
         sample_count: 75
         value: 0.
         norm_class_idx: 0
         Tn: 13
         complexity: 1
         alpha: 3.5000000000000000e+00
         node_risk: 15.
         tree_risk: 12.
         tree_error: 3.
      -
         depth: 10
         sample_count: 16
         value: 1.
         norm_class_idx: 1
         Tn: 5
         complexity: 1
         alpha: 2.
         node_risk: 3.
         tree_risk: 2.
         tree_error: 1.
      -
         depth: 9
         sample_count: 24
         value: 1.
         norm_class_idx: 1
         Tn: 4
         complexity: 1
         alpha: 2.
         node_risk: 2.
         tree_risk: 2.
         tree_error: 0.
      -
         depth: 8
         sample_count: 58
         value: 1.
         norm_class_idx: 1
         Tn: 5
         complexity: 1
         alpha: 3.
         node_risk: 7.
         tree_risk: 7.
         tree_error: 0.
      -
         depth: 5
         sample_count: 933
         value: 0.
         norm_class_idx: 0
         Tn: 2147483647
         complexity: 2
         alpha: 57.
         node_risk: 366.
         tree_risk: 266.
         tree_error: 29.
         splits:
            - { var:2612, quality:5.2968096923828125e+02,
                le:1.1250000000000000e+02 }
      -
         depth: 6
         sample_count: 722
         value: 0.
         norm_class_idx: 0
         Tn: 49
         complexity: 1
         alpha: 28.
         node_risk: 225.
         tree_risk: 200.
         tree_error: 25.
         splits:
            - { var:6501, quality:4.3901489257812500e+02,
                le:1.2250000000000000e+02 }
      -
         depth: 7
         sample_count: 673
         value: 0.
         norm_class_idx: 0
         Tn: 40
         complexity: 1
         alpha: 16.
         node_risk: 185.
         tree_risk: 164.
         tree_error: 21.
         splits:
            - { var:4692, quality:4.2315512084960938e+02,
                le:1.2950000000000000e+02 }
      -
         depth: 8
         sample_count: 626
         value: 0.
         norm_class_idx: 0
         Tn: 33
         complexity: 1
         alpha: 1.3333333333333334e+01
         node_risk: 152.
         tree_risk: 135.
         tree_error: 17.
         splits:
            - { var:3519, quality:4.1370925903320312e+02,
                le:1.2950000000000000e+02 }
      -
         depth: 9
         sample_count: 577
         value: 0.
         norm_class_idx: 0
         Tn: 32
         complexity: 3
         alpha: 14.
         node_risk: 120.
         tree_risk: 80.
         tree_error: 11.
         splits:
            - { var:3496, quality:4.0042617797851562e+02,
                le:4.4500000000000000e+01 }
      -
         depth: 10
         sample_count: 451
         value: 0.
         norm_class_idx: 0
         Tn: 25
         complexity: 1
         alpha: 8.
         node_risk: 68.
         tree_risk: 60.
         tree_error: 8.
         splits:
            - { var:4525, quality:3.5025622558593750e+02,
                le:1.3950000000000000e+02 }
      -
         depth: 11
         sample_count: 441
         value: 0.
         norm_class_idx: 0
         Tn: 19
         complexity: 1
         alpha: 5.5000000000000000e+00
         node_risk: 58.
         tree_risk: 52.
         tree_error: 6.
      -
         depth: 11
         sample_count: 10
         value: 1.
         norm_class_idx: 1
         Tn: 2147483647
         complexity: 1
         alpha: 0.
         node_risk: 0.
         tree_risk: 0.
         tree_error: 0.
      -
         depth: 10
         sample_count: 126
         value: 0.
         norm_class_idx: 0
         Tn: 2147483647
         complexity: 2
         alpha: 28.
         node_risk: 52.
         tree_risk: 20.
         tree_error: 3.
         splits:
            - { var:5090, quality:8.8977226257324219e+01, le:8. }
      -
         depth: 11
         sample_count: 89
         value: 0.
         norm_class_idx: 0
         Tn: 17
         complexity: 1
         alpha: 5.5000000000000000e+00
         node_risk: 19.
         tree_risk: 17.
         tree_error: 2.
      -
         depth: 11
         sample_count: 37
         value: 1.
         norm_class_idx: 1
         Tn: 5
         complexity: 1
         alpha: 2.
         node_risk: 4.
         tree_risk: 3.
         tree_error: 1.
      -
         depth: 9
         sample_count: 49
         value: 1.
         norm_class_idx: 1
         Tn: 25
         complexity: 1
         alpha: 9.
         node_risk: 17.
         tree_risk: 15.
         tree_error: 2.
         splits:
            - { var:5311, quality:3.7112613677978516e+01, le:10. }
      -
         depth: 10
         sample_count: 37
         value: 1.
         norm_class_idx: 1
         Tn: 10
         complexity: 1
         alpha: 3.
         node_risk: 6.
         tree_risk: 5.
         tree_error: 1.
      -
         depth: 10
         sample_count: 12
         value: 0.
         norm_class_idx: 0
         Tn: 2
         complexity: 1
         alpha: 1.
         node_risk: 1.
         tree_risk: 1.
         tree_error: 0.
      -
         depth: 8
         sample_count: 47
         value: 1.
         norm_class_idx: 1
         Tn: 19
         complexity: 1
         alpha: 6.
         node_risk: 14.
         tree_risk: 13.
         tree_error: 1.
      -
         depth: 7
         sample_count: 49
         value: 1.
         norm_class_idx: 1
         Tn: 10
         complexity: 1
         alpha: 4.
         node_risk: 9.
         tree_risk: 8.
         tree_error: 1.
      -
         depth: 6
         sample_count: 211
         value: 1.
         norm_class_idx: 1
         Tn: 37
         complexity: 1
         alpha: 1.6500000000000000e+01
         node_risk: 70.
         tree_risk: 66.
         tree_error: 4.
         splits:
            - { var:6796, quality:1.3724411010742188e+02, le:8. }
      -
         depth: 7
         sample_count: 109
         value: 0.
         norm_class_idx: 0
         Tn: 2147483647
         complexity: 2
         alpha: 19.
         node_risk: 50.
         tree_risk: 24.
         tree_error: 2.
         splits:
            - { var:2869, quality:6.9958900451660156e+01,
                le:2.0500000000000000e+01 }
      -
         depth: 8
         sample_count: 73
         value: 0.
         norm_class_idx: 0
         Tn: 21
         complexity: 1
         alpha: 8.
         node_risk: 20.
         tree_risk: 18.
         tree_error: 2.
      -
         depth: 8
         sample_count: 36
         value: 1.
         norm_class_idx: 1
         Tn: 13
         complexity: 1
         alpha: 5.
         node_risk: 6.
         tree_risk: 6.
         tree_error: 0.
      -
         depth: 7
         sample_count: 102
         value: 1.
         norm_class_idx: 1
         Tn: 13
         complexity: 1
         alpha: 5.
         node_risk: 11.
         tree_risk: 9.
         tree_error: 2.
      -
         depth: 4
         sample_count: 1183
         value: 0.
         norm_class_idx: 0
         Tn: 2147483647
         complexity: 2
         alpha: 108.
         node_risk: 563.
         tree_risk: 394.
         tree_error: 48.
         splits:
            - { var:3649, quality:6.4694403076171875e+02,
                le:1.2650000000000000e+02 }
      -
         depth: 5
         sample_count: 998
         value: 0.
         norm_class_idx: 0
         Tn: 54
         complexity: 1
         alpha: 49.
         node_risk: 410.
         tree_risk: 366.
         tree_error: 44.
         splits:
            - { var:4610, quality:5.5505810546875000e+02,
                le:5.0000000000000000e-01 }
      -
         depth: 6
         sample_count: 590
         value: 1.
         norm_class_idx: 1
         Tn: 2147483647
         complexity: 2
         alpha: 68.
         node_risk: 278.
         tree_risk: 182.
         tree_error: 15.
         splits:
            - { var:4954, quality:3.2895748901367188e+02,
                le:3.5000000000000000e+00 }
      -
         depth: 7
         sample_count: 305
         value: 0.
         norm_class_idx: 0
         Tn: 42
         complexity: 1
         alpha: 20.
         node_risk: 112.
         tree_risk: 105.
         tree_error: 7.
         splits:
            - { var:3490, quality:1.8049647521972656e+02,
                le:1.4500000000000000e+01 }
      -
         depth: 8
         sample_count: 228
         value: 0.
         norm_class_idx: 0
         Tn: 2147483647
         complexity: 2
         alpha: 40.
         node_risk: 106.
         tree_risk: 59.
         tree_error: 8.
         splits:
            - { var:1098, quality:1.3338600158691406e+02,
                le:2.5000000000000000e+00 }
      -
         depth: 9
         sample_count: 131
         value: 0.
         norm_class_idx: 0
         Tn: 25
         complexity: 1
         alpha: 11.
         node_risk: 38.
         tree_risk: 35.
         tree_error: 3.
         splits:
            - { var:3985, quality:8.9125732421875000e+01, le:12. }
      -
         depth: 10
         sample_count: 95
         value: 0.
         norm_class_idx: 0
         Tn: 13
         complexity: 1
         alpha: 4.
         node_risk: 15.
         tree_risk: 12.
         tree_error: 3.
      -
         depth: 10
         sample_count: 36
         value: 1.
         norm_class_idx: 1
         Tn: 19
         complexity: 1
         alpha: 6.
         node_risk: 13.
         tree_risk: 12.
         tree_error: 1.
      -
         depth: 9
         sample_count: 97
         value: 1.
         norm_class_idx: 1
         Tn: 21
         complexity: 1
         alpha: 6.5000000000000000e+00
         node_risk: 29.
         tree_risk: 24.
         tree_error: 5.
      -
         depth: 8
         sample_count: 77
         value: 0.
         norm_class_idx: 0
         Tn: 5
         complexity: 1
         alpha: 3.
         node_risk: 6.
         tree_risk: 6.
         tree_error: 0.
      -
         depth: 7
         sample_count: 285
         value: 1.
         norm_class_idx: 1
         Tn: 32
         complexity: 1
         alpha: 15.
         node_risk: 85.
         tree_risk: 77.
         tree_error: 8.
         splits:
            - { var:5673, quality:1.8370007324218750e+02,
                le:5.0000000000000000e-01 }
      -
         depth: 8
         sample_count: 204
         value: 1.
         norm_class_idx: 1
         Tn: 21
         complexity: 1
         alpha: 6.6666666666666670e+00
         node_risk: 38.
         tree_risk: 35.
         tree_error: 3.
      -
         depth: 8
         sample_count: 81
         value: 0.
         norm_class_idx: 0
         Tn: 2147483647
         complexity: 1
         alpha: 12.
         node_risk: 34.
         tree_risk: 27.
         tree_error: 7.
         splits:
            - { var:7840, quality:5.3210525512695312e+01,
                le:6.5000000000000000e+00 }
      -
         depth: 9
         sample_count: 57
         value: 0.
         norm_class_idx: 0
         Tn: 21
         complexity: 1
         alpha: 5.
         node_risk: 14.
         tree_risk: 11.
         tree_error: 3.
      -
         depth: 9
         sample_count: 24
         value: 1.
         norm_class_idx: 1
         Tn: 10
         complexity: 1
         alpha: 4.
         node_risk: 4.
         tree_risk: 4.
         tree_error: 0.
      -
         depth: 6
         sample_count: 408
         value: 0.
         norm_class_idx: 0
         Tn: 46
         complexity: 1
         alpha: 23.
         node_risk: 98.
         tree_risk: 86.
         tree_error: 12.
         splits:
            - { var:3447, quality:2.8687390136718750e+02,
                le:1.3150000000000000e+02 }
      -
         depth: 7
         sample_count: 368
         value: 0.
         norm_class_idx: 0
         Tn: 22
         complexity: 1
         alpha: 8.
         node_risk: 66.
         tree_risk: 55.
         tree_error: 11.
      -
         depth: 7
         sample_count: 40
         value: 1.
         norm_class_idx: 1
         Tn: 19
         complexity: 1
         alpha: 7.
         node_risk: 8.
         tree_risk: 8.
         tree_error: 0.
      -
         depth: 5
         sample_count: 185
         value: 1.
         norm_class_idx: 1
         Tn: 29
         complexity: 1
         alpha: 10.
         node_risk: 32.
         tree_risk: 28.
         tree_error: 4.
         splits:
            - { var:2798, quality:1.5126771545410156e+02,
                le:9.5000000000000000e+00 }
      -
         depth: 6
         sample_count: 164
         value: 1.
         norm_class_idx: 1
         Tn: 19
         complexity: 1
         alpha: 6.
         node_risk: 15.
         tree_risk: 14.
         tree_error: 1.
      -
         depth: 6
         sample_count: 21
         value: 0.
         norm_class_idx: 0
         Tn: 10
         complexity: 1
         alpha: 4.
         node_risk: 4.
         tree_risk: 4.
         tree_error: 0.
      -
         depth: 3
         sample_count: 1176
         value: 1.
         norm_class_idx: 1
         Tn: 57
         complexity: 1
         alpha: 73.
         node_risk: 409.
         tree_risk: 360.
         tree_error: 49.
         splits:
            - { var:656, quality:7.1109881591796875e+02,
                le:1.7500000000000000e+01 }
      -
         depth: 4
         sample_count: 267
         value: 0.
         norm_class_idx: 0
         Tn: 39
         complexity: 1
         alpha: 18.
         node_risk: 90.
         tree_risk: 78.
         tree_error: 12.
         splits:
            - { var:5585, quality:1.6260421752929688e+02,
                le:1.2350000000000000e+02 }
      -
         depth: 5
         sample_count: 241
         value: 0.
         norm_class_idx: 0
         Tn: 33
         complexity: 1
         alpha: 12.
         node_risk: 68.
         tree_risk: 56.
         tree_error: 12.
         splits:
            - { var:1391, quality:1.5885348510742188e+02, le:122. }
      -
         depth: 6
         sample_count: 222
         value: 0.
         norm_class_idx: 0
         Tn: 22
         complexity: 1
         alpha: 9.
         node_risk: 51.
         tree_risk: 42.
         tree_error: 9.
      -
         depth: 6
         sample_count: 19
         value: 1.
         norm_class_idx: 1
         Tn: 4
         complexity: 1
         alpha: 2.
         node_risk: 2.
         tree_risk: 2.
         tree_error: 0.
      -
         depth: 5
         sample_count: 26
         value: 1.
         norm_class_idx: 1
         Tn: 10
         complexity: 1
         alpha: 4.
         node_risk: 4.
         tree_risk: 4.
         tree_error: 0.
      -
         depth: 4
         sample_count: 909
         value: 1.
         norm_class_idx: 1
         Tn: 51
         complexity: 1
         alpha: 38.
         node_risk: 232.
         tree_risk: 209.
         tree_error: 23.
         splits:
            - { var:577, quality:6.0502062988281250e+02, le:92. }
      -
         depth: 5
         sample_count: 846
         value: 1.
         norm_class_idx: 1
         Tn: 30
         complexity: 1
         alpha: 12.
         node_risk: 181.
         tree_risk: 160.
         tree_error: 21.
         splits:
            - { var:479, quality:5.8943316650390625e+02,
                le:2.4500000000000000e+01 }
      -
         depth: 6
         sample_count: 387
         value: 1.
         norm_class_idx: 1
         Tn: 2147483647
         complexity: 3
         alpha: 18.
         node_risk: 137.
         tree_risk: 84.
         tree_error: 13.
         splits:
            - { var:4610, quality:2.3102789306640625e+02,
                le:5.0000000000000000e-01 }
      -
         depth: 7
         sample_count: 240
         value: 1.
         norm_class_idx: 1
         Tn: 26
         complexity: 1
         alpha: 11.
         node_risk: 54.
         tree_risk: 47.
         tree_error: 7.
         splits:
            - { var:3610, quality:1.6956816101074219e+02,
                le:7.5000000000000000e+00 }
      -
         depth: 8
         sample_count: 219
         value: 1.
         norm_class_idx: 1
         Tn: 21
         complexity: 1
         alpha: 7.
         node_risk: 38.
         tree_risk: 32.
         tree_error: 6.
      -
         depth: 8
         sample_count: 21
         value: 0.
         norm_class_idx: 0
         Tn: 13
         complexity: 1
         alpha: 4.
         node_risk: 5.
         tree_risk: 4.
         tree_error: 1.
      -
         depth: 7
         sample_count: 147
         value: 0.
         norm_class_idx: 0
         Tn: 2147483647
         complexity: 2
         alpha: 19.
         node_risk: 64.
         tree_risk: 37.
         tree_error: 6.
         splits:
            - { var:2800, quality:8.9538566589355469e+01,
                le:7.8500000000000000e+01 }
      -
         depth: 8
         sample_count: 124
         value: 0.
         norm_class_idx: 0
         Tn: 24
         complexity: 1
         alpha: 7.3333333333333330e+00
         node_risk: 42.
         tree_risk: 36.
         tree_error: 6.
      -
         depth: 8
         sample_count: 23
         value: 1.
         norm_class_idx: 1
         Tn: 2
         complexity: 1
         alpha: 1.
         node_risk: 1.
         tree_risk: 1.
         tree_error: 0.
      -
         depth: 6
         sample_count: 459
         value: 1.
         norm_class_idx: 1
         Tn: 22
         complexity: 1
         alpha: 7.
         node_risk: 44.
         tree_risk: 40.
         tree_error: 4.
      -
         depth: 5
         sample_count: 63
         value: 0.
         norm_class_idx: 0
         Tn: 13
         complexity: 1
         alpha: 5.
         node_risk: 12.
         tree_risk: 11.
         tree_error: 1.
      -
         depth: 2
         sample_count: 2572
         value: 1.
         norm_class_idx: 1
         Tn: 58
         complexity: 1
         alpha: 142.
         node_risk: 957.
         tree_risk: 864.
         tree_error: 93.
         splits:
            - { var:1606, quality:1.4788218994140625e+03,
                le:5.5000000000000000e+00 }
      -
         depth: 3
         sample_count: 1938
         value: 1.
         norm_class_idx: 1
         Tn: 53
         complexity: 1
         alpha: 48.
         node_risk: 560.
         tree_risk: 504.
         tree_error: 56.
         splits:
            - { var:1471, quality:1.2031052246093750e+03,
                le:3.7500000000000000e+01 }
      -
         depth: 4
         sample_count: 1068
         value: 1.
         norm_class_idx: 1
         Tn: 2147483647
         complexity: 2
         alpha: 96.
         node_risk: 430.
         tree_risk: 294.
         tree_error: 37.
         splits:
            - { var:3602, quality:6.1117285156250000e+02,
                le:4.5000000000000000e+00 }
      -
         depth: 5
         sample_count: 805
         value: 1.
         norm_class_idx: 1
         Tn: 47
         complexity: 1
         alpha: 24.
         node_risk: 249.
         tree_risk: 222.
         tree_error: 27.
         splits:
            - { var:5634, quality:4.8697042846679688e+02,
                le:2.7500000000000000e+01 }
      -
         depth: 6
         sample_count: 693
         value: 1.
         norm_class_idx: 1
         Tn: 34
         complexity: 1
         alpha: 1.3333333333333334e+01
         node_risk: 179.
         tree_risk: 159.
         tree_error: 20.
         splits:
            - { var:2176, quality:4.4858474731445312e+02,
                le:2.9500000000000000e+01 }
      -
         depth: 7
         sample_count: 603
         value: 1.
         norm_class_idx: 1
         Tn: 33
         complexity: 2
         alpha: 15.
         node_risk: 127.
         tree_risk: 99.
         tree_error: 13.
         splits:
            - { var:1594, quality:4.2085940551757812e+02,
                le:9.6500000000000000e+01 }
      -
         depth: 8
         sample_count: 584
         value: 1.
         norm_class_idx: 1
         Tn: 26
         complexity: 1
         alpha: 9.
         node_risk: 110.
         tree_risk: 98.
         tree_error: 12.
         splits:
            - { var:2052, quality:4.1979309082031250e+02, le:135. }
      -
         depth: 9
         sample_count: 571
         value: 1.
         norm_class_idx: 1
         Tn: 25
         complexity: 2
         alpha: 9.
         node_risk: 98.
         tree_risk: 79.
         tree_error: 9.
         splits:
            - { var:5404, quality:4.2250543212890625e+02,
                le:1.2150000000000000e+02 }
      -
         depth: 10
         sample_count: 551
         value: 1.
         norm_class_idx: 1
         Tn: 21
         complexity: 1
         alpha: 8.
         node_risk: 83.
         tree_risk: 74.
         tree_error: 9.
      -
         depth: 10
         sample_count: 20
         value: 0.
         norm_class_idx: 0
         Tn: 10
         complexity: 1
         alpha: 4.
         node_risk: 5.
         tree_risk: 5.
         tree_error: 0.
      -
         depth: 9
         sample_count: 13
         value: 0.
         norm_class_idx: 0
         Tn: 2
         complexity: 1
         alpha: 1.
         node_risk: 1.
         tree_risk: 1.
         tree_error: 0.
      -
         depth: 8
         sample_count: 19
         value: 0.
         norm_class_idx: 0
         Tn: 4
         complexity: 1
         alpha: 1.
         node_risk: 2.
         tree_risk: 1.
         tree_error: 1.
      -
         depth: 7
         sample_count: 90
         value: 0.
         norm_class_idx: 0
         Tn: 2147483647
         complexity: 2
         alpha: 15.
         node_risk: 38.
         tree_risk: 20.
         tree_error: 1.
         splits:
            - { var:623, quality:5.8172306060791016e+01,
                le:5.0000000000000000e-01 }
      -
         depth: 8
         sample_count: 65
         value: 0.
         norm_class_idx: 0
         Tn: 22
         complexity: 1
         alpha: 9.
         node_risk: 17.
         tree_risk: 16.
         tree_error: 1.
      -
         depth: 8
         sample_count: 25
         value: 1.
         norm_class_idx: 1
         Tn: 5
         complexity: 1
         alpha: 3.
         node_risk: 4.
         tree_risk: 4.
         tree_error: 0.
      -
         depth: 6
         sample_count: 112
         value: 0.
         norm_class_idx: 0
         Tn: 31
         complexity: 1
         alpha: 13.
         node_risk: 42.
         tree_risk: 39.
         tree_error: 3.
         splits:
            - { var:600, quality:7.0087501525878906e+01, le:32. }
      -
         depth: 7
         sample_count: 80
         value: 0.
         norm_class_idx: 0
         Tn: 19
         complexity: 1
         alpha: 7.
         node_risk: 19.
         tree_risk: 19.
         tree_error: 0.
      -
         depth: 7
         sample_count: 32
         value: 1.
         norm_class_idx: 1
         Tn: 13
         complexity: 1
         alpha: 4.
         node_risk: 9.
         tree_risk: 7.
         tree_error: 2.
      -
         depth: 5
         sample_count: 263
         value: 0.
         norm_class_idx: 0
         Tn: 43
         complexity: 1
         alpha: 18.
         node_risk: 82.
         tree_risk: 72.
         tree_error: 10.
         splits:
            - { var:1712, quality:1.6948616027832031e+02,
                le:1.3150000000000000e+02 }
      -
         depth: 6
         sample_count: 230
         value: 0.
         norm_class_idx: 0
         Tn: 28
         complexity: 1
         alpha: 9.
         node_risk: 55.
         tree_risk: 48.
         tree_error: 7.
         splits:
            - { var:1623, quality:1.6047619628906250e+02,
                le:1.3250000000000000e+02 }
      -
         depth: 7
         sample_count: 216
         value: 0.
         norm_class_idx: 0
         Tn: 20
         complexity: 1
         alpha: 7.
         node_risk: 42.
         tree_risk: 38.
         tree_error: 4.
      -
         depth: 7
         sample_count: 14
         value: 1.
         norm_class_idx: 1
         Tn: 2
         complexity: 1
         alpha: 1.
         node_risk: 1.
         tree_risk: 1.
         tree_error: 0.
      -
         depth: 6
         sample_count: 33
         value: 1.
         norm_class_idx: 1
         Tn: 10
         complexity: 1
         alpha: 4.
         node_risk: 6.
         tree_risk: 6.
         tree_error: 0.
      -
         depth: 4
         sample_count: 870
         value: 1.
         norm_class_idx: 1
         Tn: 27
         complexity: 1
         alpha: 1.0500000000000000e+01
         node_risk: 130.
         tree_risk: 114.
         tree_error: 16.
         splits:
            - { var:1594, quality:6.7072662353515625e+02,
                le:6.1500000000000000e+01 }
      -
         depth: 5
         sample_count: 812
         value: 1.
         norm_class_idx: 1
         Tn: 26
         complexity: 1
         alpha: 10.
         node_risk: 97.
         tree_risk: 85.
         tree_error: 12.
         splits:
            - { var:1542, quality:6.5823974609375000e+02, le:72. }
      -
         depth: 6
         sample_count: 797
         value: 1.
         norm_class_idx: 1
         Tn: 21
         complexity: 1
         alpha: 6.
         node_risk: 84.
         tree_risk: 73.
         tree_error: 11.
      -
         depth: 6
         sample_count: 15
         value: 0.
         norm_class_idx: 0
         Tn: 4
         complexity: 1
         alpha: 2.
         node_risk: 2.
         tree_risk: 2.
         tree_error: 0.
      -
         depth: 5
         sample_count: 58
         value: 0.
         norm_class_idx: 0
         Tn: 2147483647
         complexity: 2
         alpha: 12.
         node_risk: 25.
         tree_risk: 8.
         tree_error: 2.
         splits:
            - { var:5907, quality:4.2068866729736328e+01, le:12. }
      -
         depth: 6
         sample_count: 41
         value: 0.
         norm_class_idx: 0
         Tn: 13
         complexity: 1
         alpha: 3.
         node_risk: 9.
         tree_risk: 7.
         tree_error: 2.
      -
         depth: 6
         sample_count: 17
         value: 1.
         norm_class_idx: 1
         Tn: 2
         complexity: 1
         alpha: 1.
         node_risk: 1.
         tree_risk: 1.
         tree_error: 0.
      -
         depth: 3
         sample_count: 634
         value: 0.
         norm_class_idx: 0
         Tn: 52
         complexity: 1
         alpha: 44.
         node_risk: 237.
         tree_risk: 218.
         tree_error: 19.
         splits:
            - { var:1471, quality:3.6863024902343750e+02,
                le:1.2850000000000000e+02 }
      -
         depth: 4
         sample_count: 570
         value: 0.
         norm_class_idx: 0
         Tn: 48
         complexity: 1
         alpha: 25.
         node_risk: 183.
         tree_risk: 165.
         tree_error: 18.
         splits:
            - { var:6509, quality:3.4656893920898438e+02,
                le:1.3150000000000000e+02 }
      -
         depth: 5
         sample_count: 529
         value: 0.
         norm_class_idx: 0
         Tn: 33
         complexity: 1
         alpha: 15.
         node_risk: 148.
         tree_risk: 134.
         tree_error: 14.
         splits:
            - { var:5485, quality:3.3182879638671875e+02,
                le:1.3850000000000000e+02 }
      -
         depth: 6
         sample_count: 514
         value: 0.
         norm_class_idx: 0
         Tn: 31
         complexity: 1
         alpha: 14.
         node_risk: 133.
         tree_risk: 119.
         tree_error: 14.
         splits:
            - { var:4429, quality:3.3204467773437500e+02, le:132. }
      -
         depth: 7
         sample_count: 498
         value: 0.
         norm_class_idx: 0
         Tn: 28
         complexity: 1
         alpha: 9.
         node_risk: 118.
         tree_risk: 104.
         tree_error: 14.
         splits:
            - { var:7780, quality:3.3170071411132812e+02,
                le:1.3950000000000000e+02 }
      -
         depth: 8
         sample_count: 484
         value: 0.
         norm_class_idx: 0
         Tn: 22
         complexity: 1
         alpha: 7.6666666666666670e+00
         node_risk: 105.
         tree_risk: 94.
         tree_error: 11.
      -
         depth: 8
         sample_count: 14
         value: 1.
         norm_class_idx: 1
         Tn: 2
         complexity: 1
         alpha: 1.
         node_risk: 1.
         tree_risk: 1.
         tree_error: 0.
      -
         depth: 7
         sample_count: 16
         value: 1.
         norm_class_idx: 1
         Tn: 2
         complexity: 1
         alpha: 1.
         node_risk: 1.
         tree_risk: 1.
         tree_error: 0.
      -
         depth: 6
         sample_count: 15
         value: 1.
         norm_class_idx: 1
         Tn: 2147483647
         complexity: 1
         alpha: 0.
         node_risk: 0.
         tree_risk: 0.
         tree_error: 0.
      -
         depth: 5
         sample_count: 41
         value: 1.
         norm_class_idx: 1
         Tn: 10
         complexity: 1
         alpha: 4.
         node_risk: 6.
         tree_risk: 6.
         tree_error: 0.
      -
         depth: 4
         sample_count: 64
         value: 1.
         norm_class_idx: 1
         Tn: 17
         complexity: 1
         alpha: 5.
         node_risk: 10.
         tree_risk: 9.
         tree_error: 1.
      -
         depth: 1
         sample_count: 4364
         value: 1.
         norm_class_idx: 1
         Tn: 56
         complexity: 1
         alpha: 75.
         node_risk: 1340.
         tree_risk: 1215.
         tree_error: 125.
         splits:
            - { var:5931, quality:2.6255395507812500e+03,
                le:5.0000000000000000e-01 }
      -
         depth: 2
         sample_count: 1581
         value: 1.
         norm_class_idx: 1
         Tn: 2147483647
         complexity: 3
         alpha: 1.1250000000000000e+02
         node_risk: 730.
         tree_risk: 442.
         tree_error: 49.
         splits:
            - { var:4602, quality:8.5278698730468750e+02,
                le:1.1500000000000000e+01 }
      -
         depth: 3
         sample_count: 1226
         value: 1.
         norm_class_idx: 1
         Tn: 2147483647
         complexity: 2
         alpha: 81.
         node_risk: 477.
         tree_risk: 356.
         tree_error: 33.
         splits:
            - { var:2632, quality:6.9492913818359375e+02,
                le:1.0500000000000000e+01 }
      -
         depth: 4
         sample_count: 256
         value: 0.
         norm_class_idx: 0
         Tn: 39
         complexity: 1
         alpha: 15.
         node_risk: 84.
         tree_risk: 76.
         tree_error: 8.
         splits:
            - { var:4393, quality:1.5896551513671875e+02,
                le:1.1650000000000000e+02 }
      -
         depth: 5
         sample_count: 232
         value: 0.
         norm_class_idx: 0
         Tn: 28
         complexity: 1
         alpha: 11.
         node_risk: 63.
         tree_risk: 58.
         tree_error: 5.
         splits:
            - { var:2423, quality:1.5307864379882812e+02,
                le:1.2550000000000000e+02 }
      -
         depth: 6
         sample_count: 218
         value: 0.
         norm_class_idx: 0
         Tn: 25
         complexity: 1
         alpha: 10.
         node_risk: 50.
         tree_risk: 46.
         tree_error: 4.
         splits:
            - { var:7812, quality:1.5338461303710938e+02,
                le:1.3250000000000000e+02 }
      -
         depth: 7
         sample_count: 208
         value: 0.
         norm_class_idx: 0
         Tn: 21
         complexity: 1
         alpha: 6.
         node_risk: 40.
         tree_risk: 36.
         tree_error: 4.
      -
         depth: 7
         sample_count: 10
         value: 1.
         norm_class_idx: 1
         Tn: 2147483647
         complexity: 1
         alpha: 0.
         node_risk: 0.
         tree_risk: 0.
         tree_error: 0.
      -
         depth: 6
         sample_count: 14
         value: 1.
         norm_class_idx: 1
         Tn: 2
         complexity: 1
         alpha: 1.
         node_risk: 1.
         tree_risk: 1.
         tree_error: 0.
      -
         depth: 5
         sample_count: 24
         value: 1.
         norm_class_idx: 1
         Tn: 5
         complexity: 1
         alpha: 3.
         node_risk: 3.
         tree_risk: 3.
         tree_error: 0.
      -
         depth: 4
         sample_count: 970
         value: 1.
         norm_class_idx: 1
         Tn: 45
         complexity: 1
         alpha: 22.
         node_risk: 305.
         tree_risk: 280.
         tree_error: 25.
         splits:
            - { var:4098, quality:5.8322998046875000e+02,
                le:5.0000000000000000e-01 }
      -
         depth: 5
         sample_count: 553
         value: 1.
         norm_class_idx: 1
         Tn: 2147483647
         complexity: 4
         alpha: 2.9333333333333332e+01
         node_risk: 235.
         tree_risk: 127.
         tree_error: 14.
         splits:
            - { var:7075, quality:3.0691937255859375e+02,
                le:1.0500000000000000e+01 }
      -
         depth: 6
         sample_count: 347
         value: 0.
         norm_class_idx: 0
         Tn: 2147483647
         complexity: 3
         alpha: 2.7500000000000000e+01
         node_risk: 160.
         tree_risk: 86.
         tree_error: 7.
         splits:
            - { var:66, quality:1.9347535705566406e+02,
                le:1.2550000000000000e+02 }
      -
         depth: 7
         sample_count: 302
         value: 0.
         norm_class_idx: 0
         Tn: 2147483647
         complexity: 2
         alpha: 24.
         node_risk: 120.
         tree_risk: 82.
         tree_error: 6.
         splits:
            - { var:5867, quality:1.7730090332031250e+02,
                le:8.5000000000000000e+00 }
      -
         depth: 8
         sample_count: 222
         value: 0.
         norm_class_idx: 0
         Tn: 31
         complexity: 1
         alpha: 12.
         node_risk: 64.
         tree_risk: 60.
         tree_error: 4.
         splits:
            - { var:4923, quality:1.4752909851074219e+02,
                le:3.5000000000000000e+00 }
      -
         depth: 9
         sample_count: 168
         value: 0.
         norm_class_idx: 0
         Tn: 21
         complexity: 1
         alpha: 8.
         node_risk: 30.
         tree_risk: 28.
         tree_error: 2.
      -
         depth: 9
         sample_count: 54
         value: 1.
         norm_class_idx: 1
         Tn: 28
         complexity: 2
         alpha: 12.
         node_risk: 20.
         tree_risk: 8.
         tree_error: 0.
         splits:
            - { var:138, quality:4.0541175842285156e+01,
                le:8.5000000000000000e+00 }
      -
         depth: 10
         sample_count: 20
         value: 0.
         norm_class_idx: 0
         Tn: 10
         complexity: 1
         alpha: 4.
         node_risk: 4.
         tree_risk: 4.
         tree_error: 0.
      -
         depth: 10
         sample_count: 34
         value: 1.
         norm_class_idx: 1
         Tn: 5
         complexity: 1
         alpha: 3.
         node_risk: 4.
         tree_risk: 4.
         tree_error: 0.
      -
         depth: 8
         sample_count: 80
         value: 1.
         norm_class_idx: 1
         Tn: 26
         complexity: 1
         alpha: 11.
         node_risk: 24.
         tree_risk: 22.
         tree_error: 2.
         splits:
            - { var:6014, quality:5.8849731445312500e+01,
                le:8.5000000000000000e+00 }
      -
         depth: 9
         sample_count: 57
         value: 1.
         norm_class_idx: 1
         Tn: 10
         complexity: 1
         alpha: 3.
         node_risk: 7.
         tree_risk: 6.
         tree_error: 1.
      -
         depth: 9
         sample_count: 23
         value: 0.
         norm_class_idx: 0
         Tn: 13
         complexity: 1
         alpha: 4.
         node_risk: 6.
         tree_risk: 5.
         tree_error: 1.
      -
         depth: 7
         sample_count: 45
         value: 1.
         norm_class_idx: 1
         Tn: 10
         complexity: 1
         alpha: 3.
         node_risk: 5.
         tree_risk: 4.
         tree_error: 1.
      -
         depth: 6
         sample_count: 206
         value: 1.
         norm_class_idx: 1
         Tn: 25
         complexity: 1
         alpha: 9.
         node_risk: 48.
         tree_risk: 41.
         tree_error: 7.
         splits:
            - { var:1678, quality:1.4428007507324219e+02,
                le:1.2050000000000000e+02 }
      -
         depth: 7
         sample_count: 194
         value: 1.
         norm_class_idx: 1
         Tn: 21
         complexity: 1
         alpha: 5.
         node_risk: 37.
         tree_risk: 31.
         tree_error: 6.
      -
         depth: 7
         sample_count: 12
         value: 0.
         norm_class_idx: 0
         Tn: 2
         complexity: 1
         alpha: 1.
         node_risk: 1.
         tree_risk: 1.
         tree_error: 0.
      -
         depth: 5
         sample_count: 417
         value: 1.
         norm_class_idx: 1
         Tn: 21
         complexity: 1
         alpha: 8.5000000000000000e+00
         node_risk: 70.
         tree_risk: 65.
         tree_error: 5.
      -
         depth: 3
         sample_count: 355
         value: 0.
         norm_class_idx: 0
         Tn: 43
         complexity: 1
         alpha: 20.
         node_risk: 102.
         tree_risk: 86.
         tree_error: 16.
         splits:
            - { var:6788, quality:2.3047767639160156e+02,
                le:9.7500000000000000e+01 }
      -
         depth: 4
         sample_count: 326
         value: 0.
         norm_class_idx: 0
         Tn: 28
         complexity: 1
         alpha: 10.
         node_risk: 77.
         tree_risk: 62.
         tree_error: 15.
         splits:
            - { var:7589, quality:2.2291082763671875e+02,
                le:1.3950000000000000e+02 }
      -
         depth: 5
         sample_count: 314
         value: 0.
         norm_class_idx: 0
         Tn: 2147483647
         complexity: 2
         alpha: 11.
         node_risk: 65.
         tree_risk: 42.
         tree_error: 11.
         splits:
            - { var:4257, quality:2.2623448181152344e+02,
                le:1.1850000000000000e+02 }
      -
         depth: 6
         sample_count: 290
         value: 0.
         norm_class_idx: 0
         Tn: 19
         complexity: 1
         alpha: 5.
         node_risk: 47.
         tree_risk: 37.
         tree_error: 10.
      -
         depth: 6
         sample_count: 24
         value: 1.
         norm_class_idx: 1
         Tn: 10
         complexity: 1
         alpha: 3.
         node_risk: 6.
         tree_risk: 5.
         tree_error: 1.
      -
         depth: 5
         sample_count: 12
         value: 1.
         norm_class_idx: 1
         Tn: 2147483647
         complexity: 1
         alpha: 0.
         node_risk: 0.
         tree_risk: 0.
         tree_error: 0.
      -
         depth: 4
         sample_count: 29
         value: 1.
         norm_class_idx: 1
         Tn: 10
         complexity: 1
         alpha: 4.
         node_risk: 4.
         tree_risk: 4.
         tree_error: 0.
      -
         depth: 2
         sample_count: 2783
         value: 1.
         norm_class_idx: 1
         Tn: 44
         complexity: 1
         alpha: 2.1800000000000001e+01
         node_risk: 610.
         tree_risk: 548.
         tree_error: 62.
         splits:
            - { var:3642, quality:1.8926348876953125e+03,
                le:5.0000000000000000e-01 }
      -
         depth: 3
         sample_count: 1921
         value: 1.
         norm_class_idx: 1
         Tn: 36
         complexity: 1
         alpha: 1.4666666666666666e+01
         node_risk: 285.
         tree_risk: 254.
         tree_error: 31.
         splits:
            - { var:4130, quality:1.4720678710937500e+03,
                le:5.0000000000000000e-01 }
      -
         depth: 4
         sample_count: 770
         value: 1.
         norm_class_idx: 1
         Tn: 2147483647
         complexity: 3
         alpha: 22.
         node_risk: 206.
         tree_risk: 140.
         tree_error: 17.
         splits:
            - { var:2686, quality:4.9483575439453125e+02,
                le:4.6500000000000000e+01 }
      -
         depth: 5
         sample_count: 734
         value: 1.
         norm_class_idx: 1
         Tn: 2147483647
         complexity: 2
         alpha: 20.
         node_risk: 175.
         tree_risk: 136.
         tree_error: 16.
         splits:
            - { var:6144, quality:4.9308749389648438e+02,
                le:1.1250000000000000e+02 }
      -
         depth: 6
         sample_count: 689
         value: 1.
         norm_class_idx: 1
         Tn: 33
         complexity: 1
         alpha: 14.
         node_risk: 141.
         tree_risk: 126.
         tree_error: 15.
         splits:
            - { var:5650, quality:4.8410980224609375e+02, le:128. }
      -
         depth: 7
         sample_count: 674
         value: 1.
         norm_class_idx: 1
         Tn: 26
         complexity: 1
         alpha: 10.
         node_risk: 126.
         tree_risk: 112.
         tree_error: 14.
         splits:
            - { var:4696, quality:4.8363119506835938e+02, le:123. }
      -
         depth: 8
         sample_count: 651
         value: 1.
         norm_class_idx: 1
         Tn: 22
         complexity: 1
         alpha: 9.
         node_risk: 109.
         tree_risk: 96.
         tree_error: 13.
      -
         depth: 8
         sample_count: 23
         value: 0.
         norm_class_idx: 0
         Tn: 13
         complexity: 1
         alpha: 5.
         node_risk: 6.
         tree_risk: 6.
         tree_error: 0.
      -
         depth: 7
         sample_count: 15
         value: 0.
         norm_class_idx: 0
         Tn: 2147483647
         complexity: 1
         alpha: 0.
         node_risk: 0.
         tree_risk: 0.
         tree_error: 0.
      -
         depth: 6
         sample_count: 45
         value: 0.
         norm_class_idx: 0
         Tn: 19
         complexity: 1
         alpha: 6.
         node_risk: 11.
         tree_risk: 10.
         tree_error: 1.
      -
         depth: 5
         sample_count: 36
         value: 0.
         norm_class_idx: 0
         Tn: 5
         complexity: 1
         alpha: 2.
         node_risk: 5.
         tree_risk: 4.
         tree_error: 1.
      -
         depth: 4
         sample_count: 1151
         value: 1.
         norm_class_idx: 1
         Tn: 18
         complexity: 1
         alpha: 5.6666666666666670e+00
         node_risk: 79.
         tree_risk: 70.
         tree_error: 9.
      -
         depth: 3
         sample_count: 862
         value: 1.
         norm_class_idx: 1
         Tn: 2147483647
         complexity: 5
         alpha: 2.7250000000000000e+01
         node_risk: 325.
         tree_risk: 185.
         tree_error: 23.
         splits:
            - { var:4482, quality:4.8915496826171875e+02,
                le:2.5000000000000000e+00 }
      -
         depth: 4
         sample_count: 602
         value: 1.
         norm_class_idx: 1
         Tn: 2147483647
         complexity: 2
         alpha: 25.
         node_risk: 173.
         tree_risk: 133.
         tree_error: 15.
         splits:
            - { var:3610, quality:3.7900469970703125e+02,
                le:1.2450000000000000e+02 }
      -
         depth: 5
         sample_count: 543
         value: 1.
         norm_class_idx: 1
         Tn: 39
         complexity: 1
         alpha: 18.
         node_risk: 131.
         tree_risk: 118.
         tree_error: 13.
         splits:
            - { var:7014, quality:3.6704534912109375e+02, le:46. }
      -
         depth: 6
         sample_count: 481
         value: 1.
         norm_class_idx: 1
         Tn: 25
         complexity: 1
         alpha: 10.
         node_risk: 91.
         tree_risk: 81.
         tree_error: 10.
         splits:
            - { var:4480, quality:3.4678253173828125e+02, le:97. }
      -
         depth: 7
         sample_count: 459
         value: 1.
         norm_class_idx: 1
         Tn: 19
         complexity: 1
         alpha: 7.
         node_risk: 75.
         tree_risk: 66.
         tree_error: 9.
      -
         depth: 7
         sample_count: 22
         value: 0.
         norm_class_idx: 0
         Tn: 13
         complexity: 1
         alpha: 4.
         node_risk: 6.
         tree_risk: 5.
         tree_error: 1.
      -
         depth: 6
         sample_count: 62
         value: 0.
         norm_class_idx: 0
         Tn: 25
         complexity: 1
         alpha: 10.
         node_risk: 22.
         tree_risk: 19.
         tree_error: 3.
         splits:
            - { var:4458, quality:4.4916667938232422e+01,
                le:5.0000000000000000e-01 }
      -
         depth: 7
         sample_count: 30
         value: 1.
         norm_class_idx: 1
         Tn: 21
         complexity: 1
         alpha: 7.
         node_risk: 10.
         tree_risk: 8.
         tree_error: 2.
      -
         depth: 7
         sample_count: 32
         value: 0.
         norm_class_idx: 0
         Tn: 4
         complexity: 1
         alpha: 1.
         node_risk: 2.
         tree_risk: 1.
         tree_error: 1.
      -
         depth: 5
         sample_count: 59
         value: 0.
         norm_class_idx: 0
         Tn: 26
         complexity: 1
         alpha: 9.
         node_risk: 17.
         tree_risk: 15.
         tree_error: 2.
         splits:
            - { var:273, quality:4.8260604858398438e+01, le:32. }
      -
         depth: 6
         sample_count: 44
         value: 0.
         norm_class_idx: 0
         Tn: 5
         complexity: 1
         alpha: 3.
         node_risk: 4.
         tree_risk: 4.
         tree_error: 0.
      -
         depth: 6
         sample_count: 15
         value: 1.
         norm_class_idx: 1
         Tn: 4
         complexity: 1
         alpha: 2.
         node_risk: 2.
         tree_risk: 2.
         tree_error: 0.
      -
         depth: 4
         sample_count: 260
         value: 0.
         norm_class_idx: 0
         Tn: 2147483647
         complexity: 3
         alpha: 2.4500000000000000e+01
         node_risk: 108.
         tree_risk: 52.
         tree_error: 8.
         splits:
            - { var:4410, quality:1.5676588439941406e+02,
                le:3.5000000000000000e+00 }
      -
         depth: 5
         sample_count: 171
         value: 1.
         norm_class_idx: 1
         Tn: 2147483647
         complexity: 2
         alpha: 24.
         node_risk: 74.
         tree_risk: 42.
         tree_error: 7.
         splits:
            - { var:2854, quality:1.0198348999023438e+02,
                le:2.2500000000000000e+01 }
      -
         depth: 6
         sample_count: 130
         value: 1.
         norm_class_idx: 1
         Tn: 26
         complexity: 1
         alpha: 9.
         node_risk: 41.
         tree_risk: 35.
         tree_error: 6.
         splits:
            - { var:5123, quality:8.4529914855957031e+01,
                le:5.5500000000000000e+01 }
      -
         depth: 7
         sample_count: 117
         value: 1.
         norm_class_idx: 1
         Tn: 21
         complexity: 1
         alpha: 6.
         node_risk: 29.
         tree_risk: 25.
         tree_error: 4.
      -
         depth: 7
         sample_count: 13
         value: 0.
         norm_class_idx: 0
         Tn: 2
         complexity: 1
         alpha: 1.
         node_risk: 1.
         tree_risk: 1.
         tree_error: 0.
      -
         depth: 6
         sample_count: 41
         value: 0.
         norm_class_idx: 0
         Tn: 13
         complexity: 1
         alpha: 4.
         node_risk: 8.
         tree_risk: 7.
         tree_error: 1.
      -
         depth: 5
         sample_count: 89
         value: 0.
         norm_class_idx: 0
         Tn: 13
         complexity: 1
         alpha: 4.
         node_risk: 11.
         tree_risk: 10.
         tree_error: 1.
