%YAML:1.0
my_svm: !!opencv-ml-svm
   svm_type: C_SVC
   kernel: { type:LINEAR }
   C: 1.0000000000000001e-01
   term_criteria: { epsilon:2.2204460492503131e-16, iterations:10000000 }
   var_all: 9216
   var_count: 9216
   class_count: 2
   class_labels: !!opencv-matrix
      rows: 1
      cols: 2
      dt: i
      data: [ 0, 1 ]
   sv_total: 1
   support_vectors:
      - [ -1.30897606e-04, 3.84254061e-04, -1.11589041e-04,
          8.06674070e-05, -4.06288527e-05, -2.17322930e-04,
          1.16541843e-04, 3.96312273e-04, -8.00210619e-05,
          3.15217156e-04, -2.94866360e-04, 8.13482620e-05,
          -5.25641735e-05, -2.92823155e-04, -1.70100015e-04,
          2.01110626e-04, -1.76809815e-04, -3.83323524e-04,
          -3.93308466e-04, 1.94616805e-04, 2.91329366e-06,
          -8.92589815e-05, -3.22679320e-04, -1.53483750e-04,
          5.75501763e-04, -5.50612349e-05, -1.67236620e-04,
          -1.56239798e-06, -2.99944630e-04, 8.43814123e-05,
          -1.51735483e-04, -2.45377625e-04, -5.81606037e-05,
          2.46823911e-04, 1.56278751e-04, -2.44054812e-04,
          -3.95589086e-05, -2.30141362e-04, -1.25446168e-04,
          4.45352525e-05, -2.26153046e-04, 1.56102455e-04,
          8.54207392e-05, -5.02441952e-04, -3.93996685e-04,
          -2.92273093e-04, -5.98801591e-04, -3.33444274e-04,
          -3.93870607e-04, -3.48441186e-04, -2.03070886e-04,
          -1.00485231e-04, -1.06597035e-04, -4.02055215e-04,
          -7.42779113e-04, -3.10988602e-04, -1.55432906e-04,
          -5.74275793e-04, -2.41167203e-04, 6.58808931e-05,
          -5.25930081e-04, -1.84357152e-04, -2.68151955e-04,
          -3.37548030e-04, -1.59763556e-04, -1.05369305e-04,
          -2.15987835e-04, -1.45013430e-04, 2.88319734e-05,
          -3.06038943e-04, -1.14907205e-04, -1.94813343e-04,
          -1.98939189e-04, -1.74934044e-04, -3.02852888e-04,
          -1.42022152e-04, 1.94625565e-04, -5.90881042e-04,
          -2.08160520e-04, -1.81386582e-04, -1.43307581e-04,
          -3.69810266e-04, -6.02319662e-04, -7.52369451e-05,
          5.29471472e-05, -3.97145814e-05, -2.04070282e-04,
          -4.48239123e-04, -1.91678948e-04, -3.45814915e-04,
          -6.19205472e-04, -8.48249215e-07, -2.98245635e-04,
          -2.65567243e-04, -4.85606579e-05, -1.09448862e-04,
          -2.37974949e-04, -3.85025342e-04, -1.22186961e-04,
          -8.23334412e-05, 2.09990212e-05, -2.56827007e-05,
          4.36435483e-04, 1.80870557e-05, 3.24809662e-05,
          -5.13087376e-04, -2.25209456e-04, 4.06538893e-04,
          -1.48302483e-04, 3.18295679e-05, 1.72684653e-04,
          -5.58381958e-04, -6.67325294e-05, -1.72632936e-04,
          2.62793474e-04, -1.36524992e-04, -4.87195706e-04,
          4.42660734e-04, -4.37866809e-04, -4.61107964e-04,
          3.73579278e-05, -1.93575670e-05, -5.17272740e-04,
          -2.64316623e-04, -8.11775855e-04, 3.39999169e-05,
          3.27409653e-05, -3.72573180e-04, -3.81551683e-04,
          7.74712316e-05, -5.55388688e-05, 8.79493236e-05,
          -2.32619030e-04, -1.15066367e-04, -7.65289951e-05,
          5.41592781e-05, -2.22262810e-04, 7.83915821e-05,
          -8.93301476e-05, 8.70157892e-05, -2.66188144e-04,
          -3.03684326e-04, -1.34073533e-04, -1.37820447e-04,
          1.35649476e-04, 1.65825681e-04, -1.67671271e-04,
          1.87081212e-04, -4.66396959e-05, 3.92909686e-04,
          1.11203575e-04, -2.45936215e-04, -1.90757099e-04,
          4.49675543e-04, 3.21840344e-04, -2.71993980e-04,
          -2.79756758e-04, 3.63561208e-04, -1.54588153e-04,
          2.07743957e-04, -1.33971291e-04, -1.82475735e-04,
          3.94772251e-05, -5.93956065e-05, -1.37495532e-04,
          -6.07846814e-05, 9.12970572e-05, -3.38532186e-06,
          -1.85462573e-04, -6.20855062e-05, 5.61217457e-05,
          -3.58087651e-04, -1.35537572e-04, -4.57510614e-04,
          5.12673927e-04, -2.22643939e-04, -2.09782374e-04,
          1.80854317e-04, -1.95902845e-04, 1.73980108e-04,
          3.50314913e-05, -1.68997099e-06, -4.46716658e-05,
          -1.79640192e-04, 8.97904829e-05, -3.60763224e-05,
          -1.38679650e-04, -2.87337298e-05, -2.70831457e-04,
          -7.88618127e-06, -1.53057132e-04, -1.26037979e-04,
          -1.66478465e-04, -4.36004950e-04, -1.93427783e-04,
          5.26981748e-05, -2.49005767e-04, -2.96100625e-05,
          -1.68562168e-04, -2.76433275e-05, -5.79550579e-05,
          -2.39740111e-05, -2.48298078e-04, 9.40369937e-05,
          -2.87678646e-04, -5.00667549e-04, -1.33041831e-04,
          -9.68507375e-05, -2.69590528e-04, -1.01558311e-04,
          -2.87607836e-04, -3.39220918e-04, 1.09290857e-04,
          -1.54878260e-04, -6.31650444e-04, -2.85265356e-04,
          -2.87133793e-04, -3.30418727e-04, 9.12594551e-05,
          -4.40656760e-04, -4.07541753e-04, 7.61425690e-05,
          -2.02950381e-04, 1.78493628e-05, -3.42841638e-04,
          2.94215191e-04, -4.00902900e-05, -8.91235395e-05,
          -1.97631773e-04, -2.77501749e-05, -3.14404460e-05,
          -2.53852719e-04, 6.35971628e-06, 7.22686746e-05,
          2.61722831e-04, -2.11574181e-04, -4.99770511e-04,
          1.49997722e-04, 7.61332267e-05, -3.35146251e-05,
          8.06906464e-05, 1.34836650e-04, -9.71145346e-05,
          -2.87656061e-04, -2.45798292e-04, 1.29460808e-04,
          1.20428216e-04, 1.56882161e-04, -7.02639954e-05,
          -2.09020640e-04, -3.82485101e-04, 1.17287920e-04,
          -3.00437008e-04, 2.15527194e-04, -3.34284472e-04,
          -2.82852725e-05, -7.90495906e-05, -5.97200597e-05,
          5.68043382e-04, 4.46528022e-04, -1.16483949e-04,
          3.21283296e-04, -1.16054398e-04, -1.51412269e-06,
          -1.96657020e-05, -1.46399412e-04, 6.86017564e-04,
          2.69996934e-04, 7.11632019e-05, 2.01086295e-05, 5.28907549e-05,
          -7.88956386e-05, 4.30020766e-04, 1.39387092e-04,
          -5.71078563e-05, 6.01911393e-04, -3.73795665e-05,
          -5.86768037e-05, 3.08626040e-04, -7.66391095e-05,
          2.01805247e-04, -3.18128587e-04, -3.70599329e-04,
          2.76843522e-04, 6.36432262e-04, 2.25092954e-05,
          -6.55638723e-05, 1.39585172e-04, -2.47562886e-04,
          -3.61334860e-05, 1.10427667e-04, 3.68247507e-04,
          -2.98214763e-06, -1.04545703e-04, -2.89644027e-04,
          -1.52372173e-04, -1.16706833e-04, -6.15906038e-06,
          2.53059028e-04, 1.84647317e-04, 9.99616386e-05,
          -3.50061600e-04, 1.70424505e-06, 1.78772432e-04,
          -1.59276125e-04, 1.09042136e-04, -2.52035388e-04,
          -3.99984536e-04, -7.73277934e-05, -3.28829396e-04,
          -1.77376132e-05, 1.57626360e-04, -2.32910941e-04,
          -3.17473896e-04, -4.57094313e-04, -3.89217515e-04,
          4.26842831e-04, 2.11972783e-05, -3.33084259e-04,
          -2.03834876e-04, 1.66391314e-04, -1.24465063e-04,
          6.66001579e-05, 1.35418042e-04, 9.35493154e-05, 1.04575840e-04,
          3.36492121e-05, -5.04033706e-05, 3.12485237e-04,
          -3.08267452e-04, 1.34887148e-06, 3.18563398e-04,
          -2.96063459e-04, 2.17231907e-04, 2.73067653e-05,
          -2.99825537e-04, -8.07030592e-05, 4.14130081e-05,
          -5.15392865e-04, -5.09829901e-04, -6.49724025e-05,
          2.96675658e-04, -7.65966688e-05, -5.58766827e-04,
          -1.50026317e-04, 1.61559263e-04, -8.57929757e-04,
          1.31432767e-04, -3.04560326e-05, -2.43643284e-04,
          -3.27622663e-04, -7.32499117e-04, 1.43305428e-04,
          2.18518588e-04, 2.64922419e-04, 2.13532287e-04, 3.43718530e-05,
          1.49272732e-04, 3.79820907e-04, 5.77824794e-05, 1.21101031e-04,
          -8.26283431e-05, -1.13436445e-05, -2.84585872e-06,
          -2.12680054e-04, 2.84596928e-04, -1.04509490e-04,
          7.08130538e-05, -1.12306952e-04, 2.07810750e-04,
          -4.66983271e-04, -4.51212545e-05, 7.17130752e-05,
          5.25094729e-05, -4.95813365e-05, -2.74656573e-04,
          -7.33695924e-05, 2.58237531e-04, -2.51132442e-04,
          1.08835702e-04, -3.08050716e-04, -3.24733730e-04,
          -2.02119030e-04, -6.15278725e-04, 3.24799592e-04,
          1.79966621e-04, 4.90966813e-05, 1.44679856e-04,
          -7.24631536e-05, 1.22543221e-04, 3.26138805e-04,
          -2.59012479e-04, -2.27771652e-05, 1.51646804e-04,
          2.12415165e-04, 3.95186245e-04, -1.00079778e-05,
          8.75498299e-05, 1.28043932e-04, -3.12489312e-04,
          -1.87077152e-04, 2.40373280e-04, 1.22885089e-04,
          3.70663300e-04, 4.79700015e-04, 4.14373935e-05, 2.44956231e-04,
          -3.91884212e-04, -1.15057454e-04, 7.29446765e-05,
          -1.09630142e-04, 3.06279020e-04, 5.98975923e-04,
          -4.19191529e-05, 1.35073235e-04, -9.24033884e-05,
          1.82804521e-04, 1.89378145e-04, 2.59738183e-04, 1.04903294e-04,
          1.16654999e-04, 2.12950850e-04, 2.95441103e-04, 1.62366250e-05,
          1.11343834e-04, 7.51616899e-05, 2.62101181e-04, 1.47284794e-04,
          9.47894368e-05, -3.25929504e-05, 7.28442974e-05,
          2.50250487e-05, 1.37158868e-05, 1.29772990e-04,
          -4.21310600e-04, 5.84441004e-05, 7.51674597e-05,
          -1.57790055e-04, -2.14443164e-04, -3.11027834e-05,
          -3.74374271e-04, 1.58290000e-04, -3.21854546e-04,
          -1.08944885e-04, -5.78006293e-05, 3.82460858e-04,
          -5.51318401e-04, -4.89292550e-04, -1.77489361e-04,
          3.66651395e-04, -5.74982987e-05, 3.29913310e-04,
          1.51127833e-05, 1.78110815e-04, 1.50350548e-04, 2.93651188e-04,
          -2.54871964e-04, 1.33579715e-06, 4.38461720e-05,
          1.17242293e-04, 2.11124847e-04, 1.04201899e-04,
          -1.80008632e-04, 1.02854647e-04, -3.35652876e-04,
          -1.01259327e-04, -1.16951567e-04, -2.00464216e-04,
          1.18138159e-04, -5.66144154e-05, 9.97604875e-05,
          3.20779691e-05, -7.94699299e-04, -1.51066502e-04,
          -4.80900017e-05, -3.08850926e-04, -4.35078982e-05,
          -9.11177121e-05, -1.92736930e-04, -5.08991885e-04,
          -4.49803701e-05, 6.60609396e-04, 1.66140817e-04,
          1.77043519e-04, -4.17369120e-05, 1.69738531e-04,
          2.80778215e-04, -7.73826396e-05, -2.94021418e-04,
          -1.70354993e-04, -1.61938020e-04, -6.18830745e-05,
          5.03344600e-05, 3.13753808e-05, 2.99448729e-04, 2.18911809e-05,
          -1.80912422e-04, -2.49761506e-04, -4.34972870e-04,
          -1.59284507e-04, -2.15389853e-04, -1.36204806e-04,
          -1.04100007e-04, -1.70215862e-04, -5.15810563e-04,
          -1.11040230e-04, -2.73319340e-04, -3.65794695e-04,
          -3.89924040e-04, -2.59867113e-04, -4.97505862e-05,
          -7.32984336e-05, -1.27698193e-04, 3.90379486e-04,
          2.44107388e-04, 3.69717076e-04, -4.70580126e-05,
          2.13884530e-04, 4.33674024e-04, -2.30528531e-04,
          -1.09629458e-04, 1.95428613e-04, 1.39921380e-04,
          2.09319041e-04, 1.77931652e-04, 2.98658444e-04, 3.07307288e-04,
          1.34866757e-04, 8.22731236e-05, 2.77348998e-04, 5.03587944e-05,
          2.08092664e-04, 2.10708822e-05, -4.22301891e-05,
          1.72906279e-04, -2.91101518e-04, 2.44771392e-04,
          4.08748019e-05, -9.65571817e-05, 1.84721532e-04,
          2.30394013e-04, -6.80792800e-05, -1.15073963e-04,
          6.24473541e-05, -5.23848030e-05, 2.37547458e-04,
          2.14173691e-04, 1.13234164e-04, 9.82831843e-05, 3.52648713e-05,
          -3.06053058e-04, -1.73781620e-04, 1.23043093e-04,
          9.25969143e-05, 2.26343662e-04, -2.51838967e-04,
          4.17753108e-05, -3.02023429e-04, -1.09426583e-04,
          1.41910627e-04, -1.02207217e-04, -3.68687732e-04,
          3.73363728e-05, -9.07441063e-05, 2.08744765e-04,
          2.82663881e-04, -3.72531467e-05, 2.72744583e-05,
          -8.13426377e-05, -1.14608534e-04, -1.35601673e-04,
          -1.02150632e-04, -4.82713986e-05, -3.08253948e-05,
          6.70188674e-05, -9.86710875e-05, 2.74670077e-04,
          5.29848039e-04, -1.25844788e-04, 1.48308536e-04,
          -5.22663395e-05, -8.95770281e-05, 2.06632030e-04,
          -2.67115160e-04, 1.16109193e-04, 4.25722363e-04,
          -1.03175182e-04, 5.39338180e-05, 2.22343850e-04,
          -1.85560100e-04, 1.58913269e-06, -2.74621852e-05,
          -4.20465367e-04, -1.31831795e-04, -9.34080526e-06,
          1.49031866e-05, 1.47277184e-04, -1.78442788e-05,
          -1.81072523e-04, -5.61875386e-05, -3.99758246e-05,
          -1.51022294e-04, -3.69514630e-04, 1.50830718e-04,
          -3.02445696e-04, -2.97799095e-04, -3.80547899e-05,
          -4.28634899e-04, 3.72558221e-04, 3.70035705e-04,
          1.81471783e-04, -5.87921422e-05, -4.51540291e-06,
          2.37480799e-06, 4.19011805e-04, 3.39498147e-05,
          -8.71672019e-05, 4.79342125e-04, -1.44585036e-04,
          3.62319952e-05, 1.86795442e-04, -2.05668286e-04,
          2.45272822e-04, 3.06087517e-04, -7.24297308e-04,
          -2.88172523e-05, 3.22976666e-05, -1.25558610e-04,
          2.75278522e-04, 2.83528556e-04, 3.64650623e-04,
          -2.29597827e-05, -4.32009721e-04, -4.50690655e-04,
          -1.72697561e-04, -3.82854836e-04, -2.47973774e-04,
          1.82683230e-04, 8.17876280e-05, -3.55140277e-04,
          -1.60158888e-04, 5.11745056e-05, 4.14297101e-04,
          1.44162870e-04, -2.55908271e-05, 3.65407119e-04,
          8.82482618e-06, -1.15510986e-04, 6.08905357e-05,
          4.58165130e-04, -9.96936651e-05, 7.06090577e-05,
          1.42508143e-04, 2.91948876e-04, 5.02504154e-05,
          -3.69485861e-05, -1.44695732e-04, -1.14418308e-05,
          -2.03228221e-04, 1.59354342e-04, -1.13504539e-04,
          3.79374571e-04, 2.06530283e-04, 1.20001052e-04,
          -1.53221306e-04, -2.98478815e-04, -3.22243257e-04,
          -1.02647617e-04, -3.08056886e-04, 3.86937725e-04,
          1.76657668e-05, 1.36077739e-04, -2.50437326e-04,
          -1.72070737e-04, 2.96253769e-04, 3.08818737e-04,
          -2.56639731e-04, 3.42634186e-04, 2.57342981e-06,
          1.43945072e-04, 1.30307249e-04, -5.32499507e-05,
          -1.39528245e-04, 6.66865162e-05, -4.49686951e-04,
          1.21494508e-04, 3.06311849e-04, -1.14156617e-04,
          -5.55936946e-04, -4.06236271e-04, 9.46059299e-05,
          6.07188704e-05, -2.38060748e-04, 7.62605559e-05,
          6.55764643e-06, 2.63717462e-04, -1.46903069e-04,
          -2.05517674e-04, -9.04513072e-05, -1.12169015e-04,
          -3.67310189e-04, -9.21428436e-05, -6.49146968e-04,
          1.62058073e-04, -1.44976089e-04, -7.54493958e-05,
          -5.40282490e-05, -6.80945595e-05, -3.10508804e-05,
          6.10872055e-04, -1.21512181e-04, 1.70009764e-04,
          1.58585797e-04, 9.27486617e-05, -1.75952446e-05,
          -1.73380075e-04, -2.24222313e-04, 4.93895232e-06,
          3.26410867e-04, 7.85966768e-05, -1.95812099e-04,
          -2.80483015e-04, -6.28353300e-05, -1.23652557e-04,
          -8.14495506e-05, -2.17310051e-04, -3.57174758e-05,
          -1.92526320e-04, -1.13659647e-04, -3.58964549e-04,
          -4.43664409e-04, -2.84177804e-04, -2.88243580e-04,
          -2.01511924e-04, -3.15073063e-04, -8.16763088e-04,
          -1.98655791e-04, 2.41508897e-04, 1.84218821e-04,
          9.05303677e-05, 1.40833479e-04, 4.46150894e-04, 6.82844198e-04,
          2.09463265e-04, -5.91395910e-05, -2.43098475e-04,
          3.06645670e-05, -4.93917250e-05, -1.55318616e-04,
          4.37760056e-04, 6.80163736e-04, 9.09047449e-05,
          -2.13201376e-04, -2.99294974e-04, -2.50149867e-04,
          3.35596182e-04, -4.37026349e-04, 4.41942866e-05,
          4.56637092e-04, -1.93387168e-04, -2.70098739e-04,
          1.17131756e-04, -3.03051551e-04, -5.49737830e-04,
          -4.62918717e-04, -4.99130809e-04, 3.74608295e-04,
          -6.13259850e-04, -1.29007385e-04, 1.51260101e-04,
          5.57337989e-05, -5.70873563e-05, -1.24209138e-04,
          1.08359120e-04, 6.47028326e-04, 1.68290426e-04, 4.27492159e-06,
          5.94922130e-05, -3.79518635e-04, -5.03525698e-05,
          4.27446357e-05, 3.22676788e-04, 3.57766345e-04, 5.44169685e-04,
          -3.01640044e-04, 4.98556532e-04, 2.11862687e-04,
          -3.08594259e-04, 5.46368901e-05, -1.03386657e-04,
          1.27461853e-05, 3.08807503e-04, -3.14576348e-04,
          -1.48925092e-05, 5.05179341e-04, -5.09791193e-04,
          -2.21137932e-04, 1.49935986e-05, 1.07006097e-04,
          -1.19580007e-04, 4.11023560e-04, -4.60230258e-05,
          7.93302897e-05, -1.57229370e-04, -8.74981488e-05,
          3.58094199e-04, 1.30747780e-04, 7.99206682e-05,
          -2.90516291e-05, -1.96800655e-04, -2.79479806e-04,
          6.03546914e-06, 1.04379396e-04, 3.42155545e-04,
          -1.48187410e-05, -2.30884616e-04, -4.28850792e-04,
          3.12830234e-04, -9.25564382e-05, 3.51046183e-04,
          -1.03463157e-04, -3.43376130e-04, -3.12163611e-04,
          -1.05239000e-04, -7.21355318e-04, -6.94330229e-05,
          -1.96616224e-04, -2.77534535e-04, -2.00107053e-04,
          -2.99751933e-04, -2.48607277e-04, -4.19659831e-04,
          3.55092692e-04, -1.27541105e-04, -8.27776676e-05,
          2.23075203e-05, 2.41454894e-04, 6.24317690e-05, 6.32793235e-05,
          2.80399225e-04, -2.20009038e-04, -1.85818630e-04,
          -1.06451080e-04, 3.03044857e-04, -3.76143085e-04,
          6.66720443e-05, 4.50872845e-04, -2.35319039e-05,
          -8.35912288e-05, 1.66928847e-04, -8.96930433e-05,
          -5.49498327e-05, -7.49276252e-04, -3.73582385e-04,
          1.94209977e-04, -2.00478651e-04, -3.33560485e-04,
          -5.48215758e-04, -1.25043109e-04, -4.46829858e-04,
          -3.22834385e-04, -1.88873775e-04, -2.00200098e-04,
          -7.77281355e-04, 6.07096299e-05, -1.33741260e-05,
          4.75239096e-04, 1.78639413e-04, -8.66677801e-05,
          8.25353054e-05, 3.22944456e-04, 5.05363918e-04, 2.44984170e-04,
          -4.77001246e-04, -5.89699739e-05, -8.09527628e-05,
          -3.14507750e-04, -3.05330439e-04, 2.99937150e-04,
          4.32572488e-05, 3.74982686e-04, -3.99829645e-04,
          -1.71403590e-04, -3.21634696e-04, -2.12699553e-04,
          -6.26482069e-05, 2.04364958e-04, -3.31124524e-04,
          1.22590471e-04, -6.96707284e-04, -4.11016190e-05,
          -3.02297733e-04, -2.08882469e-04, 1.87249723e-04,
          8.95704507e-05, -4.00980352e-04, 2.83784466e-04,
          -1.94866618e-04, 4.12690599e-04, -3.23699234e-04,
          -1.75322319e-04, 7.30992178e-05, 6.46745902e-05,
          -1.28254222e-04, -1.25938286e-05, -4.73605323e-04,
          1.18282107e-04, -2.03815463e-04, -3.12274322e-04,
          -2.25752920e-05, 2.69476259e-05, -1.78352188e-04,
          4.98114059e-05, 1.16693673e-05, -6.66690408e-04,
          -3.59689322e-04, -3.34205659e-04, -2.28184581e-05,
          2.51484271e-05, -4.31526889e-04, 1.88702761e-04,
          -1.16708274e-04, -4.73765249e-04, 9.53371346e-05,
          -2.65921408e-04, 9.83708887e-05, 5.58991997e-05,
          -6.72909140e-04, 1.00361613e-04, -3.63841711e-04,
          1.95138364e-05, -3.18657345e-04, -1.18851633e-04,
          -2.00693205e-04, 3.17023159e-06, -1.68442668e-04,
          -9.80592449e-05, -4.37135081e-04, -8.47171177e-05,
          -1.02378392e-04, -2.76713661e-04, -1.39974087e-04,
          -3.66222434e-04, -1.75691413e-04, 4.85557621e-07,
          -4.10595880e-04, -3.73201969e-04, -3.38921149e-04,
          -2.45804331e-05, -3.87251755e-04, -3.37924517e-04,
          -1.28186715e-04, 1.73275796e-04, -2.84552720e-04,
          -4.52509848e-04, 2.53748785e-05, -2.88651936e-05,
          -3.18727456e-04, -2.38736509e-04, -5.18248475e-04,
          -3.54059157e-04, -1.97666552e-04, -8.98226790e-05,
          9.21100727e-05, -4.60778392e-04, 2.43824776e-04,
          7.33903362e-05, -1.69421270e-04, -3.75258125e-04,
          -2.11260136e-04, -8.22068032e-05, -2.73400627e-04,
          -1.41967059e-04, -2.68796575e-04, -3.34097014e-04,
          -1.19033029e-04, -1.32263167e-05, -1.47181883e-04,
          -6.48503017e-04, -6.44183427e-04, 4.46833146e-05,
          -5.04292373e-04, -2.82975030e-04, -4.30179643e-05,
          -3.03784163e-05, -3.25656554e-04, -3.64477222e-04,
          -1.88988066e-04, -2.46776384e-04, -3.86635977e-04,
          -1.72195665e-04, -3.28139082e-04, -2.87139643e-04,
          -2.53002538e-04, -3.02432745e-04, 1.12760390e-04,
          -1.82438394e-04, 2.67311378e-04, 8.40814973e-05,
          -1.27976760e-04, -3.52625444e-04, -5.91639895e-04,
          -2.44161725e-04, -7.88346224e-05, -3.80445010e-04,
          1.17380669e-05, -3.13703385e-05, -1.64994330e-04,
          3.23564345e-05, -4.45487414e-04, -1.45219747e-04,
          -1.89473387e-04, -4.98863810e-04, -1.67794584e-04,
          -2.63394642e-04, -2.08512181e-04, -1.16422627e-04,
          -1.55443398e-04, 1.26509840e-04, -9.16587451e-05,
          -2.07051227e-04, -5.69848286e-04, -4.36783477e-04,
          4.77474932e-05, 2.99838983e-04, 1.84162956e-04,
          -2.15820357e-04, 3.76048993e-04, 5.30002464e-04,
          7.22876212e-05, -5.68804426e-05, 9.95975715e-05,
          6.90066881e-05, 3.01622320e-04, -2.30433452e-05,
          -1.10614114e-04, -7.30021929e-05, -5.15346765e-05,
          -7.70940096e-05, -2.44234921e-04, 2.96274411e-05,
          2.54800747e-04, -3.08494375e-04, 3.05345340e-04,
          7.75472727e-05, -9.71956251e-05, -3.26337540e-05,
          -6.31574367e-05, -3.76247808e-05, 1.80433253e-05,
          -3.96773772e-04, 2.51432764e-04, 5.73903031e-04,
          3.46676155e-04, -7.79585171e-05, 3.00758857e-05,
          1.85941957e-04, -1.14305847e-04, 1.00835052e-06,
          4.60121490e-04, 2.80820939e-04, 3.32042837e-05,
          -5.79490792e-04, -9.86925079e-05, 2.00059803e-04,
          -2.39028930e-04, 2.67732921e-05, 4.59020011e-05,
          -1.35046939e-04, -7.88698162e-05, -2.69311480e-04,
          1.42050820e-04, 9.13891636e-05, -2.92790355e-04,
          -2.52144178e-04, -1.33911934e-04, 3.16375736e-05,
          -1.47452723e-04, -1.16723648e-04, 9.44273506e-06,
          -1.19723423e-04, -5.47703705e-04, -8.16521409e-04,
          -2.07071571e-04, 2.91558244e-04, 5.19902678e-04,
          1.48801380e-04, -4.79550799e-04, -2.20457034e-04,
          1.29257081e-04, -2.47299904e-04, -2.35474596e-04,
          3.87965149e-04, 2.33141312e-04, -4.49360203e-04,
          -3.27224203e-04, -3.50985967e-04, -5.28786564e-04,
          -3.91880225e-04, -2.90456606e-04, 2.31812392e-05,
          2.45158753e-05, 2.30074929e-05, -1.76059475e-04,
          -1.90302206e-04, 1.47265688e-04, -2.99164210e-04,
          -1.08134198e-04, -6.44612055e-06, -5.38828375e-04,
          -8.60337896e-05, -1.69249266e-04, -4.37906710e-04,
          -2.10108788e-04, -1.38687028e-04, -2.45229807e-04,
          -2.99939929e-05, 1.25273709e-06, -1.21115838e-04,
          -2.19977141e-04, 2.78442109e-04, -1.65064543e-04,
          -2.62844726e-04, -2.24080373e-04, 1.78166549e-04,
          3.31547752e-04, -6.93639304e-05, 8.15117673e-05,
          -3.22025706e-04, -3.84947169e-04, 3.60844751e-05,
          -6.37501798e-05, -1.99226721e-04, 5.47013587e-05,
          -4.61640266e-05, 5.01783288e-05, -2.93752557e-04,
          -4.64531360e-04, -1.62368611e-04, -1.65208388e-04,
          7.66787343e-05, -3.96790245e-04, -2.45073985e-04,
          -1.36337301e-04, -1.80003772e-04, -5.11282669e-05,
          -7.12323936e-06, -3.17392900e-04, -3.30969342e-04,
          -3.84267041e-04, -3.75260919e-04, -4.43513010e-04,
          2.38494977e-04, 5.03900403e-04, 5.43557107e-04, 5.50508121e-05,
          1.59396601e-04, 8.85590445e-04, 1.29537104e-04, 6.46801491e-04,
          4.18871496e-04, 5.14767235e-05, 1.28401269e-04, 3.84859130e-04,
          2.98588147e-05, 4.47094324e-04, 1.19979828e-04, 2.87475152e-04,
          -2.05994249e-04, -4.04123712e-05, -1.64315468e-04,
          3.53125710e-04, -2.61065761e-05, -2.97833703e-05,
          -3.00234708e-04, 4.89775557e-04, -1.95452551e-04,
          -4.75826491e-05, -5.40884910e-04, 3.77780583e-04,
          -1.61830845e-04, 9.79443575e-05, 1.68846513e-04,
          2.14007217e-04, 7.00674136e-05, -6.02481705e-05,
          -6.74841885e-06, 5.81261236e-04, -1.23790349e-04,
          3.40086437e-04, 1.53251167e-04, 6.69164059e-04, 3.47290006e-05,
          8.23263981e-05, -3.23140674e-04, 6.54213363e-05,
          4.42600780e-04, 3.47683235e-04, -5.11906692e-05,
          2.43698480e-04, -5.72452700e-05, -7.24802449e-05,
          -9.65205109e-05, -1.61735486e-04, -3.38553946e-04,
          -1.58168739e-04, 1.58821553e-04, 1.68511033e-04,
          1.41594483e-05, -1.45186015e-04, -4.34777350e-04,
          -2.22211452e-06, -6.36324694e-04, -1.79249895e-04,
          -2.29702171e-04, 1.69031817e-04, 7.03084952e-05,
          1.29071283e-04, -3.72070317e-05, 4.48927458e-04,
          -1.84972771e-04, 1.88656704e-04, 4.73306485e-04,
          -7.99895643e-05, 1.83206110e-04, 2.48404889e-04,
          3.00244777e-04, 6.18834310e-05, 7.82697753e-05, 1.00782105e-04,
          2.07942969e-04, -8.69586001e-05, -7.55444853e-05,
          -1.69309624e-06, -3.41528685e-05, 4.58512477e-05,
          -1.15175411e-04, -1.07582389e-04, 1.88406950e-04,
          7.78933536e-05, -2.88819519e-05, -1.61525924e-04,
          -4.92881190e-05, -3.48622736e-04, -5.34043829e-05,
          -3.52357136e-04, -1.77297610e-04, -2.12980143e-04,
          -1.43201614e-04, -3.41859326e-04, 1.52930210e-04,
          4.68698854e-04, -4.65291989e-04, 1.17357115e-04,
          3.58101766e-04, -1.28445419e-04, 7.09767555e-05,
          -2.39286688e-04, -1.87137630e-04, 5.31885249e-04,
          -1.79098934e-04, -1.50528998e-04, 2.26343705e-04,
          -1.61398711e-04, 6.81580495e-05, 1.16037354e-05,
          -3.69675865e-04, -9.95890332e-06, -5.06809272e-04,
          -2.05202246e-04, 1.26917541e-04, -5.52965095e-04,
          -1.16649870e-04, 2.16727465e-04, -2.25539639e-04,
          -3.89555586e-04, -6.46799104e-04, -1.77794485e-04,
          -9.90485205e-05, -5.68955205e-04, 2.65509065e-04,
          5.37884771e-04, -4.51617925e-05, 3.67765839e-04,
          3.09438008e-04, 6.39646198e-04, 4.75653971e-04, 3.08565825e-04,
          2.03224656e-04, 5.39033150e-04, 1.01787746e-05, 3.63797852e-04,
          8.82714594e-05, 1.59906005e-04, 6.76750671e-04, 3.26541340e-04,
          4.48930601e-04, 2.00787603e-04, -7.66286175e-05,
          3.60037637e-04, 3.56396951e-04, -5.89862793e-05,
          4.89588056e-05, 9.70661567e-05, 2.57967535e-04,
          -3.60362865e-05, 1.90555511e-04, 7.14906841e-04,
          1.31566529e-04, -5.96765349e-05, -7.07291747e-06,
          -3.41527950e-04, 4.19948541e-04, 3.98061151e-04,
          -1.16236086e-04, 3.06058675e-04, 6.48582005e-04,
          2.44316412e-04, 2.31986574e-04, -6.01503707e-05,
          1.78523333e-04, 1.09915272e-04, -3.30341823e-06,
          3.18995211e-04, 2.51425779e-04, -5.24769202e-05,
          1.13528084e-04, 2.09604652e-04, -1.94664870e-04,
          -2.22321905e-04, 1.15015406e-04, -1.23179285e-04,
          2.73885416e-05, -5.03683812e-04, 1.18472904e-04,
          3.98182689e-04, 5.85464695e-05, -2.38811117e-04,
          1.24174876e-05, 1.49979023e-04, 2.41772039e-04,
          -2.85167684e-04, -3.89723602e-04, -2.58600106e-04,
          2.21253940e-04, 1.15868388e-04, 1.66699509e-04, 2.12001469e-04,
          7.11633766e-05, 5.26811418e-05, 5.36363514e-04,
          -1.58276976e-04, 1.29920925e-04, -3.82159662e-04,
          -1.10038927e-04, 1.86943565e-04, -1.08323795e-04,
          -4.19994874e-04, 3.69386253e-04, 2.81454617e-04,
          -4.68902086e-04, -3.14319215e-04, 3.10809992e-05,
          -3.08310788e-04, -4.39723808e-05, -3.68145120e-04,
          1.74179091e-04, -5.47874770e-05, -1.61629767e-04,
          -4.98015688e-05, -2.83813133e-04, -1.59479416e-04,
          2.19316964e-04, -4.42813907e-05, -4.65650723e-04,
          -6.76059339e-04, 3.39584367e-04, 3.02529719e-04,
          2.84506124e-04, 3.33768112e-04, -2.45486706e-04,
          5.44619179e-05, 4.51946718e-04, -3.77542077e-04,
          3.25548783e-04, 2.41000780e-05, -2.17279230e-05,
          1.35089518e-04, 2.11333507e-04, -2.07173900e-04,
          -2.83828325e-04, -2.04933225e-04, -4.41783050e-04,
          -4.93046573e-05, -5.38312888e-04, -4.74841683e-04,
          3.79112171e-05, -2.63683585e-04, -3.21075466e-04,
          -6.47574838e-04, -2.37914603e-04, -5.54171820e-05,
          -5.97737962e-04, -1.36721443e-04, -3.37738777e-04,
          4.70092118e-06, -6.76071330e-04, -9.16405348e-04,
          4.18377458e-05, 5.04129624e-04, 3.88460729e-04, 2.84501933e-04,
          3.53406736e-04, 4.25195671e-04, 7.24681478e-04,
          -1.11784226e-04, 1.53252942e-04, 3.99643235e-04,
          -1.27268839e-04, 1.80156625e-04, 3.70509952e-04,
          -2.15389402e-04, 4.66224534e-04, 4.43795489e-06,
          2.13643230e-04, 8.20724526e-05, -3.74582072e-04,
          3.06295959e-04, 3.79755016e-04, -3.42740299e-04,
          2.65406590e-04, -1.01589147e-04, 1.28113548e-04,
          2.29199111e-04, -6.19589584e-04, 5.67319628e-04,
          3.73926479e-04, -5.24513889e-04, 3.55144468e-04,
          -7.68359023e-05, 1.23293532e-04, 1.54917929e-04,
          1.91516621e-04, 3.01356806e-04, 1.60015668e-04, 3.10057600e-04,
          6.45403052e-04, 5.99031955e-05, 5.87505579e-04, 1.93186541e-04,
          -1.60206211e-04, 1.08830958e-04, 3.46492918e-04,
          -1.78785122e-05, 7.53920394e-05, 2.57975862e-05,
          1.45435348e-04, 2.39330198e-04, -2.01956282e-04,
          -2.05141230e-04, 1.90042090e-04, 2.23819934e-05,
          -1.28505353e-05, 2.27289536e-04, 5.09916717e-05,
          1.20550772e-04, -1.82995878e-04, -3.74398514e-05,
          3.03315377e-04, -3.69578229e-05, 2.10131009e-04,
          -4.98656766e-04, -4.09885077e-04, -1.55466536e-04,
          2.71055207e-04, 4.36847360e-04, 3.97797558e-04, 1.47680650e-04,
          1.46477076e-04, -6.65205007e-05, 2.50502373e-04,
          -2.65936513e-04, -2.07597972e-04, 2.94683006e-04,
          2.32838880e-04, 1.63580378e-04, 8.04095471e-05,
          -5.21317961e-05, 9.04871995e-05, -3.27009533e-04,
          -1.79657756e-04, -2.54865590e-04, -1.70765896e-04,
          -2.18352754e-04, -1.12215508e-04, -1.13061025e-04,
          -2.40047855e-04, -2.66212417e-04, 2.40522073e-04,
          -1.65198362e-04, 2.29502475e-04, -9.71063346e-05,
          -1.39192634e-04, -5.60292741e-04, -6.71790913e-05,
          4.95701330e-04, 5.54449143e-05, 3.28293274e-04, 6.01918255e-05,
          -2.31291298e-04, 1.32941845e-04, -1.50627384e-05,
          5.18457382e-04, 5.80564556e-05, -2.64204835e-04,
          1.75794630e-04, 3.76870912e-06, 2.44619529e-04, 2.73703481e-04,
          4.18336494e-05, -5.07809455e-04, -1.96739420e-04,
          -4.64086443e-05, 1.49470841e-04, -1.49674661e-05,
          3.09807394e-04, 3.07560491e-04, 5.97383831e-08,
          -5.44653623e-04, 1.23505684e-04, -2.30912192e-04,
          1.63805656e-04, 3.27909394e-04, 1.85947065e-04,
          -4.45175683e-04, -5.80919965e-04, -6.17728801e-05,
          8.38158594e-04, 2.38959372e-04, 1.59332543e-04, 1.71926469e-04,
          1.32439760e-04, 4.68994665e-04, 3.60136764e-04,
          -4.02406877e-05, 3.08565359e-04, 5.41777001e-04,
          4.02978359e-04, 2.85299408e-04, -1.15412098e-04,
          3.63396655e-04, 1.50840016e-04, -5.59251457e-05,
          1.94926193e-04, 3.07260809e-04, 7.24075580e-05, 4.25012404e-04,
          1.18079704e-04, 1.47663723e-05, 1.43072801e-04, 1.90783947e-04,
          5.20658468e-05, 3.08868766e-04, 4.67561273e-04, 7.46997175e-05,
          1.30148937e-05, -1.57125687e-04, -4.51545093e-05,
          1.64707119e-04, 1.09135790e-03, 2.10186103e-04, 1.42486060e-05,
          3.75629927e-04, 5.76798979e-04, 4.74922825e-04, 3.32570744e-05,
          1.21407138e-04, -4.54957975e-04, 5.64840389e-04,
          1.65232792e-04, 2.94015656e-04, -4.24212813e-05,
          1.24535771e-04, 2.22977760e-04, -5.34199862e-05,
          -3.59451136e-04, 2.27699129e-04, -1.92590887e-04,
          7.27729202e-05, -2.62959247e-06, 4.96995985e-04,
          -1.44757514e-05, -5.29265853e-05, -2.50182522e-04,
          -3.25490364e-05, 4.22425510e-05, 1.00061392e-04,
          2.78990861e-04, 1.70585809e-05, 1.97456553e-04, 8.87253627e-05,
          2.71357916e-04, 6.24594250e-05, 2.07577308e-04, 4.16162744e-04,
          4.06400242e-04, 4.84293298e-04, 1.46698498e-04,
          -1.65369536e-04, -1.70230516e-04, -1.93936532e-04,
          1.85179044e-04, 3.32747382e-04, -7.15901433e-06,
          4.69993800e-04, 2.47207299e-05, 1.28833402e-04,
          -1.15773146e-04, -4.82284318e-04, 3.12429504e-04,
          -3.39016871e-04, -1.14688773e-04, -2.13993029e-04,
          -3.35754710e-04, 2.56702828e-04, -3.23999382e-04,
          -2.88065727e-04, 1.75627392e-05, 6.53327224e-05,
          6.27852060e-05, -3.63591535e-04, -1.61321106e-04,
          -1.85879515e-04, -1.48516076e-04, 2.00966504e-04,
          3.94854142e-04, 1.16675728e-04, 1.49281055e-04, 5.67115494e-04,
          4.23846504e-05, -1.30150351e-04, -2.12074854e-04,
          2.31766564e-04, 2.34796142e-04, 9.82473284e-05,
          -2.10712882e-04, 4.74367145e-04, 2.29411235e-04,
          -3.86961619e-04, -6.82398386e-05, 1.70744635e-04,
          -1.81630545e-04, -1.26632149e-04, -2.33239814e-04,
          1.42992203e-05, -1.71848049e-04, -1.63079967e-04,
          -3.86028551e-05, -1.76791917e-04, -5.53348043e-04,
          7.78244212e-05, 1.81802272e-04, 1.22110156e-04,
          -1.62185552e-05, -4.22607482e-05, -2.34276333e-04,
          1.92969281e-04, 7.22201657e-04, 6.54351970e-05, 6.24382985e-04,
          3.44641099e-04, 1.57059869e-04, 1.39810261e-04,
          -3.11253571e-05, 4.86406543e-06, 8.15006861e-05,
          1.22870682e-04, 5.81934466e-04, 3.80709826e-04, 3.65264597e-04,
          -1.23413056e-05, -8.52000449e-05, 3.80496385e-05,
          -4.22058976e-04, -2.96193866e-05, -7.31625260e-05,
          -1.32853747e-04, 1.70438332e-04, -5.20970316e-05,
          1.32489702e-04, 1.03062535e-04, 7.41660624e-05,
          -6.22416919e-05, -2.76515289e-04, 5.83862457e-05,
          -3.30784940e-04, 5.27093980e-05, 5.11496801e-05,
          6.45324762e-04, 4.13502741e-04, 8.92915050e-05, 1.66492042e-04,
          7.74526416e-05, 4.15267423e-04, 1.80427698e-04, 1.51515822e-04,
          -5.82004832e-05, 1.55488306e-04, -1.35988405e-04,
          1.90060222e-04, 1.66020109e-04, 7.80702801e-04,
          -8.66453483e-05, 2.23661773e-04, 2.01846444e-04,
          -3.18101345e-04, 3.38238897e-04, 1.58629613e-04,
          -3.69102025e-04, 4.64526092e-04, -3.23468208e-04,
          3.52471798e-05, 1.09369512e-05, -1.52628665e-04,
          -4.13792986e-05, -2.60512519e-04, -3.45939538e-04,
          -4.69967606e-04, 1.72093351e-04, 1.94457229e-04,
          4.57144721e-04, 2.14207903e-04, 1.62925018e-04,
          -2.27559198e-04, 2.19459209e-04, 5.86612732e-04,
          2.21297858e-04, 4.31925437e-04, 2.35737352e-05, 1.97468034e-04,
          -3.42396961e-04, 6.34829630e-05, -1.74631292e-04,
          2.95925158e-04, -1.84609249e-04, -2.71112338e-04,
          -7.75172521e-05, -1.82498494e-04, 1.90337363e-04,
          2.08041752e-06, -3.94692324e-04, 5.23752460e-05,
          -6.81217876e-04, -1.93593791e-04, -1.57759074e-04,
          -2.42075184e-04, -1.78694754e-05, 5.79777115e-05,
          -2.65745504e-04, -1.71078369e-04, 3.09493014e-04,
          2.96510785e-04, -7.27202132e-05, 2.47349089e-04,
          7.60240946e-05, -1.91613784e-04, 1.63052027e-04,
          1.61069882e-04, -5.05739590e-04, 5.59731969e-04,
          1.24951650e-04, -2.21052498e-04, -3.83019185e-04,
          -6.74002440e-05, -1.24929225e-04, -1.14834154e-04,
          -2.58956352e-05, 2.53719831e-04, 5.15747583e-04,
          -1.36946852e-04, -6.65921980e-05, -1.22641970e-04,
          -2.54729210e-04, -4.03676473e-04, -5.59008389e-04,
          2.72742385e-04, 1.65978490e-04, -2.32839782e-04,
          -2.76990351e-04, 5.71211858e-05, -2.44096416e-04,
          -1.58152674e-04, 2.16922908e-05, 2.38636640e-04,
          5.10790618e-04, 3.18680133e-04, 1.30494664e-04, 2.91513483e-04,
          2.37170781e-04, 2.36860375e-04, -4.56626594e-06,
          2.71474943e-04, 1.43611896e-05, 7.21378019e-05, 2.41055372e-04,
          -1.73918306e-04, 5.17691660e-04, 7.31782347e-05,
          -2.53818725e-04, 3.54428485e-04, -1.41276687e-04,
          1.39053140e-04, 5.22114744e-04, -3.69682908e-04,
          2.99532898e-04, 3.73678631e-04, -4.39519878e-04,
          -1.51544256e-04, 6.32377341e-05, 2.62280209e-05,
          1.63386343e-04, 1.04344253e-04, 1.57420378e-04,
          -2.18885834e-04, -2.00689436e-04, 3.68161534e-04,
          8.02944589e-04, 5.97160310e-04, -2.20266375e-04,
          3.34017939e-04, 3.88281042e-04, 2.52975478e-05,
          -1.58820214e-04, -2.76443589e-05, -1.79886600e-04,
          -2.10477970e-06, 2.66434974e-04, -2.83718953e-04,
          3.69258545e-04, 1.40769902e-04, -3.59178230e-04,
          -2.13668536e-04, -3.37539183e-04, 2.54995975e-04,
          7.04845297e-05, -6.96741685e-04, 1.09538079e-04,
          2.45651841e-04, -3.75195232e-05, -3.10843432e-04,
          -7.39932075e-05, -1.42983234e-04, 3.85715248e-04,
          -5.50049008e-04, -1.03576727e-04, 3.34376600e-05,
          1.82232368e-04, 1.30079454e-04, 4.82624513e-04, 7.09231172e-05,
          1.95319008e-04, 3.96793475e-04, 2.74714956e-04,
          -3.46130400e-04, 2.98732863e-04, 2.89104617e-04,
          3.07791808e-04, -6.11237192e-04, -7.27305742e-05,
          -3.92122893e-05, 1.86983059e-04, -1.33009904e-04,
          -1.48013482e-04, -1.38140909e-04, -2.91538745e-04,
          -1.12044676e-04, -4.87189915e-04, -1.94767897e-04,
          1.73303488e-04, -3.11043113e-04, -2.25060212e-04,
          -2.36892098e-04, 9.99744661e-05, -1.72527598e-05,
          -8.71992670e-05, -4.20935190e-04, 3.34500655e-04,
          -2.06195531e-04, 3.51618830e-04, 3.40960076e-04,
          -1.71029795e-04, 6.50389266e-05, 1.60960422e-04,
          7.01825425e-04, 6.67025568e-04, 1.10169320e-04,
          -8.45785326e-05, 1.78681614e-04, 2.26055781e-04,
          1.14206385e-04, 2.77161053e-05, 1.54197318e-04,
          -6.87310967e-05, 3.18761849e-05, -1.64003548e-04,
          -2.81871035e-04, -2.34999170e-04, 2.40051901e-04,
          -1.71162043e-04, 2.38805296e-05, -1.90071398e-04,
          -2.70376127e-04, -2.75118946e-04, 4.19515782e-05,
          -5.86891038e-05, -4.88644691e-05, -1.49167696e-04,
          -2.37306565e-04, -4.90257371e-05, -1.59082592e-05,
          5.76837192e-05, 3.29768693e-04, 2.63433059e-04, 4.00873017e-04,
          -1.39022697e-04, 4.12772206e-04, 2.34015592e-04,
          3.87263746e-04, -2.09378748e-04, -2.12460509e-05,
          -1.55775982e-04, 1.51861226e-04, -5.09472156e-04,
          -2.75528466e-04, 2.89254269e-04, 2.71738390e-04,
          -1.13421818e-04, -3.99836892e-04, -4.49824758e-04,
          -2.83215020e-04, -4.45846817e-04, -4.40259377e-04,
          9.84009239e-05, -1.52670240e-04, -4.13050235e-04,
          -4.47044411e-04, -1.14217117e-04, -4.01802070e-04,
          -2.50358484e-04, -2.77945714e-04, 2.91415432e-04,
          -1.26789921e-04, 4.11663350e-04, 1.00588462e-04,
          3.42739600e-04, 3.87815002e-04, 1.74295172e-04, 1.62539203e-04,
          2.88612675e-04, 1.42223391e-04, 1.46762555e-04,
          -6.93996699e-05, 8.60160580e-05, 8.33069571e-05,
          -5.12141232e-05, -3.24251072e-04, 2.37964632e-04,
          -8.37882617e-05, -2.87021830e-04, -2.12940999e-04,
          1.85576835e-04, -4.74845001e-04, -2.37747052e-04,
          -4.04883875e-04, -4.59354196e-04, -3.72174312e-04,
          -1.85482422e-04, -2.07861667e-04, -3.11631127e-04,
          -1.07447791e-04, 2.21317227e-04, -6.89666369e-04,
          -9.91213674e-05, -1.99632617e-04, 3.53775889e-04,
          -3.55436176e-04, 2.48670185e-05, 3.74303927e-04,
          4.83792363e-04, -5.93021177e-05, 3.23028391e-04,
          2.54678103e-04, 2.77601037e-04, -4.89886675e-04,
          7.44349454e-05, 3.27620110e-05, 6.33453819e-05,
          -6.58251738e-05, 3.58320140e-05, -1.19192533e-04,
          1.62524375e-04, -4.63034550e-04, -1.75719091e-04,
          -4.08592387e-05, -9.04251428e-05, -4.36216535e-04,
          -1.55586837e-04, -1.47956700e-04, 3.02727829e-04,
          1.36420771e-04, -1.39355398e-04, 3.42217500e-05,
          7.16599388e-05, -5.36184933e-04, -6.99090233e-05,
          -9.46404107e-05, 2.76571838e-04, -1.76416172e-04,
          -1.02873404e-04, 4.40651027e-04, 3.76749173e-04,
          2.47706310e-04, 1.75985464e-04, 4.21927660e-04, 5.58169035e-04,
          -2.32392587e-04, -2.10427988e-05, 1.09578199e-04,
          -4.11441251e-05, 3.20704945e-04, -6.08371147e-06,
          6.41853549e-05, 1.68168932e-04, -5.00143738e-04,
          -2.19896814e-04, 2.08322250e-04, -7.20198877e-05,
          -2.76685809e-04, 2.08709622e-04, 2.56081636e-04,
          3.31265270e-04, -5.88899013e-04, -3.39218750e-05,
          -2.45309038e-05, -6.48648202e-05, -3.00974440e-04,
          2.52402242e-04, 3.33018106e-04, 3.19613813e-04, 1.38577467e-04,
          -1.41262833e-04, 2.24715579e-04, 3.23737040e-04,
          1.77254784e-04, -2.36219203e-04, 1.27329971e-04,
          1.79038194e-04, 2.44863040e-04, -2.91474658e-04,
          1.09859582e-04, 1.15926168e-05, 2.21245718e-04,
          -1.05040090e-04, 1.23709804e-04, 4.90108680e-04,
          -1.61964766e-04, -1.56190508e-04, 2.82001656e-05,
          6.29784263e-05, 1.04218409e-04, 8.92322059e-05, 7.95926826e-06,
          3.94126837e-04, -2.64123140e-04, 1.40006682e-06,
          -3.57275218e-04, 8.72819743e-04, 2.01579664e-04,
          -1.28343963e-05, -2.42318838e-05, 2.73298589e-04,
          -1.40129807e-04, -6.04792658e-05, 4.12745634e-04,
          3.71226197e-04, 2.19926718e-04, 7.46800288e-05, 8.20071000e-05,
          1.16975600e-04, 4.51043074e-04, 3.46048851e-04,
          -1.39903132e-04, -2.72465968e-05, 2.03116317e-04,
          1.69600375e-04, 2.06779994e-04, 4.52472363e-04, 1.66763406e-04,
          1.75244510e-04, 2.22645351e-04, -2.00432187e-04,
          -6.29733258e-05, -5.13156265e-05, -2.53327715e-04,
          -6.57953788e-05, -2.83166097e-04, 2.93956749e-04,
          -1.33230322e-04, 3.45883513e-04, 2.56111700e-04,
          -1.52903289e-04, -3.13747121e-04, 1.58513081e-04,
          -1.90060833e-04, -3.42547137e-04, 5.44727023e-04,
          3.18832317e-04, 5.77245373e-04, 3.68391658e-04, 1.24588012e-04,
          -5.26067975e-04, 9.07314534e-05, -1.26939849e-04,
          1.61612319e-04, 3.03715069e-07, 2.00091279e-04, 9.29272646e-05,
          -6.83473118e-05, -1.06074867e-05, -1.00776095e-04,
          -7.40731135e-04, 3.54011805e-04, -2.99952168e-04,
          -3.76650947e-04, -3.43273452e-04, 2.15851833e-04,
          -5.33063721e-04, -1.05070030e-04, -4.21087228e-04,
          -2.57750566e-04, 5.83108958e-05, 5.05864882e-05,
          -4.09564382e-04, 3.25808760e-05, 2.56281837e-05,
          1.07706095e-04, -1.18489115e-04, 4.97457979e-04,
          -2.73423735e-04, -4.11086730e-05, 4.91641695e-04,
          1.28036563e-05, -2.69959535e-04, -7.90610648e-05,
          6.01567081e-05, 1.85935525e-04, -1.12555201e-04,
          -2.07219982e-05, -5.44299081e-04, -2.09999969e-04,
          -2.88702286e-04, -6.19745813e-04, -1.52985333e-04,
          -3.59621044e-04, -5.45307528e-04, -3.08052317e-04,
          -8.00002483e-04, -1.38549527e-04, -7.64320954e-04,
          -5.94063495e-05, -5.81030676e-04, -4.17191652e-04,
          -4.86090314e-04, -6.97830765e-05, -6.23895903e-04,
          -1.87653277e-04, 1.97954112e-04, 7.00420875e-04,
          5.66244591e-04, 1.28763670e-04, -1.16886331e-04,
          3.93305119e-04, 3.22915206e-04, 6.76818134e-04, 2.29735655e-04,
          6.32831594e-04, 2.41413421e-04, 4.53649991e-04, 1.82132426e-04,
          3.78917175e-04, 2.20133908e-04, 9.34723648e-05, 5.08540426e-04,
          2.35332584e-04, 2.33971849e-04, 2.67067342e-04,
          -2.33746599e-04, 2.38893408e-04, -3.42276559e-04,
          1.21883801e-04, -4.32830420e-05, -2.39220826e-04,
          -8.42124427e-05, 4.44815611e-04, -3.11757904e-04,
          4.12085123e-04, -4.65725258e-04, 5.76480874e-04,
          4.54593421e-04, 1.78148446e-04, 4.06082632e-04, 3.12778720e-04,
          -2.84923823e-04, 2.72841044e-05, 5.92334312e-04,
          3.44842178e-04, 4.64323384e-04, -1.10506291e-04,
          1.34724192e-04, 3.73705407e-04, 2.50034413e-04,
          -1.79085662e-04, 4.50080872e-04, -1.38380592e-05,
          3.19567567e-04, -4.61415009e-04, -1.57072034e-04,
          4.25733087e-05, -2.27469296e-04, 3.67552129e-04,
          -1.64592406e-04, 5.90250602e-05, 3.03580513e-04,
          -2.04289783e-04, 7.79665061e-05, -1.50781954e-04,
          -8.13683073e-05, 2.78169144e-04, -4.37420444e-04,
          5.19943069e-06, 3.61549028e-04, 2.02971903e-04,
          -5.23228155e-05, 1.30849687e-04, 1.15267241e-04,
          -1.18697564e-04, 4.70124302e-04, 3.29035771e-04,
          2.36416206e-04, -5.18120760e-05, -1.16375166e-04,
          -7.60753755e-05, -4.70309496e-05, -1.65627105e-04,
          2.61834852e-04, -6.56351840e-05, 6.38816709e-05,
          -5.55581937e-04, -3.46787565e-04, -3.26779009e-05,
          -2.29146244e-04, -3.65880871e-04, -2.28947873e-04,
          1.02767648e-04, -4.10796813e-04, -2.45704665e-04,
          8.63060777e-05, -2.77182786e-04, 7.71360737e-06,
          -3.43327818e-04, -9.08988804e-05, -3.03114241e-04,
          1.49215455e-04, 4.49811138e-04, 2.86109771e-05, 4.04356339e-04,
          -1.20993733e-04, -2.11613849e-04, -2.75324037e-05,
          -1.41865939e-05, 8.78081555e-05, 1.05040373e-04,
          4.36784350e-04, 6.38141646e-05, -5.67755662e-04,
          -4.37895824e-06, 3.28938368e-05, -3.55870056e-04,
          -1.38041127e-04, 2.00320908e-04, 1.22397993e-04,
          -1.18100070e-04, -3.63367901e-04, -3.59569647e-04,
          -1.07557418e-04, -3.01332184e-04, -6.11940690e-04,
          1.73559620e-05, -1.64555051e-04, -1.31958775e-04,
          -7.09961634e-04, -6.55209064e-04, -1.62573080e-04,
          -7.04128935e-04, 9.20962266e-05, 1.50454536e-04,
          2.44746392e-04, 1.12710206e-03, 2.02447714e-04, 1.39830023e-04,
          2.52007449e-04, 3.00786051e-04, 1.92821608e-04, 1.96566587e-04,
          4.90051316e-05, 5.40967565e-04, 1.90855237e-04, 3.95419949e-04,
          2.15850305e-04, -4.38110692e-05, 3.93037393e-04,
          3.62975872e-04, 3.07288516e-04, 6.83238177e-05,
          -1.66335405e-04, 2.65389244e-04, -5.96379286e-05,
          2.47855525e-04, 1.50427630e-04, 1.63696561e-04, 5.47473755e-05,
          -6.20444189e-05, -3.68066947e-04, 1.76574657e-04,
          1.53393208e-04, 2.21438124e-04, 2.25456097e-05, 1.37171679e-04,
          3.67058936e-04, 3.08377726e-04, 2.91052391e-04, 3.24135384e-04,
          2.61611363e-04, 1.02782629e-04, -3.98477423e-05,
          -2.41468268e-04, -1.02774429e-04, 2.98032537e-04,
          4.52558394e-04, -2.51118017e-05, 2.83001951e-04,
          3.52698058e-04, 3.76697222e-04, 1.96681995e-05, 3.23207423e-05,
          -7.05745333e-05, -1.62709111e-04, -1.13226279e-05,
          8.49576027e-05, 1.67816033e-05, -1.32443611e-05,
          5.71271521e-04, -4.39288531e-04, -4.88783990e-04,
          -6.73374234e-05, 1.23128957e-05, -3.56742676e-04,
          -2.16527187e-04, 1.53646237e-04, 6.25481072e-04,
          3.18386563e-04, -3.68140376e-04, -5.09321580e-05,
          1.35880284e-04, 3.62232735e-04, 2.06536482e-04, 1.62371449e-04,
          2.60386121e-04, -2.28504723e-04, -4.64162003e-04,
          3.57133133e-04, 1.49953426e-04, -2.48832046e-04,
          5.62161258e-05, 8.93601828e-05, -9.27372530e-05,
          1.64850819e-04, -4.95120621e-05, -2.47729622e-04,
          -2.59972614e-04, -2.15823529e-04, -5.89887379e-04,
          -1.28695596e-04, 2.12196202e-04, 2.54250393e-04,
          2.02929568e-05, -1.81442621e-04, -1.55396148e-04,
          -4.58947674e-04, -6.00235362e-04, -4.61218260e-05,
          7.74938555e-04, 2.33333674e-04, 1.07673106e-04,
          -2.77428539e-04, -1.52041772e-04, 4.49034182e-04,
          2.72912061e-04, 1.15991781e-04, 3.45678214e-04, 4.10922279e-04,
          -1.84750097e-04, 1.77987880e-04, -1.16480996e-05,
          -3.11947835e-04, 6.82493601e-06, -1.15258605e-04,
          -1.94973647e-04, 4.08273598e-04, -3.60913342e-04,
          4.01777943e-05, 1.47586295e-04, -1.96585301e-04,
          -3.76330921e-04, -3.91941052e-04, -6.32582378e-05,
          3.28614813e-04, -2.41317568e-04, -2.55216946e-05,
          7.93961008e-05, -1.42022429e-04, -6.19805418e-04,
          4.96827066e-04, -1.07215837e-05, 4.33531182e-04,
          8.62644520e-04, 4.28571977e-04, 9.17027937e-05, 1.59278701e-04,
          4.04206105e-04, 2.59865832e-04, -1.79603987e-04,
          7.48592312e-04, 3.47154360e-04, 3.13878088e-04,
          -6.64379741e-06, 4.56075650e-05, -4.28320818e-05,
          3.60919279e-04, 3.07315645e-06, 2.20890070e-04, 1.49109736e-04,
          2.64962728e-04, -1.40997436e-04, -6.63061001e-05,
          -3.06328380e-04, 3.43501131e-04, 4.91285988e-04,
          8.20282803e-05, 2.42467257e-04, 2.61532405e-04,
          -1.19156772e-04, -3.11946846e-04, -2.10755039e-04,
          1.97196452e-04, -5.33525854e-05, 5.78541658e-04,
          6.69419183e-04, 1.75749767e-04, -8.12093640e-05,
          2.61171052e-04, 1.38529722e-04, 8.46980911e-05, 5.51577774e-04,
          4.16823110e-04, -1.93709697e-04, 1.80293966e-04,
          1.52728680e-04, -6.48312925e-05, -2.55566003e-04,
          -8.63621390e-05, 3.29557861e-06, 2.16164364e-04,
          -5.41507288e-05, -2.45171046e-04, 3.74035808e-05,
          -1.09996421e-04, -2.05129400e-04, -8.15081730e-05,
          -1.26606188e-04, 3.34888646e-05, 1.15481474e-04,
          -2.88305222e-04, -2.86021823e-04, -1.83592827e-04,
          -2.17175344e-04, -9.41530670e-05, 1.23990350e-04,
          2.07021381e-04, 5.44005190e-04, 3.07740498e-04, 1.64075915e-04,
          7.47809008e-06, -2.53820945e-05, -3.74325246e-05,
          4.25373699e-04, -2.31543872e-05, 3.71419155e-04,
          6.51481751e-05, 6.28852868e-05, -2.20614063e-04,
          -2.54791026e-04, -4.77377471e-05, 2.52803991e-04,
          -8.55068429e-05, -1.82928896e-04, -1.70555766e-04,
          -3.00352083e-04, 9.64405699e-05, -3.06107133e-04,
          -4.00570832e-04, -2.30666137e-05, -1.18726515e-04,
          -1.66325786e-04, -2.58722903e-05, -2.47985590e-04,
          -1.96585446e-04, -2.61453242e-04, -3.16969017e-05,
          2.03503732e-05, 2.22625531e-04, 5.42264374e-04, 1.07638480e-04,
          4.56498092e-05, 4.51049418e-04, 1.81476848e-04,
          -1.19930730e-04, -7.16185532e-05, 1.42908248e-04,
          2.05289340e-04, -9.63640414e-05, -1.65524063e-04,
          2.55542429e-04, -1.81167197e-04, -2.75678962e-04,
          3.60395585e-04, 1.84131262e-04, 2.99138410e-05, 1.48591644e-04,
          -1.65958176e-04, -1.93169079e-04, -3.67751694e-04,
          -6.26598543e-04, 2.19261521e-04, 1.49170752e-04,
          -7.77807600e-06, 4.50016014e-05, -2.57810811e-04,
          -4.46284917e-04, -5.64257556e-04, -1.86579433e-04,
          3.68285691e-05, 8.43359681e-04, 6.81889069e-04, 5.17048175e-04,
          -1.70890853e-04, 2.86313501e-04, -2.82680940e-05,
          1.46246866e-05, 3.49081529e-05, 5.99547930e-04,
          -8.61132285e-05, 3.89208872e-04, -4.75689507e-04,
          1.52019289e-04, 7.78740432e-05, 1.34945294e-05, 1.49618209e-05,
          5.29620098e-04, -2.14100364e-05, 2.56436178e-04,
          -9.18144360e-05, 1.02359896e-04, -7.12243345e-05,
          2.51317804e-04, -2.02627212e-04, 3.86438973e-04,
          1.72961067e-04, 4.46568098e-04, -6.32122174e-05,
          8.99656661e-05, -4.99246380e-05, -2.15231368e-04,
          3.79357836e-04, 5.94149285e-04, 3.75779724e-04, 7.59613933e-04,
          2.82371067e-04, 2.56232044e-04, 1.01190351e-04,
          -2.15117703e-04, 3.84961459e-04, 5.60057350e-04,
          1.82445598e-04, -6.84179176e-05, 2.70034270e-05,
          6.04849338e-05, -1.48349936e-04, 2.70811201e-04,
          -1.95148066e-04, 7.56268331e-04, 2.23277704e-04,
          2.67715281e-04, -2.31283222e-04, -2.73001242e-05,
          3.93931114e-05, 9.60051184e-05, -1.05193330e-05,
          6.82142854e-04, 1.36630450e-04, 3.38787737e-04,
          -1.53875244e-05, 1.40622273e-04, 7.94186490e-05,
          1.50540436e-05, -1.34048561e-04, 1.79924333e-04,
          2.34831779e-04, 3.63909552e-04, 5.29941637e-04, 1.63860634e-04,
          -1.25637904e-04, -1.43948462e-04, 3.79753110e-05,
          9.40477184e-05, -4.11114524e-05, -7.55135843e-05,
          1.66834448e-04, 1.07544329e-04, -2.66565185e-04,
          2.28584366e-04, -2.68461357e-04, 2.92119192e-04,
          3.90112895e-04, 2.33274404e-04, -2.63273454e-04,
          3.55882803e-04, 7.56860245e-05, 1.99828079e-04,
          -2.65831070e-04, 5.06304204e-04, 4.24846163e-04,
          1.53163928e-05, -8.75983023e-05, 4.67999198e-04,
          -1.40176344e-04, 7.42717457e-05, -7.26593193e-04,
          2.68199656e-04, 9.29192684e-05, 8.49997668e-05, 3.30811657e-04,
          2.44662751e-05, 1.34960690e-04, -7.08888592e-06,
          -6.03899651e-04, 4.25039121e-04, 1.17194679e-04,
          1.12188834e-04, 5.02978619e-05, 1.57580114e-04,
          -4.51436390e-05, -2.47602962e-04, -5.09193982e-04,
          5.20021305e-04, 3.78151948e-04, 5.37750930e-05,
          -1.97052985e-04, 5.45950490e-04, -1.99592541e-04,
          2.88411131e-04, -5.75389022e-05, 3.75758274e-04,
          -8.84944238e-05, -9.59014287e-05, 2.53316917e-04,
          3.30226292e-04, 4.53906650e-05, 1.58750670e-04, 3.33948265e-04,
          5.31553582e-04, 6.49394642e-04, -1.41950077e-04,
          5.71725366e-04, 7.21006218e-05, 2.74484511e-04, 5.60920053e-05,
          2.56488449e-04, 3.37241247e-04, 4.67038888e-04, 1.87560090e-05,
          1.45203710e-04, 1.66090293e-04, 4.73574357e-04, 1.04176790e-04,
          -1.05462248e-04, 5.12640581e-05, 9.37253499e-05,
          7.36011483e-04, -1.62033000e-04, -6.04151683e-05,
          4.03765123e-04, -1.02213497e-04, 1.73712295e-04,
          2.98902538e-04, 6.77958422e-04, -4.64949262e-05,
          1.54347435e-04, -2.13952895e-04, 2.44760333e-04,
          4.82534560e-05, -1.12215885e-05, 1.51727800e-04,
          2.79473519e-04, -7.29013409e-05, 3.08177841e-04,
          -5.34267542e-07, 2.88414129e-04, -4.17203446e-05,
          4.54560868e-05, 9.88972461e-05, 4.74495639e-04, 2.39471454e-04,
          -1.83173295e-04, 2.77159619e-04, 2.26687305e-04,
          1.08976768e-04, -1.08839056e-04, 3.30523006e-04,
          4.04759950e-04, 1.17012452e-04, -2.67743249e-04,
          -1.55115122e-04, 2.24522839e-04, -2.24631367e-04,
          2.60089291e-04, -1.77081131e-06, 5.00268477e-04,
          5.33454840e-05, 1.75700508e-04, -1.04536712e-05,
          -1.61399919e-04, -2.26815464e-04, -1.64101621e-05,
          1.08849759e-04, 2.94954407e-05, 1.11393863e-04, 2.45727511e-04,
          2.88160809e-04, -1.02207727e-04, -3.83761741e-04,
          6.02731743e-05, 3.03984535e-07, 8.53831734e-05, 5.00915747e-04,
          1.02654660e-04, 1.39848722e-04, -2.85262417e-04,
          -1.66910671e-04, -1.14572525e-04, -1.72809712e-04,
          -4.28892272e-05, -5.02839175e-05, -3.19763523e-04,
          3.66350490e-04, -1.56267692e-04, -4.14248818e-04,
          -1.16584006e-05, -1.29102875e-04, 9.99884796e-05,
          -6.53632160e-05, -9.97684692e-05, 5.71381184e-04,
          2.25953001e-04, -5.65575028e-04, -1.93251282e-04,
          3.83493985e-04, -9.77052423e-06, 1.50245745e-04,
          1.26918356e-04, 5.67322859e-05, 1.89888422e-04,
          -6.24290959e-04, -1.17050215e-04, 2.05344186e-05,
          3.92292422e-05, 4.01871919e-04, 2.35548010e-04, 1.51362881e-04,
          3.51541712e-05, -2.90619704e-04, -1.53301837e-04,
          -9.99588665e-05, 1.39191572e-04, 3.27601228e-05,
          -1.57364950e-04, -4.32728993e-05, -1.68539773e-04,
          -4.81610477e-04, -2.06331097e-04, 2.32372040e-04,
          -5.33926395e-05, -1.02319915e-04, -2.58682616e-04,
          2.49281700e-04, -1.32962159e-04, -1.26673855e-04,
          5.48345342e-05, 1.18003925e-04, -5.10491736e-06,
          -1.54161040e-04, 1.46137187e-04, 2.35002663e-05,
          2.77746494e-06, 9.65420695e-05, 3.55409895e-04,
          -1.38678733e-04, -6.16469188e-05, 1.89774568e-04,
          -5.22437840e-05, 2.35205662e-04, -6.28260677e-05,
          -2.36452557e-04, 1.07853601e-04, 2.34222083e-04,
          3.09701631e-04, -2.20827133e-04, 7.81775816e-05,
          5.46132578e-05, -1.31612542e-04, 7.83449141e-05,
          -9.02675165e-05, 4.16172988e-04, 2.72728794e-04,
          -4.97184286e-04, 2.54055867e-05, -1.32818182e-04,
          -1.02895312e-04, -2.20245100e-04, -1.91347008e-05,
          3.90580826e-05, 1.11434871e-04, -1.46298786e-04,
          1.21923658e-04, -3.23373642e-05, 1.28036307e-04,
          1.81116149e-04, -1.74341229e-04, 6.42937594e-05,
          -4.21179102e-05, 8.28202319e-05, -1.84692326e-04,
          -7.68312293e-06, 3.52069212e-04, -2.01195347e-04,
          -2.17995577e-04, 6.60857040e-05, 1.93533662e-04,
          -1.60369455e-05, -9.31924151e-05, -1.26841205e-05,
          1.06913518e-04, 1.77613445e-04, 1.20194672e-04, 2.20737609e-04,
          1.07317726e-04, 1.17100484e-04, 8.37957268e-05,
          -2.21436276e-04, 2.46138661e-04, -4.29171720e-04,
          3.56521705e-05, 1.63073390e-04, 1.61916047e-04, 4.10637622e-05,
          2.83366942e-04, -1.39537602e-04, 1.56197450e-04,
          3.61855986e-04, -2.47501506e-04, 1.01460224e-04,
          2.03572068e-04, 1.07190455e-04, -3.19172454e-04,
          1.29206946e-05, 2.88393901e-04, -3.93379305e-04,
          1.58903538e-04, -1.36409755e-04, 1.27863677e-04,
          6.45100590e-05, -4.15171409e-04, 3.89519904e-04,
          3.67087232e-05, -2.58167915e-04, 1.94645472e-04,
          -4.76721689e-05, 8.80920488e-05, 2.88919749e-04,
          -1.78593356e-04, 7.22491241e-05, 2.21787341e-04,
          -4.97090630e-04, -3.14052246e-04, 3.41875857e-05,
          3.63302242e-04, 1.22012956e-04, 3.55555094e-04, 3.44624605e-05,
          4.39301890e-04, -2.16255445e-04, -2.27894561e-04,
          1.81964948e-04, -4.22748635e-05, 3.23420827e-04,
          8.24187809e-05, -8.14921586e-05, 4.69694991e-04,
          -4.80085757e-04, 1.93527958e-04, 2.68677977e-04,
          -1.49953230e-05, 3.75579402e-05, -3.23732267e-04,
          8.87230199e-05, 4.44770470e-04, 8.16749889e-05, 4.17257725e-05,
          -5.04791169e-05, -1.89461171e-05, -2.91023694e-04,
          -2.26080112e-04, 1.60346928e-04, 1.06803971e-04,
          5.08596640e-05, -6.32261945e-05, 5.39895787e-04,
          2.13729611e-04, 2.47108746e-05, -1.49866479e-04,
          2.37677887e-04, 2.79342115e-04, -2.42954906e-04,
          2.13431878e-04, 5.80007909e-04, -2.03715361e-04,
          1.81923009e-04, -2.76276143e-04, 2.27892931e-04,
          3.05214926e-04, -1.92845218e-05, 9.19777012e-05,
          1.82381438e-04, -1.53328452e-04, 2.10693659e-04,
          -3.68610272e-05, -2.02096300e-04, 2.47167744e-04,
          -1.18184416e-05, -2.48150813e-04, 1.35786075e-04,
          2.87345349e-04, -1.82962976e-04, -6.12560907e-05,
          -2.25279582e-05, 1.72100583e-04, -1.47143990e-04,
          1.60630821e-04, 1.33600470e-05, 1.02164260e-04, 6.25042376e-05,
          -6.06046888e-05, 7.82725983e-05, 2.64381291e-04,
          -1.59220042e-04, 3.60986814e-06, 3.37421661e-04,
          -3.74619267e-05, -3.67972709e-04, -3.49346752e-04,
          2.57319134e-05, 2.62418820e-04, 1.29327484e-04,
          -2.82556401e-04, -1.33284091e-04, 2.68669421e-04,
          7.68659302e-05, -5.10355603e-05, -3.05042719e-04,
          2.22095565e-04, -2.00892082e-05, -1.60523239e-04,
          2.35285697e-05, 9.25072090e-05, -2.36864435e-04,
          1.82906340e-04, 1.82106287e-05, 3.50076181e-04, 6.21939171e-06,
          -9.72835187e-05, 2.07630146e-04, -2.42601491e-05,
          2.07329344e-04, 6.99645170e-05, 2.81572371e-04, 2.80592620e-04,
          1.18381162e-04, -8.29433702e-05, 5.31781188e-05,
          1.39332929e-04, -1.14604969e-04, 8.27455660e-05,
          -1.54523470e-04, -1.41494456e-04, 2.74370337e-04,
          -3.90668982e-04, 3.18426573e-05, -1.05984916e-04,
          4.36136237e-04, 1.29245338e-04, 9.80182667e-05, 1.40917793e-04,
          -1.20200391e-04, -3.01073858e-04, 2.55464634e-04,
          -1.57972187e-04, 5.19350651e-05, -4.32437926e-04,
          -3.61360217e-05, 1.47190338e-04, 7.31026303e-05,
          -1.28354746e-04, 3.28000868e-04, 4.35705384e-04,
          1.96945693e-04, -1.83440323e-04, 1.70761487e-04,
          6.05867710e-04, 2.78591004e-04, -1.81362630e-04,
          4.13536036e-05, 1.20003802e-04, 1.46485298e-04,
          -9.68096283e-05, 1.23169239e-05, -5.40306755e-05,
          3.11020049e-05, -3.91651811e-05, 3.12693992e-05,
          -2.52371305e-04, 5.00581809e-04, 1.96922687e-04,
          -1.21070974e-04, -7.21970791e-05, -5.69688382e-05,
          -9.31453906e-05, 1.83853743e-04, -7.53910936e-05,
          4.03035578e-04, -2.92581157e-04, 2.67313317e-05,
          5.80978740e-05, 2.87957897e-04, 1.06134321e-04,
          -4.22054116e-04, 1.24456419e-04, 1.91036161e-04,
          -1.13038455e-04, 8.08971017e-05, 2.10918937e-04,
          2.67418334e-04, 4.44641264e-05, -2.29786252e-04,
          1.99051923e-04, 3.15351899e-05, 1.77501875e-04,
          -1.95304165e-04, 2.83382542e-04, 3.05173326e-05,
          -1.08402972e-04, -3.43492939e-05, 2.10323225e-04,
          -4.42231285e-05, -8.97499776e-05, 1.99393762e-04,
          6.07973780e-05, 4.45090001e-04, -5.10721933e-04,
          6.69322762e-05, 2.91344710e-04, 3.93561466e-04,
          -8.00527050e-05, 2.45261472e-04, 1.42587814e-04,
          4.12998015e-05, 3.32575786e-04, 2.64626229e-04, 2.76381761e-04,
          1.77621841e-04, -2.52060709e-04, -1.95470348e-04,
          3.52021380e-05, -9.37699733e-05, 4.27962041e-05,
          9.54930074e-05, -1.28151092e-04, 8.94150508e-05,
          2.54695333e-05, -2.35943880e-04, 3.44920758e-04,
          -1.51664979e-04, -2.32740334e-04, 2.78771797e-04,
          -5.16783271e-04, 2.54534738e-04, -1.25565493e-05,
          5.37675260e-05, 8.45384711e-05, 7.01524608e-04,
          -4.81999101e-04, -8.89842249e-06, 2.74798454e-04,
          3.73374321e-04, 9.52388000e-05, 1.72650267e-04, 1.02425503e-04,
          1.56345501e-04, 1.55429021e-04, 1.26288389e-04, 1.25639577e-04,
          3.43552179e-04, -5.46782030e-05, 3.32095864e-04,
          4.24829113e-06, -9.74279756e-05, 5.30506768e-05,
          1.61552380e-04, 9.09953178e-06, 9.87580715e-05,
          -1.65148973e-04, 1.98749200e-04, 3.73038233e-06,
          1.46061793e-05, -1.59722214e-04, -1.57380040e-04,
          -2.31061946e-04, -2.34768158e-05, -1.40909324e-04,
          4.63248289e-05, -4.33286114e-05, 5.45853691e-04,
          5.50142295e-06, -1.38493288e-05, -2.05755190e-04,
          -2.01214847e-04, 3.37016332e-04, 4.07744927e-04,
          4.74638109e-05, 3.10167699e-04, 2.58101159e-06, 4.38022835e-04,
          -9.65660074e-05, -7.98154651e-05, 3.29614035e-04,
          -3.00095737e-04, -2.84645939e-04, -4.50834195e-05,
          -7.33080029e-04, 5.18993300e-04, 1.07377178e-04,
          -4.47346451e-04, -2.44126350e-04, -4.36586823e-04,
          1.11128342e-04, -1.65116617e-05, -7.15682865e-04,
          -3.68700566e-04, -1.21545774e-04, -4.73978813e-04,
          -5.24164527e-04, -5.46725532e-05, -7.55626461e-05,
          1.78400296e-04, -2.70390970e-04, -5.62393980e-04,
          -1.00064441e-04, -6.95286435e-04, 1.15808900e-04,
          -2.27348457e-04, -1.45624857e-04, 3.82424245e-04,
          9.31597431e-04, 1.50526175e-04, -1.20761113e-04,
          2.75687053e-04, 4.11822315e-04, 2.48266995e-04, 3.64113628e-04,
          4.08274966e-04, 3.95870098e-04, -1.98247144e-05,
          1.61262826e-04, 2.08826954e-04, 4.93020751e-04, 2.55249665e-06,
          -1.65803503e-04, -1.77536022e-05, 1.07229884e-04,
          -1.18412347e-04, 1.06844040e-04, 3.35486635e-04,
          4.29379288e-04, 2.13303603e-04, -1.05053245e-04,
          -1.70869229e-04, -4.51556785e-04, 2.52114958e-04,
          2.03168689e-04, 2.80795153e-04, 5.29468176e-04, 1.29480322e-04,
          5.30644087e-04, 4.22699173e-04, 2.79120082e-04, 1.41354976e-04,
          3.03623587e-04, -4.12302179e-04, 7.25217178e-05,
          1.86105142e-04, 3.19738901e-04, 4.86632161e-05,
          -7.02163088e-05, -8.30972203e-05, 5.87534509e-04,
          -2.12559928e-04, -1.06245519e-04, 1.28899454e-04,
          1.12078778e-04, -1.23787337e-04, 1.88546386e-04,
          -4.71399777e-04, 6.95741328e-05, 2.02371972e-04,
          1.17218544e-04, 9.65242070e-05, 1.56686787e-04,
          -2.70149845e-04, -6.53572060e-05, -1.08601409e-04,
          -9.47930748e-05, 2.04931217e-04, 2.36540800e-04,
          -1.38373682e-04, 6.41503197e-04, 1.70443702e-04,
          1.49935237e-04, 5.31625003e-04, 7.89928527e-05,
          -4.09276749e-04, -1.67658145e-04, 3.75686825e-04,
          1.21369158e-04, -3.13257973e-04, 1.85619429e-05,
          1.93930551e-04, 4.67099395e-04, 5.83637193e-05,
          -9.80418117e-05, -4.35748116e-05, 1.21362835e-04,
          -2.76383624e-04, 3.02026797e-06, 1.24112878e-04,
          1.68851329e-04, -3.43994820e-04, -2.23543117e-04,
          -3.38972633e-04, 1.06293191e-04, -2.64808245e-04,
          2.77688814e-05, 2.26463781e-05, -2.24116447e-04,
          4.42100281e-05, 2.34306990e-05, -5.56105515e-04,
          2.54475075e-04, 3.23162036e-04, 1.05655063e-05, 6.71158477e-06,
          3.61913262e-04, 1.74777451e-04, -2.58673594e-04,
          -1.79416646e-04, 1.39339812e-04, -1.54164591e-04,
          3.49013426e-05, 2.74508260e-04, 2.34256629e-04,
          -2.31328086e-04, 2.06696233e-04, -3.88042681e-04,
          -1.00166471e-04, -3.33212549e-04, -6.22956068e-05,
          2.03536940e-04, -4.33664245e-04, -6.26739755e-04,
          7.84019285e-05, -2.82670546e-04, -3.08682240e-04,
          -2.73487676e-04, -5.50728182e-05, 1.22823854e-04,
          -1.20956342e-04, -5.62699512e-04, -2.98950967e-04,
          -2.35428830e-04, -9.43740524e-05, 4.57230024e-04,
          2.90325144e-04, 3.97160649e-04, 3.38680111e-04, 3.47779242e-05,
          6.00464584e-04, -4.96452558e-05, 3.92581627e-04,
          5.52931451e-04, 8.60616419e-05, 3.15371057e-04, 2.04175507e-04,
          -6.34559456e-06, 2.15949636e-04, 5.26265248e-05,
          -1.02963895e-04, 3.29000439e-04, 2.46392767e-04,
          1.31173816e-04, 8.51770528e-06, -1.71476859e-04,
          -2.43983726e-04, 1.62113909e-04, -3.95508163e-04,
          1.48036852e-04, -1.68890663e-04, 3.47846835e-05,
          4.08368185e-04, -2.61057750e-04, -3.48802314e-05,
          3.16271617e-04, -2.79332453e-04, 3.40930594e-04,
          4.90855251e-04, 4.48300649e-04, 4.70675623e-05, 2.42412018e-04,
          4.04500694e-04, 3.65649059e-04, -1.07018641e-04,
          7.33285444e-04, -1.59637973e-04, 2.17314475e-04,
          2.20253947e-04, -1.40773527e-05, 1.57046277e-04,
          7.85281591e-05, -2.79922097e-04, 4.42668126e-04,
          1.21701436e-04, 1.55101618e-04, -1.08944936e-04,
          -1.66773345e-04, 1.34692527e-04, 1.64633486e-04,
          -2.04986045e-05, -1.16626097e-05, 3.42265375e-05,
          4.60168958e-04, 1.74580946e-05, 4.16711955e-05, 2.53792150e-05,
          1.47458559e-04, 7.32888875e-05, 2.38611974e-04, 3.55962635e-04,
          5.24140080e-04, 1.16465737e-04, 5.59516593e-05, 3.46365210e-04,
          6.12550939e-04, -8.34189850e-05, 7.50767722e-05,
          -2.48971541e-04, 3.90029076e-04, 2.69803597e-04,
          2.04789932e-04, 1.01588503e-05, 7.29187974e-04, 3.69882036e-05,
          3.16929159e-04, -2.44752096e-04, -1.59195610e-04,
          3.95094859e-04, -1.05039355e-04, -2.31280064e-04,
          3.71648523e-04, -5.57650870e-04, 2.23077033e-04,
          2.38502500e-04, 4.39284020e-04, 1.70700470e-04, 2.30746082e-04,
          -8.55038452e-05, -5.23203635e-05, -1.40562086e-04,
          4.98772017e-04, -3.98530610e-05, 8.01216229e-05,
          1.25614868e-04, 2.66851101e-04, -1.11324152e-04,
          1.41423137e-04, 2.30577396e-04, -1.59666331e-06,
          -7.67648307e-05, 1.89732455e-04, 1.69735984e-04,
          2.30341480e-04, -1.12399975e-04, 1.12014088e-04,
          6.08563249e-04, -3.25172208e-04, -1.07805827e-04,
          1.12142225e-04, -2.99913045e-05, 7.51617263e-05,
          1.09996727e-04, 2.08091573e-04, -5.05438191e-04,
          -1.62833298e-04, 1.66990721e-04, -9.55978103e-05,
          -1.82044503e-04, 4.69495659e-04, -8.29509590e-05,
          7.55765068e-05, -8.44361086e-04, 2.04770608e-04,
          3.90471716e-04, 4.33756999e-04, 3.47171706e-04, 1.85543759e-04,
          3.52643256e-04, 9.39018428e-05, -1.95564120e-04,
          -6.09727249e-06, 1.22898360e-04, 5.62213943e-04,
          2.74836726e-04, 9.37303485e-05, 2.11263687e-04, 1.14301933e-04,
          1.37957119e-04, 2.21987779e-04, 2.02425406e-04, 2.47495540e-04,
          4.55189642e-04, -2.71105928e-05, -1.88651931e-04,
          6.32285737e-05, 1.30865606e-04, 5.53161197e-04, 4.70011728e-04,
          1.79230294e-04, -3.28392955e-04, -2.21754643e-04,
          -4.92519932e-04, 1.53020257e-04, -4.46440506e-04,
          6.03760534e-04, 1.99570160e-04, 4.10595268e-04, 2.54245475e-04,
          2.00882743e-04, 7.23526391e-05, -1.29179534e-04,
          5.14400199e-05, 2.83065805e-04, 6.49245703e-05, 1.71661552e-04,
          2.60040455e-04, 2.96849408e-04, 2.71680328e-04, 1.60638650e-04,
          2.39378656e-04, 6.04063061e-05, -1.09161374e-05,
          -1.90305378e-04, 5.49214543e-04, -6.01986585e-06,
          -9.60485886e-06, 3.31805641e-04, -1.78668226e-04,
          2.50559737e-04, 4.83055075e-04, -7.12918263e-05,
          -1.49771280e-04, -1.03728424e-04, -1.24350438e-04,
          5.21050475e-04, -4.07157000e-04, 2.19509922e-04,
          3.34608543e-04, 6.58930687e-04, 3.63172352e-04, 4.38251649e-04,
          -1.30746543e-04, 5.82617940e-04, 1.46210630e-04,
          3.82271246e-04, 3.69116315e-04, 3.32829921e-04, 4.40826298e-05,
          5.13576670e-04, 3.06845526e-04, 1.80919917e-04,
          -9.53852486e-06, -8.18970366e-05, 2.34563151e-04,
          -2.28187619e-05, -7.65790446e-06, 5.37650885e-05,
          3.02929629e-06, 3.32650496e-04, -1.46120045e-04,
          4.35820752e-04, 5.50430559e-04, 1.38505304e-04,
          -3.96348390e-04, 3.49344307e-04, -2.77020561e-04,
          4.14284848e-04, -7.01275130e-04, 9.49927562e-05,
          2.36634412e-04, 7.80616712e-04, 1.73373497e-04, 1.97721267e-04,
          6.57093624e-05, 5.55145903e-04, -5.05320986e-06,
          2.80691282e-04, 7.04805061e-05, 5.13277075e-04, 2.72431149e-04,
          2.43443574e-04, 7.55331639e-05, 1.67717488e-04,
          -1.26425599e-04, -1.53448214e-04, 2.36181600e-04,
          1.61440490e-04, 5.18469824e-05, 1.14074915e-04,
          -1.15116913e-04, 2.19051915e-04, 2.07970719e-04,
          5.27948796e-05, 3.27694986e-04, 5.01735834e-04,
          -2.70764394e-05, 5.24864663e-05, -4.60866984e-04,
          4.19566699e-04, -2.89811520e-04, -2.46315267e-05,
          -3.50570510e-04, 7.99731759e-04, 1.49449756e-04,
          1.53922767e-04, 1.02943071e-04, 1.80008152e-04, 1.53882342e-04,
          -3.48454312e-04, 2.35110390e-04, 5.94144221e-04,
          -4.13020171e-05, 5.16500731e-04, -4.70309933e-05,
          1.40016346e-04, -3.58870049e-04, -6.41099978e-05,
          -6.71331291e-05, 2.19738242e-04, 1.72023254e-04,
          3.80171055e-04, -2.84756214e-04, 1.13512870e-04,
          4.10322100e-05, 1.36704630e-05, 2.41478876e-04, 5.19676541e-04,
          6.59673924e-06, 1.13570015e-04, -4.75727167e-04,
          1.00233949e-04, 1.34405724e-04, -2.42543156e-05,
          -3.43457417e-04, 3.38180835e-04, 2.52804952e-04,
          8.22114307e-05, 9.63830917e-06, -2.27161891e-05,
          2.70533128e-05, 1.57617353e-04, 7.82815841e-05, 3.39312945e-04,
          6.06176218e-05, 3.67527653e-04, -1.68324084e-04,
          1.95584653e-04, -2.42110167e-04, 1.18506177e-04,
          1.38303309e-04, 1.47746003e-04, 2.02397190e-04, 6.22182124e-05,
          -7.11367102e-05, 2.51599733e-04, -4.19474381e-05,
          -2.54342973e-04, 2.31552709e-04, 5.36106352e-04,
          -3.11942349e-05, 2.49235600e-04, -7.45273283e-05,
          1.56069320e-04, 2.78169086e-04, -1.09344699e-04,
          -2.42866896e-04, 1.38956068e-06, 1.78792659e-04,
          3.98111821e-04, 3.33067495e-04, 4.74647910e-04, 1.20481280e-04,
          1.43118144e-04, 1.09516717e-04, 3.20947467e-04,
          -7.72070707e-05, 2.73206591e-04, -2.07496021e-04,
          1.45679311e-04, 1.93533837e-04, 4.65374440e-04, 1.53984744e-04,
          2.33346145e-04, 7.80669943e-05, -7.29817766e-05,
          -6.33221716e-05, -4.48987230e-05, -1.88176418e-04,
          -2.85581627e-04, 3.59790400e-04, 4.02108562e-04,
          -9.48395173e-05, 2.26226039e-05, -7.19654563e-05,
          -1.17771182e-04, -3.18989332e-04, -1.33348905e-04,
          -6.20621839e-04, 3.23675107e-04, 2.68264295e-04,
          5.04897616e-04, 4.36498318e-04, 5.18957619e-04, 2.26855467e-04,
          -2.38245193e-04, -8.14270024e-05, 2.96523562e-04,
          -3.00344491e-05, 5.42131165e-05, 3.54800868e-04,
          2.34346589e-04, -1.11070854e-04, 6.15789104e-05,
          -4.61039635e-05, 4.47986131e-05, 5.78825129e-05,
          5.66143972e-05, -1.34247639e-05, 4.24022764e-05,
          -1.19142838e-04, -1.69979830e-04, 3.03155306e-04,
          2.50482088e-04, -4.60328156e-05, -2.92730929e-05,
          4.57707611e-05, 2.37847289e-05, -4.69964289e-05,
          -3.87365617e-05, 8.24892340e-05, 1.79937721e-04,
          2.12279992e-04, -2.11989507e-04, -7.03380210e-05,
          1.65640449e-04, -2.31322338e-04, -2.53214821e-04,
          7.50654581e-05, 1.57999366e-05, 6.15306606e-04,
          -1.31623980e-04, -1.77533046e-04, 2.48695491e-04,
          -3.51678682e-05, 8.53559395e-05, 1.46416744e-04,
          1.72720596e-04, 3.72208335e-04, 1.23555626e-04,
          -1.88988211e-04, 8.29883938e-05, 2.79273634e-04,
          -4.18751326e-04, 2.19381196e-04, -1.46046978e-05,
          7.11055036e-05, 6.55445328e-05, -2.18763871e-05,
          8.29825949e-05, 2.77411833e-04, 1.85794124e-04,
          -2.15900116e-04, 1.00790130e-04, 4.07560437e-04,
          8.20495770e-05, 2.35217274e-04, -5.33425628e-05,
          1.77945287e-04, -1.45632788e-04, 6.73795785e-06,
          6.15120807e-04, 3.70926980e-04, 2.67738884e-04,
          -2.17332068e-04, 2.55314517e-04, 2.94767291e-04,
          -1.59366300e-06, 7.30110187e-05, 5.22690418e-04,
          5.39953879e-04, -1.19702221e-04, -3.93891678e-04,
          2.78230495e-04, 1.64321144e-04, -8.20023415e-05,
          3.59260011e-04, -2.30179321e-05, 3.72556766e-04,
          -2.32423936e-05, -5.00572824e-05, 3.72797687e-04,
          4.00794415e-05, -2.17726920e-04, 9.39732636e-05,
          -2.45133386e-04, 6.26114139e-04, 2.80748296e-04,
          4.89071477e-04, 2.09432445e-04, 2.19206777e-04, 1.15061070e-04,
          -1.55390822e-04, 2.99069245e-04, 4.43730241e-04,
          6.58869685e-05, 2.23929863e-04, 1.36965818e-05, 1.16263807e-04,
          1.53235073e-04, 2.65392620e-04, 3.09384777e-04, 1.80256597e-04,
          -8.42575173e-05, 2.37894550e-04, -6.53423485e-05,
          -5.57457970e-05, 4.81569965e-04, 3.08669405e-04,
          -1.20268633e-04, 1.00293182e-04, -1.70718253e-04,
          5.38342210e-05, 3.69695277e-04, 1.31039749e-04,
          -2.39559886e-04, -7.17864241e-05, -5.39485307e-04,
          2.61101057e-04, 1.05005049e-04, 3.89314635e-04,
          -1.52916517e-04, 2.65815208e-04, -1.82132135e-04,
          1.63016357e-05, -1.83469776e-04, 5.43333939e-04,
          1.06233514e-04, 3.23320070e-04, 1.84552264e-04, 2.34772422e-04,
          -1.04723265e-04, 2.27822587e-04, -1.69338353e-04,
          1.67925085e-04, 2.65437149e-04, 3.22652137e-04, 3.96435440e-04,
          5.75880520e-04, 4.55756497e-04, 2.61936395e-04,
          -5.23936062e-04, 7.15283568e-06, 8.79286454e-05,
          3.30619048e-04, 3.15764308e-04, 6.75702584e-04, 3.41639156e-04,
          -6.73992254e-05, -4.15689028e-05, 1.04527426e-05,
          1.84423174e-04, -1.86714780e-04, -2.51120364e-04,
          2.21906899e-04, -4.00265781e-05, -2.74238537e-05,
          2.00602371e-04, -6.38138808e-05, 5.41136324e-05,
          2.33741943e-04, 4.48314677e-05, -3.01291788e-04,
          5.94399287e-04, 3.22964566e-04, 1.61826276e-04, 1.24751692e-04,
          1.16373107e-04, 2.40048757e-04, 3.21267260e-04,
          -3.91514652e-04, 9.43470979e-04, 4.23931342e-04,
          -4.10378161e-05, 1.12625923e-04, -1.97568515e-05,
          -1.56364142e-04, 3.72419949e-04, -1.20387238e-04,
          1.00507365e-04, -2.47251126e-04, -1.91266110e-04,
          3.07143317e-04, 6.74810235e-06, -2.06338125e-04,
          -4.26179831e-05, -1.37133771e-04, -7.50019944e-06,
          -5.75142039e-04, -9.66369917e-05, -1.44128571e-04,
          9.12685064e-05, 6.44181200e-05, 7.78307149e-05,
          -6.03196677e-04, 1.48570994e-04, -4.34869056e-04,
          2.42190697e-04, -4.78475966e-04, 1.67447142e-05,
          -1.87655765e-04, 1.25318271e-04, -2.14840169e-04,
          3.73377872e-04, 1.06910709e-04, 2.66592222e-04, 1.47083978e-04,
          1.82397707e-04, -9.17905854e-05, 1.69851774e-04,
          -1.68026909e-05, 8.69509749e-05, -2.94008380e-04,
          2.10322250e-04, 3.43063904e-04, 2.43628037e-05,
          -4.36269838e-05, 1.30813700e-04, -8.89217627e-05,
          2.45702413e-05, -4.44019679e-05, 1.66709811e-04,
          -1.18276723e-04, -3.16698788e-05, 2.96242768e-04,
          7.97293396e-05, -1.31841734e-05, -2.75188067e-04,
          -3.64525826e-04, 2.57379113e-04, -1.43820580e-04,
          -3.36817728e-04, -8.64742542e-05, 2.88244744e-04,
          1.85337252e-04, -1.97259283e-06, -1.53531601e-05,
          4.31204884e-04, 8.81610176e-05, -2.91919459e-05,
          -7.70164334e-05, 1.20878452e-04, 4.70284540e-05,
          -9.63975690e-05, -1.76707326e-04, -3.24254797e-04,
          3.59142752e-04, 3.98876524e-04, -1.38997231e-04,
          2.56583357e-04, 1.90914303e-04, -1.85002806e-04,
          1.83191241e-06, -4.82030038e-04, 2.04478143e-04,
          2.61064619e-04, -1.50543550e-04, -3.04763525e-04,
          5.24406323e-06, -2.15604276e-04, -3.38557693e-05,
          -7.05926286e-05, 1.52228473e-04, 2.81553977e-04,
          -2.02243013e-04, -1.51393499e-04, -4.85793600e-04,
          1.61226999e-04, -1.54761437e-04, 2.81503249e-04,
          3.10412179e-05, 2.87919131e-04, -1.01307298e-04,
          -3.10513860e-04, -2.53368897e-04, 2.07758552e-04,
          -1.89181548e-04, -5.18289889e-05, 2.00881957e-04,
          -2.09504899e-04, -4.00492318e-05, -1.51947534e-04,
          2.30466365e-04, 7.95189771e-05, 2.90137017e-04, 1.32930736e-05,
          4.15309150e-05, 4.27310064e-04, -9.03110049e-05,
          1.84251505e-04, -7.00596865e-05, 2.30122168e-04,
          4.09689441e-04, -2.57147389e-04, 2.79110624e-04,
          3.11019307e-04, -6.18064951e-04, 7.72841959e-05,
          2.87624105e-04, 4.04850929e-04, 1.79385068e-04,
          -1.16939998e-04, 3.54875694e-04, 3.60396807e-04,
          -1.65831763e-04, -8.03156145e-05, 1.41729135e-04,
          1.01808175e-04, 5.39260400e-05, 2.37126165e-04,
          -5.82064386e-05, 1.72306332e-04, -6.06675785e-05,
          -1.21820674e-04, 1.58060080e-04, 1.99769784e-04,
          1.29417647e-04, -1.05662701e-04, 5.59265027e-05,
          1.53577203e-04, -3.67210829e-04, -7.01948957e-05,
          1.12333269e-04, 1.49510932e-04, -4.20739298e-06,
          3.30916053e-04, 1.42781037e-05, 1.78824397e-04, 4.53638495e-06,
          3.25348461e-04, -3.59293714e-04, -9.55491487e-05,
          1.53147499e-04, 2.15098000e-04, 2.97603634e-04, 4.54859779e-04,
          2.17728710e-04, 1.04302992e-04, -4.56795882e-04,
          5.44992741e-04, -2.49052100e-04, -2.03662712e-05,
          -6.39488790e-05, -1.28213884e-04, -4.91884130e-05,
          2.46862823e-04, -1.39425363e-04, 4.45482467e-04,
          -2.87499097e-05, 1.28891706e-05, -1.32366447e-04,
          -3.22182095e-05, -4.94522501e-05, 5.39171997e-05,
          -3.38627899e-04, 6.30900540e-05, -1.26852639e-04,
          1.93140266e-04, -3.37645943e-05, 1.41663346e-04,
          2.45704286e-05, -4.61572126e-05, -5.45687915e-04,
          3.60693339e-05, 8.55072067e-05, 8.30255012e-05, 3.02480272e-04,
          7.27449151e-05, -6.69323708e-05, 1.56325594e-04,
          -2.35011328e-07, 2.04108728e-04, -4.57218091e-04,
          -2.20319955e-04, 2.56994335e-05, 2.55152263e-04,
          3.20912543e-04, 2.20787260e-04, 3.87320906e-04,
          -1.73470267e-04, -2.98728002e-04, -4.31875465e-04,
          2.63555121e-04, 1.38236748e-04, -3.86702959e-05,
          -6.50268703e-05, 3.95771611e-04, 6.06476760e-06,
          3.56048404e-04, -8.81693413e-05, -1.49235115e-04,
          1.55013040e-04, 5.68620235e-05, -5.48673634e-05,
          4.20293372e-06, 1.32285586e-05, 1.97733869e-04,
          -2.13862731e-04, 3.20602237e-04, 2.72985228e-04,
          1.92070249e-04, 4.38919669e-04, 1.24654805e-04, 8.91235250e-04,
          -1.89358601e-04, 8.08835612e-05, 2.22207833e-04,
          2.16585744e-04, 5.13972482e-04, -1.09044020e-04,
          -3.59157566e-04, 4.05189028e-04, -2.03561267e-05,
          -5.60273111e-05, -1.06795946e-04, 4.57237562e-04,
          3.51159717e-04, 9.80168843e-05, -2.83335889e-04,
          4.32578468e-04, -1.91486994e-04, -1.49822736e-04,
          2.32774459e-04, 1.17865246e-04, 4.58270079e-05, 1.80745352e-04,
          1.00956182e-04, 2.79320346e-04, -2.48487544e-04,
          -9.15675482e-05, 1.57142218e-04, 3.92984395e-04,
          -1.19193224e-04, 9.38434168e-05, 1.19354838e-04,
          7.11940404e-04, -1.29818973e-05, -1.47181650e-04,
          2.11795748e-04, -2.70243327e-04, 3.70577531e-04,
          -1.41267417e-04, -4.54227178e-04, 1.45762606e-04,
          3.88036824e-05, 2.83506233e-04, 3.40338505e-04, 2.86508526e-04,
          -3.55010452e-05, 1.24137650e-05, 2.07299978e-04,
          8.64954200e-05, -2.11781353e-05, -1.65993497e-05,
          3.40236511e-05, 6.84565690e-04, -3.26563095e-05,
          -1.68530925e-04, 1.55535148e-04, 1.84336110e-04,
          1.88628750e-04, 1.12797439e-04, -5.42034031e-05,
          4.74057480e-04, -2.11704773e-05, -1.16503914e-04,
          3.59458209e-04, 2.43152725e-04, 1.06588326e-04,
          -1.58655923e-04, -2.34409614e-04, -1.63055738e-04,
          6.92463000e-05, 4.17800547e-05, -6.73452159e-05,
          -9.17588186e-05, -1.11049369e-04, -9.52779810e-05,
          -2.69529119e-04, 6.04210327e-05, -2.85664195e-04,
          -3.50127302e-05, 4.08651249e-04, -7.10672321e-05,
          1.23920137e-04, 4.71662861e-05, -2.29139303e-04,
          3.57570680e-04, -7.94418564e-04, -3.84100305e-04,
          2.98490660e-04, 8.48498457e-05, 2.20512331e-04, 2.74672930e-04,
          -2.35079337e-04, 3.33630232e-05, -3.49533599e-04,
          -3.40486440e-04, 2.45455216e-04, -7.37068403e-05,
          -4.20033437e-04, 5.45415496e-05, -4.39254625e-04,
          -1.58080526e-04, -8.70436179e-06, -3.92553309e-04,
          6.21382205e-04, -4.26573843e-06, -3.42202635e-04,
          -5.30265679e-04, 1.29186074e-05, 3.74330179e-04,
          -4.96260414e-04, -3.01316206e-04, 2.15066291e-04,
          -3.32376861e-04, -5.98309911e-04, -2.80611159e-04,
          -1.80307383e-04, 1.97362038e-04, -3.05724854e-04,
          1.63476743e-05, -2.11819191e-04, -2.07034784e-04,
          -6.11063733e-04, 1.61739605e-04, -1.47636223e-04,
          -3.04934278e-04, -1.22033169e-04, 1.12196522e-05,
          -3.79112680e-05, 4.83596785e-04, 2.04682612e-04,
          1.98963069e-04, 2.04766020e-05, 8.59039646e-05, 5.99747582e-04,
          -4.02717924e-05, 9.15376877e-04, 3.18564271e-04,
          2.92977405e-04, 2.66895731e-05, 5.12164377e-04, 4.90850012e-04,
          3.99439392e-04, -5.13713239e-05, 5.69230411e-04,
          -7.70800107e-05, -5.09782294e-05, -9.06284040e-05,
          3.31814023e-04, 1.63037155e-04, 3.19587911e-04,
          -9.33765405e-05, 3.23273212e-04, -1.91245024e-04,
          -3.49189329e-04, 1.20503319e-04, 5.01755159e-04,
          1.50041946e-04, 7.16623545e-05, 2.08240162e-04, 4.53084445e-04,
          5.88620023e-04, 4.07908374e-04, -3.56885692e-04,
          -7.09746819e-05, 1.71389824e-04, 1.77592432e-04,
          3.70359572e-04, 2.80831708e-04, 6.58799254e-04,
          -2.26125430e-05, -1.14604845e-04, 3.60485632e-04,
          1.36559640e-04, 2.98085855e-04, -3.75488162e-05,
          1.26393992e-04, 7.31197360e-05, -2.36257634e-04,
          1.61370233e-04, 2.09933380e-04, -1.64086567e-04,
          6.25982415e-04, -6.66068227e-05, -1.87518308e-04,
          2.18604589e-04, 3.46599481e-05, -4.32972556e-05,
          3.60667007e-04, 2.31110716e-05, 4.66618076e-04,
          -2.50730314e-04, -7.77969180e-05, -1.97151585e-05,
          -2.39666027e-04, -8.98255603e-05, -1.89161641e-04,
          1.20416262e-05, 1.46477076e-04, 3.74258379e-04, 3.20530409e-04,
          -1.51939559e-04, -4.56512607e-05, 5.27478223e-05,
          -6.22446214e-06, -1.04849642e-04, 1.69846098e-04,
          2.78374569e-06, -3.09989264e-04, -1.93677115e-04,
          -3.80426209e-04, 6.15398749e-04, 4.30224063e-05,
          -2.49310651e-05, 1.91668823e-05, -1.72279368e-04,
          -3.01554595e-04, 2.87027797e-04, -3.94025556e-04,
          2.82538706e-04, -1.30233238e-05, -3.60295235e-04,
          9.98578616e-05, -3.96944488e-05, -1.14438830e-04,
          1.58731942e-04, -3.59539175e-04, 2.45584873e-04,
          -8.66058690e-05, -1.36560237e-04, 2.00509923e-04,
          -6.33190793e-05, 2.14799875e-04, -8.30392091e-05,
          -2.56931708e-05, -7.21539691e-05, -3.18842067e-04,
          -1.58202602e-04, 4.23539168e-05, 2.15991007e-04,
          -1.67946273e-04, -2.20503527e-04, -1.70026688e-04,
          -1.53087822e-04, 1.38092437e-04, -9.50753893e-05,
          -3.09353258e-04, 4.31392400e-04, 1.09270040e-04,
          4.19965974e-04, -5.07104967e-04, 5.66260132e-04,
          1.98216396e-04, -1.70522355e-04, -4.12686437e-04,
          4.16049792e-04, 2.67260271e-04, 4.63632779e-04, 2.84289363e-05,
          1.00225152e-04, -8.14885207e-05, -2.62943620e-04,
          4.31591121e-04, 3.00269512e-05, 1.75170790e-04, 2.46085838e-04,
          2.22000337e-04, 2.97207647e-04, -4.02812620e-05,
          1.12515168e-04, 7.55817091e-05, 7.19678283e-05, 4.45872458e-04,
          -1.87173384e-04, 6.17915241e-04, 1.56545197e-04,
          -1.39270414e-04, -1.77049569e-05, 2.59763561e-04,
          4.30052693e-04, 9.62443228e-05, -4.92482250e-05,
          2.95567588e-04, 4.81070078e-04, -2.31131809e-04,
          4.25408041e-04, 2.34594700e-04, 4.04071790e-04, 6.22066509e-05,
          6.87701104e-05, -5.48978802e-04, 3.93106078e-04,
          2.18172005e-04, -2.44316092e-04, 3.44108958e-05,
          1.94962937e-04, 2.04055934e-04, -5.14293570e-05,
          -1.42579171e-04, 3.11926677e-04, 2.32891602e-04,
          5.46800511e-05, 3.20560910e-04, 2.38691893e-04, 1.83029420e-04,
          -3.84762214e-04, -7.85673474e-05, 3.24170804e-04,
          -9.11527513e-06, 1.02451617e-04, -2.61893492e-05,
          2.14059673e-05, 2.34337029e-04, 9.97757088e-05,
          -1.47500425e-04, 4.75779874e-04, 1.11629946e-04,
          5.03560354e-04, 1.24047103e-04, -4.40126605e-04,
          1.33213558e-04, -5.93197110e-05, 3.61497878e-05,
          2.89097894e-04, 7.90782651e-05, 4.79159935e-04,
          -3.64352542e-04, 1.01408732e-04, 4.85691999e-05,
          4.31783352e-04, -2.90313001e-05, -1.98542257e-04,
          -1.91546365e-04, 2.17654582e-04, 6.26955589e-05,
          3.74062889e-04, 1.06964057e-04, -2.35508793e-04,
          -2.02124575e-04, -1.03005419e-04, 2.50436395e-04,
          2.89635820e-04, -2.55375868e-04, 6.09562092e-04,
          -3.06092901e-04, 2.61550100e-04, -2.80062261e-04,
          6.24196473e-05, 8.76825216e-05, 3.18461709e-04,
          -1.04760773e-04, 5.70803822e-05, 7.48257080e-05,
          1.57605915e-04, -1.76295158e-04, 2.73843383e-04,
          -1.50161315e-04, 1.61195145e-04, -2.47129006e-04,
          -8.68553354e-04, 2.14878906e-04, 3.56571283e-04,
          -1.80520336e-04, 3.93967028e-04, -4.87017096e-05,
          1.64240948e-04, -9.25854547e-05, -2.39983419e-04,
          5.84598129e-05, 3.36650439e-04, -4.13011410e-04,
          2.12133134e-04, 1.52448280e-04, 2.41623813e-04, 8.17284890e-05,
          -1.55453832e-04, -2.35327141e-04, 3.74151597e-04,
          -4.16735973e-04, 4.86592180e-05, 1.00921192e-04,
          9.26634311e-05, 4.93953257e-06, -1.34230477e-05,
          3.77448232e-05, 6.95855488e-05, 3.36389348e-04, 6.94489645e-05,
          2.20747155e-04, 5.78574953e-04, -8.85359768e-05,
          -5.23321319e-07, -5.52213227e-04, 3.66370296e-05,
          -1.07311920e-04, 1.94099674e-04, 2.21065609e-04,
          2.99617939e-04, -2.01478601e-04, 2.21529426e-05,
          -1.25094943e-04, 2.72510195e-04, -1.45718106e-04,
          3.18094826e-04, 6.08952425e-04, 7.36437869e-05,
          -3.25531320e-04, -4.96644570e-05, -9.98006071e-05,
          7.46921869e-04, 7.79338661e-05, 6.29179296e-04, 6.68979192e-04,
          -7.22397890e-05, -1.55950460e-04, 3.74811025e-05,
          -3.28486240e-05, -1.97228132e-04, 7.01659956e-05,
          5.32353006e-04, -1.89836119e-05, 3.24556982e-04,
          3.72467533e-04, 4.17697243e-04, -2.15827968e-04,
          1.95789835e-04, 1.95971472e-04, 3.23392342e-05, 1.78468443e-04,
          1.81124022e-04, -3.63787200e-04, 4.35314374e-04,
          -2.84569178e-05, 1.89162689e-04, 1.49716343e-05,
          3.60947772e-04, 2.90563330e-04, 2.82461406e-04,
          -1.78472066e-04, 2.06588433e-04, -1.35423979e-04,
          3.90729925e-04, 2.38513909e-04, 7.35460664e-04, 3.52203962e-04,
          -1.43727666e-04, -2.40521986e-04, -2.80074964e-05,
          3.01933440e-04, 1.24649290e-04, 2.72751840e-05, 3.09438998e-04,
          1.36390430e-04, 9.52355040e-05, -1.52630353e-04,
          4.77384674e-05, -9.81882840e-05, 3.37604433e-04,
          1.75199850e-04, 7.90800550e-05, 4.01545767e-05, 3.44712083e-04,
          -2.41872534e-04, 2.01018236e-04, -3.76205717e-04,
          1.09940527e-04, 3.51926064e-06, 4.43368946e-04,
          -8.71568263e-05, 2.02468626e-04, 7.19439549e-06,
          3.65791144e-04, -3.91353387e-04, 3.12816876e-04,
          2.18177942e-04, 3.56916862e-04, -4.68661783e-05,
          -4.09603963e-05, 2.62995873e-05, 2.47889198e-04,
          2.84433801e-04, 2.78335385e-04, 1.79856608e-04, 1.86337202e-04,
          3.39145248e-04, 1.14966155e-04, -2.73624057e-04,
          -2.09934893e-04, -4.99565504e-04, 3.10431642e-04,
          2.02171723e-04, 1.55848276e-04, 1.13412774e-04,
          -6.63001410e-05, -3.52633069e-04, 4.45709557e-05,
          -2.71698635e-04, 5.53432328e-04, 1.48235195e-04,
          1.16159892e-04, -5.63458161e-05, -2.02889176e-04,
          -1.22509853e-04, 2.29257683e-04, -1.42450779e-04,
          3.36197350e-04, 4.25333157e-04, 1.33008842e-04,
          -1.04029656e-04, 1.69279650e-04, 1.14454433e-05,
          2.37532615e-04, -2.06219665e-05, 2.38721259e-04,
          2.43049653e-05, 5.05396980e-04, 6.90284127e-04, 1.84727498e-04,
          1.34567439e-04, -2.84718582e-04, -8.03336152e-04,
          -1.70986332e-05, -2.17748529e-04, 4.83090844e-04,
          5.83353511e-04, -4.22486119e-05, -2.57729931e-04,
          2.56357365e-04, -6.50151167e-04, 8.48390919e-05,
          4.83682379e-04, 5.20505244e-04, 4.06905718e-04, 9.65919608e-05,
          -2.17844077e-04, 2.62083719e-04, -5.12351864e-04,
          2.79264437e-04, 6.24835782e-04, 2.73489975e-04, 2.79035128e-04,
          -3.08921881e-04, -3.65984510e-04, -2.62209855e-04,
          -3.20022984e-04, -2.31796163e-04, -5.23918789e-06,
          5.91733435e-04, 5.45372313e-04, -1.17119067e-04,
          3.48453555e-04, -2.83850648e-04, -4.02250094e-04,
          -1.80812422e-04, 2.12250052e-05, 2.07648511e-04,
          -5.01622380e-05, 2.16026005e-04, -3.86444299e-06,
          9.84931103e-05, 1.05278566e-04, 3.64325460e-05, 1.76018613e-04,
          2.96364044e-04, 4.32987814e-04, -5.36681473e-05,
          3.42294952e-04, 3.71978414e-04, -1.81283278e-04,
          3.29563860e-04, 1.64394776e-04, 3.91402922e-04, 2.40426489e-05,
          -4.09736997e-04, 2.35865795e-04, 2.66582530e-04,
          7.90121921e-05, -3.67434317e-04, -1.98395981e-04,
          4.66293102e-04, 4.41986660e-04, -2.37548393e-05,
          3.22038686e-04, 2.70570250e-04, -1.56317139e-04,
          -1.85438083e-04, -3.45691020e-04, -1.43898360e-04,
          3.69451736e-04, -2.80469714e-04, -1.60221374e-04,
          2.40669848e-04, 2.31798025e-04, 1.43588186e-04, 4.87890444e-04,
          6.23456071e-05, 9.19829326e-05, 9.40370883e-05, 2.56793646e-05,
          2.78795895e-04, -1.18924989e-04, 2.03010059e-04,
          6.11418727e-05, 3.26534820e-04, 3.37047532e-05,
          -7.04308768e-05, -1.29516702e-04, 3.05789436e-04,
          1.25322753e-04, -4.11669927e-04, -2.15938504e-04,
          2.96510028e-04, 1.95710265e-04, 4.59976931e-04, 4.28900559e-04,
          7.49765095e-05, -8.65022666e-05, -1.95336202e-06,
          -2.76320672e-04, 1.89071507e-04, 2.05650576e-04,
          9.50630856e-05, 3.06129921e-04, -4.70938649e-05,
          8.01733331e-05, 1.91001091e-04, 6.36651588e-04, 5.78416511e-05,
          1.20864279e-04, 1.59983683e-04, 1.68359475e-04, 4.66565252e-04,
          -6.08627306e-06, -1.09327768e-04, 7.19202275e-04,
          1.13493938e-04, 4.93477739e-04, -3.40113445e-04,
          1.74806002e-04, 5.52527432e-04, 1.70478408e-04, 1.50339665e-05,
          2.80858920e-04, 3.01041200e-05, 4.07103915e-04, 2.23167648e-04,
          3.35467164e-04, -1.67533362e-04, 5.16803402e-06,
          -2.43608651e-04, 7.09688175e-05, 3.98954289e-04,
          -6.09552117e-05, 1.14496339e-04, -2.24667980e-04,
          -2.05601042e-04, -2.10756538e-04, 2.47543445e-04,
          1.25282284e-04, 1.69222069e-04, 2.21298076e-04,
          -3.38136364e-04, -3.29267496e-04, -1.30566434e-04,
          -1.50344073e-04, 1.59089104e-04, 6.13023527e-04,
          4.33237641e-04, -1.54052585e-04, -1.80461400e-04,
          1.33514244e-04, -5.00371425e-05, 2.15669315e-05,
          1.68135608e-04, 2.90023483e-04, -2.52504164e-04,
          5.83327084e-04, 8.34000239e-05, 2.91047734e-04, 2.70979624e-04,
          -1.82662043e-04, 8.88012721e-07, 1.20213997e-04,
          1.34247108e-04, 2.79899861e-04, 5.35214058e-05,
          -3.93876340e-04, 1.27973588e-04, -7.53727290e-05,
          1.91479616e-04, 6.80336234e-05, 6.75564152e-05, 2.03870659e-05,
          -6.61920421e-05, -2.82267516e-04, 1.54060399e-04,
          -3.39373830e-04, 4.08834108e-04, 5.31745784e-04,
          5.30664576e-04, -6.36279408e-04, 1.35823604e-04,
          -1.10978843e-04, -5.32032900e-05, -2.37903354e-04,
          1.57971386e-04, 6.65201864e-04, 1.95937842e-04, 4.92471445e-04,
          3.87152424e-04, -1.50205697e-05, 1.48808816e-04,
          3.02771077e-04, 1.79153081e-04, 1.27555919e-04, 4.23474739e-05,
          5.84727270e-04, -9.61240366e-05, -2.69446929e-04,
          -1.53339628e-04, 4.07670195e-05, 1.47340761e-04,
          -5.47380943e-04, 1.04695704e-04, 2.00985945e-04,
          -5.73927100e-05, -3.42804124e-04, 9.03192777e-05,
          -9.28949230e-05, 2.74530757e-04, 5.82465727e-05,
          2.79704953e-04, -4.06779611e-04, 1.63303514e-04,
          -1.46992417e-04, 2.09980150e-04, -3.37420934e-05,
          -1.02560489e-05, -1.46707112e-04, 3.90461810e-06,
          1.43808051e-04, 2.08695143e-04, 2.46736163e-04, 6.61511440e-05,
          3.69932241e-04, 1.06517553e-04, -2.89721720e-05,
          2.40888519e-04, 2.49760807e-04, 1.05130130e-04,
          -1.39793076e-04, 1.96890251e-04, 4.39738214e-04,
          7.31886757e-05, 1.58371549e-05, 3.06567905e-04,
          -4.67079022e-04, 5.22345908e-05, -1.79242088e-05,
          6.03552733e-04, 1.02605954e-04, 1.12084883e-04, 5.03440679e-05,
          -9.51833790e-05, -6.92849513e-04, -2.24183641e-05,
          1.07764165e-04, 4.10002598e-04, -2.89473421e-04,
          -1.13693219e-04, -3.31363008e-05, 5.77993516e-04,
          3.43147811e-04, 7.12278706e-05, 7.60180192e-05,
          -8.86854905e-05, -2.43019123e-04, -3.45425324e-05,
          -1.94180830e-04, 1.77123831e-04, 3.76238284e-04,
          2.69922370e-04, -1.81775831e-04, 2.68255899e-05,
          1.68958777e-05, 4.01445577e-05, 3.35387973e-04, 1.51544111e-04,
          1.91000028e-04, 9.23613479e-05, -9.75588919e-05,
          2.88015726e-04, -1.68694256e-04, -1.68255428e-04,
          9.60580597e-04, 1.49063198e-04, 1.23119593e-04, 9.10743111e-05,
          -8.91740128e-05, -5.01334071e-05, -1.10993769e-05,
          3.28914175e-04, 2.39074026e-04, 8.01855058e-05,
          -5.37984597e-05, -1.19891760e-04, -4.68552287e-04,
          2.29620146e-05, 5.58920110e-05, 3.33909178e-04,
          -2.56972009e-04, -1.05725143e-04, 3.66235349e-06,
          1.76550850e-04, -1.73168970e-04, -2.50802492e-04,
          -1.77836293e-04, 4.78058617e-04, -3.03328678e-04,
          -3.11394397e-05, -6.49441881e-06, 2.77044805e-04,
          2.37812463e-04, 8.72744858e-05, -3.96400486e-04,
          1.93883592e-04, 5.32581878e-04, -5.10626880e-04,
          1.56605325e-04, 3.06004134e-04, 2.16330402e-04, 2.44519906e-04,
          -4.10947396e-04, 1.78057700e-04, -8.55730541e-05,
          -3.95497860e-04, -1.04143473e-04, 1.30585337e-04,
          -9.31865216e-05, -2.08392757e-05, 7.74814907e-05,
          -8.00654670e-05, 2.78256077e-04, 2.51155172e-04,
          -1.81955853e-04, 2.53731559e-04, -1.18155309e-04,
          -1.82884716e-04, -3.60530306e-04, 3.92821559e-04,
          -1.38874631e-04, 3.02469212e-04, -1.02065162e-04,
          2.87091301e-04, 2.90106575e-04, -4.87447833e-04,
          -7.46160295e-05, 4.86067787e-04, -5.70493330e-06,
          4.30617149e-07, -1.02492508e-04, 2.47886870e-04,
          6.56952034e-05, 5.66998642e-05, -1.85769066e-04,
          -1.76911373e-04, -1.40162971e-04, -2.80423614e-04,
          -1.24238883e-04, 4.31322231e-04, 1.51011904e-04,
          -1.47994961e-05, 2.23654395e-04, -2.39448971e-04,
          -2.28146910e-05, -4.96135908e-05, -7.72170752e-05,
          1.02523220e-04, -2.89000571e-04, 2.98404411e-05,
          -6.64578911e-05, 3.98925040e-04, -3.45169567e-04,
          1.09457796e-04, 5.22801347e-05, -4.12240042e-05,
          -3.57017678e-04, -2.37712243e-06, 3.75975389e-04,
          7.10765249e-04, 3.73077462e-04, -1.77318740e-04,
          -3.51493829e-04, -2.38205306e-04, 3.25129338e-04,
          3.08370771e-04, -5.63914966e-07, 2.40567562e-04,
          1.33060632e-04, 3.90076202e-05, 2.40227761e-04, 4.50439169e-04,
          1.45934580e-04, 1.24595454e-05, -1.07815300e-04,
          1.40915305e-04, 2.31718841e-05, 1.68396975e-04,
          -8.05380259e-05, 1.10414549e-04, 3.44950211e-04,
          5.97410894e-04, 6.35805773e-05, -1.46765073e-04,
          -1.22450263e-04, 1.81807030e-04, -3.70559101e-05,
          1.36816467e-04, -2.25890210e-04, 5.22109331e-04,
          7.96593449e-05, 1.42846711e-05, 6.19419152e-05, 1.33909023e-04,
          4.23473655e-04, -5.41847367e-05, -8.93258766e-05,
          2.59492052e-04, -2.39755493e-04, 2.05492121e-04,
          1.78288701e-05, -4.40138043e-04, 6.45115433e-05,
          3.71818081e-04, -6.54789765e-05, -1.47805651e-04,
          -1.36186072e-05, 3.79102363e-04, 1.50666121e-04,
          1.67525970e-04, 2.67511670e-04, 7.44763878e-04,
          -3.56486940e-04, 1.03732171e-04, -1.22864978e-04,
          -3.29911913e-04, 3.29145056e-04, 3.10117583e-04,
          -3.55606840e-04, 2.31627084e-04, -2.45267758e-04,
          1.83987577e-04, -4.79317532e-04, -7.05463981e-06,
          1.53065776e-04, 1.32545043e-04, 6.10493153e-05, 3.84594052e-04,
          1.66202997e-04, 7.41821350e-05, -1.40209086e-04,
          1.22516416e-04, -2.01862073e-04, 6.56440097e-05,
          -8.73977988e-05, 3.41693783e-04, 3.26360168e-04,
          -4.21935947e-05, -1.05471963e-05, 1.13060705e-04,
