%YAML:1.0
my_svm: !!opencv-ml-svm
   svm_type: C_SVC
   kernel: { type:LINEAR }
   C: 1.0000000000000001e-01
   term_criteria: { epsilon:2.2204460492503131e-16, iterations:10000000 }
   var_all: 8448
   var_count: 8448
   class_count: 2
   class_labels: !!opencv-matrix
      rows: 1
      cols: 2
      dt: i
      data: [ 0, 1 ]
   sv_total: 1
   support_vectors:
      - [ 9.42839179e-05, 2.22930932e-04, -2.52914673e-04,
          4.20481083e-04, -1.72137850e-04, -1.18893215e-04,
          1.78919901e-04, 4.46216174e-04, 1.47109764e-04, 9.18078149e-05,
          -4.17191477e-04, 2.78951688e-04, -1.01344871e-04,
          -1.34201851e-04, -9.93362119e-05, 1.54994981e-04,
          -2.16967775e-04, -4.18486510e-04, -4.37119365e-04,
          1.21670251e-04, -9.78575918e-05, -7.75904991e-05,
          -2.75667669e-04, -3.23738495e-04, 5.83730638e-04,
          3.06706570e-05, -3.10738396e-04, -1.23221849e-04,
          -1.88045946e-04, -2.57566804e-04, -2.84748967e-04,
          -1.84369768e-04, 1.03352359e-04, -8.28971606e-05,
          3.09461146e-04, -1.33695445e-04, -2.27035023e-04,
          1.06521780e-04, -3.58907680e-04, 1.71827036e-04,
          -2.59265886e-04, -3.85987514e-05, 2.48231605e-04,
          -4.52560664e-04, -5.65071241e-04, 3.41829254e-05,
          -6.36297627e-04, -1.70363332e-04, -5.46598283e-04,
          -4.81954077e-04, -1.04250583e-04, -2.16051863e-04,
          -2.91104679e-05, -4.30248852e-04, -7.79210590e-04,
          -5.39108820e-04, -3.52902745e-04, -4.71078674e-04,
          -3.24643392e-04, -3.58518591e-04, -5.78623440e-04,
          -3.17326339e-04, -2.48236145e-04, -2.41621063e-04,
          4.38275893e-05, -2.07606427e-04, -1.18265030e-04,
          -4.32551518e-04, 6.53119932e-05, -4.01638936e-05,
          -3.83157167e-04, -2.72449222e-04, -1.55430505e-04,
          -2.72920006e-04, -1.05851657e-04, -2.62320682e-04,
          3.82158847e-04, -4.09826811e-04, -3.32385476e-04,
          -1.44611011e-04, -5.60660555e-04, -4.06729581e-04,
          -4.39786440e-04, -5.52544370e-05, 1.42730161e-04,
          5.44523391e-05, -1.55917995e-04, -4.22324985e-04,
          -4.58725641e-04, -5.58840911e-05, -1.03930966e-03,
          -1.74226865e-04, -1.02609054e-04, -3.67156987e-04,
          1.23652353e-05, -1.03717277e-04, -2.60186673e-04,
          -4.13659029e-04, -9.40429236e-05, -1.95049477e-04,
          1.10614055e-04, 6.34269891e-05, 4.34331596e-04, 7.58990791e-05,
          -8.65557886e-05, -4.71384439e-04, -1.12682741e-04,
          3.21723521e-04, 5.08314770e-05, -1.16280185e-04,
          1.09866873e-04, -3.20367486e-04, -2.13821055e-04,
          -6.54244359e-05, 4.01538302e-04, 1.85092111e-04,
          -5.15397114e-04, 3.18189210e-04, -4.24117636e-04,
          -2.26775097e-04, -1.37314069e-04, 1.65092293e-04,
          -8.80791107e-04, -3.39007034e-04, -8.24396207e-04,
          7.00704186e-05, 8.76724698e-06, -5.53687918e-04,
          -5.11635095e-04, 2.92063574e-04, -6.19597340e-05,
          1.85745084e-04, -1.88159538e-04, -1.93573273e-04,
          2.15593158e-04, 7.88137113e-05, -2.54393439e-04,
          3.25934176e-04, -5.66707713e-05, 1.81528943e-04,
          -4.78900562e-04, -3.07678245e-04, -3.45678964e-05,
          -1.42840989e-04, 4.02598729e-04, 2.64458184e-04,
          -1.78242306e-04, 5.36988198e-04, -4.13217931e-04,
          5.40627574e-04, 5.58739612e-06, -2.88453768e-04,
          6.31240837e-05, 4.74866742e-04, 3.21606931e-04,
          -1.15453513e-04, -2.27837270e-04, 6.00999512e-04,
          -1.30894594e-04, -1.07668871e-04, -3.32198018e-04,
          -1.49575077e-04, -6.92055664e-06, 1.18760581e-04,
          -2.74137157e-04, 1.46557359e-05, 1.96856199e-04,
          1.31830993e-05, -2.39379151e-04, 1.29904583e-05,
          -7.58763490e-05, -4.18960815e-04, -2.56036583e-04,
          -2.53280217e-04, 5.95496851e-04, -1.16534493e-05,
          -1.48144594e-04, 2.30572099e-04, -2.97489343e-04,
          1.73861874e-04, -2.47627002e-04, -7.52688793e-05,
          8.33959421e-05, -1.26551575e-04, 9.58803284e-05,
          -1.41010692e-04, -1.11398171e-04, 2.34977756e-06,
          -1.47227518e-04, -3.39273647e-05, -2.02960116e-04,
          -4.49052284e-04, -1.13389069e-04, -6.54184027e-04,
          -7.41422919e-05, -2.67166661e-06, -1.92844382e-04,
          1.02707687e-04, 1.15356146e-04, -2.44148978e-04,
          -2.00667826e-04, 2.43440751e-04, -4.04315186e-04,
          3.89565866e-05, -1.34327041e-04, -4.79912705e-04,
          -2.83177127e-04, -3.39210586e-04, -6.56268530e-05,
          -2.89775810e-04, -8.55443534e-04, -3.53548967e-04,
          3.83160514e-05, -3.16377409e-04, -1.01887016e-03,
          -4.50510386e-04, -4.20067023e-04, -2.42592039e-04,
          -5.08259800e-05, -3.71588132e-04, -4.75892390e-04,
          1.11650770e-04, -4.25043982e-04, -8.00479756e-05,
          -5.19258901e-04, 1.06653679e-04, 1.97056434e-04,
          -4.96945941e-05, -2.32691105e-04, -1.45171842e-04,
          3.48400674e-04, -2.75996776e-04, 1.67430990e-05,
          1.43717203e-04, 3.29900358e-04, -1.34142567e-04,
          -4.12872178e-04, -1.47799670e-04, 5.86498863e-05,
          -4.74162342e-04, 1.05710984e-04, -9.77081145e-05,
          -2.09976555e-04, -3.32749158e-04, -3.43702501e-04,
          2.39117595e-04, -1.50744134e-04, 2.15651293e-04,
          -2.57562438e-04, -6.22381282e-04, -4.07939981e-04,
          -1.53060188e-04, -2.99700419e-04, 4.44541249e-04,
          -5.91459975e-04, -2.33412920e-05, -1.17799573e-04,
          8.84266774e-05, 5.94762852e-04, 4.51641914e-04,
          -2.31949220e-04, 4.15446877e-04, 4.57177994e-05,
          -6.40272219e-06, -1.13434464e-04, -1.23262260e-04,
          5.91646880e-04, 3.11259384e-04, 7.77906394e-07,
          -5.36752923e-05, 1.04752675e-04, 2.29016805e-05,
          1.71305583e-04, 2.19620255e-04, -2.87364703e-04,
          6.13084936e-04, 2.14212545e-04, 4.12644513e-05, 4.68135288e-04,
          -7.67930032e-05, 6.11178330e-05, -4.10755281e-04,
          -7.27223407e-04, 1.28838277e-04, 7.40206975e-04,
          4.08755994e-04, -8.50687284e-05, 7.15845235e-05,
          -9.84170329e-05, 1.00566594e-05, 8.56167317e-05,
          3.12584831e-04, -1.43782658e-04, 4.83672411e-05,
          -4.16997122e-04, -5.22150876e-05, -3.20494553e-04,
          -1.68190509e-05, 2.12711093e-04, 3.14254903e-05,
          1.22864032e-04, -4.79699927e-04, 1.70215044e-05,
          3.36911413e-04, -2.63429615e-06, 4.40642703e-04,
          -1.92721142e-04, -4.94302018e-04, -7.84471413e-05,
          -4.36089496e-04, 4.93990010e-05, -1.12272037e-05,
          -4.45448299e-04, -1.82328062e-04, -3.93273163e-04,
          -4.61522257e-04, 5.02090028e-04, -1.83768625e-05,
          -4.17135132e-04, -1.97747286e-04, 3.13067634e-04,
          -4.00605903e-04, 1.45766790e-05, 2.01687988e-04,
          2.04145821e-04, 2.73216428e-04, -5.84866066e-05,
          2.20425281e-04, 2.51592981e-04, -3.28571216e-04,
          2.21836326e-05, 1.24351878e-04, -4.99236863e-04,
          -3.13143937e-05, 7.41014373e-05, -4.05917148e-04,
          -1.85953657e-04, -1.97421668e-05, -5.71158365e-04,
          -3.26885318e-04, -2.10979080e-04, 1.09799497e-04,
          -4.01940160e-05, -7.31182634e-04, 2.48384185e-05,
          2.41238158e-04, -9.68015112e-04, 1.03511484e-04,
          -9.68926106e-05, -1.05557541e-04, -4.94267850e-04,
          -8.03247327e-04, 2.61037349e-04, -4.53346511e-05,
          3.38639453e-04, 2.12706058e-04, 1.84475051e-04, 1.79518247e-04,
          2.70848512e-04, -1.28729997e-04, 1.10186746e-04,
          -1.96771525e-05, 2.11609848e-04, -4.54661873e-04,
          -1.39475611e-04, 2.74723599e-04, -2.52915226e-04,
          -8.25464449e-05, -9.53528433e-05, -2.67042815e-05,
          -7.59588729e-04, 3.77772521e-05, 1.73451786e-04,
          -8.12043727e-05, -1.47601473e-04, -1.64735990e-04,
          5.53747414e-05, 1.25285427e-04, -2.94078491e-04,
          3.28160124e-04, -5.64458780e-04, -1.76515343e-04,
          -1.94069056e-04, -5.83033019e-04, 3.42141895e-04,
          -1.32494853e-04, 4.51569242e-04, 2.47173477e-04,
          -5.22350128e-05, 1.02024453e-04, 5.48580836e-04,
          -3.85632360e-04, 1.18195094e-04, -1.43285011e-04,
          3.72431881e-04, 4.58457478e-04, 6.47112247e-05,
          -3.17550002e-05, 3.00320215e-04, -1.25632971e-04,
          -2.41551345e-04, 5.18824032e-04, 1.18071039e-04,
          2.74041551e-04, 4.74294153e-04, 1.48829486e-05, 3.12684104e-04,
          -3.41408275e-04, -4.27287341e-05, -4.10900939e-05,
          8.88074828e-06, 3.85537976e-04, 4.59945033e-04, 2.38425244e-04,
          1.61106320e-04, -2.77357049e-05, 2.95741891e-04,
          7.77153400e-05, 2.18241941e-04, 3.51310082e-05, 2.28857592e-04,
          3.68279114e-04, 3.06043279e-04, -1.81522279e-04,
          5.16450491e-05, 2.63761380e-04, 2.60347471e-04,
          -1.22154335e-04, 2.47388962e-04, 2.60539528e-05,
          1.20709490e-04, 3.71889146e-05, 1.41656972e-04, 4.22945130e-04,
          -4.59991104e-04, -5.61806846e-05, 2.32011862e-05,
          -3.93972208e-04, 5.35475374e-05, -4.80790535e-04,
          -3.61771177e-04, 1.74918328e-04, -5.68898686e-04,
          2.06833822e-04, -7.82811185e-05, 2.02605312e-04,
          -6.79652381e-04, -7.85192591e-04, -2.18918503e-04,
          2.56745494e-04, -3.85588173e-05, 1.74399713e-04,
          1.33708556e-04, 2.42698094e-04, -7.03427213e-06,
          2.64683244e-04, -9.64661813e-05, 1.65694928e-05,
          -4.38661054e-08, -5.22741830e-05, 3.94054310e-04,
          -1.15907365e-04, -4.17944189e-04, 1.73948763e-04,
          -1.66092068e-04, -4.43072873e-04, -2.06435492e-04,
          -3.11674259e-04, 1.76198737e-04, -1.31188775e-04,
          1.66993865e-04, 9.39466117e-05, -4.80971474e-04,
          -5.52108046e-04, -2.98838771e-04, -2.43974981e-04,
          2.98970379e-04, -2.35581072e-04, -2.24908479e-04,
          -7.15524191e-04, -1.83496013e-04, 8.81805550e-04,
          2.72384321e-04, 1.72594839e-04, -2.84303951e-05,
          1.12268543e-04, 4.14369802e-04, -1.24028404e-04,
          -4.31649300e-04, -4.06814797e-05, -5.92716897e-05,
          -2.14903863e-04, 1.80783449e-04, -1.01341800e-04,
          2.99220323e-04, 1.66613114e-04, -3.56202130e-04,
          -8.46614494e-05, -1.74404486e-04, -7.50720210e-05,
          -3.38729791e-04, -3.57864919e-05, 3.95815478e-05,
          -2.84534588e-04, -5.50960016e-04, 1.43791316e-04,
          -3.87416047e-04, -3.66136373e-04, -4.73509717e-04,
          -2.33169616e-04, 1.08304892e-04, -9.58211385e-05,
          -2.46032519e-04, 4.25926701e-04, 8.97535792e-05,
          4.34899906e-04, 3.30763905e-05, -5.30585976e-06,
          4.32795932e-04, -2.12605068e-04, -7.38148156e-05,
          8.54805330e-05, 3.13720375e-04, 2.32061138e-04, 3.62101346e-05,
          2.93232792e-04, 5.58725325e-04, 1.01451838e-06,
          -2.15402742e-05, 2.33127692e-04, 1.11147070e-04,
          4.10172681e-04, -2.36292144e-05, -8.31842335e-05,
          3.70796333e-05, -4.94339562e-04, 1.45100232e-04,
          3.08536110e-05, -2.28882942e-04, 2.70192482e-04,
          2.04675642e-04, -2.86219612e-04, -2.60893779e-04,
          -1.58283117e-04, 1.47020546e-04, 1.32853093e-04,
          1.71248568e-04, 1.16418916e-04, 1.51281231e-04, 7.97099256e-06,
          -2.19388734e-04, -1.86008794e-04, 3.67372195e-05,
          1.17136160e-05, -8.17504333e-05, -5.26794815e-04,
          -1.27227133e-04, -3.74132680e-04, 8.64192771e-05,
          3.10601572e-05, -3.32434283e-04, -2.35168758e-04,
          -2.51324353e-04, -1.98347305e-04, 2.68876087e-04,
          1.17213349e-04, 3.09138559e-05, -1.80285919e-04,
          -4.96120738e-05, -2.33449216e-04, -4.26008599e-04,
          1.45870552e-04, -2.46206037e-04, -2.13901716e-04,
          2.01488350e-04, -2.85793300e-04, 5.84563008e-04,
          5.43582020e-04, 3.51245508e-05, 1.91734900e-04,
          -9.64471546e-05, -1.60201216e-05, 1.89450380e-04,
          -3.44730826e-04, 9.62456252e-05, 3.82885424e-04,
          -9.80413024e-05, 3.01180098e-05, 2.09734251e-04,
          -7.54565481e-05, -9.96064919e-05, -1.10563553e-04,
          -5.46366326e-04, -6.60336591e-05, 1.20501965e-04,
          -1.59545889e-04, 2.24177667e-04, -1.69353239e-04,
          -5.04430325e-04, -1.68420229e-05, -3.53285664e-04,
          -2.56228406e-04, -2.20571499e-04, -6.99400553e-05,
          -3.31171002e-04, -3.56615310e-05, -1.80519579e-04,
          -1.25024395e-04, 5.87165181e-04, 4.76004352e-04,
          3.49543610e-04, -1.30672517e-04, -1.24423532e-04,
          1.79176466e-04, 1.36248505e-04, 7.38928647e-05,
          -1.93366097e-04, 6.40232698e-04, -1.85461118e-04,
          6.54454561e-05, -5.41754380e-05, 5.64038346e-05,
          7.48566163e-05, 6.44637912e-04, -8.43938265e-04,
          1.39817857e-04, -1.53985151e-04, -4.93096886e-05,
          1.59141244e-04, -4.28728708e-05, 2.19206820e-04,
          1.08208136e-04, -3.86374595e-04, -4.57309972e-04,
          -2.41628833e-04, -3.99668206e-04, -4.02242935e-04,
          2.94771133e-04, 2.79367610e-04, -2.72812584e-04,
          -1.67703154e-04, 8.71509183e-05, 6.29279646e-04,
          2.22069633e-04, -1.32147266e-04, 6.14671735e-04,
          1.65115984e-04, -2.35756364e-04, 2.21830996e-04,
          7.20187207e-04, 8.37669577e-05, 1.86969832e-04,
          -1.37569325e-04, 1.95311601e-04, 1.98299691e-04,
          -1.02412829e-04, -2.84072521e-05, 1.60133248e-04,
          -1.81030060e-04, 5.07111981e-05, -2.75588012e-04,
          5.49044344e-04, 1.77856622e-04, 5.18357956e-05,
          -5.42587426e-04, 6.43873645e-05, -1.90900842e-04,
          -2.13541614e-04, -1.52174194e-04, 4.72672633e-04,
          -1.65974619e-04, 2.37336484e-04, -2.56608590e-04,
          -2.29989659e-04, 1.66496466e-04, 5.78498351e-04,
          -1.20878321e-04, 3.30708514e-04, 7.85176599e-05,
          7.86912369e-06, 5.10674981e-05, 2.79637661e-05,
          -5.87753311e-05, 8.13681982e-05, -2.89243064e-04,
          -1.48789941e-05, 3.82122118e-04, -9.81575795e-05,
          -5.41651680e-04, -4.77970956e-04, -4.63505273e-07,
          -1.46862789e-04, -3.05479247e-04, 3.26782290e-04,
          -5.89533083e-05, 4.33669513e-04, -3.95696581e-04,
          1.91760955e-05, -3.96000309e-04, -1.92226798e-04,
          -2.59332504e-04, -3.00312058e-05, -8.72701639e-04,
          1.72427070e-04, -1.68372862e-04, -2.33384380e-05,
          -3.81634381e-05, 1.40913224e-04, -7.90708291e-05,
          6.42367871e-04, -1.43641792e-05, -5.89194133e-05,
          2.78754806e-06, 2.85993556e-05, -2.09595746e-04,
          -1.96315334e-04, -1.39070500e-04, -2.35446860e-04,
          4.03317244e-04, 3.28537244e-05, -3.71583417e-04,
          -2.88549840e-04, -4.15406248e-04, -3.82739177e-04,
          -9.67385276e-05, -1.97134679e-04, -1.60004973e-04,
          -7.08426742e-05, -2.33855957e-04, -6.91581052e-04,
          -7.67299091e-04, -2.77890940e-04, -2.01862640e-04,
          -3.01513210e-04, -4.28789295e-04, -9.04668588e-04,
          -3.06953996e-04, 3.77974677e-04, 1.65514590e-04,
          6.04784727e-05, 1.59827789e-04, 7.77507725e-04, 7.70031358e-04,
          -3.02849330e-05, 2.13823223e-04, -7.38183953e-05,
          -2.30420017e-04, -7.28245795e-05, -1.44857346e-04,
          3.78945493e-04, 6.37894263e-04, -4.42912096e-06,
          -1.93845597e-04, -9.08685834e-05, -1.88433420e-04,
          2.26930264e-04, -5.93674195e-04, 7.97613829e-05,
          3.19530227e-04, -2.25159325e-04, -2.73158628e-04,
          -8.77386537e-06, -8.64307440e-05, -5.84219233e-04,
          -5.23751194e-04, -7.34643370e-04, 6.39887803e-05,
          -8.19227891e-04, -1.43907964e-04, -1.48058738e-04,
          3.27695656e-04, -4.25969229e-05, -5.93665936e-05,
          -5.71676937e-05, 4.65549907e-04, -9.01006570e-06,
          -6.77904172e-05, -1.97980669e-04, -4.42115241e-04,
          1.34040325e-04, 3.89555898e-05, 3.81284801e-04, 2.45797506e-04,
          4.42696735e-04, -4.07383195e-04, 7.01964484e-04,
          6.45750624e-05, -5.77520754e-04, 2.75568455e-05,
          -6.25747780e-05, -2.18633722e-04, 4.36343922e-04,
          -4.06420586e-04, 2.00242393e-05, 8.94194760e-04,
          -7.41156749e-04, -4.80142422e-04, 6.52356975e-05,
          1.65191028e-04, -1.74742396e-04, 2.85620976e-04,
          -1.01112397e-04, 1.22703263e-04, -3.25001136e-04,
          7.23772464e-05, 4.77479887e-04, 6.17277474e-05, 1.45877275e-05,
          -1.30495944e-04, -1.41330063e-04, -5.29555604e-04,
          -6.52549134e-05, -8.09358025e-05, 5.71351557e-04,
          1.21465573e-05, -2.52676429e-04, -5.27321885e-04,
          2.91733100e-04, -5.19809779e-04, 1.33352485e-04,
          1.22738260e-04, -1.66348123e-04, -3.25755187e-04,
          -1.69783845e-04, -9.20902414e-04, -2.00046459e-04,
          -4.29829757e-04, -2.82132794e-04, -4.02311882e-04,
          -5.99553110e-04, -2.29732923e-05, -4.03119891e-04,
          2.95118080e-04, -1.39736352e-04, -1.01955311e-05,
          -1.07554588e-04, 5.94127749e-04, 1.48510051e-04,
          -5.82352732e-05, 2.86762253e-04, -2.03633041e-04,
          -5.50504337e-05, -3.90386631e-05, 1.41497265e-04,
          -2.02454306e-04, 1.78060334e-04, 4.31092107e-04,
          8.77781204e-05, -2.51690915e-04, 8.16442989e-05,
          -6.80787753e-06, -4.32833003e-05, -8.50691111e-04,
          -2.90965952e-04, -4.31231201e-05, -3.10967036e-04,
          -1.01283658e-04, -6.97851763e-04, -2.65310955e-04,
          -5.19327295e-04, -4.05475352e-04, -6.35501579e-04,
          -3.17674188e-04, -1.19120325e-03, -3.41024352e-05,
          1.41443525e-05, 6.29395421e-04, 3.79713747e-04, 1.11944326e-04,
          1.12096444e-04, 6.67191867e-04, 4.81866737e-04, 2.50874233e-04,
          -5.99634659e-04, -2.05675067e-04, -1.35089314e-04,
          4.79780538e-05, -1.86882869e-04, 3.02363187e-04,
          5.54375074e-05, 3.67552595e-04, -4.46319318e-04,
          -5.52581878e-05, -4.55410220e-04, -1.06422980e-04,
          -7.48380262e-05, 2.28819626e-04, 2.55203104e-05,
          1.44323436e-04, -9.29614180e-04, -5.41332847e-05,
          -3.70820519e-04, -3.22628388e-04, -1.53411165e-04,
          1.48556384e-04, -3.71906062e-04, 2.84006877e-04,
          -2.56087515e-04, 6.25741959e-05, -6.87342254e-05,
          -3.56632401e-04, 1.77912560e-04, -4.67333703e-05,
          -1.90905499e-04, -2.31263068e-04, -6.84042054e-04,
          -3.17219790e-04, 5.44366339e-05, -4.65708930e-04,
          5.76680250e-05, -1.89956307e-04, -4.39721218e-04,
          8.79735962e-05, -4.24991777e-05, -8.26966658e-04,
          -5.72901394e-04, -4.45736718e-04, -1.62401440e-04,
          -2.35185318e-04, -9.07800975e-04, 2.09049627e-04,
          -3.67672066e-04, -8.58848725e-05, -1.40175151e-04,
          -1.05818341e-04, -6.29845963e-05, 1.79694514e-04,
          -7.38879840e-04, 1.79190829e-04, -4.02123522e-04,
          -9.16552672e-05, -3.33395321e-04, -1.55222166e-04,
          -1.29025735e-04, -5.76903403e-07, -2.24644187e-04,
          -2.49968318e-04, -5.02604060e-04, 3.60225386e-06,
          -1.00469377e-04, -3.16666992e-04, -1.24965227e-04,
          -4.75687353e-04, 3.52579832e-06, -1.90074716e-04,
          -8.84060340e-04, -2.90903321e-04, -3.62698367e-04,
          -2.33084393e-05, -5.67304960e-04, -3.21815663e-04,
          -1.69279781e-04, -4.47214870e-06, -6.19185332e-04,
          -2.59259221e-04, 4.16967559e-05, -6.43501699e-05,
          -3.82365688e-04, 7.54423891e-05, -5.22890536e-04,
          -2.47279386e-04, -1.53103669e-04, -2.70141551e-04,
          -9.98084506e-05, -4.03772108e-04, 4.13266156e-04,
          6.01441643e-05, -1.10497385e-04, -6.20844075e-04,
          9.97456482e-06, -2.32065955e-04, -5.10874961e-04,
          -3.59908066e-04, 5.41175723e-05, 2.57813008e-05,
          -4.92054496e-05, -2.47614342e-04, 3.97214848e-07,
          -5.30525635e-04, -7.71275372e-04, 2.05077493e-04,
          -5.53641352e-04, -1.50587352e-04, 9.45277061e-05,
          1.65681384e-04, -4.83446231e-04, -4.38306481e-04,
          -1.41627999e-04, -1.79806069e-04, -4.21835604e-04,
          -1.02013582e-04, -4.09496162e-04, -1.14951479e-04,
          -6.06372778e-05, -3.32302065e-04, 4.44225370e-05,
          -7.30813554e-05, 9.40245882e-05, 1.27862495e-05,
          -2.41106063e-05, -2.57285981e-04, -3.84651998e-04,
          -2.91661796e-04, -7.41372642e-05, -5.60619752e-04,
          -2.57240627e-05, -1.91344181e-04, -2.92311626e-04,
          1.74223285e-04, -4.34349786e-04, -3.54362739e-04,
          -5.64394504e-05, -3.43014835e-04, -3.00440559e-04,
          -3.80471814e-04, -3.99215409e-04, 1.62286713e-04,
          -9.04839617e-05, -2.37124968e-05, -8.97153004e-05,
          -1.03539896e-04, -6.93580427e-04, -5.86468144e-04,
          -1.57385904e-04, 4.77849186e-04, 2.84619426e-04,
          -5.86702488e-04, 1.15306691e-04, 3.77047254e-04,
          -8.61316512e-05, -1.96960886e-04, 3.87015141e-04,
          -3.39560152e-04, 5.27806114e-04, -1.80612842e-04,
          -2.90366646e-04, -3.19976971e-04, -9.54919160e-05,
          -3.03896551e-04, -6.97528376e-05, 6.35222978e-06,
          1.45603699e-04, -1.95329441e-04, 3.18055390e-04,
          8.29019264e-05, -2.52358179e-04, -7.35343856e-05,
          3.37542838e-06, -1.90986084e-05, -2.49462231e-04,
          -3.59123369e-04, 1.50152919e-04, 6.26479450e-04,
          1.83562195e-04, -1.83268290e-04, 2.18602494e-04,
          9.90092813e-05, 6.43451276e-05, -3.46256158e-04,
          3.84260085e-04, 1.72485365e-04, -3.86215106e-04,
          -5.52148733e-04, -4.52812310e-05, -3.36800993e-04,
          1.46955663e-05, 1.41597353e-04, 1.89615501e-04,
          -1.95416869e-04, -2.53282837e-04, -1.83668133e-04,
          2.83630565e-04, 2.19595880e-04, -3.54620890e-04,
          -3.84832761e-04, -1.67111357e-05, -1.28688334e-04,
          -7.12656547e-05, -6.90037268e-05, 5.38920212e-05,
          1.93279207e-04, -5.37168700e-04, -9.09409602e-04,
          -3.17574479e-04, -1.75480181e-05, 4.79323440e-04,
          1.43577126e-04, -3.21799103e-04, 7.65520890e-05,
          1.78889008e-04, -5.71923272e-04, -5.37030137e-05,
          2.70452932e-04, 1.47499843e-04, -4.53746849e-04,
          -6.95109949e-04, -2.90174183e-04, -5.45798743e-04,
          -4.17824020e-04, -1.78072587e-04, -8.70806543e-05,
          5.99900886e-06, -7.04547783e-05, -1.30432905e-04,
          -1.83746117e-04, 2.13413063e-04, -5.18944173e-04,
          1.30967223e-04, 1.54578112e-04, -7.33178284e-04,
          -1.06514643e-04, -1.85462297e-04, -4.42252727e-04,
          -7.52981505e-05, -3.94196861e-04, -1.54151086e-04,
          -5.01148606e-05, -1.75249428e-04, -1.00963407e-04,
          -4.75808891e-04, 4.76545712e-04, -1.14069961e-04,
          -2.55661376e-04, 6.17523619e-05, -2.87050007e-05,
          5.15903695e-04, -2.69997516e-04, -1.05369319e-04,
          -3.08955467e-04, -4.80755756e-04, 2.39016172e-05,
          1.54943380e-04, -2.81122630e-04, 2.29592028e-04,
          -2.34042222e-04, 1.80472023e-06, -3.13575409e-04,
          -6.68615510e-04, -3.87049484e-04, -4.57262504e-05,
          1.31706722e-04, -1.11184498e-04, -4.14519134e-04,
          7.36691072e-05, -2.31925369e-04, 9.90314147e-05,
          -4.48922328e-05, -4.75375244e-04, -5.33063721e-04,
          -2.81350367e-04, -7.31989741e-04, -5.33556624e-04,
          3.85849708e-04, 6.05275913e-04, 5.52380807e-04, 2.66311079e-04,
          1.43874597e-04, 8.27063690e-04, 3.84733139e-04, 7.86785560e-04,
          7.39960873e-04, -2.94330312e-05, 3.51775408e-04,
          3.45397711e-04, 1.27915846e-04, 6.04558154e-04, 6.30596987e-05,
          3.25614354e-04, -2.99350475e-04, 4.85518576e-05,
          -1.25079634e-04, 3.54385411e-04, 3.19057726e-05,
          7.04580016e-05, -2.07806952e-04, 4.66873433e-04,
          8.30852514e-05, -9.71163536e-05, -7.67739839e-04,
          2.66784860e-04, -2.68039701e-04, 1.88239264e-05,
          2.14968008e-04, 3.32133670e-04, -1.56024907e-04,
          1.26177326e-06, -2.55331048e-04, 9.61663958e-04,
          -3.40003549e-04, 8.45035029e-05, 2.72682548e-04,
          7.52361084e-04, 1.88457852e-04, -1.29427644e-04,
          -5.00473601e-04, 1.62199707e-04, 3.69168149e-04,
          2.42194132e-04, 1.23992533e-04, 8.13205843e-05,
          -2.49335193e-04, -1.09796842e-04, -4.65810399e-06,
          -3.67656699e-04, -3.85438034e-04, -3.30776122e-04,
          3.30296753e-04, 2.28807083e-04, 9.51300317e-05,
          -8.82253007e-05, -6.02129323e-04, 2.52557365e-04,
          -6.85085368e-04, -6.51575625e-04, -2.57398759e-04,
          2.74086196e-04, -5.62368550e-05, -4.29654428e-05,
          8.05924865e-05, 6.27391448e-04, -2.37217333e-04,
          -1.36052849e-05, 6.36001641e-04, -2.16930392e-04,
          4.34647547e-04, 2.62387941e-04, 6.57954370e-04, 1.36679364e-05,
          -4.95749118e-05, -2.12949162e-05, 1.64002762e-04,
          -2.96457467e-04, -1.63314500e-04, -9.75366565e-05,
          4.76046298e-05, 4.15800110e-04, -7.52165433e-05,
          -1.53235771e-04, 1.71602340e-04, 1.01518810e-04,
          -2.38691908e-04, -3.47434863e-04, -1.12634763e-04,
          -1.70037805e-04, -9.08987276e-05, -3.04898975e-04,
          -2.58242391e-04, -2.59830063e-04, -8.71058437e-05,
          -6.36033947e-04, 2.14745582e-04, 5.73519676e-04,
          -4.20288619e-04, 3.61128157e-04, 5.31726633e-04,
          -2.78099353e-04, 1.04844534e-04, -2.23106472e-04,
          -1.27824285e-04, 4.08510823e-04, 1.24835453e-04,
          7.67827660e-05, -7.07542767e-06, -2.02024297e-04,
          2.06153578e-04, 2.28502191e-04, -2.58108019e-04,
          -3.00642769e-05, -6.34224794e-04, -6.60073420e-05,
          6.81816309e-05, -7.04988837e-04, -1.24953222e-04,
          1.95593879e-04, -3.58790749e-05, -3.98801640e-04,
          -8.84691253e-04, 2.70286728e-05, -3.80140002e-04,
          -7.14032853e-04, 3.01456923e-04, 7.42527598e-04,
          -5.33058155e-05, 2.84400943e-04, 2.24647010e-04,
          5.70189732e-04, 5.66531671e-04, 3.81596124e-04, 3.26726207e-04,
          8.29756435e-04, 2.28042874e-04, 2.98865489e-04, 4.85351920e-05,
          -8.49108328e-05, 8.58392974e-04, 3.27650778e-04,
          4.12377383e-04, 4.80218441e-04, 3.20155057e-04, 1.42239092e-04,
          1.54771726e-04, -2.33823113e-04, 3.25779074e-05,
          -7.57607586e-06, 4.99635469e-04, -5.02720941e-05,
          1.60939249e-04, 5.89427655e-04, -1.49677435e-04,
          1.40708638e-04, 1.07456057e-04, -5.00637165e-04,
          5.29433775e-04, 2.95850157e-04, 5.23882318e-06, 1.50066699e-04,
          7.57887552e-04, 3.62298393e-04, 1.28001790e-04,
          -6.26349865e-05, -4.07516345e-05, 1.82333722e-04,
          1.31327088e-05, 1.94896522e-04, 3.35687306e-04,
          -1.72034168e-04, 2.14555213e-04, 3.21948231e-04,
          -1.19321972e-04, 1.41364158e-04, 1.35305439e-04,
          -2.59467139e-04, 1.91099374e-04, -6.77185715e-04,
          3.60376253e-05, 7.11752000e-05, 2.61718815e-04, 3.38767713e-05,
          7.46209116e-05, 3.88920089e-05, 3.30760609e-04,
          -4.02208039e-04, -4.82234871e-04, -2.99485429e-04,
          1.16317096e-04, 1.32779183e-04, 5.71302779e-04,
          -7.53681161e-05, 1.93546235e-04, 3.27590358e-04,
          3.59170430e-04, -2.10452868e-04, 2.48965116e-05,
          -5.69794036e-04, -5.69903614e-06, 3.23536718e-04,
          2.45711562e-04, -4.42715362e-04, 1.38034065e-05,
          4.37878276e-04, -5.18684159e-04, -2.74667225e-04,
          -2.27292287e-04, -3.57480923e-04, 1.18175140e-05,
          -2.26557400e-04, 1.48564159e-05, -1.08036757e-05,
          -2.98953964e-04, 2.57097679e-04, -2.36935404e-04,
          -5.03061281e-04, 2.65986484e-04, -2.09973237e-04,
          -6.06773829e-04, -4.31851426e-04, 5.60065848e-04,
          5.40784327e-04, 5.85213944e-04, 1.39938333e-04,
          -1.03284285e-04, -1.55863581e-05, 6.14152290e-04,
          -3.93754279e-04, 6.79249759e-04, 2.92826844e-05,
          -3.11029406e-04, 1.44522550e-04, 3.73949297e-04,
          -1.03976359e-04, 8.46181138e-05, -1.16107381e-04,
          -6.23674074e-04, -1.58974770e-04, -8.26990174e-04,
          -1.85251396e-04, -7.39696043e-05, 1.63359582e-04,
          -2.06344674e-04, -6.50721951e-04, -5.77094906e-04,
          -1.75147710e-04, -6.39270525e-04, -3.49899055e-05,
          -4.97646630e-04, 1.19167678e-04, -8.02764436e-04,
          -6.37758232e-04, -8.79532236e-05, 6.50784525e-04,
          5.13505714e-04, 2.26023156e-04, 4.49568557e-04, 2.73236044e-04,
          1.10463670e-03, -2.48293771e-04, 4.30274267e-05,
          5.38249093e-04, -1.87558820e-04, 3.72615541e-05,
          4.12649591e-04, -1.89022103e-04, 4.50102845e-04,
          1.89502200e-04, 5.48559416e-04, -6.21486251e-05,
          -2.05313772e-04, 5.62351313e-04, 5.85037109e-04,
          -5.44609211e-04, -6.06291651e-05, -6.09159470e-05,
          -1.11466827e-04, 2.12572209e-04, -2.20784641e-04,
          7.23686651e-04, 6.12006232e-04, -7.92962790e-04,
          1.17435353e-04, -1.66718615e-04, -2.19056441e-04,
          3.66966706e-04, 3.08586052e-04, 1.35932249e-04, 4.06973486e-05,
          3.05538706e-04, 9.27342277e-04, 1.42110803e-04, 5.44227194e-04,
          2.66181742e-04, -7.90316426e-06, -3.14684410e-04,
          3.41974868e-04, 2.18321147e-04, 3.89795932e-05, 4.74562257e-05,
          1.76737594e-04, 1.58237992e-04, -1.93135798e-04,
          -7.85379598e-05, 2.70213466e-04, -3.50910777e-05,
          -2.27647906e-04, 3.40156694e-04, -1.19157979e-04,
          1.95516855e-04, 7.54139983e-05, -1.36616494e-04,
          1.68819810e-04, -2.50579789e-04, 2.64425937e-04,
          -3.72263254e-04, -4.30167071e-04, 2.46910349e-04,
          2.35134692e-04, 2.65908951e-04, 2.65653158e-04, 1.02797916e-04,
          3.62258899e-04, -1.52720622e-05, 2.78581370e-04,
          3.18195453e-05, -3.76628392e-04, 3.07178590e-04,
          1.24786093e-04, 1.59590039e-04, 1.09261935e-04,
          -4.83578151e-06, 1.46638922e-04, -4.21477162e-04,
          -3.34300683e-04, -4.74516070e-04, -2.36751745e-04,
          -1.90116654e-04, -4.44239522e-05, 1.43547077e-04,
          -5.98344312e-04, -5.31068945e-04, 3.64614971e-04,
          -2.87709991e-04, 2.66290386e-04, -4.02840815e-04,
          -2.30362901e-04, -4.28577914e-04, -3.75571573e-04,
          3.62642080e-04, 1.82719421e-04, 3.17302765e-04, 1.96997193e-04,
          -4.96940047e-04, 1.25489023e-04, 9.61048354e-05,
          6.07111491e-04, 1.84886754e-04, 2.05567594e-05, 9.55292198e-05,
          1.02714570e-04, 5.82551329e-05, 3.28310736e-04, 1.79691458e-04,
          -7.99458707e-04, -9.20413295e-05, 2.74451420e-04,
          -2.12264640e-04, -4.42580176e-06, 6.93265101e-05,
          2.23643394e-04, -2.28019271e-04, -8.74022371e-04,
          1.00884590e-05, 7.71713385e-05, -1.86345060e-04,
          5.57898369e-04, -3.29472969e-04, -7.70359591e-04,
          -4.54150431e-04, -1.30526329e-04, 8.66374176e-04,
          1.43936006e-04, 5.40693523e-04, 2.85612652e-04,
          -9.42609113e-05, 8.16232467e-04, 3.38442274e-04,
          -7.79205584e-05, 4.54226771e-04, 2.60669476e-04,
          3.25142377e-04, 2.43117058e-04, 2.31030979e-04, 8.00991897e-04,
          1.36594841e-04, -9.49224632e-05, 2.23899115e-04,
          -6.18258491e-05, -2.69292621e-04, -3.82617945e-05,
          2.37074564e-04, 2.96069920e-04, 3.42651416e-04, 2.71405064e-04,
          -3.22768145e-04, 2.73571059e-04, 5.28236385e-04,
          -2.71633500e-04, -1.12533824e-04, -2.26791017e-04,
          1.98555907e-04, 1.64253783e-04, 1.23036618e-03, 4.78057627e-05,
          1.50369524e-04, 5.01603703e-04, 3.62021907e-04, 3.90427624e-04,
          3.07565118e-04, 2.44255789e-04, -5.00233960e-04,
          7.09227752e-04, -7.32847241e-08, 3.46140732e-04,
          -6.85604609e-05, 3.84486812e-05, 3.04821733e-04,
          -3.05044414e-05, -1.39396230e-04, 5.87081668e-05,
          -4.29136446e-04, 2.24119358e-05, -8.09026751e-05,
          5.82837034e-04, 5.94269768e-05, 9.87626117e-06,
          -1.73551511e-04, -2.78716499e-04, 8.35103274e-05,
          2.28962977e-04, 2.06926808e-04, -1.02549471e-04,
          1.09713459e-04, 4.08722699e-05, 3.76358279e-04, 1.85912853e-04,
          2.54701619e-04, 5.67797688e-04, 4.59662522e-04, 5.66574512e-04,
          1.26209110e-04, 1.43331436e-05, -3.52378964e-04,
          7.33328416e-05, -1.55814359e-05, 3.89607361e-04,
          -7.79994225e-05, 3.94031289e-04, 1.77588285e-04,
          4.54174704e-04, -3.73678777e-04, -4.75762907e-04,
          3.64892097e-04, -6.26896974e-04, -4.11333021e-04,
          -1.99033588e-04, -7.22587793e-05, 3.13783443e-04,
          -3.15154553e-04, -1.52604698e-04, 2.80362408e-04,
          3.94594768e-04, -2.73874357e-05, -2.79794942e-04,
          -2.62116577e-04, 1.70770836e-05, 2.55799769e-05,
          3.26899521e-04, 7.51633837e-04, -1.33156980e-04,
          2.69411074e-04, 5.35526895e-04, -1.08048313e-04,
          -1.00385587e-05, -5.49140896e-05, 3.00675136e-04,
          1.29376480e-04, -7.07599029e-05, -2.41842936e-04,
          5.89974283e-04, 3.80430749e-04, -4.17709089e-04,
          -1.16736766e-04, 1.24874423e-04, -1.08635708e-04,
          -4.40488046e-04, -6.10111223e-04, 2.46489886e-04,
          5.02296753e-05, 3.85682142e-05, 1.48777981e-04, 5.25427913e-06,
          -4.64234385e-04, 3.88525659e-04, -2.60215547e-05,
          1.78967020e-04, -3.07201350e-04, -2.82891357e-04,
          4.19354546e-06, 2.75969942e-04, 1.00718206e-03, 2.13213236e-04,
          7.57710193e-04, 3.61598941e-04, 3.52876872e-04,
          -7.92675637e-05, 4.23012185e-04, 1.09060733e-04,
          -8.61970257e-05, 5.63580215e-05, 7.17578048e-04,
          4.33892303e-04, 4.73343796e-04, -3.07575574e-05,
          1.21941757e-05, 1.62447195e-05, -4.71331470e-04,
          -3.62767059e-06, -8.14867162e-05, 1.01857331e-05,
          1.65844933e-04, -9.07626672e-05, 1.17179778e-04,
          -2.52639089e-04, 1.96978523e-04, -1.21821016e-04,
          -5.83283312e-04, 1.31856694e-04, -2.47535674e-04,
          -6.54867399e-05, 2.89489661e-04, 4.89308964e-04,
          2.66565301e-04, 3.47645080e-04, 9.65857034e-05,
          -6.55982876e-05, 3.78827972e-04, 1.38936695e-04,
          1.88139689e-04, -2.36881853e-04, -1.22601477e-05,
          -1.42894678e-05, 1.60341020e-04, 1.49108469e-04,
          6.21269224e-04, 3.76593467e-04, 1.47398619e-04, 5.02584844e-05,
          -3.95768351e-04, 1.98684254e-04, 1.95403423e-04,
          -4.69298218e-04, 3.02252098e-04, -1.19315482e-04,
          -1.06308835e-04, -2.88541836e-04, -7.20269527e-05,
          -3.34649958e-04, -3.65954736e-04, -2.95194215e-04,
          -1.30551023e-04, 4.85569399e-05, 1.43106445e-04,
          5.03665884e-04, 1.65191464e-04, 1.41166704e-04,
          -2.56554573e-04, 1.65965641e-04, 3.98647884e-04,
          -4.07238658e-05, 3.93782364e-04, 4.50276166e-05,
          2.48341617e-04, -6.39456266e-04, 3.59246333e-05,
          5.07164223e-05, -3.32852396e-05, 3.44589324e-04,
          -3.89450957e-04, -1.56612397e-04, -1.07258966e-04,
          2.66633986e-04, 1.04931714e-04, -3.34265264e-04,
          -1.18241704e-04, -3.52573814e-04, -1.71611231e-04,
          -3.78145138e-04, -5.21925504e-05, -2.05002405e-04,
          -1.89837476e-04, 1.70732674e-04, -1.24362836e-04,
          1.14694245e-04, 1.98978916e-04, 1.98751164e-04, 3.46126966e-04,
          -1.93525339e-04, -7.94960870e-05, -7.28664236e-05,
          3.80641577e-04, -6.20643143e-04, 4.68792598e-04,
          3.21799162e-04, -2.83398869e-04, -6.63398881e-04,
          -3.09640309e-05, -2.43366376e-04, 1.48376290e-04,
          6.59510915e-05, 1.68382292e-04, 5.61491062e-04, 7.69961407e-05,
          3.13135097e-04, -2.55233201e-04, -4.51741682e-04,
          -2.69754324e-04, -4.74835659e-04, 4.90629813e-04,
          6.85058330e-05, -1.05379797e-04, 3.38905993e-05,
          -2.86978378e-04, 5.11305916e-05, -1.44477730e-04,
          1.10706991e-04, 3.90371628e-04, 6.64491614e-04, 2.21243215e-04,
          -8.13585430e-05, 5.58977830e-04, 1.83872093e-04,
          4.47022641e-04, 1.29924112e-04, 2.60291999e-04,
          -7.31129476e-05, 1.11067638e-05, 1.78595456e-05,
          1.26607119e-04, 4.61333897e-04, 1.18475247e-04,
          -3.60552833e-04, 4.09879023e-04, -2.09456688e-04,
          1.13855727e-04, 5.28340344e-04, -5.44770483e-05,
          5.25650801e-04, 4.10729786e-04, -5.26277116e-04,
          -2.74593738e-04, -5.93597579e-05, 8.08601762e-05,
          4.12255147e-04, 1.85733261e-05, 2.69662967e-04,
          -3.45108012e-04, -1.24474420e-04, 3.01801017e-04,
          7.42722768e-04, 7.16680021e-04, -3.32223535e-05,
          1.81220370e-04, 3.99950863e-04, 1.79381401e-04,
          -8.16926513e-06, 9.27633519e-05, -1.85831406e-04,
          2.05305099e-04, 2.27012380e-04, 4.17808806e-05, 2.44690222e-04,
          3.94401257e-04, -4.84371878e-04, -9.06659043e-05,
          -3.57760611e-04, 4.95510758e-04, -9.54124116e-05,
          -6.06527261e-04, 1.64556070e-04, 2.47707678e-04,
          1.59477408e-04, -3.47207504e-04, -7.32677727e-05,
          -1.17638619e-05, 4.32047149e-04, -7.43352575e-04,
          9.23163589e-06, -2.23742303e-04, 1.81144002e-04,
          3.02616070e-04, 3.01364256e-04, 1.64484329e-04, 4.46283811e-04,
          2.27204800e-04, 2.79873260e-04, -2.95345002e-04,
          2.05890086e-04, 3.96797433e-04, 2.65930925e-04,
          -7.58956419e-04, -1.17622360e-04, 3.91750858e-04,
          2.67944881e-04, 4.09315799e-05, -2.39829984e-04,
          -2.23888215e-04, -1.02451966e-04, 8.45477116e-05,
          -5.94873447e-04, -9.30889364e-05, 4.74109052e-04,
          -1.58845898e-04, -2.74011458e-04, -3.33831413e-04,
          1.66323385e-04, 2.97234626e-04, -4.76354799e-05,
          -5.07486344e-04, 4.14841197e-04, -2.60360393e-04,
          5.63328329e-04, 3.84589192e-04, -2.27228258e-04,
          4.24381142e-05, 4.23983991e-04, 8.25598720e-04, 6.27551926e-04,
          3.43614665e-04, 2.00749942e-04, 1.78383329e-04, 3.62820545e-04,
          1.11028996e-04, 1.33588386e-04, 2.54703278e-04,
          -3.01766504e-05, -1.77706941e-04, -1.15441238e-04,
          -1.14563976e-04, -2.52952072e-04, 3.11131676e-04,
          5.66948984e-05, -1.65917882e-04, -3.58915073e-04,
          -3.66414752e-05, -3.10431555e-04, 3.09961324e-05,
          -1.49846121e-04, 1.05829451e-04, 2.05203571e-04,
          -3.28442460e-04, -3.16713616e-04, 1.73456629e-05,
          -1.40126314e-04, 2.92988028e-04, 1.45180078e-04,
          1.65976729e-04, -1.12436050e-04, 5.54932514e-04,
          1.45068712e-04, 7.13405781e-04, -1.00268648e-04,
          -3.43535321e-05, -1.67325969e-04, -6.84843599e-06,
          -4.96925553e-04, -1.00265504e-04, 2.94407830e-04,
          2.94138299e-04, 9.10924282e-05, -2.21885828e-04,
          -6.46595610e-04, -2.42270311e-04, -4.58819064e-04,
          -7.40157324e-04, 1.00287136e-04, -5.97277794e-05,
          -3.28017806e-04, -5.49660705e-04, -3.19196173e-04,
          -4.00476856e-04, -9.54823772e-05, -3.77389282e-04,
          4.84781165e-04, 1.69994455e-04, 1.54562353e-04,
          -2.07887188e-05, 5.42320195e-04, 2.23343450e-04,
          1.92810752e-04, 1.35927738e-04, 2.27686774e-04, 6.64696621e-04,
          1.16961528e-04, 5.06651231e-05, 2.41528236e-04, 1.16861629e-04,
          1.10776920e-04, -3.06346657e-04, 2.48686556e-04,
          5.98190672e-05, 1.52394306e-04, 7.61230112e-05, 1.45700993e-04,
          -5.53338439e-04, -2.96122278e-04, -3.87319131e-04,
          -1.90380742e-04, -5.16242115e-04, 2.00317780e-04,
          -1.47344937e-04, -5.36319974e-04, -1.27113264e-04,
          1.48558174e-04, -8.20039713e-04, -8.98147773e-05,
          -2.50224984e-04, 2.61956302e-04, -2.52794300e-04,
          3.28323629e-04, 2.73256650e-04, 5.91091579e-04,
          -2.19061316e-04, 2.98164465e-04, 5.47897478e-04,
          2.50857731e-04, -1.91756058e-04, 1.16825477e-05,
          -1.93287080e-04, 1.79049850e-04, -3.73724979e-05,
          3.47232599e-05, -2.93194578e-04, 2.19826601e-04,
          -3.72671231e-04, -3.55952769e-04, -2.38095949e-04,
          -4.07452142e-04, -2.67909607e-04, -1.56340626e-04,
          -4.51813423e-04, 7.57974121e-05, 1.23278747e-04,
          -1.73012697e-04, 1.54065739e-04, -1.62243712e-04,
          -3.71043338e-04, -1.48357503e-04, -6.68481589e-05,
          3.49712936e-04, -1.70626707e-04, -1.55716061e-05,
          4.85647499e-04, 3.07510403e-04, 2.14359490e-04, 1.91257903e-04,
          3.42561310e-04, 6.03595632e-04, -3.03652865e-04,
          5.84039517e-05, -8.41907895e-05, 9.50575341e-05,
          3.05193855e-04, -8.12254075e-05, -2.57049047e-04,
          3.52314353e-04, -8.27116019e-04, -5.46060219e-05,
          4.27128816e-06, -3.30110401e-04, -3.48350470e-04,
          4.58001050e-05, 2.09909311e-04, 3.35783516e-05,
          -7.89452111e-04, -1.69618615e-05, 1.16053365e-04,
          -2.91900185e-04, -3.66573659e-04, 1.31692388e-04,
          4.50734893e-04, 3.44383479e-05, 7.08851585e-05,
          -4.44978505e-04, 3.88812856e-04, 3.05821100e-04,
          1.10712972e-04, -4.52178152e-04, 1.10156063e-04,
          -1.68077968e-05, 3.39394755e-04, -4.08069376e-04,
          3.19904757e-05, -2.40480469e-04, 2.24370524e-04,
          -1.43531797e-04, 4.19671596e-05, 4.98481386e-04,
          4.64467230e-05, -2.97099265e-04, -1.00096317e-04,
          4.48870969e-06, 3.73441144e-05, 1.71640568e-04, 2.76795501e-04,
          2.24732779e-04, -3.86422296e-04, 5.91376120e-05,
          -5.74728590e-04, 6.58856414e-04, 2.98286577e-05,
          1.29321779e-04, 5.42721900e-05, 8.82294698e-05,
          -3.66542226e-05, -3.86702421e-04, 4.03453159e-04,
          6.15727156e-04, 1.44117017e-04, 5.44680461e-07, 8.29283235e-05,
          1.86824065e-04, 4.24620637e-04, 3.06550704e-04,
          -1.43349433e-04, -3.82793834e-04, 2.22217874e-04,
          9.53799463e-05, 3.02081666e-04, 5.32786304e-04, 1.19551492e-04,
          2.82931840e-04, 2.94894999e-04, -1.07849490e-04,
          -3.36196739e-04, -9.91757261e-05, -1.00609905e-04,
          -2.66227526e-05, -3.91255569e-04, 2.97846651e-04,
          -2.31911836e-04, 1.53995170e-05, 1.29133026e-04,
          -3.85385269e-04, -4.78565780e-04, 2.62874819e-04,
          -4.35343063e-05, -5.36270527e-05, 5.59068809e-04,
          2.01622679e-04, 5.29037323e-04, 9.46140062e-05, 2.42784838e-04,
          -7.39782641e-04, -2.62735898e-06, 3.62507635e-05,
          3.68409783e-05, -4.91716783e-05, 3.45384586e-04,
          7.92744777e-06, 1.79157250e-05, 1.53911154e-04,
          -2.91619886e-04, -5.46161842e-04, 2.71196710e-04,
          -3.54486692e-04, -1.54167035e-04, -3.39571532e-04,
          1.18100084e-04, -6.16243167e-04, -1.55379326e-04,
          -1.86605772e-04, -2.45857780e-04, -7.82933275e-05,
          -8.97135178e-05, -4.00758698e-04, -2.67642870e-04,
          6.53684110e-05, 4.64220921e-06, 1.93626965e-05, 2.79994420e-04,
          -4.48799256e-04, -1.96706431e-04, 1.99005881e-04,
          1.10297318e-04, -4.67476231e-04, -3.52888805e-04,
          1.35138034e-04, -9.70115725e-05, -1.44889680e-04,
          -4.41209209e-04, -4.71879524e-04, 6.44534666e-05,
          -3.33710050e-04, -9.40446625e-04, -2.61675857e-04,
          -3.06354690e-04, -5.41605754e-04, -6.06960617e-04,
          -7.01420824e-04, -1.58621042e-04, -7.01045850e-04,
          -2.26371703e-04, -6.63396437e-04, -6.19571831e-04,
          -4.15898947e-04, -1.62670185e-04, -5.29679004e-04,
          -3.70227877e-04, 4.77559166e-04, 5.78981650e-04,
          3.94823961e-04, 2.34202846e-04, -3.15188227e-04,
          6.90643268e-04, 2.13721607e-04, 4.90354956e-04, 3.44111933e-04,
          8.39801156e-04, 3.35381133e-04, 4.67557431e-04, 4.24721831e-04,
          5.11208724e-04, -7.66402300e-05, -1.15202631e-04,
          3.71504575e-04, 1.45308659e-04, 1.06323030e-04, 2.45990232e-04,
          -1.57484712e-04, 2.73506361e-04, -6.44713640e-04,
          4.63269353e-05, -2.42288239e-04, 1.90696854e-04,
          -3.95678479e-04, 4.54161986e-04, -2.35485364e-04,
          2.43601797e-04, -3.64092266e-04, 7.34701811e-04,
          4.56806796e-04, -4.11229157e-05, 4.06051928e-04,
          5.90473413e-04, -2.69161334e-04, 9.67206870e-05,
          5.20024274e-04, 3.90025816e-04, 1.62120792e-04,
          -1.66852900e-04, 2.60260247e-04, 2.70597055e-04,
          3.74594907e-04, -7.86270975e-05, 4.73433407e-04,
          -1.44871636e-04, 4.15011105e-04, -4.93301835e-04,
          -5.18434854e-06, -1.45825557e-04, -1.99204223e-04,
          3.44846572e-04, -3.18135688e-04, -6.48037822e-05,
          1.97476824e-04, -3.57012905e-05, -3.26221489e-05,
          -3.20769293e-04, 3.86313832e-06, 1.72395332e-04,
          -4.69955878e-04, 1.66054815e-05, 2.58408138e-04,
          3.30226525e-04, -6.38078272e-05, 2.71051627e-04,
          1.16718111e-04, -4.09358268e-04, 6.02773158e-04,
          5.10567043e-04, 8.16408428e-05, -1.38444826e-04,
          -8.30514473e-05, -1.30089378e-04, -1.24006983e-04,
          -5.86143979e-05, 4.84322460e-04, -5.15087231e-05,
          2.01235176e-04, -7.36747461e-04, -2.22538933e-04,
          -2.57201027e-04, -2.27678611e-04, -1.03593469e-04,
          -2.57862703e-04, 6.99574521e-05, -3.38895858e-04,
          -2.25155221e-04, 3.15392645e-05, -5.59059612e-04,
          -5.55397964e-05, -2.53374368e-04, -2.04973287e-04,
          -6.36033656e-04, 2.56830011e-04, 8.14958068e-04,
          1.06388012e-04, 2.66654679e-04, -3.78808152e-04,
          -1.92843756e-04, 4.42462442e-05, -2.53693070e-05,
          2.77715357e-04, 3.40110346e-05, 5.74147620e-04, 1.38805539e-04,
          -8.95990524e-04, 7.89409241e-05, 2.01314659e-04,
          -1.56326729e-04, 1.38959542e-04, -4.53363929e-04,
          -2.03128424e-04, 8.28835164e-06, -3.31058836e-04,
          -6.01287175e-05, 2.54769955e-04, -2.10315717e-04,
          -6.07453112e-04, -3.81751714e-04, -7.31030013e-05,
          4.47270286e-05, -9.40766884e-04, -3.41423904e-04,
          -9.72548296e-05, -7.72253145e-04, 2.09135134e-04,
          2.48470606e-04, 5.34072533e-05, 1.08574890e-03,
          -3.41769692e-06, 2.67240423e-04, 4.85341327e-04,
          5.96180151e-04, 1.06058338e-04, 8.16268672e-04, 1.54636422e-04,
          6.36495999e-04, 1.80857242e-05, 5.44559909e-04, 3.15439451e-04,
          -1.49545274e-04, 4.88732010e-04, 4.15085990e-04,
          3.57809535e-04, 2.51159916e-04, -4.60453084e-05,
          3.92457296e-04, -4.83399854e-05, 9.20226958e-05,
          1.83354117e-04, -2.81661138e-04, -2.13623080e-05,
          2.20067086e-04, -1.98554961e-04, 1.42440826e-04,
          1.50810301e-04, 2.07950157e-04, 2.53256381e-04,
          -3.10379750e-04, 3.36589874e-04, 4.10869863e-04,
          3.19102284e-04, 6.01509702e-04, 4.95238288e-04,
          -5.58767169e-05, -1.58622715e-05, -4.06521693e-04,
          -2.45388190e-04, 3.15250276e-04, 2.99675565e-04,
          1.26575789e-04, 3.17951140e-04, 3.52205941e-04, 4.18765063e-04,
          -2.80781769e-05, 1.31883062e-04, -1.83909506e-05,
          -4.34011454e-04, 8.41987858e-05, 1.74663597e-04,
          -8.91599557e-05, 2.95370501e-06, 1.83718032e-04,
          -6.95045339e-04, -5.53348335e-04, 2.27752389e-04,
          3.46138200e-04, -3.25338187e-04, -1.82310381e-04,
          -2.00488255e-04, 5.28907112e-04, 4.77783178e-04,
          -5.32990496e-04, 1.88654827e-04, 1.28870830e-04,
          7.16916285e-04, -1.92707972e-04, 8.66615956e-05,
          1.74660468e-04, -3.10454052e-04, -2.12618135e-04,
          3.65853892e-04, 2.37114989e-04, -2.63975846e-04,
          5.80500200e-05, 2.89915261e-05, 7.03147089e-05, 6.35186807e-05,
          -2.65711278e-04, -3.63847357e-04, -3.08215967e-04,
          -1.17239062e-04, -3.04384273e-04, -2.85338348e-04,
          3.06430564e-04, 1.21551289e-04, -2.75603612e-04,
          1.59221207e-04, 6.86462517e-05, -3.11843789e-04,
          -7.33472698e-04, -3.05954192e-04, 8.48230906e-04,
          2.94773927e-04, 1.73974855e-04, -3.45297376e-05,
          -1.20035227e-04, 6.58785051e-04, 1.28536107e-04,
          6.41745864e-05, 4.49489424e-04, 3.76268814e-04,
          -1.62403099e-04, 1.07201107e-04, 1.52970999e-04,
          -1.45037047e-04, -1.55335394e-04, -3.54686694e-04,
          -1.09981047e-04, 1.87923433e-04, -6.06350310e-04,
          1.29318287e-04, 2.35826359e-04, -1.57664417e-05,
          -1.97318266e-04, -5.92902419e-04, -2.38857116e-04,
          2.87423318e-04, -2.84787733e-04, 3.18530190e-04,
          -8.82467284e-05, -2.59707187e-04, -5.57572523e-04,
          9.68874083e-05, -5.21238944e-05, 6.07063936e-04,
          4.95049986e-04, 9.55711177e-04, 4.58197028e-05, 5.33529528e-05,
          5.03682939e-04, 2.34621766e-04, -4.74491040e-04,
          8.97497695e-04, 2.17005363e-04, 6.39507023e-04,
          -1.46328690e-04, 8.96408601e-05, 6.25025059e-05,
          4.67187871e-04, -5.04688069e-05, 2.79086962e-04,
          -4.02272890e-05, 2.30417732e-04, -1.85204000e-04,
          4.67646569e-05, -2.76705017e-04, 2.56512139e-04,
          2.28177727e-04, 4.64484736e-04, 1.18920550e-04, 6.48511574e-04,
          -1.49325962e-04, -3.25310306e-04, -3.10577860e-04,
          -2.21575538e-04, -2.07301142e-04, 6.14595891e-04,
          4.57796239e-04, 2.78817664e-04, -1.07965083e-04,
          2.41928326e-04, 4.26228740e-04, -2.90412481e-06,
          1.33944137e-04, 2.40217036e-04, -1.44934093e-04,
          1.87634068e-04, 2.24131843e-04, 2.30005331e-04,
          -3.49449634e-04, -5.37393025e-05, 6.80242883e-05,
          -8.34153543e-05, -3.96561867e-04, -3.73944611e-04,
          7.11160537e-05, 3.99473764e-04, -1.89836777e-04,
          -2.44678027e-04, -5.63944690e-04, -1.04469764e-04,
          2.93833116e-04, 1.86118559e-04, -2.07882564e-04,
          -1.07921282e-04, -3.71117319e-04, -2.91085635e-05,
          3.38081154e-05, -2.19926478e-05, 6.20459439e-04,
          5.30684832e-04, 4.54304798e-04, -2.34741106e-04,
          8.10502606e-05, 8.68074567e-05, 3.56349687e-04,
          -2.59316177e-04, 3.88997374e-04, 2.15652995e-04,
          2.18769972e-04, -2.03381234e-04, -1.99959963e-04,
          1.13440240e-06, 4.02569131e-04, -4.67261212e-04,
          -3.23908607e-04, -5.82919456e-04, -5.31272846e-04,
          2.78949039e-04, -3.15342593e-04, -6.14312303e-04,
          -2.09497288e-04, -2.97511520e-04, 2.02769254e-04,
          2.38119144e-04, -5.48192729e-05, -3.58853904e-05,
          -5.91890654e-04, 1.31581983e-04, -2.05762990e-04,
          3.53881042e-04, 3.44500353e-04, 1.94344480e-04, 1.68862127e-04,
          3.80802347e-04, 2.69277196e-04, 2.98193598e-04,
          -9.50573085e-05, -1.90187275e-05, -3.38565209e-04,
          -1.37492985e-04, -1.75980560e-04, 5.46663185e-04,
          -1.10344292e-04, -5.57631778e-04, 1.58499301e-04,
          2.94401892e-04, -2.27857847e-04, -7.34559362e-05,
          -4.10820852e-04, -1.73338369e-04, -2.66207237e-04,
          -9.36769648e-04, -1.99529808e-04, 3.65743123e-04,
          -6.91045134e-05, 3.60815378e-04, -3.47904679e-05,
          -6.08567905e-04, -6.54108298e-04, -2.74221064e-04,
          1.80324583e-04, 9.02641215e-04, 5.02485840e-04, 4.84858581e-04,
          -1.10997149e-04, 2.08193334e-04, -7.42531192e-05,
          2.63195427e-04, 1.30720538e-04, 7.29133142e-04,
          -1.66503887e-04, 5.84342983e-04, -5.84540539e-04,
          2.72144884e-04, -3.41175066e-04, 9.19340309e-05,
          -2.32590319e-05, 4.14114591e-04, -7.30435131e-05,
          3.61437128e-06, -2.59298016e-04, 3.00728745e-04,
          -4.36293660e-04, -1.08257373e-04, -4.29535750e-04,
          3.43339518e-04, 1.15013303e-04, 7.34566362e-04, 1.21124445e-04,
          2.63436057e-04, -3.47894267e-04, 2.50027642e-05,
          4.92797000e-04, 6.75415213e-04, 4.16270021e-04, 9.90658882e-04,
          4.10307577e-04, 1.22357902e-04, -6.16996999e-07,
          1.31540524e-04, 2.11380655e-04, 8.32819380e-04, 1.91253753e-06,
          7.87562531e-05, 1.33280599e-04, 1.24350307e-04,
          -4.35350084e-05, 6.66036736e-04, -4.18462092e-04,
          8.44008406e-04, 2.44642470e-05, 3.05345748e-05,
          -8.47369956e-05, 3.51973984e-04, 2.99334119e-04,
          -1.92464766e-04, 8.80551888e-05, 5.33674960e-04,
          6.76872442e-05, 5.37289889e-04, 1.29767956e-04, 6.32594572e-04,
          -4.79139089e-05, 6.10840434e-05, -2.02853378e-04,
          5.30621503e-04, 1.98790687e-04, 1.19509168e-04, 3.41470528e-04,
          2.74851191e-04, 1.96165885e-04, 1.14833994e-04,
          -1.62924131e-04, 8.06110911e-05, -1.25848092e-04,
          -2.32929495e-04, 1.41379423e-04, 2.20655973e-04,
          1.78117043e-04, 2.49820441e-04, -4.73824301e-04,
          1.52663953e-04, 1.79110662e-04, 3.78237251e-04,
          -4.65400837e-04, 3.13401484e-04, 3.02913861e-04,
          -1.00600468e-04, -8.35572791e-05, 4.57991962e-04,
          2.98851897e-04, -1.41389255e-05, -1.67150036e-04,
          3.89674795e-04, -9.60455727e-05, 3.57103010e-04,
          -9.17530153e-04, 4.33042733e-04, -7.79438997e-05,
          5.43821225e-05, 1.71953521e-04, -6.89144799e-05,
          5.17256849e-04, 2.89816729e-04, -4.11540561e-04,
          5.34134277e-04, 5.12931510e-05, 2.22514755e-05, 1.97290181e-04,
          -2.02351963e-04, -2.20666014e-04, 3.25219080e-05,
          -1.90397186e-04, 9.20026563e-04, 2.24685005e-04,
          -5.40474794e-05, -3.03210138e-04, 2.13258187e-04,
          -6.55713666e-04, 3.57486191e-04, 8.26429095e-05,
          7.62228156e-04, 1.38714706e-04, -4.12005524e-04,
          6.28239795e-05, 3.84097570e-04, -3.70981346e-04,
          2.03181553e-04, 6.25806628e-04, 5.25247771e-04, 5.52058103e-04,
          -2.95871054e-04, 3.22967593e-04, 1.56847760e-04,
          4.50022111e-04, 2.93444056e-04, -5.97452599e-05,
          2.55482591e-04, 7.08681066e-04, -2.00033464e-04,
          -2.72755915e-05, 3.12623917e-04, 4.38879768e-04,
          4.05223866e-04, -2.40388385e-04, -2.01013041e-04,
          3.96121381e-04, 8.71442258e-04, -2.05984557e-04,
          -2.17504523e-04, 3.25560482e-04, 7.84699125e-07,
          1.16632014e-04, 3.46835644e-04, 5.96948026e-04,
          -2.94132711e-04, 2.67968775e-04, -2.05265605e-04,
          4.85776283e-04, 3.14752833e-04, 2.08923957e-04, 1.54863126e-04,
          9.21034880e-05, -2.69678072e-04, 4.12118941e-04,
          2.25042808e-04, 2.91006028e-04, 1.06967382e-05, 2.30594902e-04,
          1.33746420e-04, 2.83390866e-04, -4.34635183e-07,
          -3.52001225e-04, 6.40139449e-04, 1.30439685e-06,
          1.42369478e-04, 7.67445745e-05, 7.58774549e-05, 2.64661270e-04,
          1.00268604e-04, -2.62808142e-04, -1.20602017e-04,
          7.19197706e-05, -1.44553487e-04, 4.14408365e-04,
          2.22273433e-04, 2.06278186e-04, -2.26982684e-05,
          2.41544578e-04, -2.90131738e-05, -7.02757534e-05,
          -6.40056533e-05, 1.95194036e-04, -9.02150568e-05,
          -2.12135797e-04, 3.75138006e-05, 3.33930802e-04,
          3.15285783e-04, 2.09407503e-04, -1.56532173e-04,
          2.84201698e-04, 1.63937264e-04, -1.92245789e-04,
          4.42293327e-04, 3.30971197e-05, 2.94729311e-04, 4.53082612e-05,
          5.03803749e-05, -2.16976463e-04, -2.29391313e-04,
          -3.32477997e-04, -1.13319373e-04, -3.74004449e-04,
          8.30660210e-05, -2.14720698e-04, -2.70232209e-04,
          -1.65874662e-04, -3.83031293e-04, -1.09041794e-04,
          3.01511827e-05, -2.27346187e-04, 4.17571078e-04,
          1.54441412e-04, -7.50540406e-04, -3.02116125e-04,
          3.66737426e-04, -3.14912904e-04, 2.39565867e-04,
          4.39446740e-04, 1.63927514e-04, 4.89283470e-04,
          -4.88164951e-04, -2.02376512e-04, 9.72004636e-05,
          -1.33526279e-04, 3.42383515e-04, 2.91501958e-04,
          3.88955086e-04, 2.95185862e-04, 1.66730475e-04,
          -2.41235452e-04, 7.03726400e-05, 1.99668400e-04,
          2.20056445e-05, -3.93042428e-04, -1.82830423e-04,
          -5.52472848e-05, -3.89607594e-04, 8.56410406e-05,
          3.46797548e-04, 1.57235991e-04, -3.58743942e-04,
          -6.66953099e-04, 2.68351694e-04, -2.60490371e-04,
          -1.50955757e-05, 1.15943913e-04, 8.70516578e-06,
          -1.40470860e-04, -1.83980388e-04, 1.88322228e-04,
          1.98103604e-04, -1.41217068e-04, 5.57975982e-05,
          5.76761260e-04, -1.82274001e-04, -3.46218672e-04,
          2.57559324e-04, -1.38478717e-04, 3.42871062e-04,
          -1.21878591e-04, -2.87563103e-04, 1.75814173e-04,
          1.10383517e-04, 2.28047036e-04, -3.69086920e-04,
          7.51107291e-05, 3.44416767e-05, -1.89603132e-04,
          1.35956390e-04, 4.98905683e-05, 2.86793627e-04, 2.52974074e-04,
          -7.48741557e-04, -3.03820125e-04, 1.82450804e-05,
          -1.40630829e-04, -1.58226307e-04, -1.32976274e-05,
          3.36785102e-04, 2.25746080e-05, -3.54299147e-04,
          1.55614151e-04, 2.69594399e-04, 1.50299849e-04,
          -1.62010911e-04, -1.84235570e-04, 2.68411008e-04,
          -1.68231185e-04, 3.95597279e-04, -1.02974976e-04,
          3.95227653e-05, 3.84419342e-04, -6.54667383e-05,
          -1.27193474e-04, 3.03231063e-04, 6.30501600e-05,
          9.09746159e-05, -3.21435218e-05, -3.84628656e-04,
          -2.01366798e-04, 5.20790927e-04, 9.40336904e-05,
          -2.33763858e-04, 2.25172145e-04, -1.32072023e-06,
          2.24819560e-05, -4.46492049e-04, 1.33137408e-04,
          -3.44990141e-04, -3.95599927e-05, 1.63858480e-04,
          7.91839557e-05, -1.77125126e-04, 2.77163315e-04,
          -1.02599734e-04, 3.31160583e-04, 1.08634464e-04,
          -3.62308056e-04, -1.41970158e-04, 1.10052046e-04,
          1.64600206e-04, -2.70991179e-04, 1.99220391e-04,
          2.48209981e-04, -3.93249851e-04, 2.17916109e-04,
          -6.80744415e-05, -2.92340381e-04, 2.39800924e-04,
          -3.20411578e-04, 3.76316573e-04, -1.14464005e-04,
          3.82588041e-05, 2.26429489e-04, -3.64294792e-05,
          -2.65218496e-05, 2.31310667e-04, -4.53231594e-04,
          -3.15451980e-05, 1.52439505e-04, -3.62929743e-04,
          -2.46437034e-04, -7.29963858e-06, 5.60770801e-04,
          -1.94627399e-04, 1.66305035e-04, -2.53374601e-04,
          3.47824942e-04, -2.68907694e-04, -2.46296782e-04,
          3.14229226e-04, 1.76213325e-05, 1.87463724e-04, 1.44103600e-04,
          -2.14629588e-04, 4.41689248e-04, -5.21396403e-04,
          1.63044737e-04, 2.78333144e-04, -7.01358222e-05,
          1.41200333e-04, -5.80864144e-04, 2.83116271e-04,
          6.82054320e-04, 5.78105391e-05, 1.03846141e-04,
          -1.53765461e-04, 2.48947072e-05, -1.52009525e-04,
          -5.28515899e-04, -5.44810018e-06, 4.94885353e-05,
          2.57895183e-04, 7.70788538e-05, 8.99492414e-04, 5.25063260e-05,
          -3.93428418e-05, -1.25981998e-04, 5.68784541e-04,
          3.80046142e-04, 1.36510658e-04, 2.57880514e-04, 8.49150761e-04,
          -7.45868165e-05, 2.80600128e-04, -4.18078736e-04,
          3.85429448e-04, 2.01018702e-04, -1.87920436e-04,
          3.03450834e-05, 2.71610013e-04, 2.16540648e-04, 1.48153733e-04,
          1.23626469e-05, -1.92686261e-04, 1.51341257e-04,
          2.22691044e-04, -3.09060088e-05, -1.07419721e-04,
          4.92411025e-04, -2.88649841e-04, -2.58156742e-05,
          -1.85416458e-04, 1.92336491e-04, -1.65117654e-05,
          -6.50854709e-05, -1.05805993e-04, -1.68958344e-04,
          9.92654677e-05, -7.40707765e-06, 2.19704045e-04,
          4.03427810e-04, 1.44291364e-04, 2.64650880e-05, 1.07351916e-04,
          5.52449201e-05, -2.88849871e-04, -1.09192944e-04,
          9.30158349e-05, 4.94875640e-05, -1.78995659e-04,
          -7.22326658e-05, -3.01512802e-04, 3.44934437e-04,
          -5.41954687e-05, -1.14630508e-04, -2.42472393e-04,
          1.72041007e-04, 1.00084098e-05, -2.16061744e-04,
          7.85419616e-05, 2.21644543e-04, -3.53322132e-04,
          -1.25349397e-04, -6.98328859e-06, 6.95151975e-04,
          -2.74420279e-04, -1.60418815e-04, 3.05559923e-04,
          9.64757201e-05, 5.28109304e-05, -2.68274925e-05,
          4.73631342e-04, 2.46359879e-04, 1.01769074e-04, 2.46817945e-04,
          4.74642875e-05, -4.36975824e-05, -2.93237041e-04,
          1.81455005e-04, -2.35810599e-04, -2.95885577e-04,
          9.77522504e-05, -2.78051040e-04, -1.13073060e-04,
          -2.68757023e-04, 2.89730611e-04, 2.76504288e-04,
          6.80278674e-07, -2.66225015e-05, -3.43291322e-04,
          -4.18338168e-04, 3.64874373e-04, -1.83860466e-05,
          -5.79213265e-05, -5.37783490e-04, 1.84024088e-04,
          2.25155978e-04, 2.94629281e-05, 1.83690005e-04, 3.82749015e-04,
          5.33324666e-04, 1.92861495e-04, -3.39079910e-04,
          3.94422590e-04, 6.05292444e-04, 1.10752146e-04, 8.19421984e-05,
          5.99386767e-05, -1.10974303e-04, -5.89137890e-05,
          -8.98928993e-05, -1.13421629e-04, 8.86706839e-05,
          -2.39834844e-05, -3.31665760e-05, -3.60383524e-06,
          -2.22517148e-04, 4.27296531e-04, 3.19228333e-04,
          -1.76014131e-04, 2.18013200e-04, -2.63523165e-04,
          4.02914020e-06, 8.27278491e-05, 1.15316674e-04, 4.69107705e-04,
          -2.91615695e-04, -1.60456650e-04, 2.77149869e-04,
          3.89636349e-04, -1.71173830e-04, -4.11674817e-04,
          -1.92573643e-04, 1.44092483e-04, -2.08566227e-04,
          3.89120629e-04, 4.66333877e-04, 3.43024964e-04,
          -6.36554323e-05, -5.37661545e-04, 2.10571365e-04,
          1.37536452e-04, -2.89321106e-05, 1.61859844e-05,
          2.79093394e-04, 4.68055514e-05, -1.00486744e-04,
          -1.61554679e-04, 1.21269055e-04, 3.54261210e-05,
          4.12377631e-05, 1.33371257e-04, 2.85706465e-05, 3.47219233e-04,
          -6.24396664e-04, 5.87090508e-05, 2.77121988e-04,
          5.03029849e-04, 1.45873782e-04, 1.37434748e-04, 2.96954269e-04,
          1.95729139e-04, 1.97402042e-04, 2.58033309e-04, 7.39309835e-05,
          1.60065305e-04, -1.21391546e-04, 1.00955513e-05,
          1.54407826e-04, 3.22916203e-05, -1.28695436e-04,
          1.49945772e-04, -3.61698359e-04, 8.81119922e-05,
          -4.00957833e-05, -1.23556136e-04, 3.10454896e-04,
          -1.86702178e-04, -8.82552995e-05, 2.39764951e-04,
          -7.50195235e-04, 2.33174738e-04, 1.91790750e-05,
          2.52938553e-05, 3.88296867e-05, 3.79692996e-04,
          -4.30586137e-04, 5.72038552e-05, 1.83299489e-04,
          2.77314830e-04, -6.53357856e-05, -3.73479998e-05,
          1.50119813e-04, 3.64822510e-04, 1.55917558e-04,
          -2.02786828e-06, 2.66933261e-04, 3.43649008e-04,
          -1.08277221e-04, 2.76674109e-04, 1.71917869e-04,
          -1.93414598e-04, -4.90828097e-05, -1.18958334e-04,
          -1.02651793e-04, 2.47294054e-04, -1.17239964e-04,
          6.27657755e-06, 1.48731968e-04, 1.11055997e-04,
          -1.37988754e-04, -5.01077564e-04, -2.67841941e-04,
          -1.14941453e-04, -5.61258867e-06, 4.42138808e-05,
          7.60981347e-05, 6.56432472e-04, 8.37521438e-05,
          -1.59796928e-05, -1.25234146e-04, -2.27963363e-04,
          5.08396537e-04, 1.56013717e-04, -8.48635245e-05,
          2.86599767e-04, 3.25654401e-04, 4.25106409e-04, 5.99410014e-05,
          -1.60137759e-04, 3.33300064e-04, 8.83853409e-06,
          -1.32791887e-04, -4.29564243e-04, -8.45118775e-04,
          4.99865098e-04, 3.17218801e-04, -5.95052261e-04,
          -4.59048635e-04, -3.56197881e-04, 4.95292654e-04,
          -1.06447522e-04, -8.07560689e-04, -4.78340080e-04,
          -7.29753083e-05, -3.50632239e-04, -7.32709072e-04,
          -3.53919546e-04, -1.83534303e-05, 4.29259439e-04,
          -2.99346924e-04, -8.28109100e-04, 1.25200531e-04,
          -8.37481988e-04, 2.85107526e-04, -1.15260620e-04,
          -1.71059801e-04, 2.95575883e-04, 9.08165355e-04,
          -8.33477243e-05, 4.32417874e-04, 4.02525096e-04,
          2.95795413e-04, 3.42001411e-04, 5.19513153e-04, 2.42165173e-04,
          4.39806405e-04, 5.29099598e-05, 2.35130326e-04,
          -8.47806150e-05, 4.45749756e-04, 1.39602431e-04,
          1.39456140e-04, 8.11514110e-05, -9.71774643e-05,
          -9.99641561e-05, -4.74748813e-05, 2.11807674e-05,
          2.81252142e-04, 3.47302790e-04, 6.79296193e-07, 7.47866288e-05,
          -4.83739132e-04, 3.48557660e-04, 5.35023282e-05,
          3.98771954e-04, 5.08302241e-04, -7.87130994e-05,
          3.25155794e-04, 3.57015320e-04, 2.35460000e-04, 2.24386196e-04,
          5.24624542e-04, -2.51284597e-04, 3.39179787e-05,
          1.90771330e-04, 5.68854739e-04, -3.13669261e-05,
          1.80535208e-04, -5.11417056e-05, 3.97731783e-04,
          -1.35725320e-04, -1.74091707e-04, 3.06929112e-04,
          3.55473574e-04, -2.01005911e-04, 1.65402176e-04,
          -4.78019996e-04, 2.93619469e-05, -1.09072622e-04,
          -9.15329874e-05, 8.69265059e-05, 3.41925625e-04,
          -1.33183945e-04, -2.60455912e-04, -3.86033440e-04,
          -3.04957444e-04, 3.44424072e-04, -3.20852014e-05,
          -2.01465271e-04, 6.49952271e-04, 2.02708063e-04,
          1.98809023e-04, 2.85371818e-04, 2.01471456e-04,
          -4.26776067e-04, -1.13440503e-04, 3.36225174e-04,
          2.54548184e-04, -5.96153433e-04, 1.90262057e-04,
          -3.51429946e-04, 4.72676271e-04, -2.37857057e-06,
          -7.96178647e-05, 1.00116522e-05, 1.88902675e-04,
          -3.72317416e-04, 2.39274101e-04, -9.22874387e-05,
          1.02348480e-04, -4.18535230e-04, -4.42806850e-05,
          -3.42207582e-04, -2.72146426e-04, -3.78484197e-04,
          -1.71480933e-04, 1.29212611e-04, -3.02948203e-04,
          -1.04256971e-04, 2.30982609e-04, -8.77116690e-04,
          -6.45678520e-05, 5.54716389e-04, -1.23438076e-04,
          4.53237481e-05, 4.31995519e-04, -6.63510655e-05,
          -2.28107325e-04, 5.57382300e-05, 1.60562995e-04,
          -2.63127498e-04, -2.20861533e-04, 1.68714454e-04,
          9.95911250e-05, -6.17745332e-04, 3.76382377e-04,
          -2.15390013e-04, 3.49890994e-04, -1.19272372e-04,
          5.56993000e-05, 2.33375595e-05, -8.17891269e-04,
          -6.22497464e-04, 1.97218338e-04, -2.37855682e-04,
          -2.95531936e-04, -3.25048226e-04, 2.03679563e-04,
          -2.13013482e-04, -4.23180027e-04, -3.85196210e-04,
          -3.91527610e-05, 1.66533973e-05, -3.16899415e-04,
          5.94341545e-04, 8.73497120e-05, 5.57109248e-04, 6.14809454e-04,
          2.11319173e-04, 6.50896807e-04, -2.61935464e-04,
          3.99891753e-04, 5.81643661e-04, -5.08141966e-05,
          4.12268972e-04, 2.75491300e-04, 6.79428704e-05, 3.56915523e-04,
          -9.80800833e-05, -1.89606275e-04, 2.00548006e-04,
          4.99542046e-04, 1.41181779e-04, -1.85889017e-04,
          2.20028051e-05, -4.97212284e-04, 1.41952609e-04,
          -2.99538486e-04, 1.32483081e-04, 9.08026195e-05,
          -6.33405944e-05, 4.06267995e-04, -4.14165814e-04,
          -4.61615173e-06, 4.41946322e-04, -4.17651812e-04,
          4.65335295e-04, 7.63414486e-04, 6.53206371e-04, 4.63525357e-04,
          2.82327848e-04, 9.33971314e-05, 4.20758181e-04,
          -1.25383856e-04, 8.59081396e-04, -2.11810082e-04,
          3.69280984e-04, 1.93962944e-04, 2.16378030e-05, 2.23866038e-04,
          -5.41966983e-05, -3.41872365e-04, 4.70055907e-04,
          -2.57634820e-04, 2.70527933e-04, -2.45329720e-04,
          -2.15176158e-04, 3.98093165e-04, 2.61224137e-04,
          1.33600392e-04, 1.83418015e-04, 2.00857739e-05, 3.48903501e-04,
          -5.92023389e-05, -2.42318511e-05, 1.17886730e-05,
          1.03965875e-04, 1.26507701e-04, 2.19744907e-04, 3.78733530e-04,
          7.84238975e-04, 1.84773264e-04, 2.87624222e-04,
          -5.24891657e-05, 7.74978718e-04, 1.41987475e-04,
          1.01149253e-05, -3.32276250e-04, 2.33416227e-04,
          3.20971245e-04, 3.62511753e-04, -3.15062061e-04,
          1.15267618e-03, -6.23289743e-05, 1.68693266e-04,
          -4.51861968e-04, -1.18377095e-04, 2.05189848e-04,
          1.16208845e-04, -2.37092579e-04, 3.28972470e-04,
          -6.87736610e-04, 1.11803674e-04, 3.21094645e-04,
          5.19233174e-04, -2.62273796e-04, 4.72500746e-04,
          -1.32587214e-04, -3.96710820e-04, 1.33534719e-04,
          6.68644381e-04, -2.36618725e-04, 2.40966023e-04,
          8.73274548e-05, 3.64580890e-04, -4.41713273e-05,
          1.42990684e-04, 1.42745601e-04, 1.04149243e-04,
          -9.87626336e-05, 1.44857040e-04, 3.35759047e-04,
          4.62580356e-04, -2.06418074e-04, 2.58856948e-04,
          5.28827484e-04, -4.95219778e-04, 1.21394723e-05,
          2.80450651e-04, 1.85527460e-04, 1.80650328e-04,
          -5.95363781e-05, 5.54768107e-08, -6.35884178e-04,
          -1.34615548e-04, 4.11642832e-04, 9.46130385e-05,
          1.30171378e-04, 6.10716233e-04, -5.46623196e-05,
          -1.16028918e-04, -1.10231573e-03, 9.94399816e-05,
          1.17144125e-04, 5.50460943e-04, 5.95243357e-04, 2.95853155e-04,
          3.09141964e-04, 1.83786949e-04, -2.95692909e-04,
          1.20879253e-04, 1.14422306e-04, 5.72347024e-04, 2.79236818e-04,
          6.72788592e-05, 9.92814676e-05, 9.93898502e-05, 9.66315638e-05,
          -4.91504325e-05, 2.38266934e-04, 2.00301773e-04,
          4.62781900e-04, -6.35569595e-05, 1.34545087e-04,
          9.38048834e-05, 1.76629503e-04, 5.49509597e-04, 2.28439851e-04,
          1.14958217e-04, -4.99726564e-04, -1.31462366e-04,
          -1.77819849e-04, 5.84360532e-05, -5.19242545e-04,
          2.00843773e-04, 4.36889174e-08, 4.91362240e-04, 1.86655307e-04,
          6.53901952e-04, -5.66558047e-05, -7.22142795e-05,
          -1.72130312e-05, 6.09528041e-04, -7.85057782e-05,
          3.49290385e-05, 8.92806929e-05, 3.47826688e-04, 5.36861247e-04,
          8.72944875e-05, 2.29497484e-04, 3.09304378e-05,
          -4.69547464e-04, -2.39431640e-04, 3.88054526e-04,
          -1.45800775e-04, 4.25376464e-04, 6.09178038e-04,
          -2.04918124e-05, 1.89325554e-04, 2.29751924e-04,
          -9.54182542e-05, -2.37251617e-04, 9.30219103e-05,
          1.61563454e-04, 7.33947672e-04, -3.87262204e-04,
          9.45474167e-05, 3.09914230e-06, 2.64435337e-04, 4.00539546e-04,
          7.41800875e-04, -3.23324377e-04, 9.21866449e-04,
          -5.97912986e-05, 5.16526634e-04, 2.01431190e-04,
          1.83871918e-04, 9.52130504e-05, 1.43968195e-04, 9.33829651e-05,
          3.27810820e-04, 3.02345929e-04, -2.32022780e-04,
          -1.76380490e-04, 6.13535813e-05, 1.11618770e-04,
          1.99826463e-05, 7.35995200e-05, 4.29562700e-04,
          -1.97941088e-04, 5.73733298e-04, 3.83636157e-04,
          6.96626157e-05, -3.03083041e-04, 4.49129409e-04,
          -1.69530438e-04, 6.83710445e-04, -6.94839691e-04,
          -1.93439882e-05, -2.20107497e-04, 4.85316530e-04,
          7.43017372e-05, 1.65971651e-04, 1.19688411e-04, 6.14625926e-04,
          -2.07471487e-04, 1.79551891e-04, 1.49016298e-04,
          1.50972963e-04, 1.52293214e-04, 6.09573544e-05, 1.40402393e-04,
          3.01734253e-04, -1.68242055e-04, -4.18308860e-04,
          5.67910902e-05, 1.72992863e-04, -2.13584863e-04,
          1.58219307e-04, 5.79543985e-06, 4.90966253e-04, 1.92230800e-04,
          2.59095250e-04, 2.85708898e-04, -3.39476646e-05,
          -2.52627447e-04, 6.10022689e-05, -5.28395001e-04,
          8.79478699e-04, -3.80587408e-05, 4.25206526e-04,
          -4.89887025e-04, 5.17615641e-04, -2.83806876e-05,
          -5.25131436e-05, -1.85423596e-05, 4.39553580e-04,
          3.10822652e-04, -8.28196644e-05, 1.95945881e-06,
          4.61190531e-04, -1.53802743e-04, 3.44206142e-04,
          1.91460524e-04, 3.37389793e-04, -4.11304572e-05,
          -2.32282855e-05, -1.33699723e-04, 2.25752628e-05,
          4.02029218e-05, 3.46718967e-04, 1.00801393e-04, 7.08638632e-04,
          2.98501458e-04, -9.59209647e-05, 5.42274793e-04,
          5.28381846e-04, -1.95762826e-04, 3.55505690e-05,
          -3.69695626e-04, 6.48100337e-04, 2.36661072e-04,
          3.26895999e-04, -4.05419181e-04, 2.59412482e-04,
          1.43497324e-04, -2.84370559e-04, 9.17535872e-05,
          2.94622314e-05, 1.94827022e-04, 5.34671126e-04,
          -2.45542004e-04, 5.23927913e-04, -2.03671098e-05,
          3.27925110e-04, -2.17673205e-05, 1.29558714e-04,
          -4.61426025e-05, -9.24543019e-06, -1.38638658e-04,
          3.16342164e-04, -3.68189139e-05, 2.12719402e-04,
          1.96632507e-04, 2.39722751e-04, 9.83530117e-05,
          -9.25920176e-05, 3.75520351e-04, 3.30816780e-04,
          -1.80531089e-04, 1.24252343e-04, -1.19331249e-04,
          1.11912363e-04, 5.80318971e-04, -1.08178094e-04,
          -3.56885808e-04, -7.43170749e-05, 1.95146407e-04,
          3.99753422e-04, 2.24824442e-04, 2.64797680e-04, 2.65213079e-04,
          1.24251965e-04, -1.30738073e-04, 1.47584913e-04,
          -7.28868181e-05, 3.19278304e-04, -1.82995529e-04,
          -9.80821460e-06, 3.37917678e-04, 3.98119155e-04,
          -5.19326859e-05, 4.74713233e-05, -2.99395790e-04,
          1.00945646e-04, 1.29839493e-04, -5.23715134e-05,
          -2.14332613e-04, -1.19743272e-05, 1.08318316e-04,
          1.48841005e-04, -2.86737486e-04, -2.99434148e-04,
          -3.81278835e-04, -3.83777398e-04, -6.67532804e-05,
          3.07984243e-04, -5.69714524e-04, 2.00225011e-04,
          -3.45223780e-05, 4.67337755e-04, 3.33112439e-05,
          4.12905647e-04, 2.10243656e-04, -7.04433842e-05,
          -1.52636654e-04, 1.02596619e-04, -3.96540127e-05,
          -1.59507777e-04, 1.30389017e-04, 1.48582214e-04,
          7.17885341e-05, 5.10165628e-05, -8.52020676e-05,
          -2.05919161e-04, -5.54894432e-05, 8.54796745e-05,
          3.17138445e-04, 1.26211278e-04, -1.93645115e-04,
          -3.30175186e-04, 1.81262571e-04, -1.19675642e-04,
          -3.26657784e-04, -1.34016096e-04, 5.11818624e-04,
          4.17199857e-07, -2.66553223e-04, -7.99579138e-05,
          1.36859031e-04, 4.46402875e-04, 9.61965488e-05,
          -6.15112134e-04, -1.07809741e-04, 2.91487027e-04,
          -8.20067507e-05, -2.56090338e-04, 2.45382747e-04,
          -4.10356515e-05, 8.20053043e-04, -1.05347339e-04,
          -2.23458701e-04, 2.75554397e-04, 1.03571467e-04,
          7.32524932e-05, 5.04548334e-05, 2.74526508e-04, 4.60421143e-04,
          2.96090584e-04, -3.29730392e-04, -1.03433718e-04,
          2.73004000e-04, -4.16961440e-04, 8.05989694e-05,
          8.05764139e-05, -7.00814417e-05, 1.72047163e-04,
          -4.95599088e-05, -8.84858528e-05, 7.75818480e-05,
          3.41579493e-04, -3.46332818e-04, -7.60638213e-05,
          2.97982740e-04, -3.02287255e-04, 1.73552733e-04,
          5.63330541e-05, 1.28850879e-04, -5.26556578e-05,
          -1.60530297e-04, 3.41872772e-04, 5.24280418e-04,
          1.56948910e-04, -1.46783423e-04, 4.68357408e-04,
          4.86365665e-04, -9.61606711e-05, -3.90527348e-05,
          2.91350007e-04, 3.10462463e-04, -5.12479492e-05,
          -3.00086045e-04, 4.40714182e-04, 5.40129549e-04,
          2.82884313e-04, 3.05428228e-04, -2.21354436e-04,
          3.01967404e-04, -3.77439501e-05, 1.11006302e-04,
          5.63055801e-04, 1.43445810e-04, -1.28043512e-05,
          3.12275428e-04, -2.66793853e-04, 4.46792284e-04,
          2.32169750e-05, 6.31245668e-04, 1.90719365e-04, 1.22675439e-04,
          3.24538356e-04, -2.71109078e-04, 2.65187264e-04,
          3.15825775e-04, -7.45657380e-05, 8.21300928e-05,
          9.21777682e-05, -1.53516157e-04, -5.75164177e-06,
          1.50722568e-04, 4.57144284e-04, -2.02059760e-04,
          -1.53969566e-04, 3.67371453e-04, -3.74214753e-04,
          -2.78347550e-04, 5.86857495e-04, 2.27737473e-04,
          4.88264122e-05, 2.06402081e-04, -1.94063789e-04,
          -7.32795015e-05, 2.31414277e-04, 8.89478761e-05,
          -9.80596305e-05, 2.05894525e-04, -3.67895031e-04,
          2.67003663e-04, 5.87467657e-05, 4.01668949e-04,
          -2.32604361e-04, 3.56346747e-04, 6.68575231e-05,
          1.67365768e-04, -2.04075142e-04, 6.04995003e-04,
          -7.41948270e-06, 1.72455097e-04, -2.53445705e-05,
          1.54003195e-04, -2.57040316e-04, -4.71814310e-05,
          4.04708670e-04, -1.09118973e-05, 1.70776126e-04,
          2.57949025e-04, 5.85801972e-05, 3.73441319e-04, 1.98933965e-04,
          5.88665018e-04, -3.13676603e-04, 1.21844183e-04,
          1.27604042e-04, 9.19211525e-05, 9.54774587e-05, 4.47915139e-04,
          2.26265824e-04, 9.83757764e-06, -1.35694834e-04,
          -5.17448236e-04, 3.45892695e-05, -1.88746606e-04,
          -2.96557468e-04, 3.96449905e-04, 1.24382685e-04,
          4.28201638e-05, 3.59338039e-04, -3.83751933e-04,
          6.88367581e-05, 3.78308148e-04, -1.10764289e-04,
          -3.40868632e-04, 5.67293260e-04, 5.01296367e-04,
          4.22870420e-04, -8.32143924e-05, -1.39676667e-05,
          2.35442465e-04, 3.62479681e-04, -3.96286370e-04,
          8.94099241e-04, 5.47153002e-04, 2.95669452e-05,
          -1.18482065e-04, -3.03958106e-04, -4.21386649e-04,
          4.49445972e-04, -3.67205706e-04, 3.31753836e-05,
          -3.78624303e-04, -2.58114043e-04, -2.93232779e-06,
          3.87985601e-05, -4.88750811e-04, -2.07724297e-04,
          4.88961487e-05, -1.09278648e-04, -6.96750765e-04,
          3.44255131e-05, -1.64684112e-04, 8.98146973e-05,
          -5.84326517e-05, 6.49898138e-05, -5.18202549e-04,
          2.46024865e-04, -6.27758505e-04, 2.09569596e-04,
          -7.55522982e-04, 6.65801053e-05, -3.98568052e-04,
          2.44473835e-04, -1.59446310e-04, 5.59551874e-04,
          -1.66908620e-04, 8.50316283e-05, -6.67556233e-05,
          3.05902300e-04, -4.03741607e-04, 1.63377699e-05,
          -1.74636240e-04, 2.58210610e-04, -2.46266107e-04,
          3.79828562e-04, 1.67911101e-04, 7.19614327e-05,
          -4.12543421e-04, 8.55134931e-05, -1.61452233e-04,
          1.81878913e-05, 2.45097035e-04, -7.78966296e-06,
          -4.55853660e-05, -2.40281050e-04, 4.82746582e-05,
          9.48843226e-05, -4.53320354e-05, -2.18378318e-06,
          -4.18663112e-04, 4.17702598e-04, -1.50729509e-04,
          -4.41348151e-04, -1.36388888e-04, 4.25179984e-04,
          7.92788196e-05, -1.51822009e-04, -5.41805566e-05,
          3.81347374e-04, -1.94329303e-04, 4.28594940e-05,
          -2.81474262e-04, 1.32621470e-04, -3.11446754e-04,
          -4.18128584e-05, -1.27520048e-04, -9.45324427e-05,
          -3.83458428e-05, 7.59065733e-05, -6.15514000e-05,
          9.67217857e-05, 1.27185980e-04, -4.38323950e-05,
          1.15305396e-04, -5.81296103e-04, 5.13288833e-04,
          1.14219220e-04, -1.64961762e-04, -2.68797943e-04,
          1.19203896e-05, 7.59748946e-06, -8.89495641e-05,
          -1.99035989e-04, 1.05915547e-04, 3.89538734e-04,
          -2.54064391e-04, -1.34723057e-04, -7.37168011e-04,
          3.23365646e-04, -3.39818711e-04, 7.39699899e-05,
          -4.49468003e-04, 4.51594591e-04, -4.88029676e-04,
          -2.44549417e-04, -4.37570241e-04, 6.05956993e-05,
          -1.99809205e-04, -8.48046766e-05, 4.64471726e-04,
          -1.65533027e-04, 1.50712498e-04, -6.97024661e-05,
          1.88423393e-04, 4.55193367e-05, 2.45779054e-04, 1.39954835e-04,
          2.53095815e-04, 5.15635475e-04, 2.40573616e-04, 1.82729462e-04,
          -2.40567955e-04, 2.76967476e-04, 6.31740957e-04,
          -1.98901907e-04, 2.64640490e-04, 2.30449295e-04,
          -7.89233192e-04, 1.79667040e-04, 5.42137364e-04,
          2.59176682e-04, 4.04707796e-04, -6.18375907e-06,
          4.34681831e-04, 4.43868572e-04, -2.25411291e-04,
          3.34005599e-05, 3.75717354e-04, 1.54700858e-04,
          -2.02846975e-04, 2.80990615e-04, 4.47606817e-06,
          6.84477418e-05, -1.55047281e-04, -1.31760653e-05,
          6.68884095e-05, 2.27413111e-04, 1.30651591e-04,
          -2.58331886e-04, 2.42518188e-04, 1.77947659e-04,
          -4.30623040e-04, -6.60458609e-05, 1.81597552e-05,
          1.17710471e-04, -1.16432377e-04, 4.63266217e-04,
          -1.49309039e-04, -5.26145304e-05, -6.10839779e-05,
          1.98520967e-04, -1.59250165e-04, -2.90999687e-05,
          2.67269643e-04, 2.77009472e-04, 4.37231851e-04, 4.24017257e-04,
          8.54488899e-05, 2.00216236e-04, -5.89797506e-04,
          4.06407460e-04, -4.12240654e-04, 3.16793667e-05,
          -1.69092935e-04, -9.90914486e-05, -7.64922806e-05,
          4.44097124e-04, -1.12491070e-05, 6.25489454e-04,
          8.98403232e-05, 4.46444174e-05, -2.61683192e-04,
          -1.18425574e-04, -1.13037124e-04, 2.23864099e-05,
          -5.17094042e-04, 5.34847750e-05, -1.07725493e-04,
          3.93837574e-04, -3.40852974e-04, 1.37061463e-04,
          -1.41890516e-04, -4.67374011e-05, -9.17761063e-04,
          1.14534800e-04, 5.85537018e-05, 1.48723848e-04, 2.58392713e-04,
          1.63050921e-04, 6.71608495e-06, 1.74645989e-04,
          -1.60065698e-04, 2.73468817e-04, -2.95765669e-04,
          -3.56882985e-04, 2.00795679e-04, 4.60565381e-04,
          2.27783225e-04, 5.00729475e-05, 6.06288144e-04,
          -3.62291430e-05, -3.55933065e-04, -3.71992384e-04,
          3.13878292e-04, -7.66227458e-05, -1.05511608e-04,
          -2.06051700e-04, 5.36100415e-04, 1.43787665e-05,
          3.12650227e-04, -1.27376450e-04, -1.26631028e-04,
          2.03989272e-04, -3.79114827e-05, 1.19634274e-06,
          1.90293751e-04, 1.67909588e-04, 3.21934029e-04,
          -4.64443874e-04, 2.49415811e-04, 8.05443327e-04,
          2.23312658e-04, 5.25166048e-04, 2.06597062e-04, 1.08686881e-03,
          -3.38021724e-04, 2.60521047e-04, 2.46025302e-04,
          4.93187865e-04, 4.22362442e-04, -4.40596850e-05,
          -4.29728883e-04, 1.55277376e-04, 1.47083119e-04,
          -8.39884233e-05, -6.40431608e-05, 4.65045305e-04,
          3.11928103e-04, -1.59649244e-05, -3.12022923e-04,
          2.92633922e-04, -2.95775710e-04, 2.22488507e-05,
          2.01593968e-04, 4.89786835e-05, 1.36609524e-04,
          -1.89893417e-05, 2.48411845e-04, 2.43111659e-04,
          -3.41465464e-04, 4.60213823e-06, 2.68044387e-04,
          5.94912388e-04, -3.27027577e-04, -1.42141231e-04,
          3.60061822e-04, 7.07759638e-04, -1.55314672e-04,
          9.56163713e-05, 2.69715703e-04, -6.63948085e-05,
          3.05905298e-04, -1.94713866e-04, -5.61060442e-04,
          1.46295686e-04, 2.96949747e-06, 2.65758950e-04, 2.16972840e-04,
          2.41718371e-04, -8.24059389e-05, -1.73427179e-05,
          1.71165855e-04, 2.10894636e-04, -3.11493677e-05,
          3.65441156e-05, -3.03212000e-04, 3.84312996e-04,
          2.72102101e-04, -3.10052856e-04, -5.73855641e-06,
          1.70075669e-04, 1.78991704e-05, 1.52679655e-04,
          -7.46651494e-05, 5.00652881e-04, -8.71430020e-05,
          -1.96690962e-04, 4.64326731e-04, 1.86849968e-04,
          2.40984751e-04, -2.41776710e-04, -4.90126142e-04,
          -1.73526510e-04, 3.74422903e-04, -2.84293110e-05,
          -1.65356232e-05, -2.48518190e-05, 6.25734974e-05,
          -4.75199718e-04, -2.90269178e-04, 1.69058811e-04,
          -4.00488265e-04, -2.06111319e-04, 4.10029461e-04,
          -2.82720692e-04, 2.95697013e-04, -4.71462336e-05,
          1.45168364e-04, 6.48842761e-05, -8.39135784e-04,
          -2.95146921e-04, 2.56849540e-04, 5.43749411e-05,
          1.65091129e-04, 5.67336392e-04, -1.85891360e-04,
          -2.47904914e-04, -5.70677628e-04, -1.57420174e-04,
          3.65654530e-04, -1.23512509e-04, -4.74342203e-04,
          6.13418015e-05, -4.33788518e-04, 7.01368990e-05,
          -4.07188745e-05, -4.41898301e-04, 5.56854357e-04,
          -2.29409736e-04, -3.50883842e-04, -6.95325783e-04,
          1.19363343e-04, 1.55616217e-04, -3.72959970e-04,
          -3.50372051e-04, 1.34385054e-05, -2.94714875e-04,
          -7.12950365e-04, -2.47387070e-04, -4.15856077e-04,
          1.79703402e-05, 3.01146647e-05, 1.19653057e-04,
          -3.09599447e-04, 3.87697146e-05, -8.43307236e-04,
          1.46677630e-04, -2.50193902e-04, -7.77238529e-05,
          -1.21549347e-04, 1.51437693e-04, 2.83267174e-04,
          6.20959385e-04, -9.73763963e-05, 1.68145983e-04,
          4.38224888e-05, 5.07666027e-06, 9.40619677e-04,
          -2.32314953e-04, 5.89537784e-04, 1.27276944e-04,
          3.34190758e-04, 2.41849004e-04, 1.72276006e-04, 4.91765677e-04,
          2.42343696e-04, 1.17417789e-04, 4.95339802e-04,
          -2.15994354e-04, -7.56049776e-05, 1.52519162e-04,
          1.57148883e-04, 1.66908518e-04, 1.37530596e-05, 2.04911648e-05,
          2.93033139e-04, 5.97652934e-06, -4.85610246e-04,
          1.37647934e-04, 4.42339806e-04, 2.23022493e-04, 6.87061256e-05,
          2.36806954e-04, 6.32617739e-04, 5.87020419e-04, 2.33104132e-04,
          -5.27839758e-04, 7.84923832e-05, -4.43612516e-05,
          1.68244223e-04, 4.54988913e-04, 1.05174600e-04, 4.39142023e-04,
          1.13080008e-04, -1.65989608e-04, 1.99209288e-04,
          4.66991973e-04, -1.64951110e-04, 3.22544773e-04,
          8.92935786e-05, -1.50811975e-04, -1.98273134e-04,
          2.04443451e-04, 1.58600436e-04, -2.38648790e-05,
          5.12674625e-04, 4.91083301e-05, -1.70960004e-04,
          2.63609138e-04, 5.72889712e-06, 1.13531758e-04, 4.80419199e-04,
          -2.62179936e-04, 6.38661964e-04, -3.31036164e-04,
          1.74426808e-04, 5.82019265e-06, -1.89783852e-04,
          2.45050114e-06, 5.87567956e-05, -1.85669487e-04,
          -5.48509852e-05, 1.03184932e-04, 4.87491197e-04,
          -2.59351858e-04, 1.76887552e-05, -1.75534238e-04,
          -2.46916694e-04, -1.70376079e-04, 9.85879888e-05,
          -3.32945900e-04, -2.58233951e-04, -2.66901152e-05,
          -3.37958685e-04, 4.32452245e-04, -2.65810486e-05,
          1.31203182e-04, 5.36921652e-05, -1.99416652e-04,
          -3.13719123e-04, 4.87128331e-04, -2.81629182e-04,
          5.75628947e-04, 3.85118881e-04, -3.78527824e-04,
          7.49973970e-06, -1.52852139e-04, 5.55400948e-05,
          6.64754407e-05, -5.98293555e-04, 3.33521719e-04,
          -1.32034729e-05, -4.80894669e-04, 1.96017951e-04,
          -1.10147033e-04, -6.25596876e-05, -3.50946386e-04,
          -3.41968262e-05, -3.11390497e-04, -6.41343591e-04,
          -6.44719461e-04, -1.07700171e-05, 3.31961637e-04,
          -3.41516949e-04, -2.28723060e-04, -2.59131280e-04,
          -8.13353181e-05, -4.03649137e-05, -5.00538772e-05,
          -4.22348356e-04, 6.50662347e-04, -4.57723690e-05,
          3.93255381e-04, -3.52709641e-04, 7.71731080e-04,
          3.91045032e-04, -4.54090259e-05, -5.76366729e-04,
          1.61527336e-04, 2.96139828e-04, 8.95739824e-04,
          -2.81145592e-04, -2.66246876e-04, -3.27419286e-04,
          -3.66047549e-04, 5.56164130e-04, -1.15800169e-04,
          1.18882890e-05, 5.03498712e-04, 1.46470498e-04, 2.42128008e-04,
          1.65753343e-04, -2.75735860e-04, 1.10453628e-04,
          9.14493212e-05, 7.46647420e-05, -2.14388128e-04,
          7.93595507e-04, 4.45799757e-04, -1.18846234e-04,
          -1.19319466e-05, 1.92876454e-04, 4.33644018e-04,
          -8.42389054e-05, 4.76017158e-05, 3.57923651e-04,
          2.11206774e-04, -3.36761819e-04, 7.34930392e-04,
          2.78749096e-04, 6.16125355e-04, 6.51375958e-05,
          -4.72380416e-05, -5.11536025e-04, 6.41733466e-04,
          -1.85205688e-04, -1.30479966e-04, 5.69407784e-05,
          2.62032554e-04, 4.53726039e-04, -4.69357328e-04,
          -7.46726510e-05, 2.09472855e-04, 3.35749937e-04,
          7.23207904e-06, 1.93184416e-04, 4.19175019e-04, 9.98733667e-05,
          -1.42890887e-04, 1.15745883e-04, 2.92837329e-04,
          -2.56507337e-04, 3.50123155e-05, 1.74543646e-04,
          3.25141154e-04, 3.24846769e-04, 5.88269962e-04,
          -4.90596176e-05, 3.47671390e-04, -4.12443878e-05,
          7.23076984e-04, -5.13994128e-05, -3.32695781e-04,
          3.07546987e-04, -5.04546158e-04, 3.38325422e-04,
          5.15675754e-04, 3.39215505e-04, 6.21534477e-04,
          -3.76061071e-04, -7.49409301e-05, 5.52822712e-05,
          3.51189461e-04, 1.15163508e-04, -4.43527271e-04,
          -1.07507985e-04, 2.52609170e-04, -1.99813265e-04,
          3.70575581e-04, -2.95850390e-04, -1.05397419e-04,
          -3.29479255e-04, -2.09240425e-05, 1.13469330e-04,
          2.91706936e-04, -3.70468159e-04, 6.24555396e-04,
          -3.40779283e-04, 3.05902038e-04, -7.15353917e-06,
          3.50482471e-04, -1.99832328e-04, 3.55163211e-04,
          -2.22414368e-04, -2.09851249e-04, 1.29780834e-04,
          7.90625854e-05, -2.80401990e-04, 3.37945705e-04,
          -1.92746484e-05, 3.06489565e-05, -2.20664169e-05,
          -9.51954804e-04, -1.65045043e-04, 6.88646047e-04,
          -1.65005506e-04, 4.42195800e-04, -8.48458294e-05,
          1.53524103e-04, 3.83316001e-05, -1.69723135e-04,
          -2.01486673e-05, 3.78635334e-04, -4.92315216e-04,
          3.95332085e-04, 1.74083863e-04, 3.11692420e-04, 1.10103938e-04,
          -1.43830301e-04, -2.49260687e-04, 5.31849873e-05,
          -3.47281661e-04, 1.87073732e-04, 1.55053436e-04,
          7.50175459e-05, -2.51572328e-05, -2.11274848e-04,
          -9.81534868e-06, -1.50367137e-04, 9.83939681e-05,
          1.97867615e-04, 4.78783099e-04, 7.61236995e-04,
          -1.30218425e-04, -2.57234351e-04, -5.38810622e-04,
          -2.30908321e-04, 1.14762086e-04, 2.97915307e-04,
          2.51073041e-04, 5.09628502e-04, -3.62156163e-04,
          -1.32185334e-04, -2.67323267e-05, 3.24956578e-04,
          5.51747507e-05, 1.70554864e-04, 5.82339417e-04, 1.03511760e-04,
          -3.41182516e-04, 6.11180003e-05, -1.60762313e-04,
          8.19779758e-04, 3.41473846e-04, 8.64593603e-04, 5.40568959e-04,
          -5.21232250e-05, 1.42512392e-04, 4.73005930e-05,
          -2.53017170e-05, -2.91003642e-04, -1.49825646e-04,
          2.66056333e-04, -1.07137181e-04, 8.64775866e-05,
          2.69316253e-04, 6.99634664e-04, -8.44792885e-05,
          -3.95851130e-05, 3.27244983e-04, -1.99086338e-04,
          -4.17870797e-05, 3.92075453e-04, -5.12486266e-04,
          7.69980601e-04, -3.20132931e-05, 2.67313444e-04,
          1.97514310e-04, 7.48265375e-05, 7.51038751e-05, 9.69059329e-05,
          -2.30754595e-04, 1.80412404e-04, 5.60763074e-05,
          2.79836793e-04, 1.81651121e-04, 5.81973465e-04, 2.51517660e-04,
          -2.40770198e-04, 1.76502712e-04, -3.77292490e-05,
          3.17591359e-04, 1.21805759e-04, -3.01794731e-04,
          1.44627615e-04, -2.09275735e-04, -2.91241129e-04,
          -1.59903662e-04, 3.74668773e-04, -2.13729189e-04,
          5.71905868e-04, -9.65591826e-05, -1.16219024e-04,
          6.65293846e-05, 2.97021266e-04, -4.26929852e-04,
          6.31533549e-05, -4.50995314e-04, 1.11712752e-05,
          9.88469692e-05, 3.18990991e-04, -2.34094157e-04,
          1.33328431e-04, -3.07836781e-05, 4.09646804e-04,
          -2.85333168e-04, 2.04659620e-04, 2.53489387e-04,
          3.58059217e-04, -2.04580356e-04, -1.38506541e-04,
          3.70855589e-04, 3.22222302e-04, 1.63052799e-04, 1.78455477e-04,
          -2.56289990e-04, 1.41214565e-04, 2.15940265e-04,
          -2.98760297e-05, -3.53386247e-04, -2.35963249e-04,
          -4.36726405e-04, 3.15467390e-04, -2.73661892e-04,
          1.39006253e-04, 1.16209900e-04, 7.51525877e-05,
          -3.26614769e-04, 1.56613009e-04, -1.21138710e-05,
          3.00355226e-04, -7.74051659e-05, 7.17956664e-06,
          -2.25081603e-04, -2.17578665e-04, -1.36413597e-04,
          6.73943257e-04, -7.04639169e-05, 1.02481135e-04,
          9.09892115e-05, -7.11094208e-06, -9.13064796e-05,
          1.58275652e-05, 4.35202710e-05, 3.16162535e-04, 1.40307311e-04,
          2.02787254e-04, 1.79078532e-04, 2.19977199e-04, 6.54570526e-04,
          1.19486336e-04, 3.34237615e-04, -3.37963411e-06,
          -6.24265173e-04, 3.20077059e-04, -5.18905872e-04,
          2.48663651e-04, 3.16195685e-04, -3.24696797e-04,
          -2.19143971e-04, 8.24334202e-05, -2.65733077e-04,
          -1.78265218e-05, 4.06314124e-04, 4.21274744e-04,
          1.15982075e-04, -9.62800841e-05, -2.19575872e-04,
          3.05286143e-04, -3.42993095e-04, -4.27619671e-05,
          5.54302649e-04, 2.26978795e-04, 3.15451704e-04,
          -1.55233327e-04, 1.63190525e-05, -1.07068496e-04,
          -1.55435686e-04, -3.02565721e-04, 4.72986227e-04,
          2.14201034e-04, 4.89068450e-04, -1.08111126e-04,
          2.96580256e-04, -1.63243560e-04, -1.14627626e-04,
          -6.06284193e-05, 1.75172352e-06, 1.77859707e-04,
          -9.05337220e-05, 1.59970659e-04, -1.60235606e-04,
          5.03217852e-05, 4.33061825e-04, -5.91055032e-05,
          -6.83708495e-05, 4.36435221e-04, 2.76957697e-04,
          -1.33506837e-04, 6.10145158e-04, 4.23878053e-04,
          -1.96680077e-04, 7.81125709e-05, 8.15603344e-05,
          8.24159142e-05, -1.21111923e-04, -2.48072465e-04,
          8.81564047e-04, 5.80962631e-04, -1.10338959e-04,
          -3.51665600e-04, -2.31256476e-04, 1.46077524e-04,
          4.73676861e-04, -3.31474039e-05, 4.61293384e-04,
          -3.42657186e-05, -7.67454985e-05, 2.15791108e-04,
          -5.16354281e-04, 2.06213663e-05, 5.96946571e-04,
          -2.01736999e-04, -4.27950668e-04, -9.60632606e-05,
          2.91473640e-04, 2.57695792e-04, 2.68503936e-04, 3.02115019e-04,
          -9.22416875e-05, -6.34861790e-05, 6.31822286e-06,
          1.20318946e-04, -1.09814653e-04, 1.62972909e-04,
          -2.08544705e-04, 2.33176397e-04, -2.27242155e-04,
          6.77086282e-05, 3.09416297e-04, 5.33853308e-04,
          -1.63036151e-04, -3.78499331e-04, -4.12204739e-04,
          1.65492427e-04, -6.26154142e-05, 5.39681234e-04,
          9.60049103e-04, -4.32564375e-05, -9.56508229e-05,
          2.40639580e-04, -6.76119962e-05, 3.23913962e-04,
          1.64082958e-04, 1.15010051e-04, 2.52208585e-04,
          -4.90726161e-05, 2.24778036e-04, 3.80385376e-04,
          1.10322179e-03, 1.97677582e-04, 3.82512771e-05,
          -1.21353063e-04, -3.20623731e-05, 4.55303380e-04,
          1.68536339e-04, -2.38714929e-04, 4.73121007e-04,
          -1.15628802e-06, 6.18730846e-04, -9.37599252e-05,
          2.32154940e-04, 6.83211023e-04, 2.30957667e-04,
          -2.01072602e-04, 1.39412703e-04, 4.30578220e-05,
          1.93922548e-04, 3.28336668e-04, 2.96434737e-04,
          -1.47769417e-04, -3.98939665e-05, -6.04625733e-04,
          -1.31519002e-04, 3.38718557e-04, -2.82244349e-04,
          9.68063177e-05, -9.88338288e-05, -2.97054357e-04,
          -1.62731085e-04, 2.71151046e-04, -8.23890005e-05,
          1.47666899e-04, 2.07255536e-04, -3.51175491e-04,
          -1.32558474e-04, -4.45962622e-04, -8.04228912e-05,
          4.30728454e-04, 8.93076125e-04, 5.20234229e-04, 4.10977264e-05,
          -2.19071328e-04, 1.71708689e-05, 3.48399917e-05,
          -1.88678838e-04, 1.44449921e-04, 3.19317216e-04,
          -4.22115379e-04, 4.60803538e-04, -4.60054162e-06,
          2.25209064e-04, 3.94026807e-04, -2.69825512e-04,
          -3.35860313e-05, -9.22626423e-05, 3.81763122e-04,
          7.79809416e-05, -3.57398785e-05, -6.18729391e-04,
          6.54981195e-05, 8.34398161e-05, 3.20640160e-04,
          -1.40533943e-04, 1.06822255e-04, -1.10340072e-04,
          -1.40131320e-04, 2.18040193e-04, -6.98539079e-05,
          -5.72967925e-04, 1.44003367e-04, 6.55727577e-04,
          7.96152919e-04, -4.46333463e-04, 2.90024094e-04,
          6.61235026e-05, -1.33139169e-04, -4.92415100e-04,
          1.67595863e-04, 5.22058574e-04, 8.72745004e-05, 2.32803039e-04,
          5.06240933e-04, -1.79912662e-04, 1.44982187e-04,
          8.66288392e-05, 1.49332569e-04, 1.35595867e-04, 2.79633561e-04,
          3.72722658e-04, -1.33595240e-04, -6.45364518e-04,
          -4.00997378e-04, 3.87043438e-05, 2.88745159e-05,
          -7.75889959e-04, 6.32612137e-05, 3.13996512e-04,
          -8.77128186e-05, -3.15783487e-04, -1.90571329e-04,
          -7.41077311e-05, -1.76673915e-04, -2.60606786e-04,
          3.83359293e-04, 1.90487426e-05, 1.88492428e-04,
          -3.33376520e-05, 7.77300957e-05, -1.43515339e-04,
          5.65828705e-05, -1.97290457e-04, 1.40996621e-04,
          2.17834386e-04, 2.54267623e-04, 1.48203442e-04, 6.77868593e-05,
          2.36802443e-04, 4.99017071e-04, -2.06790122e-04,
          3.15311889e-04, 7.32402041e-05, -1.91847081e-04,
          -1.85388839e-04, 5.21438960e-05, 5.15215856e-04,
          -7.36015645e-05, 5.31955375e-05, 2.23692186e-04,
          -4.50761116e-04, 1.26352694e-04, 3.96131400e-05,
          5.54400845e-04, -1.11418522e-04, -2.35869404e-04,
          -2.13706749e-04, -2.92928773e-04, -8.23016686e-04,
          2.50454410e-04, 4.18519863e-04, 3.78375553e-04,
          -5.03314077e-04, -9.52448027e-05, -9.13581389e-05,
          5.21801237e-04, 4.78570233e-04, 2.52261816e-05, 1.48241461e-05,
          1.15405572e-04, -3.28013266e-06, -7.85344309e-05,
          -3.00233951e-04, 9.35021089e-05, 6.18028571e-04,
          3.22515232e-04, -1.22580750e-04, 1.12679845e-05,
          1.28151674e-04, 3.06453701e-04, 2.03916599e-04, 1.51136177e-04,
          9.21321771e-05, -2.18329988e-05, -7.34610730e-05,
          1.84312157e-04, 6.92572139e-05, -1.29440639e-04,
          9.00051324e-04, 2.15126318e-04, -1.78331597e-04,
          1.20872777e-04, 3.72045004e-04, 6.43391468e-05,
          -1.93677857e-04, 2.72487727e-04, 2.53914797e-04,
          2.79572464e-06, -6.21566724e-05, -4.15526622e-04,
          -4.06147359e-04, 2.09482518e-04, 1.11819812e-04,
          5.18554414e-04, -1.30124361e-04, -2.55505729e-04,
          8.36439503e-05, 3.05199996e-04, 2.85590650e-04,
          -2.34392821e-04, -3.38863203e-04, 6.23526168e-04,
          -2.90435972e-04, 9.52994160e-05, -3.40262690e-04,
          3.12902324e-04, 6.63869796e-05, 8.67268100e-05,
          -4.41141834e-04, 1.21965677e-04, 2.41065311e-04,
          -3.91091860e-04, -8.03661533e-05, 2.11256542e-04,
          -3.58402940e-05, 1.95743705e-04, -8.24194067e-05,
          1.46310500e-04, -1.69363862e-04, -4.83494750e-06,
          -4.16054885e-04, -3.05482128e-04, 1.26434625e-05,
          -1.43293350e-04, 5.25044197e-05, -5.79852713e-05,
          -5.02269359e-05, 5.04368625e-04, -3.63258849e-04,
          1.08272485e-04, -2.90851342e-04, -2.24605774e-05,
          -5.85406495e-04, 5.35375846e-04, -1.51211221e-04,
          2.02416442e-04, -5.10933824e-05, 3.34338605e-04,
          2.74212303e-04, -4.72011627e-04, -3.78314755e-04,
          6.22502645e-04, -1.00062854e-04, -2.17165434e-04,
          1.31064982e-04, 2.32454113e-04, -1.63103774e-04,
          -4.45273472e-05, -1.27492865e-04, -8.40804933e-05,
          -3.93818627e-04, -1.79497307e-04, -3.50026734e-04,
          3.79159726e-04, 2.24533178e-05, 1.03746454e-04, 2.19348542e-04,
          -9.11104871e-05, -3.80909652e-04, 4.70052782e-06,
          -1.52055058e-04, 1.27086270e-04, -4.61641495e-04,
          2.95986771e-04, -4.02097794e-04, 5.88207564e-04,
          -3.93508904e-04, 1.39314187e-04, 2.54265797e-05,
          -5.50008481e-05, -2.36044463e-04, -7.55848305e-05,
          3.58425779e-04, 8.29056313e-04, 5.29560668e-04,
          -3.80877842e-04, -4.95224260e-04, -1.93718108e-04,
          4.81492840e-04, 2.29161378e-04, 3.56252422e-04, 2.67116207e-04,
          -5.41169429e-05, 2.63525173e-04, 1.55707730e-05,
          6.82331913e-04, 3.89345892e-04, -2.41957358e-04,
          1.20780263e-04, 2.17853172e-04, 1.83896598e-04, 1.26778206e-04,
          2.43265997e-04, 8.84718174e-05, 4.63555101e-04, 3.42918473e-04,
          3.14422854e-04, -9.23632324e-05, 8.98360449e-05,
          2.37742643e-04, -2.25838812e-05, 2.22452494e-04,
          -1.76224683e-04, 5.87464485e-04, 1.45783342e-04,
          -4.28935571e-04, 1.12989459e-04, 3.34154553e-04,
          7.01480196e-04, -8.71296848e-08, -2.80742534e-04,
          4.55000642e-04, -2.40174501e-04, 1.54882742e-04,
          -1.79509036e-04, -5.02922456e-04, 2.63973314e-04,
          1.58400908e-05, 2.34410049e-06, -2.21536247e-04,
          -3.48056747e-05, 4.33551875e-04, 8.85799673e-05,
          2.31976854e-04, 2.38080131e-04, 4.74721746e-04,
          -4.69255290e-04, 1.07890002e-04, 1.44246616e-04,
          -3.66036635e-04, 2.96108046e-04, 1.81754716e-04,
          -4.85620403e-04, 3.89292400e-04, -1.50165957e-04,
          2.71233457e-05, -5.28435223e-04, -2.96704820e-04,
          -1.39184849e-04, 2.59779306e-04, 1.49893976e-05,
          6.37137797e-04, 2.99287407e-04, 1.25286868e-04,
