%YAML:1.0
my_svm: !!opencv-ml-svm
   svm_type: C_SVC
   kernel: { type:LINEAR }
   C: 1.0000000000000001e-01
   term_criteria: { epsilon:2.2204460492503131e-16, iterations:10000000 }
   var_all: 1828
   var_count: 1828
   class_count: 2
   class_labels: !!opencv-matrix
      rows: 1
      cols: 2
      dt: i
      data: [ 0, 1 ]
   sv_total: 1
   support_vectors:
      - [ -2.72281198e+32, 2.40496902e+01, -2.72281198e+32,
          1.16389332e+01, -1.67181797e+01, -2.05580006e+01,
          1.69355679e+00, 7.61163807e+00, 1.59823790e+25, 1.42432144e+19,
          2.87584394e+24, 2.74603964e+18, 9.55861283e+26, 1.60508556e+25,
          1.52585356e+25, -1.50517002e-01, 6.09539353e+16,
          1.80175934e+01, 2.36354179e+01, 1.61578083e+01, 1.79615326e+01,
          5.77300930e+00, -2.04066925e+01, -2.23068428e+01,
          -4.11613673e-01, 5.45232630e+00, 1.89105396e+01,
          1.35508986e+01, 9.24791718e+00, 9.12656879e+00,
          -1.57177436e+00, -2.46531696e+01, -2.54181442e+01,
          -4.17545795e+00, 1.64064527e+00, 1.01374512e+01,
          1.67235050e+01, 1.27312441e+01, 1.23989954e+01, 4.47684908e+00,
          -7.74849224e+00, -1.31117640e+01, 4.28434819e-01,
          5.50005293e+00, 1.42724924e+01, 1.46188307e+01, 9.87440586e+00,
          7.96326113e+00, 1.73680198e+00, -3.88804650e+00,
          -8.34800434e+00, 4.27879304e-01, 4.19181252e+00,
          1.23757181e+01, 1.16271982e+01, 6.90959644e+00, 5.61055946e+00,
          -1.87859344e+00, -1.20394278e+01, -1.98256321e+01,
          -3.86656189e+00, 1.41002035e+00, 9.57382011e+00,
          7.31373024e+00, -8.81442875e-02, -3.48027825e+00,
          -6.78757095e+00, -7.51514339e+00, -1.44134264e+01,
          -3.90225148e+00, -4.25937742e-01, 6.37055874e+00,
          1.34086275e+01, 7.78043509e+00, 6.91065359e+00, 3.68212342e+00,
          2.75193000e+00, -5.09065771e+00, 2.07703090e+00,
          4.52333021e+00, 1.25008278e+01, 4.40206766e+00,
          -1.04462409e+00, 3.30922294e+00, 6.70148897e+00,
          7.48057604e+00, -4.69794416e+00, -4.20059681e-01,
          2.01680160e+00, 7.98155308e+00, 4.68733454e+00,
          -6.09748983e+00, -8.48397064e+00, -3.87691832e+00,
          1.26687491e+00, -6.59111738e+00, -7.71250963e-01,
          1.22258693e-01, 7.35212660e+00, -1.01848259e+01,
          -1.90182533e+01, -1.39579287e+01, -2.31419826e+00,
          8.45182800e+00, -3.80351114e+00, -4.80980301e+00,
          -6.00972748e+00, -2.23557663e+00, -2.05989742e+00,
          -3.43932867e+00, 6.00349045e+00, 1.18944921e+01,
          1.40254707e+01, -2.93680191e-01, 1.68212175e+00,
          2.68348575e+00, 4.52778101e+00, -7.09065723e+00,
          -4.10275030e+00, 9.12996578e+00, 1.43606825e+01,
          1.70563087e+01, 1.89003778e+00, 2.14516902e+00, 1.17931080e+00,
          -7.20979989e-01, -1.79481087e+01, -1.94770851e+01,
          -4.90568924e+00, 9.95364761e+00, 1.89892731e+01,
          1.94827569e+00, -3.21308899e+00, -5.96050072e+00,
          -7.03058815e+00, -2.34426765e+01, -1.83313389e+01,
          2.09922647e+00, 1.46937876e+01, 2.40549564e+01, 5.42346191e+00,
          -2.57671714e+00, -7.54786491e+00, -1.39108238e+01,
          -8.62950039e+00, -3.29051554e-01, 1.08470955e+01,
          1.59860735e+01, 2.00168457e+01, 5.07943821e+00, 2.93181920e+00,
          8.76925141e-02, -4.93661499e+00, -8.57729816e+00,
          6.54017925e-01, 1.14534225e+01, 1.69758930e+01, 1.88986206e+01,
          1.59627271e+00, 1.81544572e-01, -4.36034536e+00,
          -8.37328815e+00, -2.38704910e+01, -1.25287752e+01,
          6.33479977e+00, 1.62789879e+01, 2.31533928e+01, 7.00120401e+00,
          -1.02485657e+00, -7.79709244e+00, -1.53456411e+01,
          -2.24818859e+01, -1.13652229e+01, 5.61441612e+00,
          1.45921164e+01, 1.72811527e+01, -1.56793344e+00,
          -3.94187784e+00, -1.15644646e+01, -1.84412289e+01,
          -5.10339689e+00, 1.29480469e+00, 1.08336020e+01,
          1.71002560e+01, 1.99303131e+01, 1.99181223e+00, 2.20207572e+00,
          -1.39844441e+00, -3.68809628e+00, -5.84524012e+00,
          -4.00148183e-01, 8.81938934e+00, 1.34774017e+01,
          1.74180546e+01, 1.53227925e-01, 3.48752797e-01,
          -2.93276215e+00, -3.60989356e+00, -1.58811150e+01,
          -6.94776201e+00, 7.41430569e+00, 1.60929680e+01,
          1.63060913e+01, -4.08077431e+00, -4.45835304e+00,
          -9.78185654e+00, -1.41067600e+01, -1.23025904e+01,
          -8.18376827e+00, 4.56478214e+00, 9.75135803e+00,
          1.43668327e+01, -5.27263594e+00, -7.39965630e+00,
          -1.17371569e+01, -1.28194628e+01, -1.69413352e+00,
          -2.83943027e-01, 6.59909773e+00, 8.31405640e+00,
          1.71543045e+01, 1.70672178e+00, -1.20964491e+00,
          -3.61425805e+00, -1.00163388e+00, -2.62166500e+00,
          -4.12036276e+00, 4.55076504e+00, 7.92725468e+00,
          1.47468443e+01, 2.92533010e-01, -5.69592905e+00,
          -6.34458637e+00, -1.55301189e+00, -8.78793621e+00,
          -7.18996000e+00, 3.17636085e+00, 4.81728697e+00,
          1.35326548e+01, -4.39395952e+00, -7.95144701e+00,
          -1.21042528e+01, -8.34745979e+00, -6.73360109e+00,
          -8.33832359e+00, 1.98003292e+00, 4.42611504e+00,
          9.25954342e+00, -5.21578360e+00, -1.36963272e+01,
          -1.49599638e+01, -8.09540272e+00, 2.12421360e+01,
          1.33958483e+01, 1.47417097e+01, 9.68847847e+00,
          -1.03838692e+01, -1.44933662e+01, 4.24517536e+00,
          8.92381096e+00, 1.96319313e+01, 1.65458260e+01, 1.11604261e+01,
          1.08920088e+01, 3.91574597e+00, -1.12236042e+01,
          -1.82737637e+01, 1.39082098e+00, 5.52900505e+00,
          1.43842897e+01, 1.32381830e+01, 6.75574589e+00, 8.03538799e+00,
          4.93779612e+00, -1.01328564e+01, -1.74649792e+01,
          1.14993715e+00, 5.84444284e+00, 1.38800125e+01, 6.56857491e+00,
          3.39325380e+00, 3.59224582e+00, -9.59304333e-01,
          -1.03973122e+01, -2.05088234e+01, -2.14262104e+00,
          1.50222301e-01, 6.47528744e+00, 1.45651798e+01, 1.09144363e+01,
          1.04980230e+01, 5.32824898e+00, 2.35712141e-01,
          -8.08286572e+00, 2.99273658e+00, 5.18041801e+00,
          1.25193033e+01, 1.23939800e+01, 3.14612365e+00,
          -2.51231670e-01, -8.48006606e-01, 4.19303894e+00,
          -3.80564070e+00, 2.01312137e+00, 4.16050291e+00,
          1.18976421e+01, 6.21676636e+00, 3.26078701e+00, 1.85202968e+00,
          -2.22692871e+00, -6.13181219e-02, -9.67696095e+00,
          -7.50007033e-01, -2.94316262e-01, 5.53487968e+00,
          2.12354612e+00, -1.00009842e+01, -1.54470510e+01,
          -1.26764688e+01, -5.37037194e-01, -7.62101221e+00,
          -3.77802682e+00, -3.48914027e+00, 3.07895470e+00,
          9.48920727e+00, -2.02530336e+00, -4.99457359e+00,
          1.76911521e+00, 1.34568577e+01, 4.44398737e+00, 4.73077822e+00,
          3.51285744e+00, 1.07409277e+01, -6.34598374e-01,
          -1.00411215e+01, -5.20236492e+00, 8.11225605e+00,
          2.23133087e+01, 7.76383734e+00, 1.46126306e+00,
          -3.09949446e+00, 2.68370271e+00, 2.41794682e+00,
          -1.24768496e+01, -1.78507462e+01, -7.15995502e+00,
          9.06087685e+00, 3.95339698e-01, -1.49510336e+00,
          -2.75380921e+00, 4.32044125e+00, -8.79707336e+00,
          -1.56044664e+01, -1.30142469e+01, 4.70069528e-01,
          1.62729454e+01, 2.19909263e+00, -5.87486267e+00,
          -1.19202805e+01, -7.03655720e+00, -1.32782011e+01,
          -9.50492764e+00, 3.99825144e+00, 1.74734287e+01,
          2.91969814e+01, 1.01564894e+01, -4.43512321e-01,
          -6.91218662e+00, -7.07060432e+00, -2.10190735e+01,
          -8.49135685e+00, 1.20858450e+01, 2.37849560e+01,
          3.48313293e+01, 1.27883606e+01, 3.10358435e-01,
          -6.50739717e+00, -1.15229177e+01, -1.95452614e+01,
          -1.02450180e+01, 3.27197790e+00, 1.59636278e+01,
          2.69751320e+01, 7.28167105e+00, -5.07583189e+00,
          -1.37589045e+01, -1.77462177e+01, -2.19345665e+01,
          -6.38690519e+00, 1.31689501e+01, 2.49386406e+01,
          3.56425476e+01, 1.24972029e+01, -3.32175159e+00,
          -1.40534277e+01, -2.47308884e+01, -2.21168938e+01,
          -5.52118683e+00, 1.24753494e+01, 2.21936626e+01,
          3.17970161e+01, 1.25887289e+01, 1.33689451e+00,
          -6.73819685e+00, -1.36537561e+01, -2.08922653e+01,
          -6.66883945e+00, 1.10733261e+01, 1.98752346e+01,
          2.47525654e+01, 6.59603310e+00, -2.98562258e-01,
          -8.13947487e+00, -1.46801548e+01, -2.30780411e+01,
          -4.34402323e+00, 1.47228165e+01, 2.47948074e+01,
          3.43994942e+01, 1.17923708e+01, -2.22622132e+00,
          -1.25571499e+01, -2.59045334e+01, -2.32549381e+01,
          -7.01054955e+00, 1.17681017e+01, 2.00402145e+01,
          2.98079243e+01, 8.16504478e+00, -3.85689974e+00,
          -1.53466873e+01, -2.61100330e+01, -1.13573685e+01,
          -2.88060308e+00, 1.04049234e+01, 1.71174603e+01,
          2.13828602e+01, 1.53891897e+00, -2.15890455e+00,
          -7.25878859e+00, -1.04876432e+01, -4.84804010e+00,
          -2.32370377e+00, 9.36490154e+00, 1.15289202e+01,
          2.00224171e+01, -1.13089478e+00, -4.82092285e+00,
          -7.89021254e+00, -5.71221590e+00, -1.70862999e+01,
          -4.22789478e+00, 9.57327271e+00, 1.41004972e+01,
          2.45460262e+01, 4.56619024e+00, -4.60117340e+00,
          -1.37626562e+01, -1.98839016e+01, -7.63208294e+00,
          -3.33229923e+00, 5.00053835e+00, 4.87168932e+00,
          1.80127239e+01, -1.61738265e+00, -8.04426289e+00,
          -1.37151852e+01, -1.15289392e+01, -1.64812374e+00,
          -1.84042013e+00, 7.55256557e+00, 5.92937803e+00,
          1.45705729e+01, -2.04437184e+00, -5.07759380e+00,
          -7.55173016e+00, -2.06050873e+00, 5.86731195e-01,
          -1.15795064e+00, 8.41186619e+00, 9.26009369e+00,
          1.18302755e+01, -1.72603929e+00, -8.25545216e+00,
          -9.05842495e+00, -3.88761982e-02, -2.63455772e+00,
          -1.80390346e+00, 5.45471191e+00, 2.17906904e+00,
          1.24987383e+01, -7.60886765e+00, -1.16705503e+01,
          -1.23296909e+01, -4.59132338e+00, 1.03374076e+00,
          2.05947489e-01, 8.66024303e+00, 6.60794401e+00, 9.02376938e+00,
          -9.60849190e+00, -1.48280945e+01, -1.41936035e+01,
          -1.91172695e+00, 1.32642794e+01, 5.40389109e+00,
          7.59279633e+00, 6.13705921e+00, -2.43710697e-01,
          -9.71249104e+00, 2.62257051e+00, 6.36513424e+00,
          1.54929619e+01, 5.08343410e+00, 6.57238901e-01, 2.92327595e+00,
          2.81252646e+00, 1.92476714e+00, -1.05815992e+01,
          3.42995226e-01, 1.53792048e+00, 7.56830978e+00, 7.85711718e+00,
          -2.62742186e+00, -1.77412832e+00, -2.17344093e+00,
          -7.05689192e-01, -7.74625826e+00, -1.57211196e+00,
          2.17912841e+00, 1.14063606e+01, -4.37519217e+00,
          -1.02221565e+01, -6.40211439e+00, -3.73222041e+00,
          3.57634568e+00, -1.02798700e+01, -6.75092936e+00,
          -6.39741516e+00, -1.26505101e+00, 4.98806047e+00,
          1.37475863e-01, 6.16850317e-01, 1.96519685e+00, 1.02962360e+01,
          -9.06773686e-01, 3.08378553e+00, 2.16654968e+00,
          6.49545765e+00, 2.83693123e+00, -1.08221378e+01,
          -1.41844997e+01, -6.57539701e+00, 1.04465799e+01,
          7.09796026e-02, -3.75448428e-02, -1.41062093e+00,
          5.17355824e+00, -2.85660911e+00, -7.46007442e+00,
          -4.44181061e+00, 2.52087569e+00, 1.33824148e+01,
          -2.24959230e+00, -2.39324951e+00, -3.83725572e+00,
          1.31806269e-01, -2.81039238e+00, -1.28914757e+01,
          -1.21056681e+01, -3.98417926e+00, 1.23117933e+01,
          -3.99107552e+00, -7.63455820e+00, -9.76232052e+00,
          -9.48710084e-01, 3.23875165e+00, -1.10476990e+01,
          -1.56303415e+01, -5.12530470e+00, 1.33868361e+01,
          1.37588453e+00, -3.01366758e+00, -3.90710211e+00,
          4.47610044e+00, -1.06297858e-01, -8.19122601e+00,
          -6.52929211e+00, 6.60473156e+00, 2.15531425e+01,
          2.04478431e+00, -7.63613510e+00, -1.03366480e+01,
          -1.27222383e+00, 1.87491059e+00, -7.56620789e+00,
          -1.00050659e+01, 6.60084426e-01, 1.53937397e+01,
          -3.53486490e+00, -1.02597990e+01, -1.14200001e+01,
          5.45952678e-01, 3.76360869e+00, -1.71208084e+00,
          1.98359263e+00, 1.18807516e+01, 2.39735966e+01,
          -3.38018328e-01, -1.30340996e+01, -1.54201212e+01,
          -8.72632205e-01, -1.24829063e+01, -5.54124022e+00,
          3.83624721e+00, 1.54791203e+01, 2.63404484e+01, 3.91571116e+00,
          -1.27190933e+01, -1.92233963e+01, -1.50039005e+01,
          -1.68335781e+01, -1.85855842e+00, 1.34957714e+01,
          2.49210339e+01, 3.48856735e+01, 1.13891706e+01,
          -8.92447281e+00, -1.97372742e+01, -2.13283672e+01,
          -3.15126657e+00, -2.39385891e+00, 7.24866819e+00,
          1.85713959e+01, 2.86452999e+01, 1.66281414e+00,
          -1.80448437e+01, -2.45792465e+01, -1.10034523e+01,
          -5.04565430e+00, 7.91920185e-01, 1.40523558e+01,
          2.51663818e+01, 3.58473206e+01, 1.04196367e+01,
          -1.31185369e+01, -2.44523697e+01, -1.65707970e+01,
          -1.94214306e+01, -5.68780720e-01, 1.32486916e+01,
          2.18664055e+01, 3.03681526e+01, 8.77716351e+00,
          -6.28482771e+00, -1.76682415e+01, -2.51748428e+01,
          -1.96849403e+01, -1.81388164e+00, 1.16127863e+01,
          1.61516628e+01, 2.53595276e+01, 4.24703789e+00,
          -6.35485172e+00, -1.61803684e+01, -2.33334293e+01,
          -9.07085228e+00, 1.83225501e+00, 1.36329012e+01,
          2.16890202e+01, 3.06087055e+01, 8.85561752e+00,
          -7.41215611e+00, -2.15997257e+01, -1.83901749e+01,
          -8.81661701e+00, 4.20337152e+00, 1.33900280e+01,
          1.53049612e+01, 2.54207878e+01, 5.34985161e+00,
          -2.65255809e+00, -1.30504913e+01, -1.47594786e+01,
          -1.30263453e+01, -1.50530636e+00, 7.45693445e+00,
          9.45816135e+00, 2.01619663e+01, 2.64926529e+00,
          -5.37366533e+00, -1.21129608e+01, -1.67428989e+01,
          -4.58170223e+00, -3.59239817e+00, -5.73303580e-01,
          -3.92924607e-01, 1.09570370e+01, -5.01749516e+00,
          -9.28442001e+00, -1.25675735e+01, -8.47272968e+00,
          -2.34284210e+00, 3.31496596e+00, 9.61908245e+00,
          9.41206455e+00, 1.89886093e+01, 3.20916677e+00,
          -8.62922013e-01, -4.72774076e+00, -6.16961527e+00,
          5.30193043e+00, 1.87244928e+00, 1.54909158e+00,
          -9.03557777e-01, 9.60793591e+00, -4.62224436e+00,
          -4.82708263e+00, -4.49893570e+00, 2.60554075e+00,
          2.09430528e+00, -1.65963799e-01, 2.79114389e+00,
          -1.73085071e-02, 7.95873213e+00, -1.02645254e+01,
          -1.30212288e+01, -1.02743921e+01, -4.61951613e-01,
          5.90000439e+00, 2.92056799e+00, 8.49564743e+00, 4.45626068e+00,
          3.74006343e+00, -1.62468414e+01, -1.61622620e+01,
          -1.01224670e+01, 4.00572252e+00, 1.16734219e+01,
          5.22871065e+00, 4.93134499e+00, -4.62214351e-01,
          6.28412676e+00, -1.01591082e+01, -9.10260105e+00,
          -4.23842478e+00, 8.64300823e+00, 1.44950991e+01,
          7.36389828e+00, 9.00655270e+00, 2.35944152e+00, 3.21224689e-01,
          -1.57609596e+01, -1.24040794e+01, -5.64264488e+00,
          1.16414595e+01, 1.21884651e+01, 2.33727884e+00, 2.45061710e-01,
          6.53221682e-02, 2.15607667e+00, -7.59258270e+00,
          -5.07971668e+00, -1.37432426e-01, 1.20782614e+01,
          6.01566613e-01, -4.80855513e+00, -1.98062646e+00,
          1.40367281e+00, 8.12903214e+00, -7.33170843e+00,
          -7.21785212e+00, -6.41888332e+00, 1.20771086e+00,
          1.33096619e+01, 5.14341164e+00, 3.79955268e+00, 8.30753803e-01,
          1.71528077e+00, -1.31050854e+01, -1.26059341e+01,
          -5.49572945e+00, 1.00731688e+01, 8.81536245e-01,
          -2.58899999e+00, 8.63538563e-01, 1.37271154e+00,
          7.92819786e+00, -1.16258039e+01, -1.53414621e+01,
          -1.22407646e+01, -5.98842502e-01, -3.79700518e+00,
          -6.19589186e+00, -9.11672890e-01, 5.73236513e+00,
          1.41975822e+01, -3.69481564e+00, -6.81402922e+00,
          -7.61367130e+00, -2.56881738e+00, -1.93452609e+00,
          -6.30455351e+00, -2.37236023e+00, 5.07251978e+00,
          1.43441362e+01, -6.99180651e+00, -1.23669310e+01,
          -1.32314882e+01, -2.54746222e+00, -3.28568459e+00,
          -3.33720016e+00, 3.77424192e+00, 7.82673979e+00,
          1.49923220e+01, -5.10605526e+00, -1.19376202e+01,
          -1.24808168e+01, -4.26504040e+00, -7.56977320e-01,
          -3.84675908e+00, 3.12734723e+00, 8.64813519e+00,
          1.60351162e+01, -8.21784115e+00, -1.49840183e+01,
          -1.63561096e+01, -4.05310965e+00, 3.19748592e+00,
          -2.75728464e+00, -6.16648972e-01, 6.13792801e+00,
          1.27424459e+01, -7.94002867e+00, -1.47950859e+01,
          -1.38686342e+01, 9.29097354e-01, 6.14792967e+00,
          -4.81949262e-02, 5.44136095e+00, 1.36954203e+01,
          2.10150642e+01, -2.59887075e+00, -1.46984234e+01,
          -1.63151608e+01, 5.53331673e-01, 2.42534971e+00,
          -3.84677696e+00, 6.63576901e-01, 6.49758434e+00,
          1.39121075e+01, -7.75231028e+00, -1.40524902e+01,
          -1.24278603e+01, 1.08717322e+00, 3.50645781e+00,
          -6.15674925e+00, 6.78246737e-01, 8.58706474e+00,
          2.00393772e+01, -7.66314864e-01, -1.14151907e+01,
          -1.25588608e+01, 1.57655144e+00, -1.38641965e+00,
          -4.10508108e+00, 4.94634581e+00, 1.71214714e+01,
          2.80460529e+01, 4.81112528e+00, -1.36562595e+01,
          -2.29145699e+01, -8.54190254e+00, -6.71120024e+00,
          -4.20120001e+00, 1.04313326e+01, 2.31453285e+01,
          3.44933205e+01, 1.09932575e+01, -8.85973263e+00,
          -2.18165932e+01, -1.55034246e+01, -7.79739857e+00,
          -1.47381430e+01, 6.41731620e-02, 1.35219736e+01,
          2.83915691e+01, 7.01965046e+00, -6.65018559e+00,
          -1.46636887e+01, -8.28116703e+00, -1.55208054e+01,
          -1.57583237e+01, 4.35785151e+00, 2.02812233e+01,
          3.64339676e+01, 1.32811728e+01, -1.07320094e+00,
          -1.51471405e+01, -1.43474407e+01, -9.25962734e+00,
          -2.22764897e+00, 1.01186352e+01, 1.79780464e+01,
          2.67382851e+01, 8.46817684e+00, -4.08708620e+00,
          -1.92602596e+01, -1.73426476e+01, -7.06122398e+00,
          1.85865152e+00, 1.10347033e+01, 1.20535164e+01, 2.00544472e+01,
          4.73283339e+00, -1.30572808e+00, -1.06169233e+01,
          -1.15706463e+01, -1.72660084e+01, -1.38703747e+01,
          6.09588528e+00, 1.71397076e+01, 2.98999329e+01, 9.83539009e+00,
          1.35379821e-01, -1.10308371e+01, -1.57875566e+01,
          -1.06295881e+01, -6.37049150e+00, 8.60838795e+00,
          1.18196564e+01, 2.29355545e+01, 5.63775063e+00, 5.25062025e-01,
          -7.72895002e+00, -1.11203890e+01, -3.63087869e+00,
          1.10171545e+00, 6.61945105e+00, 5.42169094e+00, 1.25903311e+01,
          6.67750895e-01, -2.18235421e+00, -5.93787766e+00,
          -6.37566471e+00, 6.54773140e+00, 2.20932484e+00,
          2.05104589e+00, -2.99200726e+00, 3.27931380e+00,
          -7.90270805e+00, -6.06473589e+00, -4.29876614e+00,
          4.11360931e+00, -5.29424000e+00, -1.59487426e+00,
          6.65744638e+00, 7.26862574e+00, 1.49336824e+01, 5.14753580e-01,
          -2.04249072e+00, -6.05815554e+00, -5.69730330e+00,
          5.76551533e+00, 1.51217628e+00, 3.45144224e+00,
          -1.24288225e+00, 6.23888826e+00, -8.91461754e+00,
          -7.54419231e+00, -5.06943274e+00, 4.28324270e+00,
          1.23433809e+01, 5.05368328e+00, 4.82645559e+00,
          -1.87440169e+00, 6.77981436e-01, -1.07485876e+01,
          -7.47103262e+00, -3.51067472e+00, 9.61526012e+00,
          1.24862375e+01, 5.00634146e+00, 6.44684839e+00,
          -6.97696686e-01, -4.06155443e+00, -1.49155636e+01,
          -1.11120653e+01, -7.50265551e+00, 8.84898186e+00,
          1.10538874e+01, 3.20541048e+00, 4.15640783e+00,
          -1.53994465e+00, 4.47783470e+00, -9.02101231e+00,
          -5.85085297e+00, -2.66584206e+00, 9.61231899e+00,
          7.69740486e+00, -6.07844591e-01, 2.72586870e+00,
          -4.49810934e+00, -7.46562541e-01, -1.05909901e+01,
          -7.83880758e+00, -6.33532524e+00, 6.53816605e+00,
          1.19671164e+01, 5.31292343e+00, 5.16652346e+00, 2.55725932e+00,
          -1.12706378e-01, -1.54120884e+01, -1.41822987e+01,
          -7.91000748e+00, 7.50905704e+00, 1.52551961e+00,
          -1.40315795e+00, 1.84940076e+00, 6.37344956e-01,
          5.63143826e+00, -1.52154007e+01, -1.86754360e+01,
          -1.49536343e+01, -2.16197181e+00, 1.68867989e+01,
          9.32689667e+00, 8.37849140e+00, 2.35408378e+00, 9.31548476e-01,
          -1.30084734e+01, -8.09711075e+00, -1.40325975e+00,
          1.37188511e+01, 8.59611702e+00, 4.86210537e+00, 5.39331055e+00,
          1.06216565e-01, 4.82794809e+00, -1.45609598e+01,
          -1.43854122e+01, -9.43640041e+00, 5.12088299e+00,
          -1.42936873e+00, -7.32948542e-01, 5.05909109e+00,
          6.57659626e+00, 1.31605825e+01, -7.06775284e+00,
          -1.49431744e+01, -1.43219023e+01, -4.78824759e+00,
          -2.04889035e+00, -4.73989010e+00, 2.20873642e+00,
          6.65511179e+00, 1.38476744e+01, -9.73380756e+00,
          -1.63929100e+01, -1.66588402e+01, -5.08620930e+00,
          4.93061399e+00, 4.95839834e+00, 8.09315014e+00, 4.91673231e+00,
          1.04416618e+01, -9.51529121e+00, -1.22335424e+01,
          -1.00745287e+01, 8.45730484e-01, 2.45127606e+00,
          -2.26816550e-01, 4.77809858e+00, 4.50194550e+00,
          9.03627491e+00, -1.16990585e+01, -1.78355598e+01,
          -1.57633839e+01, -1.57672799e+00, 4.54992861e-01,
          -6.75865841e+00, -2.11689663e+00, 4.36497736e+00,
          1.42362423e+01, -7.55729437e+00, -1.30284538e+01,
          -1.15592775e+01, 4.42002743e-01, -7.18274832e-01,
          -1.10362768e+01, -3.07719827e+00, 6.35755348e+00,
          2.14751778e+01, 7.65525579e-01, -8.52074337e+00,
          -9.99367809e+00, 5.06787360e-01, 3.19548202e+00,
          -3.42055011e+00, 1.40629852e+00, 5.54919052e+00,
          1.23902674e+01, -1.05683498e+01, -1.75512829e+01,
          -1.43742189e+01, 9.85348582e-01, -3.23554695e-01,
          -7.61840343e+00, 1.05334568e+00, 9.22281265e+00,
          2.27813301e+01, -1.60405922e+00, -1.30918865e+01,
          -1.39517832e+01, -1.77869737e+00, -9.56297112e+00,
          -1.81232452e+01, -4.45465708e+00, 1.06632261e+01,
          2.71532536e+01, 7.11687231e+00, -4.87436628e+00,
          -1.03946857e+01, -6.10453796e+00, -1.70001907e+01,
          -1.81454391e+01, -1.04331911e+00, 1.69760170e+01,
          3.56263466e+01, 1.33026018e+01, 9.56160843e-01,
          -6.84485245e+00, -8.15378284e+00, -1.01843567e+01,
          -1.52912292e+01, -1.84606183e+00, 1.31844816e+01,
          2.92794170e+01, 6.24682093e+00, -7.47922277e+00,
          -1.36355953e+01, -9.71839237e+00, -1.49452534e+01,
          -1.30381804e+01, 2.37850952e+00, 1.88474598e+01,
          3.69374008e+01, 1.44352398e+01, -5.23819387e-01,
          -1.05075159e+01, -1.56231823e+01, -2.11114426e+01,
          -1.83690510e+01, 1.00697267e+00, 1.43560457e+01,
          3.03462353e+01, 1.14139910e+01, 2.21464062e+00,
          -4.98576021e+00, -1.23862782e+01, -1.57394018e+01,
          -1.03667545e+01, 5.42842865e+00, 1.30769987e+01,
          2.65443726e+01, 8.29206085e+00, 3.22080350e+00,
          -2.80695128e+00, -1.01243258e+01, -2.22949944e+01,
          -1.20296087e+01, 3.73737359e+00, 1.75988503e+01,
          3.42934723e+01, 1.46180315e+01, 4.31608009e+00,
          -6.36229372e+00, -2.05241737e+01, -2.13996754e+01,
          -1.23272800e+01, 4.66658401e+00, 1.56487370e+01,
          3.16033154e+01, 1.24586897e+01, 5.87314177e+00,
          -3.47990108e+00, -1.86996574e+01, -7.69023943e+00,
          -2.78239131e+00, 5.48107719e+00, 9.22544193e+00,
          1.86451473e+01, 2.82670641e+00, 8.79177153e-01,
          -2.34879756e+00, -3.78898215e+00, 1.85357761e+00,
          -5.38312256e-01, 3.65252161e+00, 3.04998779e+00,
          9.06291962e+00, -7.12885809e+00, -6.58713198e+00,
          -4.12578249e+00, 2.44905686e+00, -1.51887550e+01,
          -9.15697861e+00, 3.81818652e+00, 1.29404202e+01,
          2.37488480e+01, 6.22711658e+00, 2.63738275e+00,
          -3.41804290e+00, -1.22646065e+01, -8.74717331e+00,
          -9.48628235e+00, 6.60950482e-01, 3.44731569e+00,
          1.42750845e+01, -2.23565102e+00, -5.64646769e+00,
          -8.11651993e+00, -6.59242916e+00, 4.93884897e+00,
          -2.18835688e+00, 6.37413561e-01, 1.83115914e-01,
          7.67833900e+00, -5.65175676e+00, -3.77619886e+00,
          -1.60815096e+00, 6.14139223e+00, 1.10295784e+00,
          -7.85168934e+00, -3.05341983e+00, -3.52217507e+00,
          5.83847427e+00, -3.37558937e+00, -2.16344690e+00,
          -1.57232869e+00, 5.04467773e+00, -2.78114676e+00,
          -8.81997204e+00, -2.31400633e+00, 6.31063282e-01,
          1.36250353e+01, -1.59664106e+00, -2.76298976e+00,
          -4.41712093e+00, -4.95273203e-01, -2.70475435e+00,
          -1.18043156e+01, -6.40581417e+00, -2.90531158e+00,
          1.05493469e+01, 2.18874264e+00, 2.07195118e-01,
          -2.77957463e+00, 1.43985856e+00, 1.36005507e+01,
          7.99681044e+00, 8.02098656e+00, -1.04092896e+00,
          -9.93551254e+00, -1.64082470e+01, -9.00844574e+00,
          -2.70002127e+00, 1.04407568e+01, 6.27470160e+00,
          3.27171612e+00, 4.93153715e+00, -3.18720818e+00,
          -8.71445656e+00, -2.08798218e+01, -1.45987082e+01,
          -1.03492441e+01, 2.66270137e+00, 1.80015163e+01,
          1.22714920e+01, 1.39295435e+01, 3.08387709e+00,
          -4.43087769e+00, -1.01782379e+01, -1.48796868e+00,
          3.59098077e+00, 1.54464035e+01, 1.36498709e+01, 9.95825481e+00,
          1.24862118e+01, 3.49067950e+00, -2.70151711e+00,
          -1.50729160e+01, -5.15408182e+00, -5.62090337e-01,
          1.07196598e+01, 6.64865541e+00, 5.38689184e+00, 7.52556896e+00,
          1.89272237e+00, -1.25101185e+00, -1.37177610e+01,
          -1.07868643e+01, -7.73816872e+00, 2.87237954e+00,
          2.20243192e+00, 6.03787661e-01, 3.75143027e+00,
          -2.96656460e-01, -2.56931877e+00, -1.92854328e+01,
          -2.10306950e+01, -1.64408798e+01, -2.38512754e+00,
          1.32390871e+01, 1.08828096e+01, 1.39866247e+01, 8.22491741e+00,
          3.98667216e+00, -1.04521627e+01, -3.44093347e+00,
          8.11365545e-01, 1.11171188e+01, 1.20356207e+01, 9.56099701e+00,
          1.21440229e+01, 5.98674631e+00, 4.82146502e+00,
          -1.36992073e+01, -1.26172838e+01, -6.27989006e+00,
          8.75112915e+00, 3.23903036e+00, 5.86782396e-01, 4.22211075e+00,
          5.47572231e+00, 7.92507696e+00, -1.40106316e+01,
          -2.19584923e+01, -1.61590900e+01, -4.24066365e-01,
          -4.46523380e+00, -5.45847416e+00, 4.04045296e+00,
          1.00341883e+01, 1.80186710e+01, -6.31996965e+00,
          -1.89245930e+01, -1.97158012e+01, -8.45109177e+00,
          9.94954967e+00, 7.69522953e+00, 1.20811501e+01, 1.03885899e+01,
          1.36564894e+01, -9.06061554e+00, -1.51940565e+01,
          -1.00134649e+01, 5.98690224e+00, 1.65190530e+00,
          2.11055350e+00, 1.14679136e+01, 1.41655798e+01, 2.30006256e+01,
          -3.18686581e+00, -1.77013016e+01, -1.91506767e+01,
          -6.85443783e+00, -1.31972542e+01, -1.12388563e+01,
          1.84099305e+00, 1.28181200e+01, 2.61216259e+01, 4.69073868e+00,
          -8.22648811e+00, -1.61182899e+01, -1.54479790e+01,
          -1.88708324e+01, -1.00645962e+01, 5.38036108e+00,
          1.87562466e+01, 3.34924583e+01, 1.37536898e+01, 1.00440335e+00,
          -1.18010597e+01, -2.04308109e+01, -8.82118511e+00,
          -4.78324175e+00, 8.84386158e+00, 1.73379440e+01,
          2.94406071e+01, 6.94809151e+00, -7.65281963e+00,
          -1.80917397e+01, -1.50212622e+01, -1.22854099e+01,
          -2.63961744e+00, 1.08402300e+01, 2.18884296e+01,
          3.59251480e+01, 1.47215719e+01, 2.40961909e+00,
          -1.26416035e+01, -1.84824009e+01, -2.43586388e+01,
          -7.09914684e+00, 5.69200230e+00, 1.73165874e+01,
          3.10982418e+01, 1.36759377e+01, 4.09527206e+00,
          -8.01532269e+00, -2.45190582e+01, -2.34015617e+01,
          -9.05098629e+00, 5.38184977e+00, 1.58661880e+01,
          3.02682266e+01, 1.22318335e+01, 5.21166897e+00,
          -5.72109604e+00, -2.21546116e+01, -1.73824463e+01,
          -1.01397133e+00, 1.08787813e+01, 2.04131393e+01,
          3.25430946e+01, 1.35618477e+01, 3.45908928e+00,
          -8.55544567e+00, -2.24138508e+01, -1.52883749e+01,
          -2.54738832e+00, 8.67528057e+00, 1.34857578e+01,
          2.67788010e+01, 1.09681492e+01, 3.92817664e+00,
          -6.09256983e+00, -1.86849594e+01, -1.76081619e+01,
          -8.44548035e+00, 3.14862180e+00, 1.11699972e+01,
          2.27573967e+01, 7.22754431e+00, 3.19735503e+00,
          -4.55509329e+00, -1.63741207e+01, -1.13689051e+01,
          -9.43601608e+00, 1.02162993e+00, 3.43691659e+00,
          1.50553312e+01, -5.72341800e-01, -7.75520921e-01,
          -6.23531342e+00, -9.59708691e+00, -8.38932514e+00,
          -1.41749191e+00, 6.30429697e+00, 7.83285618e+00,
          2.19128017e+01, 7.56134176e+00, 4.08405876e+00,
          -2.51982617e+00, -9.69505692e+00, -4.07787800e+00,
          -2.17219138e+00, 4.25000095e+00, 3.26007056e+00,
          1.81701412e+01, 4.41332161e-01, 3.64290714e+00,
          -1.72771335e+00, -4.11499548e+00, -8.50454998e+00,
          -1.11692295e+01, -3.61383605e+00, -2.38766956e+00,
          1.07044630e+01, -5.32127619e-01, -2.09795758e-01,
          -5.13163710e+00, -5.92630529e+00, -5.25355911e+00,
          -1.13757248e+01, -4.69038725e+00, -3.61335540e+00,
          1.10287409e+01, 4.36697388e+00, 1.21974635e+00,
          -4.35577869e+00, -2.02777982e+00, -2.03700423e+00,
          -2.73031592e+00, 3.23028350e+00, 2.16984344e+00,
          1.55788507e+01, -7.46420145e-01, 3.26946425e+00,
          -1.51407015e+00, -1.23903823e+00, 4.83219713e-01,
          -2.60872698e+00, 3.14347506e+00, 1.95559561e+00,
          1.53488274e+01, 5.16825962e+00, 3.83400941e+00,
          -1.46906996e+00, 9.93099928e-01, 1.12335196e+01,
          6.37026072e+00, 8.10555077e+00, -8.88755500e-01,
          -8.35677338e+00, -1.29735937e+01, -5.07038450e+00,
          -9.82452691e-01, 8.83824348e+00, 6.35776520e+00,
          3.70562196e+00, 7.82724762e+00, -5.43896317e-01,
          -7.52111387e+00, -2.05654545e+01, -1.00918255e+01,
          -5.18968678e+00, 4.28542185e+00, 1.10389585e+01,
          6.76169872e+00, 8.10378361e+00, 1.99941114e-01,
          -5.38114977e+00, -1.10832605e+01, -1.57937944e+00,
          1.45561373e+00, 8.85814571e+00, 8.88321972e+00, 7.13629103e+00,
          9.87529564e+00, 2.78631592e+00, -1.97300887e+00,
          -1.47616911e+01, -3.43540597e+00, -1.78049579e-01,
          6.76618767e+00, 5.04799509e+00, 4.15144777e+00, 8.79672718e+00,
          4.10815239e+00, -4.29977989e+00, -1.76101627e+01,
          -8.27462387e+00, -3.51591754e+00, 4.40799522e+00,
          5.23899460e+00, 3.62795162e+00, 7.10236883e+00, 1.52468586e+00,
          -3.94485664e+00, -2.08445282e+01, -1.60556145e+01,
          -9.73260117e+00, 2.71425319e+00, 9.08684635e+00,
          7.77299976e+00, 1.19517803e+01, 7.79982471e+00, 6.69503212e-01,
          -1.24279203e+01, -1.91000700e+00, 1.96367621e+00,
          8.69733429e+00, 1.05112419e+01, 8.25673485e+00, 1.11519537e+01,
          6.16481352e+00, 1.04120779e+00, -1.53369637e+01,
          -6.64121008e+00, 1.24117024e-01, 9.74497986e+00,
          5.34806490e+00, 2.96480751e+00, 6.40769577e+00, 3.24267292e+00,
          3.09347105e+00, -1.45716267e+01, -1.69584198e+01,
          -1.25409660e+01, 1.68336034e+00, -2.53347182e+00,
          -1.27155161e+00, 5.63575554e+00, 5.35210133e+00,
          1.03007870e+01, -1.14440432e+01, -2.17362900e+01,
          -2.51303940e+01, -1.19397278e+01, 1.12615681e+01,
          8.67668247e+00, 1.22978191e+01, 7.87448740e+00, 6.86398792e+00,
          -1.16384678e+01, -6.41557789e+00, -1.06268775e+00,
          9.77798176e+00, 9.76616859e+00, 9.01128292e+00, 1.34770432e+01,
          9.31580257e+00, 1.13192654e+01, -9.97965527e+00,
          -1.12144003e+01, -1.00833216e+01, 3.66748691e+00,
          -7.72588205e+00, -1.79612231e+00, 6.84689713e+00,
          1.03790407e+01, 1.80984955e+01, -2.26839566e+00,
          -1.43761692e+01, -2.64352970e+01, -1.92826462e+01,
          -1.18101072e+01, -7.80427337e-01, 9.19116497e+00,
          1.59607887e+01, 2.53279953e+01, 2.27004433e+00,
          -9.25988579e+00, -2.52215443e+01, -2.31012974e+01,
          7.18583107e+00, 9.39320660e+00, 1.42012157e+01, 1.29971495e+01,
          1.63102398e+01, -5.82861280e+00, -8.91328716e+00,
          -1.28282871e+01, -3.00273252e+00, 3.37362075e+00,
          9.11228848e+00, 1.53028393e+01, 1.59528189e+01, 2.20240097e+01,
          -2.17532802e+00, -7.76552820e+00, -1.62988605e+01,
          -1.11160145e+01, -1.46401253e+01, -1.55179143e+00,
          7.93940020e+00, 1.45437851e+01, 2.33909397e+01, 3.28379655e+00,
          -5.73073149e+00, -1.94504223e+01, -2.52169247e+01,
          -1.52919769e+01, -4.87791920e+00, 3.83115149e+00,
          7.22809124e+00, 1.81638641e+01, 2.40653491e+00,
          -3.57290006e+00, -1.45593786e+01, -2.12576504e+01,
          -1.17605782e+00, 6.40331507e+00, 1.23053455e+01,
          1.46015673e+01, 2.16853371e+01, -7.09279060e-01,
          -5.54033422e+00, -1.44035349e+01, -1.33415041e+01,
          -1.92592835e+00, 3.21669483e+00, 8.02158737e+00,
          9.42603493e+00, 1.83444862e+01, 3.33907813e-01,
          -4.09701586e+00, -1.13764973e+01, -1.12732468e+01,
          -1.16181974e+01, -4.87788534e+00, 9.72149968e-01,
          1.71527994e+00, 1.32609215e+01, 1.30726069e-01,
          -2.99736094e+00, -9.76190376e+00, -1.45973721e+01,
          -8.33574009e+00, -6.00346422e+00, 2.14515045e-01,
          -8.75779390e-02, 1.13221636e+01, -6.72206926e+00,
          -3.80836868e+00, -8.86763000e+00, -1.01401339e+01,
          9.18273032e-01, 4.16133451e+00, 7.55538273e+00, 8.42717934e+00,
          1.71682186e+01, 6.80426732e-02, -2.98435736e+00,
          -6.35248709e+00, -4.71662283e+00, 1.47001719e+00,
          2.18461180e+00, 7.22426176e+00, 7.16457748e+00, 1.45630045e+01,
          -3.42215371e+00, -3.41290212e+00, -6.51250076e+00,
          -3.47892094e+00, -8.44150448e+00, -7.59709930e+00,
          -3.75888407e-01, 1.43753096e-01, 8.67634678e+00,
          -8.42152596e+00, -5.13567209e+00, -8.88477802e+00,
          -9.68657494e+00, -8.69874573e+00, -9.64565659e+00,
          -4.30263817e-01, 2.16987300e+00, 8.63290596e+00,
          -4.31873846e+00, -4.54835606e+00, -8.84304714e+00,
          -7.56183863e+00, -3.73986244e-01, 1.59417659e-01,
          6.45915556e+00, 8.38543892e+00, 1.34490433e+01,
          -4.63524866e+00, -3.77089715e+00, -5.99418974e+00,
          -3.27443385e+00, -2.25583529e+00, -2.78212905e+00,
          4.92016888e+00, 8.49091053e+00, 1.25560112e+01,
          -1.06782961e+00, -2.69146395e+00, -4.67364740e+00,
          -1.56820226e+00, -8.66603809e+03, -8.55873438e+03,
          -4.62682910e+03, 3.47863867e+03, -8.32201953e+03,
          4.60378174e+03, -2.53860229e+03, -3.15252588e+03,
          3.49236377e+03, 7.09692773e+03, 4.01153101e+03,
          -6.26747363e+03, 2.14243750e+03, 3.85522656e+03,
          -3.76754468e+03, -1.96402307e+03, 7.89990674e+03,
          5.71602686e+03, 1.14950610e+03, 2.46610645e+03, 4.13030176e+03,
          -4.71720703e+03, 1.73846113e+04, -5.53653223e+03,
          -2.62584277e+03, 5.14111377e+03, 9.80740332e+03,
          2.85157153e+03, 8.91417773e+03, 2.15029175e+03, 1.95368811e+03,
          5.21383740e+03, -3.18560986e+03, 9.49143359e+03,
          2.67031226e+03, 3.52363867e+03, 4.98017529e+03, 7.47819336e+03,
          -5.93049268e+03, -8.56111719e+03, 5.99829041e+02,
          -9.39352832e+03, 3.56812402e+03, -3.54259668e+03,
          -1.35632544e+03, -7.03949219e+03, -8.92107239e+02,
          -1.12377966e+03, -4.32889404e+03, -1.42198743e+03,
          7.69639697e+03, -1.26868682e+04, 3.84727173e+02,
          -1.40624243e+03, 4.46030615e+03, -7.15098755e+02,
          -3.36836914e+03, -1.68755090e+03, 4.00869873e+03,
          -8.23230566e+03, -4.59393860e+02, -4.61729639e+03,
          -5.25639844e+03, -5.98011230e+02 ]
   decision_functions:
      -
         sv_count: 1
         rho: -4.3635698125698272e+31
         alpha: [ 1. ]
         index: [ 0 ]
