%YAML:1.0
my_svm: !!opencv-ml-svm
   svm_type: C_SVC
   kernel: { type:LINEAR }
   C: 1.0000000000000001e-01
   term_criteria: { epsilon:2.2204460492503131e-16, iterations:10000000 }
   var_all: 10020
   var_count: 10020
   class_count: 2
   class_labels: !!opencv-matrix
      rows: 1
      cols: 2
      dt: i
      data: [ 0, 1 ]
   sv_total: 1
   support_vectors:
      - [ 6.26700012e+02, -9.44799988e+02, -2761., 1.36750037e+03,
          1.06311755e+03, -2.02202972e+02, -9.51007019e+02,
          8.73499817e+02, 2.04009705e+03, -2.29460034e+03, -4491.,
          2.15430103e+03, 2.90783252e+03, -6.78102356e+02,
          -1.66170471e+03, 1.83089868e+03, 3.74658984e+03,
          -2.34240674e+03, -4.54289990e+03, 1.96010059e+03,
          4.20683252e+03, -8.20799988e+02, -1.66169995e+03,
          2.21479980e+03, 5.06849365e+03, -1.89051038e+03,
          -3.89060010e+03, 1.72240027e+03, 4.49531104e+03,
          -8.13700012e+02, -1.29069995e+03, 2.05510010e+03,
          9.41799988e+02, -1.62759998e+03, -5.78539990e+03,
          2.07030078e+03, 1.46732947e+03, -2.79718872e+02,
          -1.70761548e+03, 1.62840002e+03, 2.67039941e+03,
          -3.57980005e+03, -7.10789990e+03, 3.08470190e+03,
          3.19333252e+03, -7.28827393e+02, -2.24950928e+03,
          3.04959912e+03, 5.16289404e+03, -3.59641016e+03,
          -7.78560010e+03, 3.47470117e+03, 5.41883252e+03,
          -8.45404236e+02, -2.56790088e+03, 3.90209888e+03,
          5.67449561e+03, -2.89112500e+03, -7.37880029e+03,
          3.54060034e+03, 5.44741943e+03, -1.01659998e+03,
          -2.52650000e+03, 3.98819995e+03, 9.46500000e+02,
          -1.76690002e+03, -6.74689990e+03, 2.02890356e+03,
          1.43862866e+03, 1.00168388e+02, -1.18042212e+03, 2024.,
          2.72430005e+03, -3.72089990e+03, -7.83860010e+03,
          3.25520410e+03, 3.17863257e+03, -2.59531616e+02,
          -1.72451819e+03, 3.63960010e+03, 4.82759961e+03,
          -4.19940088e+03, -8.65050000e+03, 4.45660107e+03,
          5.03473242e+03, -5.63931396e+02, -3.10870972e+03,
          5.09119971e+03, 5.38589941e+03, -3.17951050e+03,
          -8.92790039e+03, 4.55110010e+03, 5.53061768e+03,
          -1.05160400e+03, -3.62560303e+03, 4.89329980e+03,
          7.72599976e+02, -1.66169995e+03, -5.57289990e+03,
          1.74901013e+03, 1.19551550e+03, 4.03870941e+02, 1.74978149e+02,
          1.71209998e+03, 2.48580005e+03, -3690., -6.56810010e+03,
          3.27320898e+03, 2.90933252e+03, 2.23968384e+02,
          -1.06562549e+03, 3.21239990e+03, 4.13329980e+03,
          -4.26220020e+03, -7.07789990e+03, 4.54320117e+03,
          4.29903223e+03, -3.42929718e+02, -2.19451587e+03,
          4.45250000e+03, 4.56360010e+03, -3.03950073e+03,
          -7.62570020e+03, 4.74860010e+03, 4.85731104e+03,
          -8.73926331e+02, -3.42700562e+03, 4.55520020e+03,
          7.85299988e+02, -1.37730017e+03, -3.74879468e+03,
          2.46871704e+03, 1.00279980e+03, -9.36999969e+01,
          1.13599998e+02, 1.69359998e+03, 2.40460010e+03,
          -3.75700024e+03, -5.26501123e+03, 3.92541943e+03,
          2.88710669e+03, -2.54301056e+02, -8.80400024e+02,
          2.69150000e+03, 3.15410010e+03, -3.57850000e+03,
          -5.59490527e+03, 4.17139795e+03, 3.55821484e+03,
          6.40042419e+01, -1.12269995e+03, 2.86880005e+03, 2913.,
          -2.48950000e+03, -5.61970020e+03, 3.98449927e+03,
          3.46490625e+03, 7.18800232e+02, -1.19740027e+03,
          2.73960010e+03, 8.58700012e+02, -1.35170483e+03,
          -3.71631909e+03, 2.24040527e+03, 9.20300232e+02,
          -3.07000008e+01, -6.05099976e+02, 1.62650000e+03,
          2.05819995e+03, -3.13961304e+03, -4.81552393e+03,
          3.47621021e+03, 2.53250562e+03, -352., -934., 2.36760010e+03,
          2.77789771e+03, -3.35261108e+03, -5.52572021e+03,
          3.87080005e+03, 3.12552051e+03, -2.33795334e+02,
          -1.47169995e+03, 2.13450000e+03, 2.74289697e+03,
          -2.75010107e+03, -6.15580127e+03, 3.40659985e+03,
          3.37082617e+03, 3.38601471e+02, -1.96170239e+03,
          1.64909961e+03, 7.01099976e+02, -1.11212061e+03,
          -3.01683008e+03, 1.69220068e+03, 8.65100220e+02,
          8.22057266e+01, -1.06108240e+03, 1.15080005e+03,
          1.73329688e+03, -2.00223010e+03, -3.87292285e+03,
          2.79920068e+03, 2.14160352e+03, -3.23187469e+02,
          -1.64208960e+03, 1.32330005e+03, 2.21458765e+03,
          -2.23343018e+03, -4.61870312e+03, 2.90120239e+03,
          2.82032153e+03, -2.87595337e+02, -2.89780005e+03,
          8.26500000e+02, 2.34149438e+03, -1.98291333e+03,
          -4.77250537e+03, 2.35060547e+03, 2.94972729e+03,
          -3.14995766e+01, -3.23320117e+03, 2.82999573e+02,
          3.44499786e+02, -7.22320374e+02, -1.44080786e+03,
          1.24719995e+03, 8.33500000e+02, 2.60227356e+02,
          -5.36472656e+02, 5.81400024e+02, 1.08919702e+03,
          -1.42703015e+03, -1.84910400e+03, 2.28339990e+03,
          2.04290356e+03, -2.23726292e+01, -1.61597266e+03,
          5.95200012e+02, 1.33109644e+03, -1.62473010e+03,
          -2.12040918e+03, 2.46060889e+03, 2.31032544e+03,
          8.55171890e+01, -2.34110010e+03, 3.71500000e+02,
          1.45879932e+03, -1.18431714e+03, -2.51222388e+03,
          1.98402063e+03, 2.01571423e+03, 3.92700012e+02,
          -2.36469995e+03, 2.49500000e+02, 2.71200012e+02,
          -7.44799988e+02, -1.40190002e+03, 1.24440002e+03,
          7.54201050e+02, 6.18205795e+01, -5.72708679e+02,
          8.20992554e+02, 8.54997864e+02, -1826., -2.32969995e+03,
          1.74730005e+03, 1.80561316e+03, -1.03471992e+02,
          -1.23481909e+03, 1.09037451e+03, 1.26559277e+03,
          -1.72359998e+03, -2.86119995e+03, 1.90950000e+03,
          1.87571741e+03, -6.27891808e+01, -1.27511230e+03,
          1.24327222e+03, 1.18069360e+03, -1.13709973e+03, -2905.,
          1.91380042e+03, 1.91090527e+03, 2.09401489e+02,
          -1.19660400e+03, 1.07627222e+03, 3.63299988e+02,
          -9.37400024e+02, -1844., 9.58799988e+02, 7.89803833e+02,
          6.30280075e+01, -2.91114014e+02, 4.59882599e+02,
          4.05399780e+02, -1.75809998e+03, -2.47669995e+03,
          1.28950000e+03, 1.67152795e+03, -1.36171997e+02,
          -3.48321869e+02, 3.10372192e+02, 1.04350000e+03,
          -1.95590002e+03, -2.99460010e+03, 1.56559998e+03,
          2.16312793e+03, -2.76979645e+02, -9.90618469e+02,
          4.95972198e+02, 1.23329956e+03, -1.78559998e+03,
          -3.17750000e+03, 2.20519995e+03, 2.54540771e+03,
          -2.33893005e+02, -1.80740759e+03, 2.65072205e+02,
          4.38391937e+02, -1.13760461e+03, -2.04330017e+03,
          7.92400024e+02, 7.18012756e+02, -2.01719933e+01,
          -2.51801483e+02, 3.23892578e+02, 5.50877747e+02,
          -2.19460718e+03, -2.52039990e+03, 1.25740002e+03,
          1.55932800e+03, -4.85971985e+02, -4.24500214e+02,
          4.69980682e+02, 7.92876892e+02, -2.27000415e+03,
          -3.09710010e+03, 1.66930005e+03, 2.53172803e+03,
          -5.68279602e+02, -1.24200037e+03, 3.05879639e+02,
          1.03868616e+03, -1.99960168e+03, -2.88839990e+03,
          2.17710010e+03, 2.86630957e+03, -1.89289597e+02,
          -2.14939990e+03, -1.78414429e+02, 4.44398102e+02,
          -1.06301611e+03, -1.96400232e+03, 7.85003418e+02,
          6.50520813e+02, -3.13091736e+02, 4.81700012e+02,
          4.60100006e+02, 6.19490662e+02, -2.25462769e+03,
          -2.53510034e+03, 1.34290491e+03, 1.41352795e+03,
          -6.25490479e+02, 1.73800003e+02, 6.31599976e+02,
          2.47686203e+02, -2.41762769e+03, -2.91469995e+03,
          1.61370300e+03, 2.21342798e+03, -1.77493637e+02,
          -3.79600006e+02, 2.34600006e+02, 3.91189178e+02,
          -1.80871655e+03, -2.59969995e+03, 1.75980066e+03,
          2.40941138e+03, 3.04004669e+02, -1.08069995e+03,
          -3.23700226e+02, 3.75200012e+02, -3.83306580e+02,
          -1.44679626e+02, 1.11172803e+03, 3.17000214e+02,
          -9.45500000e+02, 4.96899994e+02, 1067., 4.22700012e+02,
          -1.12723267e+03, -7.00395752e+02, 1.86562817e+03,
          7.20303833e+02, -1.42750000e+03, 4.14299988e+02,
          1.25750000e+03, -1.06401276e+02, -1.31683411e+03,
          -9.11604675e+02, 2.11242822e+03, 1.75480652e+03,
          -3.69399994e+02, 1.98699997e+02, 1.46899994e+02,
          -1.18530640e+03, -1.02593420e+03, -1.13329871e+03,
          2.34000610e+03, 2.28790088e+03, 1.07419995e+03, 204.,
          -1.75359912e+03, 3.47500000e+02, -4.06696167e+02,
          1.68919312e+02, 1.33640466e+03, 3.15700012e+02,
          -1.51419995e+03, -2.06500000e+02, 9.79500000e+02,
          4.25000000e+01, -9.02404480e+02, 2.09505310e+02,
          2.24331860e+03, 4.96600220e+02, -2.20089990e+03,
          -1.00699997e+02, 7.58400024e+02, -1.00189935e+03,
          -1.13943079e+03, -6.80763817e+00, 2.60331152e+03,
          1.57510132e+03, -1.20609998e+03, -5.38799988e+02,
          -1.25199915e+03, -2.54190967e+03, -7.93433960e+02,
          -6.29500610e+02, 2.21220117e+03, 2.22140015e+03,
          7.25900024e+02, -4.92500000e+02, -3.73499243e+03,
          1.64900208e+02, -2.82275604e+02, -9.87751007e+00,
          1.42799146e+03, 3.07798096e+02, -1.13369995e+03, -265.,
          7.46400024e+02, -3.30595551e+02, -9.80373474e+02,
          3.48504669e+02, 2.52128906e+03, 7.51298279e+02,
          -2.06630005e+03, -4.57500000e+02, 2.27000008e+01,
          -1.90218787e+03, -1.26871741e+03, 1.31692993e+02,
          2.63089966e+03, 1.65909998e+03, -1.21950000e+03,
          -8.37900024e+02, -2.29519946e+03, -3.28870923e+03,
          -1.03773328e+03, -2.31800217e+02, 1.65940002e+03,
          2.12710010e+03, 1.10900002e+02, -7.11099976e+02,
          -4.27499414e+03, 1.57903610e+02, -3.03478363e+02,
          -7.30974503e+01, 1.22199707e+03, 3.93794067e+02,
          -2.89300201e+02, 7.51400024e+02, 5.90200012e+02,
          -4.34981323e+02, -1.15957178e+03, 5.43991508e+01,
          2.45239331e+03, 7.93191956e+02, -9.89599976e+02,
          3.40799988e+02, 1.17699997e+02, -2.50417529e+03,
          -1.32510107e+03, 2.18398514e+02, 2.46049780e+03,
          1.14089917e+03, -6.96799988e+02, 5.17000008e+01, -2153.,
          -4.00550098e+03, -7.44026917e+02, 1.93399994e+02,
          1.54319995e+03, 1.42850000e+03, 2.42100006e+02, 2.47500000e+02,
          -3.66719897e+03, -8.94862061e+01, -4.94698303e+02, 590., 1049.,
          4.63988953e+02, 4.45979645e+02, 1.81430005e+03, 8.46500000e+02,
          -1.22537195e+03, -1.61279346e+03, 7.89500000e+02,
          1.90950000e+03, 1.21197217e+03, 7.01372192e+02, 1.76390002e+03,
          776., -3.64177295e+03, -1.46179004e+03, 1.67480005e+03,
          2.31830005e+03, 1.33378833e+03, 8.43372192e+02, 1.39849963e+03,
          -6.23001038e+02, -4.86489062e+03, -8.59900208e+02,
          1.76750000e+03, 1657., 9.42799805e+02, 9.48995361e+02,
          1.10129895e+03, -1.77030640e+03, -5.23984924e+02,
          -1.25939941e+03, 2.01500000e+02, 1.04630005e+03,
          7.03877747e+02, 5.64788757e+02, 1.47340002e+03, 9.09301086e+02,
          -2.75407202e+03, -2.97659131e+03, 8.15799988e+02,
          1.83119995e+03, 1.37767224e+03, 8.67673035e+02, 1.89869995e+03,
          7.69100220e+02, -5.20267188e+03, -2.81268115e+03,
          1.65450000e+03, 1.97369995e+03, 1.43127478e+03, 1.25117224e+03,
          1.45259875e+03, -7.60500427e+02, -6.26538330e+03,
          -1.90658813e+03, 1699., 1.52780005e+03, 1.08849829e+03,
          1.09509448e+03, 1.08049316e+03, -1.94170398e+03,
          -1.01559045e+03, -1.56059961e+03, 1.83999996e+01,
          1.29909387e+03, 6.89975830e+02, 3.10898926e+02, 1.75790002e+03,
          9.24402954e+02, -3.61767188e+03, -3.24349194e+03,
          5.48799988e+02, 1.93339453e+03, 1.43627222e+03, 6.24795776e+02,
          1.86330005e+03, 9.07800659e+02, -6.01187207e+03,
          -3.64327734e+03, 9.32099976e+02, 1.94609900e+03,
          1.34347217e+03, 8.14991089e+02, 1.22799976e+03,
          -6.44000015e+01, -6.48197900e+03, -2.98937866e+03,
          1.03530005e+03, 1.35869995e+03, 1.05929553e+03, 7.56395752e+02,
          1.00759851e+03, -1.17660132e+03, -1.13879578e+03,
          -1.24079980e+03, 1.20509998e+03, 1.04318372e+03,
          3.33790863e+02, 3.47399994e+02, 2.27710010e+03, 8.15101685e+02,
          -3.84628247e+03, -2.67779419e+03, 1.44159998e+03,
          1.85628088e+03, 8.80072205e+02, 6.26200012e+02, 2327.,
          1.02100018e+03, -6.27627490e+03, -3.29867798e+03,
          1.79840002e+03, 1.88389172e+03, 5.29674133e+02, 7.98399597e+02,
          2.19580005e+03, 3.24399994e+02, -6.64939258e+03,
          -2.76377197e+03, 1.56850110e+03, 1.20519934e+03,
          5.90961800e+01, 9.27299377e+02, 1.61719995e+03,
          -4.92401276e+02, -1.11269788e+03, -8.48294922e+02,
          2.76350024e+03, 1.09569214e+03, -2.17055168e+01,
          5.20998108e+02, 1.68519995e+03, 4.34399994e+02,
          -3.71549707e+03, -2.68997583e+03, 3.00700439e+03,
          1.64019189e+03, 2.26282181e+02, 7.48194885e+02, 1.87669958e+03,
          5.82599976e+02, -5.77450049e+03, -3.87817041e+03,
          2.70302954e+03, 1.56019763e+03, 1.03293846e+02, 6.74396606e+02,
          1.79639490e+03, 4.88097870e+02, -6.03241211e+03,
          -3.91897046e+03, 1.84792944e+03, 1.17230042e+03,
          -4.47000214e+02, 6.10899780e+02, 1.91779895e+03,
          2.96081970e+02, -1.25330005e+03, -1.00059595e+03,
          2.32670239e+03, 1.05819958e+03, 1.74498093e+02, 4.22186859e+02,
          1.89589551e+03, 3.57100006e+02, -3.96930005e+03,
          -2.73769238e+03, 2.96360913e+03, 1.53189978e+03,
          3.47795746e+02, 6.08772217e+02, 2.32678931e+03, 2.56100006e+02,
          -5.75210010e+03, -4.16109277e+03, 2.62082471e+03,
          1.47940271e+03, -7.16008453e+01, 5.35290649e+02,
          2.32537329e+03, 1.22791092e+02, -5.36210986e+03,
          -4.38939648e+03, 1.03222949e+03, 8.28614014e+02, -342.,
          3.30700012e+02, 2.20319434e+03, -1.48329697e+02,
          -1.23530005e+03, -8.09397888e+02, 1.80961084e+03,
          9.36799988e+02, 1.43699997e+02, 5.16888550e+02, 2.75328125e+03,
          3.70000005e+00, -3.74810010e+03, -2.35879785e+03,
          2.35382153e+03, 1.38600085e+03, 1.01900002e+02, 5.65478333e+02,
          3.04677026e+03, -4.49399994e+02, -5.02420020e+03,
          -3.41210010e+03, 1.85301953e+03, 1.48921143e+03,
          -3.71100006e+02, 1.61694275e+02, 2.87867041e+03,
          -6.44815674e+02, -4.23190771e+03, -3.77919995e+03,
          7.58505493e+02, 9.59229492e+02, -6.84098511e+02,
          -1.28800003e+02, 1.98028833e+03, -5.66229675e+02,
          -1.12790002e+03, -5.87699768e+02, 1.91562610e+03,
          7.86801514e+02, -3.27000008e+01, 8.08594482e+02,
          3.45978223e+03, -1.11400002e+02, -3246., -1.54619983e+03,
          2.28622949e+03, 1.14220386e+03, -7.45999985e+01,
          1.03209192e+03, 3.69037036e+03, -7.76700623e+02,
          -4.31370020e+03, -2.20369995e+03, 1.92002954e+03,
          1.39021228e+03, -4.61299988e+02, 6.15698486e+02,
          3.05577026e+03, -1.35822229e+03, -3.63210791e+03,
          -2.02059998e+03, 1.14851611e+03, 8.96429504e+02,
          -9.60799561e+02, 1.55300003e+02, 1.52909192e+03,
          -1.20982971e+03, -1.40760059e+03, -8.83799988e+02,
          1.89153247e+03, 5.56806335e+02, 1.27400002e+02, 8.58200012e+02,
          3.67789990e+03, 2.50398300e+02, -4.06620264e+03,
          -1.90180005e+03, 1.47953247e+03, 8.48413818e+02,
          2.42500000e+02, 1826., 4.09239966e+03, 4.78921509e+01,
          -4.88630518e+03, -2.07460010e+03, 1.16393250e+03,
          6.27115051e+02, -3.84100006e+02, 1.67769995e+03,
          3.43759985e+03, -4.05020142e+02, -4.19441016e+03,
          -1.78640002e+03, 1.01553247e+03, 1.29932465e+02,
          -1.24179834e+03, 1.09009998e+03, 2.57610010e+03,
          -6.87928223e+02, -1.56480298e+03, -1.60750000e+03,
          6.56318237e+02, 1.47019100e+01, 1.49500000e+02, 1.18259998e+03,
          3.78839990e+03, 6.25398071e+02, -3.93641016e+03,
          -3.42610010e+03, 3.38826111e+02, 1.01705093e+02,
          1.83800003e+02, 1.94459998e+03, 4.62679980e+03, 5.24989380e+02,
          -4.53871777e+03, -4.49960010e+03, -3.42283447e+02,
          1.51011673e+02, -3.43598083e+02, 1.78280005e+03,
          3.94339990e+03, 2.49571777e+02, -3.87192358e+03,
          -4.10520020e+03, -8.08795776e+02, -1.07678574e+02,
          -9.35782593e+02, 1.26359998e+03, 2.90350000e+03,
          7.67717819e+01, -1.42460620e+03, -1.88440002e+03,
          -2.06091721e+02, -1.14299789e+02, 2.63700012e+02,
          7.59200012e+02, 3.52710010e+03, 8.82097656e+02,
          -3.06331909e+03, -3982., -3.64988342e+02, -1.03498512e+02,
          291., 1.41090002e+03, 4.11210010e+03, 1.00278619e+03,
          -3.74932812e+03, -5.59850000e+03, -8.93095337e+02,
          2.50209335e+02, -4.36197235e+02, 1.62259998e+03,
          3.71769995e+03, 6.62571777e+02, -3.00712817e+03,
          -5.36070020e+03, -1.71229980e+03, 2.32511032e+02,
          -1.05347693e+03, 1.21580005e+03, 2.93669995e+03,
          4.58471771e+02, -9.37207214e+02, -1.34649963e+03,
          9.10920349e+02, 2.84700012e+02, 9.95000000e+01, 2.88899994e+02,
          2.66369995e+03, 5.14297241e+02, -2.21532275e+03,
          -2.97589990e+03, 7.59432251e+02, 5.23500427e+02,
          2.06399994e+02, 685., 3.02960010e+03, 4.78685791e+02,
          -2.82862817e+03, -4.29329980e+03, 1.63425888e+02,
          8.11809326e+02, -4.81999786e+02, 1.14950000e+03,
          2.89160010e+03, -3.68282204e+01, -2.36042822e+03,
          -3.74710010e+03, -5.65193665e+02, 8.29623779e+02,
          -1.43789282e+03, 8.35500000e+02, 2.33930005e+03,
          -7.54282227e+01, -2.98404449e+02, -8.74098755e+02,
          1.72993921e+03, 6.92299988e+02, 1.25000000e+01, 1.14800003e+02,
          1.49190002e+03, -1.61704880e+02, -1.09281970e+03,
          -1.91259790e+03, 1.34273926e+03, 1.27669995e+03,
          1.21599998e+02, 2.78399994e+02, 1.55559998e+03,
          -1.01701422e+03, -1.30422461e+03, -1.56699939e+03,
          1.03713928e+03, 9.55201477e+02, -2.31000004e+01, 332.,
          1.16759998e+03, -1.58352124e+03, -9.86721619e+02,
          -1.03709998e+03, 1.02943921e+03, 3.81809753e+02,
          -5.40400024e+02, 5.99000015e+01, 1.02619995e+03,
          -9.28718262e+02, -4.41105103e+02, -1.25899939e+03,
          1.00182739e+03, 6.24400024e+02, 9.88000031e+01,
          -6.35999985e+01, 9.03500000e+02, -5.07011230e+02,
          -1.22992371e+03, -2.42559888e+03, 1.08813928e+03, 1081.,
          9.76999969e+01, -6.40000010e+00, 9.49400024e+02,
          -1.30262463e+03, -1.47662463e+03, -2.32419946e+03,
          8.70739258e+02, 3.03300201e+02, -2.67500000e+02,
          2.78999996e+01, 9.92099976e+02, -1.64552466e+03,
          -1.19242456e+03, -1.54230005e+03, 7.09638000e+02,
          -4.35097443e+02, -614., -1.94300003e+02, 1.04680005e+03,
          -1.19512061e+03, -7.16506592e+02, -1.44509973e+03,
          4.67604889e+02, 4.35700012e+02, 4.77000008e+01,
          -1.50899994e+02, 516., -5.85215271e+02, -1.72062463e+03,
          -2.61779980e+03, 3.88208282e+02, 3.46100006e+02,
          -1.40600006e+02, -4.35999985e+01, 3.70799988e+02,
          -1.03722461e+03, -1.54002466e+03, -2.90109985e+03,
          3.20084877e+01, -2.66500000e+02, -4.51700012e+02,
          -3.23600006e+02, 3.58700012e+02, -1.08512463e+03,
          -9.45719543e+02, -2.30130005e+03, -2.01693634e+02,
          -9.35499817e+02, -7.72799988e+02, -9.39599976e+02,
          8.38500000e+02, -4.09715698e+02, -8.50609131e+02,
          -1.17459998e+03, 3.33000427e+02, 2.25699997e+02,
          -7.00999985e+01, -1.55500000e+02, 2.60600006e+02,
          -2.98110199e+02, -1.92212463e+03, -2.05389990e+03,
          4.71500641e+02, 1.44800003e+02, -4.90399994e+02,
          -1.86800003e+02, 2.01800003e+02, -4.84520569e+02,
          -1.83002466e+03, -2.39989990e+03, 4.52600647e+02,
          -4.91200012e+02, -9.78400024e+02, -6.26400024e+02,
          2.65600006e+02, -4.66719513e+02, -8.03213135e+02,
          -1.87669995e+03, 5.65004234e+01, -1.04240002e+03,
          -1.05880005e+03, -1.12350000e+03, 5.10600006e+02,
          1.63591934e+02, 5.42921289e+03, -1.04970166e+03,
          -3.52710889e+03, 2.11839502e+03, 4.58120020e+03,
          -5.88900024e+02, -9.38500000e+02, 2.51110010e+03,
          4.56459961e+03, -1.33592053e+03, -3.99600586e+03,
          1.83229980e+03, 3.85360498e+03, -6.00700012e+02,
          -1.00159998e+03, 2.12469995e+03, 2.62359033e+03,
          -1.13552356e+03, -3.88219995e+03, 1.08780066e+03,
          2.19023071e+03, -6.84299988e+02, -7.95799988e+02,
          1.38480005e+03, 2.09968970e+03, -1.00331274e+03,
          -3.23510010e+03, 5.62301086e+02, 1.77413696e+03, -428.,
          -7.36700012e+02, 5.87900024e+02, 5.73292041e+03,
          -1.52900525e+03, -6.23842236e+03, 3.34899414e+03,
          4.97389990e+03, -9.81099976e+02, -1.50840002e+03,
          3.95400073e+03, 5.43019629e+03, -1.80982654e+03,
          -6.29860938e+03, 2.80339941e+03, 4.74440918e+03,
          -7.98099976e+02, -1.42359998e+03, 3.15589990e+03,
          3.09367847e+03, -1.51742651e+03, -5.98920020e+03,
          1.56730127e+03, 2.87693701e+03, -8.88700012e+02,
          -1.21859998e+03, 1.77609998e+03, 2.55688623e+03,
          -1.23112646e+03, -5.69470020e+03, 6.67002136e+02,
          2.34323682e+03, -5.73400024e+02, -1.45569995e+03,
          8.46599976e+02, 5.71501611e+03, -1.05692651e+03,
          -7.54970996e+03, 3.95869995e+03, 5.05560010e+03,
          -1.08290002e+03, -1.98659998e+03, 4.16090234e+03,
          4.86478711e+03, -1.40452466e+03, -7.27370117e+03,
          2.70280029e+03, 4.37730957e+03, -9.94599792e+02,
          -1.55730005e+03, 2.88770020e+03, 2.20698145e+03,
          -9.49726501e+02, -7.09640137e+03, 1.10610132e+03,
          2.29853687e+03, -1.13709998e+03, -1.22740002e+03, 1442.,
          2.15299561e+03, -8.57326538e+02, -7.09470361e+03,
          2.44601913e+02, 1.79133691e+03, -7.52799988e+02,
          -1.50530005e+03, 5.77799988e+02, 5.17960352e+03,
          -6.73226501e+02, -6.66590332e+03, 3495., 4.49140039e+03,
          -3.06899994e+02, -2.16530005e+03, 3.52220532e+03,
          3.40969800e+03, -8.28026550e+02, -5.86830957e+03,
          2.24540015e+03, 2.88720825e+03, -4.43699585e+02,
          -1.48619995e+03, 2.05210034e+03, 1.47759814e+03,
          -1.05682654e+03, -5.22331641e+03, 3.83301056e+02,
          1.10933691e+03, -8.14900024e+02, -9.30799988e+02,
          9.02900024e+02, 1.21509973e+03, -6.91126526e+02,
          -5.54711572e+03, -1.75983028e+01, 6.64936890e+02,
          -6.36599976e+02, -1.26290002e+03, 6.60500000e+02,
          3.04189990e+03, -6.42099976e+02, -4.50329980e+03,
          3.16219971e+03, 3.05971460e+03, 2.67577301e+02,
          -2.43502975e+02, 3.83789990e+03, 2.99869995e+03,
          -1.08310059e+03, -4.20430127e+03, 2.07249902e+03,
          1.95041235e+03, -1.40628433e+02, -1.64001907e+02,
          3.10310010e+03, 2.22819946e+03, -1.06120789e+03,
          -3.90610278e+03, 4.90500641e+02, 7.26629272e+02,
          -6.56306580e+02, -4.71500641e+02, 2.41939990e+03,
          2.23619946e+03, -4.87815063e+02, -3.71900146e+03,
          -1.36398941e+02, 1.65429276e+02, -4.48500214e+02,
          -4.79299988e+02, 2.24110010e+03, 3.22239990e+03,
          -1.72480005e+03, -5.33620020e+03, 3.25939990e+03,
          3.24082324e+03, 5.19673035e+02, -9.25205322e+02,
          2.79660010e+03, 3.03730005e+03, -1.96909998e+03,
          -5.05929980e+03, 2.28360083e+03, 2.13211084e+03,
          -9.54292831e+01, -1.10030444e+03, 2.37630005e+03,
          2.53939990e+03, -1.24640100e+03, -4.41639990e+03,
          5.96501892e+02, 5.15524414e+02, -8.62329468e+02,
          -1.29020239e+03, 1.74869995e+03, 2.84639868e+03,
          -2.38605301e+02, -4.54170020e+03, -1.72297882e+02,
          8.69286423e+01, -7.64105957e+02, -1.61260022e+03,
          1.65509937e+03, 2.72580005e+03, -1.70540002e+03,
          -4.17810352e+03, 2.86927588e+03, 3.27251416e+03,
          7.20285339e+02, -1.55040002e+03, 1.30140002e+03, 2300.,
          -1.93330005e+03, -4.16730078e+03, 2.19429883e+03,
          2.24788550e+03, -6.52252502e+01, -1.60030005e+03,
          1.19369995e+03, 1.97209998e+03, -1.26540002e+03,
          -4.08060010e+03, 9.57810791e+02, 3.09705719e+02,
          -1.00782947e+03, -2.01380127e+03, 1.01920001e+03,
          2.48849976e+03, -3.08700012e+02, -3.61550000e+03,
          4.92067909e+01, -4.08372620e+02, -1.15611316e+03,
          -2.10090747e+03, 8.65997009e+02, 2.00719983e+03,
          -6.93700012e+02, -2.11371802e+03, 2.34878076e+03,
          2.58252759e+03, 1.16130359e+03, -4.29200012e+02,
          8.68900024e+02, 1.24049963e+03, -1.00510022e+03,
          -2.16550171e+03, 1.96530872e+03, 1.38609619e+03,
          4.48299561e+02, -3.41801910e+02, 6.08999146e+02,
          9.55299988e+02, -8.35500000e+02, -2.18449561e+03,
          1.31842859e+03, -3.44897034e+02, -7.27112305e+02,
          -3.69014221e+02, 5.05697449e+02, 1.42019995e+03,
          -5.64000015e+01, -2.29579980e+03, 7.24318665e+02,
          -1.08437097e+03, -1.17180444e+03, -7.33127136e+02,
          5.78592773e+02, 1.49719995e+03, 7.64000015e+01,
          -1.06440002e+03, 2.85871411e+03, 2.55193286e+03,
          1.14890027e+03, -1.29531830e+02, 1.26816821e+03,
          7.85399353e+02, -5.01399994e+02, -6.90599121e+02,
          2.54652832e+03, 1.76682971e+03, 2.98200012e+02, 1.93268173e+02,
          6.85068176e+02, 6.86698486e+02, -7.19700195e+02,
          -4.73989166e+02, 1.79961487e+03, 4.05501709e+02,
          -7.62599976e+02, 4.95681725e+01, 1.51968170e+02,
          1.09840063e+03, -3.95296600e+02, -6.68791321e+02,
          1.27790149e+03, -1.68300003e+02, -9.56299988e+02,
          -3.42931824e+02, -1.27821426e+02, 1.85409302e+03,
          -3.33000427e+02, -1.14809998e+03, 3.06711475e+03,
          3.18253296e+03, 1.19230017e+03, -1.23330762e+03,
          1.30168167e+02, 9.01094666e+02, -5.65203796e+02,
          -5.31701050e+02, 2.81351782e+03, 2.21353296e+03,
          5.29900024e+02, -1.33250635e+03, -8.93929260e+02,
          4.15292145e+02, -4.30511444e+02, -1.80799362e+02,
          1.54231079e+03, 7.52306763e+02, -6.93099976e+02,
          -1.85350366e+03, -1.80180786e+03, 9.39099976e+02,
          -8.02059402e+01, -1.34598511e+02, 9.24201050e+02,
          1.88800003e+02, -1.12119995e+03, -2.48510327e+03,
          -2.39370264e+03, 1.52267981e+03, -9.83602966e+02,
          -1.01090002e+03, 2.86380249e+03, 3.35153296e+03,
          1.59351172e+03, -1.46650000e+03, -9.78203613e+02,
          4.31095551e+02, -1.24450830e+03, -5.30201294e+02,
          2.49780469e+03, 2.45403296e+03, 9.49101685e+02,
          -2.14769995e+03, -2.45550073e+03, -2.30303604e+02,
          -8.96112915e+02, -1.93002975e+02, 1.49570764e+03,
          1.00521167e+03, -2.34899994e+02, -3.21369995e+03,
          -3.43230054e+03, 1.52497665e+02, -3.04707642e+02,
          8.49936390e+00, 7.79101074e+02, 7.43600220e+02, -879.,
          -4.14620020e+03, -4.04040015e+03, 1.00588342e+03,
          -5.98805298e+02, -762., 2.49530005e+03, 2.65603296e+03,
          1.74781885e+03, -5.49799988e+02, -1.52270020e+03,
          -5.18606384e+02, -1.21680188e+03, -2.19699997e+02,
          2.18090039e+03, 1.94623291e+03, 1.28650781e+03,
          -1.46430005e+03, -3.38560205e+03, -1.55780615e+03,
          -1.35150110e+03, 4.99200012e+02, 1.43110144e+03,
          8.70313171e+02, 1.62802765e+02, -2526., -4.35730420e+03,
          -1.45700549e+03, -6.99999146e+02, 4.05399994e+02,
          8.89300232e+02, 4.62200623e+02, -4.59399780e+02,
          -3.17729980e+03, -4.58470117e+03, 7.72944870e+01,
          6.19574097e+02, 1.57030005e+03, 3.08639990e+03, 2.68020166e+03,
          2.03762231e+03, 9.46711243e+02, -2.34110010e+03,
          -1.42204025e+02, 2.06675385e+02, 2.10899976e+03,
          2.41239990e+03, 1.96330042e+03, 1.46652527e+03, 3.20116119e+02,
          -3.24989990e+03, -6.61104675e+02, 2.98896027e+01,
          1.97430005e+03, 1.49309998e+03, 4.43500000e+02, 4.05512085e+02,
          1.96925247e+02, -3.34519995e+03, -1.04210620e+03,
          7.51968155e+01, 1.33490002e+03, 8.41200012e+02,
          -3.62899994e+02, -3.58769393e+00, 6.37415283e+02,
          -2.67139990e+03, -6.46617798e+02, 2.38074112e+02,
          1.24580005e+03, 2.59580005e+03, 3.23750000e+03, 1.84552527e+03,
          7.38822937e+02, -2.72519995e+03, -9.02918274e+02,
          -2.72325897e+02, 1.46350000e+03, 1.91130005e+03,
          2.26039990e+03, 1.40772522e+03, 1.71425247e+02,
          -3.24060010e+03, -1.40231653e+03, -1.87711884e+02,
          1.74190002e+03, 7.62299988e+02, -1.49500000e+02,
          1.76019516e+02, 3.68125244e+02, -3.39989990e+03,
          -1.87711401e+03, -3.36501709e+02, 1.29469995e+03, 604.,
          -1.26859912e+03, -5.69274780e+02, 5.70619934e+02,
          -3.08730054e+03, -1.53902588e+03, -2.52825882e+02,
          1.39119995e+03, 1.93390002e+03, 3.06120264e+03, 1.87622522e+03,
          1.00690808e+03, -2.35960010e+03, -2.01392590e+03,
          -8.43625854e+02, 1.58409998e+03, 1.00929999e+03,
          1.62500232e+03, 1.17952527e+03, 9.10810181e+02,
          -2.53210010e+03, -2.79642407e+03, -9.59915894e+02,
          1.90630005e+03, -4.93985138e+01, -1.05009790e+03,
          -1.20778572e+02, 1.13441528e+03, -2.53150000e+03,
          -2.75521655e+03, -1.16980383e+03, 1.61380005e+03,
          3.69004028e+02, -1.85088794e+03, -9.13382812e+02,
          1.09530493e+03, -2.49790015e+03, -1.90082593e+03,
          -1.21258850e+01, 1664., 1.55450000e+03, 2.02990979e+03,
          1.80860913e+03, 1.79910022e+03, -1.08730005e+03,
          -2.71572583e+03, -9.01025879e+02, 2.17589990e+03,
          4.02102753e+02, 6.19415710e+02, 1.34561023e+03, 2.31870044e+03,
          -1.27259998e+03, -3.93482251e+03, -1.39221973e+03,
          2.62120215e+03, -1.45756006e+01, -1.43519153e+03,
          4.64803833e+02, 2.43690088e+03, -1812., -3.57571533e+03,
          -1.26010657e+03, 2.09090796e+03, 2.28825241e+02,
          -2.45239624e+03, -1.35598511e+02, 1760., -1.97750000e+03,
          -2.97101489e+03, 6.86480469e+02, 3.53680005e+03,
          1.59720276e+03, 1.17420825e+03, 1.63660144e+03, 2.48080029e+03,
          2.76100006e+02, -3.30781982e+03, -1.65623978e+02,
          4.02530005e+03, 3.54420807e+02, -4.49386627e+02,
          1.41469995e+03, 3202., 4.66700012e+02, -3.29831689e+03,
          -9.23823975e+02, 3.99010010e+03, -1.29017114e+03,
          -2.60679346e+03, 1.30330005e+03, 3.39710010e+03,
          1.25099998e+02, -3.66321240e+03, -1.01681696e+03,
          3.63800439e+03, -2.01957117e+03, -4.32259912e+03,
          1.27659998e+03, 3.37810010e+03, -9.89000015e+01,
          -2.47891797e+03, 7.76784485e+02, 3.15650000e+03,
          1.26211597e+03, 9.27912964e+02, 1.86640027e+03, 2399.,
          2.31399994e+02, -2.87612402e+03, 1.67760239e+01,
          3.89510010e+03, -4.21271149e+02, -1.28097815e+03,
          1.63519995e+03, 3.12850000e+03, 4.81899994e+02,
          -3.51452246e+03, -9.90023987e+02, 3.90130005e+03,
          -2.21677124e+03, -4.20058496e+03, 1420., 3.66539990e+03, 85.,
          -4.09771631e+03, -1.16242395e+03, 3.77180103e+03,
          -3.03957104e+03, -5.29869629e+03, 1.57050000e+03,
          3.42460010e+03, -3.55999985e+01, -2.37241943e+03,
          6.73592773e+02, 2.64640112e+03, 1.09532886e+03, 1.51709122e+02,
          2.03380005e+03, 2481., 2.88500000e+02, -2.83782397e+03,
          4.77383026e+02, 3.55380005e+03, -6.86871155e+02,
          -2.35417969e+03, 1.92459998e+03, 2.87650000e+03,
          3.79600006e+02, -3.82672388e+03, -5.97123962e+02,
          3.72630005e+03, -2.09277124e+03, -5.52038330e+03,
          1.27230005e+03, 3.29519995e+03, 4.45700012e+02,
          -4.14451904e+03, -1.17522253e+03, 3.45119995e+03,
          -2.86748462e+03, -6.00159424e+03, 1129., 3.09319995e+03,
          2.47699997e+02, -2.60921631e+03, 3.95299377e+02,
          2.53950269e+03, 1.38172888e+03, -2.41397034e+02, 1803.,
          2.67980005e+03, 9.70798950e+02, -2.95462402e+03,
          2.84096832e+02, 3.52210010e+03, -1.67114460e+00,
          -3.05968896e+03, 1.59740002e+03, 3.12939990e+03,
          9.66099121e+02, -4.11692383e+03, -2.49906784e+02,
          4.28839990e+03, -1.52998389e+03, -6.16958789e+03,
          8.99800232e+02, 3.57619995e+03, 6.84699585e+02,
          -4.46432031e+03, -7.18108887e+02, 3.78210010e+03,
          -2.13589746e+03, -6.36519580e+03, 7.52801270e+02,
          3.16910034e+03, 516., -1.88031360e+03, 3.94000015e+01,
          1.27932690e+03, 2.68332690e+03, -3.61700012e+02,
          1.74559998e+03, 3.34410010e+03, 1.87248560e+03,
          -2.48502344e+03, 32., 1.59521948e+03, 1.78622693e+03,
          -2.04539917e+03, 1.35780005e+03, 4.22860010e+03,
          1.81927942e+03, -3.51402710e+03, -1.66500000e+02,
          1.93061633e+03, -5.75917244e+01, -3.71569800e+03,
          8.05700623e+02, 4.34789990e+03, 1.00258472e+03,
          -4.46061865e+03, -2.41101273e+02, 2.62280884e+03,
          -4.74092163e+02, -4.09819873e+03, 8.23202148e+02,
          3.83839990e+03, 1.18795547e+02, -1.41501233e+03,
          -4.59399994e+02, -1.70678574e+02, 2.45112695e+03,
          -6.10999985e+01, 1.59180005e+03, 3.67160010e+03,
          1.90267151e+03, -2.50561328e+03, -3.50100006e+02,
          5.71269455e+01, 1.25402332e+03, -1.72319995e+03,
          1.28909998e+03, 4.50670020e+03, 1.89807153e+03,
          -4.10081543e+03, -4.52799988e+02, 6.05726929e+02,
          -4.21192566e+02, -3.15569995e+03, 8.01099976e+02,
          4.66969971e+03, 8.96571594e+02, -5.01351123e+03,
          -6.59401917e+02, 9.93424805e+02, -9.14791321e+02,
          -3.13039990e+03, 8.31099976e+02, 3.80189990e+03,
          -1.62403610e+02, -1.04601147e+03, -2.76399994e+02,
          -1.13293846e+02, 1.70572693e+03, 8.46019058e+01,
          1.31430005e+03, 3.53499976e+03, 1.34647156e+03,
          -2.55230225e+03, -2.77299988e+02, -2.32476028e+02,
          6.08724609e+02, -1.18819995e+03, 1.08480005e+03,
          3.87629321e+03, 1.14387158e+03, -4.63050000e+03,
          -4.92299988e+02, -2.83773041e+02, -3.71393860e+02,
          -2.37780176e+03, 5.66297668e+02, 4.15928467e+03,
          4.91577728e+02, -4.98400049e+03, -8.74000183e+02,
          -1.48874969e+02, -7.59703613e+02, -2.08070752e+03,
          4.62799561e+02, 3.46539819e+03, -2.72701263e+02,
          -7.75210205e+02, 3.29500000e+02, 7.92800659e+02,
          1.55822437e+03, -2.68195129e+02, 9.02900024e+02,
          2.36509912e+03, 1.31567151e+03, -2.30560107e+03,
          1.48300003e+02, 6.75106140e+02, 9.21516968e+02,
          -1.30209937e+03, 558., 2.95548389e+03, 8.64871582e+02,
          -4.44379980e+03, -2.06899780e+02, 6.16414429e+02,
          1.43203812e+02, -2.08550781e+03, -1.39417191e+02,
          3.63448462e+03, 2.60794708e+02, -4.82689990e+03,
          -5.61798279e+02, 1.87011246e+02, 1.37791733e+02,
          -1.82892566e+03, -1.16502762e+02, 3.28569946e+03,
          2.77799988e+02, -6.56608276e+02, 5.26099976e+02,
          1.92030005e+03, 1.76442932e+03, -3.50169037e+02,
          -6.19799988e+02, 1.34769958e+03, 1.72297583e+03,
          -1.96820105e+03, -4.77999992e+01, 2.05150000e+03,
          1.57301343e+03, -1.13997668e+03, -2.00650488e+03,
          1.78869666e+03, 2.05228589e+03, -3.14749731e+03,
          -6.09898926e+02, 2.06210034e+03, 8.74101929e+02,
          -1.80162817e+03, -2.83520923e+03, 1.95419934e+03,
          1.51230005e+03, -3.58987817e+03, -9.70298950e+02,
          1.80690027e+03, 6.47595764e+02, -1.82263293e+03,
          -2.78450073e+03, 1.94230005e+03, 1.38080066e+03,
          -2.40311462e+02, -6.39900024e+02, 2.56700012e+02,
          1.58640833e+03, -4.73869019e+02, -2.50000000e+00,
          2.39929956e+03, 1.80837939e+03, -1.42120154e+03,
          -5.39200012e+02, 5.16200012e+02, 1.02070319e+03,
          -1.00567792e+03, -1.22300208e+03, 2.80549756e+03,
          1.86669189e+03, -3.01359448e+03, -7.45499817e+02,
          7.95400024e+02, -4.46602539e+02, -1.86082886e+03,
          -2.15340283e+03, 2.79550000e+03, 1.53740027e+03,
          -3.19486914e+03, -1.01879999e+03, 1.16140002e+03,
          -5.84208679e+02, -1.71493286e+03, -2.36010010e+03,
          2.23369995e+03, 1.34240173e+03, 5.05902405e+01,
          -1.48230005e+03, -1.15750000e+03, 1.24810486e+03,
          -4.28769440e+02, 9.37199768e+02, 3.14199976e+03,
          1.30538708e+03, -8.56001038e+02, -1.25490002e+03, -918., 389.,
          -8.52983215e+02, -2.06006374e+01, 3.23569946e+03,
          1.54859814e+03, -2.66929395e+03, -1.19940002e+03,
          -5.74299988e+02, -1.07111023e+03, -1.69312903e+03,
          -1.08480005e+03, 3.20619995e+03, 1.53380127e+03,
          -2.96526978e+03, -1.11830005e+03, 226., -1.14571375e+03,
          -1.51733289e+03, -1.36109998e+03, 2.55530005e+03,
          1.28820654e+03, 1.94595764e+02, -3.17200012e+02,
          -6.13599976e+02, 1.34260950e+03, -1.29970078e+02,
          1.24640002e+03, 2.22819995e+03, 9.12493652e+02,
          -7.35100403e+02, -8.60799988e+02, -4.54100006e+02,
          5.43699341e+02, -8.46893433e+02, 6.35599792e+02,
          2.34219995e+03, 1.22269934e+03, -2.41909351e+03,
          -1.34119995e+03, -3.52000008e+01, -3.73612946e+02,
          -1.71333032e+03, -4.17799988e+02, 2.62850000e+03,
          1.36430408e+03, -2.86057495e+03, -1.22359998e+03,
          3.43200012e+02, -5.08314423e+02, -1.57883289e+03,
          -6.15400024e+02, 1.94850000e+03, 1.10932141e+03, 496.,
          4.44399994e+02, 1.63690149e+03, 1.89060767e+03, 1.48596817e+02,
          -7.89000015e+01, -3.20899994e+02, 8.39899353e+02,
          3.33021202e+01, -6., 1.57180017e+03, 1.19588916e+03,
          -9.50415466e+02, -1138., -1.87300003e+02, 1.34919995e+03,
          -1.06897009e+03, -1.04279980e+03, 1.30690002e+03,
          3.13278351e+02, -1.51662500e+03, -2.10060010e+03,
          -1.24500000e+02, 1.21320251e+03, -2.01255884e+03,
          -1.27569897e+03, 1.12419995e+03, 5.95187500e+02,
          -8.59425049e+02, -2.18939990e+03, -3.44600006e+02,
          8.68214844e+02, 1.05130005e+03, -9.73099976e+02,
          -9.39809036e+00, 1.37719470e+03, 1.71791519e+02,
          -1.27599998e+02, 9.56400024e+02, 1.67069995e+03,
          4.88103180e+02, -1.10919983e+03, -6.83993607e+01,
          5.89675598e+02, -9.46323364e+02, -1.07709998e+03,
          8.79900024e+02, 1837., -8.23159241e+02, -1.30919763e+03,
          1.47600006e+02, -1.80425034e+02, -1.03632507e+03,
          -2.16780005e+03, 7.17099976e+02, 1.16620020e+03,
          -1.67445886e+03, -1.75788513e+03, 3.26100006e+02,
          4.88484314e+02, -5.26225037e+02, -2.49660010e+03,
          3.32600006e+02, 7.77501465e+02, 1.25950000e+03,
          -2.20680005e+03, -1.76589954e+03, 3.22786621e+02,
          3.32784943e+02, 1.09699997e+02, 2.27880005e+03, 2.27460010e+03,
          8.84502563e+02, -2.79189966e+03, -2.12269995e+03,
          5.83749619e+01, -2.95125031e+02, -6.38599976e+02,
          2.29969995e+03, 2.00659998e+03, -5.96171997e+02,
          -2.60939502e+03, -1.81050000e+03, -2.44225037e+02,
          -5.26125061e+02, -1.39050000e+03, 2.07719995e+03,
          1.26859998e+03, -1.16065881e+03, -2.51127148e+03,
          -1.16050000e+03, 3.96487061e+02, -3.54617828e+02,
          -1.77350000e+03, 1.41759998e+03, 7.20200012e+02,
          1.26050000e+03, -2.61580005e+03, -1369., -3.23103981e+01,
          3.61880890e+02, 3.46100006e+02, 2.06210010e+03, 2.17439990e+03,
          7.51301270e+02, -3.33769971e+03, -1.53990002e+03,
          -1.52222061e+02, 1.82774963e+02, 3.62999992e+01,
          2.28369995e+03, 1.79959998e+03, -3.19886627e+02,
          -3.31269629e+03, -1.57319995e+03, -5.84203682e+01,
          5.05783577e+01, -4.16700012e+02, 2.08519995e+03,
          1.09919995e+03, -6.12763733e+02, -2.71527930e+03,
          -1.28840002e+03, 2.54692780e+02, 8.29904556e+01,
          -7.35599976e+02, 1.46419995e+03, 7.61599976e+02,
          4.15589941e+03, -3.96913147e+02, -2.17870142e+03,
          1.39130042e+03, 3.48142236e+03, 151., -936., 1382.,
          3.47909863e+03, -4.62716980e+02, -2.59240137e+03,
          1.43180017e+03, 3.16860547e+03, 2.64799988e+02,
          -1.56509998e+03, 1.44280005e+03, 2.44140771e+03,
          -8.14817627e+02, -2.58260059e+03, 1.25109998e+03,
          2.16989990e+03, -3.54000015e+01, -1635., 1.24450024e+03,
          2.72583765e+03, -9.34414856e+02, -2.29570093e+03,
          6.95900024e+02, 2.17760010e+03, -2.84600006e+02,
          -1.30319995e+03, 1.01070129e+03, 4129., -8.08322266e+02,
          -4.46321143e+03, 1.92290088e+03, 3.56403564e+03,
          6.11099976e+02, -1.56690002e+03, 1.84719995e+03,
          3.74200049e+03, -1.19732483e+03, -4.46391211e+03,
          1.65630017e+03, 3.26930884e+03, 5.41799988e+02,
          -1.75950000e+03, 1673., 3.05252075e+03, -1.45052478e+03,
          -4.94400879e+03, 1.13680005e+03, 2.34219995e+03,
          -1.05199997e+02, -1.99319995e+03, 1.98800037e+03,
          3.24903906e+03, -1.36532483e+03, -5.40450977e+03,
          3.66200012e+02, 2.21669995e+03, -586., -2.10219995e+03,
          2.19530249e+03, 3.45310010e+03, -9.56224854e+02,
          -6.38882129e+03, 1.68040088e+03, 3.03873657e+03,
          9.80799988e+02, -7.67099976e+02, 2056., 3.23810059e+03,
          -1.58942480e+03, -7.04922217e+03, 1.22320020e+03,
          2.74150854e+03, 5.78200012e+02, -753., 2.16580005e+03,
          2.86192236e+03, -1.69522485e+03, -7.69501807e+03,
          -2.22999992e+01, 1733., 4.92000008e+01, -8.57400024e+02,
          2.41180054e+03, 3.10093945e+03, -1.22362488e+03,
          -7.58011426e+03, -9.88700012e+02, 1.14409998e+03,
          -3.39700012e+02, -9.37400024e+02, 2.68610303e+03,
          2.78389990e+03, -7.54624817e+02, -5.34212354e+03,
          1.03160059e+03, 2.24592749e+03, 9.64299988e+02,
          -3.74000015e+01, 2.23930005e+03, 2.53720068e+03,
          -1.44982483e+03, -6.11852490e+03, 2.53300217e+02,
          1.75530615e+03, 6.36099976e+02, -5.82999992e+01,
          2.35330005e+03, 2.66561890e+03, -1.97482483e+03,
          -6.83991748e+03, -1.10850000e+03, 5.31099976e+02, 137.,
          2.82799988e+02, 2.43900122e+03, 2.73123950e+03,
          -1.42782483e+03, -6.82090869e+03, -1875., -1.68800003e+02,
          -1.62000008e+01, 3.45799988e+02, 2.51140405e+03,
          3.18839966e+03, 4.87294922e+02, -2.67781348e+03,
          7.92900635e+02, 8.14226074e+02, 1.72699997e+02, 4.50899994e+02,
          3.19910010e+03, 3.05999927e+03, -1.61721222e+02,
          -2.94310938e+03, 7.93099976e+02, 4.96406372e+02,
          -6.04000015e+01, 4.25399994e+02, 3.24610010e+03,
          2.30201343e+03, -7.09030151e+02, -3.04030078e+03,
          8.29000015e+01, -4.57200012e+02, 151., 3.01000004e+01,
          2.54900171e+03, 1.91432910e+03, -3.74624603e+02,
          -2.60590112e+03, -6.29400024e+02, -9.99900024e+02,
          3.54799988e+02, 3.03999996e+01, 2.09580493e+03, 3.79249805e+03,
          4.60297882e+02, -3.10760156e+03, 6.36800232e+02,
          1.01313098e+03, -4.26993637e+01, -3.11308075e+02,
          3.15219556e+03, 3.24289453e+03, -7.04070053e+01,
          -3.22380078e+03, 6.69099976e+02, 6.39306763e+02,
          -3.67499146e+02, -3.94509125e+02, 2.79039697e+03,
          2.53491528e+03, -4.64222504e+02, -3.01870020e+03,
          1.08000002e+01, -4.65200012e+02, -3.83399994e+02,
          -8.08600830e+02, 1.94810059e+03, 2.18903003e+03,
          -3.54129272e+02, -2.65630420e+03, -9.40500000e+02, -1248.,
          -6.68900024e+02, -9.13200012e+02, 1.61430444e+03,
          3.60069995e+03, 6.25500000e+02, -2.44380005e+03, 755.,
          7.66424194e+02, -4.93892578e+02, -5.79628662e+02,
          2.44998462e+03, 2.90150024e+03, 7.29000015e+01,
          -2.77419995e+03, 2.04199997e+02, 4.28402771e+02,
          -4.46507202e+02, -9.35622925e+02, 1.97109790e+03,
          2.05841577e+03, -3.69502533e+02, -2.55830029e+03,
          -5.46099976e+02, -6.93200012e+02, -7.03213135e+02,
          -1.60881335e+03, 1.09151038e+03, 2.04863110e+03,
          -1.37809753e+02, -1.83330273e+03, -1.44680005e+03,
          -1.39540002e+03, -1.14570251e+03, -1.47440125e+03,
          7.50810791e+02, 2.82130005e+03, 1275., -1.02819995e+03,
          7.39799988e+02, 4.38405731e+02, -5.96187927e+02,
          -3.79914001e+02, 1.48238623e+03, 1.95890002e+03,
          7.29700012e+02, -1.18230005e+03, -2.83999996e+01,
          1.01002121e+01, -5.56726074e+02, -7.19298279e+02,
          9.11300842e+02, 1.41180420e+03, 4.24200012e+02,
          -1.15380005e+03, -9.36099976e+02, -6.87599976e+02,
          -7.23030151e+02, -1.04129431e+03, 1.99621643e+02,
          1.67813184e+03, 5.01999359e+02, -1.21470020e+03,
          -1.52859998e+03, -1.41559998e+03, -1.10922253e+03,
          -1.38010132e+03, 4.90269470e+01, 2.82170435e+03,
          1.58259998e+03, 1.64709998e+03, 2.55750000e+03, 1533.,
          1.89097458e+02, -8.06111877e+02, 1.27842249e+03,
          2.44970020e+03, 1.86559998e+03, 2.02140002e+03, 1.89740002e+03,
          5.73900024e+02, -2.68933746e+02, -1.37069067e+03,
          6.41415039e+02, 2.08030005e+03, 1.93309998e+03, 2.17730005e+03,
          5.74799988e+02, -8.87399597e+02, -6.17431213e+02,
          -1.19678320e+03, -7.68989410e+01, 1.94850000e+03,
          1.86890002e+03, 2.19680005e+03, -3.82600006e+02,
          -1.72318958e+03, -6.14119080e+02, -7.85293640e+02,
          2.21300003e+02, 3.15932227e+03, 1.42619788e+03, 1797.,
          2.35350000e+03, 2.08839990e+03, 4.78997879e+01,
          -2.58620142e+03, 1.94813156e+02, 2.62730347e+03,
          1.44469983e+03, 2.21230005e+03, 1.60019995e+03, 7.17700012e+02,
          -8.61107666e+02, -3.12510181e+03, -1.28387482e+02, 2097.,
          1.75140002e+03, 2.84380005e+03, -83., -1.53289429e+03,
          -1.42952991e+03, -3.21050342e+03, -1.09769983e+03, 1978.,
          2.16180005e+03, 2.68460010e+03, -1.11509973e+03,
          -2.16878076e+03, -1.60032776e+03, -2.79860083e+03,
          -1.29919995e+03, 2.82441699e+03, 1.64800891e+03,
          1.59200037e+03, 1.42559998e+03, 1.92440002e+03, 1.66100006e+02,
          -3048., -1.67709937e+03, 2.25789453e+03, 1.68760999e+03,
          1.93050610e+03, 3.96899994e+02, 7.23400024e+02,
          -9.86700012e+02, -4.00250073e+03, -2.33690112e+03,
          1.25029614e+03, 1.63830103e+03, 2.66520654e+03,
          -5.15790039e+02, -1.60499365e+03, -2.16121069e+03,
          -4.21430713e+03, -2.93210229e+03, 1.33340002e+03,
          1.67130005e+03, 2.76590039e+03, -1.43528687e+03,
          -2.23648096e+03, -2.35153979e+03, -4.08400122e+03,
          -2.78590015e+03, 1.89639575e+03, 1.50592419e+03,
          1.41021423e+03, 7.09900024e+02, 1.55280005e+03, 5.83299988e+02,
          -1.79650000e+03, -2204., 9.88184509e+02, 1.48951501e+03,
          1.92492712e+03, -5.96700012e+02, 1.77699997e+02,
          -3.43700012e+02, -2.66569995e+03, -3.28400073e+03,
          7.00917282e+01, 1.26470154e+03, 2.65182715e+03,
          -1.47838647e+03, -1.70009961e+03, -1.58450146e+03,
          -2.94290137e+03, -3.78290405e+03, 1.87699570e+02,
          1.34850000e+03, 2.90921167e+03, -1.91037280e+03,
          -2.08408887e+03, -1.74441809e+03, -3.23980225e+03,
          -3.44510083e+03, -4.88323761e+02, 1.02320001e+03,
          1.80790515e+03, 1.98714005e+02, 8.63712708e+02, 2.67800629e+02,
          6.85500000e+02, -1.23061292e+03, -9.07125671e+02,
          1.07330005e+03, 2.34482568e+03, -5.51287720e+02,
          7.38001709e+02, -6.54799988e+02, 2.55399994e+02,
          -1.69222351e+03, -7.11719971e+02, 1.10640320e+03,
          3.05692920e+03, -9.53098755e+02, -1.06900002e+02,
          -1.80459998e+03, -4.93600006e+02, -2.04722400e+03,
          -1.17804459e+02, 1.28431226e+03, 3.43251758e+03,
          -4.96799988e+02, -2.74600006e+02, -2.30489990e+03,
          -1.11150232e+03, -1.35591724e+03, -1.03502563e+03,
          1.02199997e+02, 2.50640015e+03, 9.98105713e+02,
          -2.61707211e+01, -4.63295746e+02, 1.39130005e+03,
          -8.80718445e+02, -1.70892566e+03, 1.51699997e+02,
          3.00210522e+03, 2.27515060e+02, 8.89125214e+01,
          -1.09940002e+03, 7.32599976e+02, -1.55162402e+03,
          -1.50212500e+03, 6.22705322e+02, 3.57361182e+03,
          1.84903397e+02, -2.33399994e+02, -2.00230005e+03,
          -3.16500000e+02, -2.05611597e+03, -6.15405945e+02,
          9.43012939e+02, 3.46220288e+03, 7.60900024e+02, 1.64399994e+02,
          -2.73530005e+03, -1.49210022e+03, -1.37950769e+03,
          -1.98712573e+03, -4.90700012e+02, 2.94770337e+03,
          1.71572925e+03, -6.97970703e+02, -5.13798706e+02,
          2.48269995e+03, -6.91614624e+02, -2.97172559e+03,
          -3.54599365e+02, 3.31720898e+03, 1.22732251e+03,
          -2.75889618e+02, -6.48500000e+02, 1.61140002e+03,
          -1.47141724e+03, -3.11072217e+03, -1.86794052e+02,
          3.57400439e+03, 1.26400281e+03, -5.12999992e+01, -1348.,
          7.56999969e+01, -1.95530762e+03, -1.58739893e+03,
          1.55000427e+02, 3.26430005e+03, 1.70290002e+03, 4.37200012e+02,
          -2.46380005e+03, -1320., -1.51879468e+03, -2.28932568e+03,
          -8.39398926e+02, 2.76512939e+03, 1.50982922e+03,
          -1.13659619e+03, 3.55200012e+02, 3.08039990e+03,
          2.40849361e+01, -3.79572559e+03, -8.95884094e+02,
          3.38572925e+03, 1.41251379e+03, -6.72199341e+02,
          6.03400024e+02, 2.78369995e+03, -9.09817383e+02,
          -4.34670850e+03, -8.03771790e+02, 3.77461230e+03,
          1.67650024e+03, 3.27000008e+01, -8.00999985e+01,
          1.52290002e+03, -1.66170850e+03, -2.62219141e+03,
          -4.97298096e+02, 3.24999976e+03, 2.26280005e+03, 354.,
          -1.50369995e+03, 7.34000015e+01, -1.16978149e+03,
          -4.76212891e+03, -1.37389771e+03, 4.35832715e+03,
          1.39510046e+03, -2.88330005e+03, 1.04309998e+03,
          3.42019995e+03, 1.11279834e+03, -6.99431836e+03,
          -1.50197290e+03, 4.82321240e+03, 2.12119995e+03,
          -1.86869995e+03, 1.06359998e+03, 3996., 1.69097885e+02,
          -7.69209570e+03, -1.47936792e+03, 4.68739795e+03,
          2.70839941e+03, -9.89799988e+02, 525., 3.79619995e+03,
          -7.64100403e+02, -5.56518604e+03, -1.11876562e+03,
          4.02859814e+03, 2.83669531e+03, -2.52699997e+02,
          -6.10299988e+02, 3.03160010e+03, -3.67299988e+02,
          -5.78202539e+03, -2.39811646e+03, 4.41630518e+03,
          1.33690002e+03, -2.94050000e+03, 1.47230005e+03,
          3.69810010e+03, 1.26959998e+03, -8.20381348e+03,
          -2.48029395e+03, 4.93910107e+03, 2.23650000e+03,
          -1.75280005e+03, 1.44640002e+03, 4.09539990e+03,
          7.43400024e+02, -8.72839648e+03, -2.54567432e+03,
          4.74369580e+03, 2.81559912e+03, -8.97299988e+02,
          1.01609998e+03, 4.33179980e+03, 5.17999992e+01,
          -6.50949512e+03, -1.93146582e+03, 3.95879907e+03,
          2.91609424e+03, -6.41002121e+01, -7.09000015e+01,
          3.76589990e+03, 3.13899994e+02, -6.56291943e+03,
          -2.74032788e+03, 3.78389990e+03, 1.09980005e+03,
          -2.82310010e+03, 1.64809998e+03, 3.69910010e+03,
          1.13910083e+03, -8.77941699e+03, -3.18712036e+03,
          4.18779980e+03, 1.80769995e+03, -1519., 1.63730005e+03, 4363.,
          9.87600220e+02, -8.99750391e+03, -3.05958472e+03,
          3.88050049e+03, 2.54879980e+03, -6.51799988e+02,
          1.16959998e+03, 4.59120020e+03, 9.43200012e+02,
          -6.44520020e+03, -2.65556763e+03, 3.23400415e+03,
          2.73289819e+03, 1.97499573e+02, 3.67299988e+02, 4.02819995e+03,
          1.32669995e+03, -6.51112354e+03, -2.43652686e+03,
          3.50239990e+03, 1.26909998e+03, -2.55880005e+03, 1758., 3490.,
          1.20130017e+03, -8.39772559e+03, -3.03882593e+03,
          3.80430151e+03, 1.89050000e+03, -1.73830005e+03,
          1.73780005e+03, 4.21479980e+03, 1314., -8.46691211e+03,
          -3.05531421e+03, 3.66820581e+03, 2.44990088e+03,
          -6.80900024e+02, 1.29730005e+03, 4.59579980e+03,
          1.55119995e+03, -6.00500244e+03, -2.28888525e+03,
          3.17950830e+03, 2.83960010e+03, 1.60399780e+02, 8.14099976e+02,
          3.95219995e+03, 1819., -5.55390283e+03, -9.27125671e+02,
          3.60950732e+03, 1.66252881e+03, -2.36159277e+03,
          1.00559998e+03, 3.69519995e+03, 1.59709998e+03,
          -7.83160889e+03, -1.84972742e+03, 3.99352881e+03,
          2.65021924e+03, -1.79759998e+03, 9.56099976e+02,
          4.37560010e+03, 2.03809998e+03, -8.04130957e+03,
          -2.24672217e+03, 3.61832886e+03, 2.95601001e+03,
          -4.38600006e+02, 9.52700012e+02, 4.43110010e+03, 1683.,
          -6.24090039e+03, -1.61719446e+03, 3.22582129e+03,
          3.10240332e+03, 5.45200012e+02, 1.43830005e+03, 4034.,
          1.49430005e+03, -5.75700098e+03, -1.59442737e+03,
          2.71210034e+03, 1.16222888e+03, -1.74589697e+03,
          8.15500000e+02, 3.42689990e+03, 1.58419995e+03,
          -8.29011035e+03, -2.68332739e+03, 3.54471387e+03,
          2.39432324e+03, -1.57419983e+03, 3.98700012e+02,
          4.26020020e+03, 1.89109998e+03, -8.54681250e+03,
          -2.80532446e+03, 3.65461865e+03, 2.95340332e+03,
          -5.73799988e+02, 6.83400024e+02, 4.14720020e+03,
          1.54750000e+03, -6.61749023e+03, -2.06720923e+03,
          2.80780396e+03, 3.00050024e+03, 7.30900024e+02, 1.33859998e+03,
          3633., 1.15920044e+03, -5.73150098e+03, -1.98032605e+03,
          1.67940576e+03, 5.75714417e+02, -9.47900024e+02,
          8.23900024e+02, 3673., 1.42340063e+03, -8.24391113e+03,
          -2.99222729e+03, 2.44790161e+03, 1.60280554e+03,
          -1.00240002e+03, 703., 4.14490332e+03, 1.46310449e+03,
          -8.83881348e+03, -3.16362744e+03, 2.63470044e+03,
          2.24390039e+03, -5.14700012e+02, 5.42500000e+02,
          3.68961279e+03, 1.35891040e+03, -6.26449854e+03,
          -2.41912695e+03, 1.96750000e+03, 2.14969995e+03,
          5.54299988e+02, 7.87799988e+02, 3.12291016e+03, 1.45161829e+03,
          -5.67369580e+03, -1.65272461e+03, 1.36879688e+03,
          5.54700623e+02, -3.72500000e+02, 9.70799988e+02,
          3.91450073e+03, 1.53600928e+03, -8.27090527e+03,
          -2.47772729e+03, 2.01409973e+03, 1.19369995e+03,
          -8.15299988e+02, 9.96700012e+02, 4.39941162e+03,
          1.30462891e+03, -8.55340918e+03, -2.75082739e+03,
          2.24010010e+03, 1.70869995e+03, -5.89900024e+02,
          8.88900024e+02, 4.11872900e+03, 1.21782886e+03,
          -5.84590576e+03, -2.07812744e+03, 1.72569995e+03,
          1.57559998e+03, 1.82300003e+02, 9.62200012e+02, 3.26062891e+03,
          1.71092883e+03, -3.37108667e+03, -9.12816528e+02,
          2.14718677e+03, 1.83319788e+03, -90., -1.88500000e+02,
          1.46230005e+03, 2.56006775e+02, -5.22748193e+03,
          -1.72473120e+03, 2.41419482e+03, 1.71519995e+03,
          6.48000031e+01, 3.35600006e+02, 2.39010010e+03,
          -1.08398181e+03, -5.32828711e+03, -1.48103125e+03,
          2.07169971e+03, 1.23950000e+03, 1.93899994e+02, 516.,
          3.07620044e+03, -1.13067322e+03, -3.56889185e+03,
          -1.00262885e+03, 1.18959998e+03, 958., 7.38099976e+02,
          4.79700012e+02, 2.89570166e+03, -8.38732681e+01,
          -2.66077612e+03, -1.44481311e+03, 1.46489001e+03,
          1.68819470e+03, 2.85099152e+02, -7.55999985e+01,
          1.58450000e+03, 9.44038162e+01, -4.36887451e+03,
          -2.30063110e+03, 1.15289624e+03, 1.80609998e+03,
          4.81600006e+02, 2.88700012e+02, 2.65460010e+03,
          -9.20490662e+02, -4.26817773e+03, -2.07253125e+03,
          5.40200012e+02, 9.11400024e+02, 6.31799988e+02, 5.19200012e+02,
          3.06819995e+03, -1.00738599e+03, -2.67157520e+03,
          -1.38773120e+03, -4.85500000e+02, -20., 1.21830005e+03,
          4.84200012e+02, 2.67969995e+03, 1.14815277e+02,
          -2.09867578e+03, -1.71390515e+03, 5.97493835e+02,
          1.29499536e+03, 4.83096405e+02, 4.67899994e+02, 2.27269995e+03,
          4.25806366e+02, -3.30877466e+03, -2.50363110e+03,
          -6.74023361e+01, 1.25669983e+03, 4.98200012e+02,
          1.67899994e+02, 3.04039990e+03, -5.00917244e+01,
          -3.11907739e+03, -2.43333130e+03, -1.04090002e+03,
          2.11500000e+02, 6.03400024e+02, -1.49199997e+02,
          3.32580005e+03, 2.35107422e+02, -1.71707605e+03,
          -1.74373120e+03, -1.65909998e+03, -8.57700012e+02,
          1.03180005e+03, -7.41999969e+01, 2.85489990e+03,
          8.83205078e+02, -1.74198987e+03, -1.19840125e+03,
          3.74698730e+02, 1.26759509e+03, 7.04296204e+02, 3.34500000e+02,
          1.81069995e+03, 8.78717834e+02, -2.63348047e+03,
          -1.89701587e+03, 2.11098083e+02, 1.26939941e+03,
          5.60500000e+02, -5.95099976e+02, 2455., 6.31720581e+02,
          -2.43377539e+03, -2.12793115e+03, -377., 363., 2.38399994e+02,
          -1.03830005e+03, 2.79060010e+03, 8.95115051e+02,
          -1.39717639e+03, -1.47193115e+03, -8.44700012e+02,
          -3.55700012e+02, 4.70200012e+02, -8.70299988e+02,
          2.37130005e+03, 1.31690723e+03, -1.19317749e+03,
          -6.78497009e+02, 1.75859998e+03, 2.27719946e+03,
          4.14073486e+02, -2.28621899e+03, 5.46798706e+02,
          1.12811377e+03, -1.63679004e+03, -1.51889575e+03,
          1.91480151e+03, 2038., 1.73697449e+02, -3.79710938e+03,
          9.53490234e+02, 1.41310938e+03, -1.71090759e+03,
          -1.69750000e+03, 1.46700281e+03, 1.61840002e+03,
          2.91399994e+02, -3.96719995e+03, 8.73495972e+02,
          1.24119995e+03, -8.22095337e+02, -1.22931189e+03,
          1.07159790e+03, 1.99569983e+03, 8.11099976e+02,
          -3.35769995e+03, 4.71299774e+02, 1.26500085e+03,
          -9.22383423e+02, -1.21537427e+03, 7.83102356e+02,
          1.93050000e+03, 5.31277527e+02, -1.77672656e+03,
          1.61139746e+03, 1.34400085e+03, -1.28589661e+03,
          -2.20377539e+03, 9.09918884e+02, 1.77869995e+03,
          -3.46401276e+02, -3.41261816e+03, 1.62727771e+03,
          1.70849878e+03, -1.40120068e+03, -2.41248413e+03,
          6.73225037e+02, 1.56399963e+03, -1.40501694e+02,
          -3.76420605e+03, 1.33878552e+03, 1.65139783e+03,
          -5.92798950e+02, -1.80648499e+03, 1.31405304e+02,
          1.86369592e+03, 8.66694702e+02, -3.14060107e+03,
          4.88598938e+02, 1.70569995e+03, -3.12597443e+02,
          -1.65407434e+03, -9.45188782e+02, 8.98099976e+02,
          9.13273926e+02, -6.13726501e+02, 2.23419873e+03,
          1.35419995e+03, -4.54399994e+02, -2.47348022e+03,
          -1.16207434e+03, 7.67400024e+02, 1.09397453e+02,
          -1.87772656e+03, 2.03018958e+03, 1.72050000e+03, -603.,
          -2.89018628e+03, -1.60627429e+03, 5.02699799e+02,
          2.66862087e+01, -2.40671899e+03, 1.68249597e+03,
          2.02550000e+03, -1.19599998e+02, -2.50957422e+03,
          -1.76197876e+03, 3.26795105e+02, 1.07807349e+03,
          -2.06960254e+03, 1.16650000e+03, 1.94559998e+03,
          2.55600220e+02, -1.41218213e+03, -1.65178943e+03,
          5.21900024e+02, 1.54017346e+03, 7.53768768e+01, 1.66690002e+03,
          1.45880005e+03, 5.40000010e+00, -1.86759070e+03,
          -1.91367432e+03, 2.19800003e+02, 8.16188782e+02,
          -7.63722900e+02, 1.65449939e+03, 1.74609998e+03,
          -2.11000004e+01, -2.24908984e+03, -2.17057422e+03,
          -7.90999985e+01, 3.35073700e+02, -1.28541125e+03,
          1.57849976e+03, 2.07389990e+03, 4.27700836e+02,
          -2.18807520e+03, -1.97758813e+03, -4.64901703e+02,
          9.98273499e+02, -1.01050128e+03, 1.44490002e+03,
          2.22650000e+03, 3.65730176e+03, -2.43412735e+02,
          -2.18320215e+03, 2.73000214e+02, 2.83500439e+03,
          1.93500000e+02, -1.94100006e+02, 1.89740002e+03,
          3.61159033e+03, -4.20621643e+02, -2.86550049e+03,
          -6.06199158e+02, 2.67553394e+03, 5.31799988e+02,
          -6.45999985e+01, 1.99450000e+03, 3.40588232e+03,
          -7.74126709e+02, -3.05110010e+03, -6.82798950e+02,
          2.76983447e+03, 5.47700012e+02, -1.32600006e+02,
          1.90459998e+03, 3.60999756e+03, -1.14081995e+03,
          -2.81990503e+03, -1.70999573e+02, 3.13181519e+03,
          5.30099976e+02, -2.28100006e+02, 1.62359998e+03,
          3.99470337e+03, -5.60619934e+02, -4.58591113e+03,
          -6.11799805e+02, 2.41820776e+03, 3.58299988e+02,
          1.28300003e+02, 2.93380005e+03, 3.97599634e+03,
          -8.66428650e+02, -5.45520605e+03, -2.11059863e+03,
          2.67543457e+03, 7.11900024e+02, 7.38700012e+02, 2.99219995e+03,
          4.26279248e+03, -1.36792847e+03, -6.12430615e+03,
          -2.67709814e+03, 2.92873462e+03, 1.08709998e+03,
          5.47299988e+02, 3.02330005e+03, 4.31720410e+03,
          -1.58852844e+03, -6.41432617e+03, -1.93619934e+03,
          3.39862671e+03, 1.23530005e+03, 308., 2774., 3.77870361e+03,
          -5.48017639e+02, -5.89071289e+03, -2.55759863e+03,
          1.51690784e+03, 9.34500000e+02, 9.86500000e+02, 3.21089990e+03,
          3.35119995e+03, -1.50132861e+03, -6.54321240e+03,
          -3.98299658e+03, 1.69313464e+03, 9.15299988e+02,
          1.56690002e+03, 3.23889990e+03, 3.23030005e+03,
          -2.09482861e+03, -7.36411426e+03, -4.48509717e+03,
          1.59023462e+03, 9.54700012e+02, 1.60169995e+03, 3.19519995e+03,
          3.53800586e+03, -2.08922876e+03, -7.49542480e+03,
          -3.54979907e+03, 2.22862451e+03, 1.20369995e+03,
          1.04419995e+03, 3.02910010e+03, 3.01400195e+03,
          -5.73614014e+02, -4.30680566e+03, -3.01979590e+03,
          6.19304871e+02, 1.14380005e+03, 1.16690002e+03, 2.83660010e+03,
          2.39789941e+03, -1.50711951e+03, -4.87460449e+03,
          -4.25159277e+03, 3.93934570e+02, 8.15500000e+02,
          1.52390002e+03, 2.80769995e+03, 1.97299719e+03,
          -2.43232642e+03, -5.71590332e+03, -4.75019482e+03,
          5.52334595e+02, 5.24799988e+02, 1.95140002e+03, 2.81339990e+03,
          2.23770093e+03, -2.31072192e+03, -5.80940381e+03,
          -3.66759863e+03, 8.35818481e+02, 7.54400024e+02,
          1.34759998e+03, 2.62489990e+03, 2.70899951e+03, 9.93482605e+02,
          6.07995972e+02, -2.70589185e+03, -3.86119019e+03,
          3.28600006e+02, 2.47050000e+03, 3288., 2.39959229e+03,
          4.89980042e+02, 3.29599579e+02, -3.25838477e+03,
          -3.84816846e+03, 3.29500000e+02, 3.32310010e+03,
          3.13230005e+03, 1.21658191e+03, -7.20307861e+02,
          -6.28200012e+02, -3.24219116e+03, -2.14756836e+03,
          5.33900024e+02, 3.34060010e+03, 2.55059985e+03, 9.12784729e+02,
          -1.64700037e+03, -1.00190002e+03, -1.76959766e+03,
          -1.06780266e+02, 1.08709998e+03, 2.73819995e+03,
          2.46179810e+03, 3.16469946e+03, 1.06147156e+03, 9.78493835e+02,
          -2.38809570e+03, -4.65247998e+03, -1.46340002e+03,
          1.38959998e+03, 3.32630005e+03, 2.79429224e+03, 8.40071594e+02,
          8.05099365e+02, -2.61699219e+03, -4.83536816e+03,
          -1.65130005e+03, 1.79619995e+03, 3.28919995e+03,
          1.66968176e+03, -2.60828430e+02, 2.15100006e+02,
          -2.56539502e+03, -3.04066846e+03, -9.03299988e+02,
          1.96340002e+03, 2.46830005e+03, 1.29228540e+03,
          -1.32341565e+03, -3.56799988e+02, -1.48829871e+03,
          -6.61074524e+02, 2.29800003e+02, 1.47280005e+03,
          1.90489978e+03, 3.25369971e+03, 1.61277161e+03, 1.26939661e+03,
          -2.58689819e+03, -4.34417578e+03, -1.96890002e+03,
          3.79200012e+02, 2.54269995e+03, 2.96429736e+03, 1.53917151e+03,
          1.48859900e+03, -2.17049829e+03, -4.87476855e+03,
          -2.85939990e+03, 2.28600006e+02, 2.29669995e+03,
          1.84909509e+03, 5.67371582e+02, 1.35149792e+03,
          -1.71499939e+03, -3.53406836e+03, -2.54029785e+03,
          -1.52699997e+02, 1.63309998e+03, 1.22219812e+03,
          -3.94628418e+02, 7.07195984e+02, -7.96900024e+02,
          -9.74777283e+02, -9.12597900e+02, -136., 1.05360083e+03,
          3.01139990e+03, 1.90128149e+03, 1.80349768e+03,
          -1.61399792e+03, -3.30108228e+03, -1.81719995e+03,
          -5.75999985e+01, 1.53150000e+03, 2.59759985e+03,
          1.63507153e+03, 2.26499072e+03, -1.28219958e+03,
          -4.27366846e+03, -2.75709741e+03, -296., 1.31050000e+03,
          1.72109998e+03, 9.92771545e+02, 2.60477954e+03, -874.,
          -3.61626831e+03, -2.89558862e+03, -407., 1.04330005e+03,
          9.09700195e+02, 5.43171570e+02, 1.85348022e+03,
          -6.69999981e+00, -1.53898901e+03, -1.57299048e+03,
          -1.19698090e+02, 7.28501038e+02, 2723., 2.16439990e+03,
          1.75440002e+03, -1.29628894e+03, -1.80939453e+03,
          7.55874786e+01, 3.66700012e+02, 1.15609998e+03, 2.69660010e+03,
          2.03830005e+03, 2.55430005e+03, -8.73502991e+02,
          -2.28849585e+03, -9.96183655e+02, 3.62700012e+02,
          8.54400024e+02, 2.06669995e+03, 2.02949976e+03, 3.25589648e+03,
          -2.35807632e+02, -2.54261108e+03, -1.57077307e+03,
          1.57105942e+02, 3.51299988e+02, 1.71240002e+03, 1.89579431e+03,
          3.40159106e+03, 6.85197266e+02, -1.49859082e+03,
          -1.00667157e+03, 2.46505936e+02, 4.66899994e+02,
          3.03519995e+03, 1.79240002e+03, 1.00359998e+03,
          -1.71869495e+03, -1.54399854e+03, -5.93429932e+02,
          -9.86299988e+02, 2.94399994e+02, 2906., 1.43740002e+03,
          1.66769995e+03, -9.64799377e+02, -1.84650525e+03,
          -1.51730981e+03, -1.27250000e+03, 2.25600006e+02,
          2.13450000e+03, 1.38859998e+03, 2.91430005e+03,
          -2.15000427e+02, -2.12299927e+03, -2.13569629e+03,
          -1.35820251e+03, 2.77000008e+01, 2.07819995e+03,
          1.62499939e+03, 3.39339966e+03, 7.94399597e+02,
          -1.23907056e+03, -1.88868726e+03, -1.64030725e+03,
          1.70600006e+02, 2.86810010e+03, 8.00599976e+02, 1.11230005e+03,
          -1.50819934e+03, -1.41520105e+03, -1.11722803e+03,
          -1.89659998e+03, -6.99500000e+02, 2.52619995e+03,
          -1.64800003e+02, 1.39350000e+03, -2.85799988e+02,
          -9.58904053e+02, -1.85802380e+03, -2.43360010e+03,
          -7.25900024e+02, 1.80090002e+03, -2.07699997e+02,
          2.23930005e+03, 6.48099976e+02, -1.31588916e+03,
          -2.57380908e+03, -3.00240649e+03, -5.05100006e+02,
          1.85480005e+03, 5.31500000e+02, 2.74939990e+03, 1.32869995e+03,
          -5.78871765e+02, -2.67109375e+03, -3.35910596e+03,
          -1.00400002e+02, 2.24130005e+03, 158., 1.75359998e+03,
          -4.49600006e+02, -6.71007202e+02, -1.18832117e+03,
          -1.81279932e+03, -9.81200012e+02, 1.58719995e+03,
          -9.35200012e+02, 2.19760010e+03, 870., -3.40610596e+02,
          -1.93462000e+03, -2.32139380e+03, -9.49400024e+02,
          1.10419995e+03, -1.56219995e+03, 2.52110010e+03,
          1.66330005e+03, -4.54401917e+02, -2.71431543e+03,
          -2.78679028e+03, -4.18899994e+02, 1.19650000e+03,
          -3.91600006e+02, 2.41580005e+03, 1.85180005e+03,
          -2.28201492e+02, -2.57587793e+03, -2.87339331e+03,
          -2.14300003e+02, 3.41608276e+02, 145., 2.89830005e+03,
          1.47169995e+03, 3.33968163e+01, -2.37012378e+03,
          -1.48739282e+03, -4.14978577e+02, 9.23600403e+02,
          -3.02500000e+02, 2.98010010e+03, 1.78459998e+03,
          -7.47902954e+02, -3.30083545e+03, -6.03874756e+02,
          -1.52183868e+02, 1.66100024e+03, -4.75600006e+02,
          2.47280005e+03, 1.44709998e+03, -1.58290039e+03,
          -3.77993555e+03, -1.50476456e+02, 2.23150635e+01,
          2.07460303e+03, -2.17300003e+02, 2.13310010e+03,
          1.29819995e+03, -1.77320068e+03, -3.58853540e+03,
          -1.55787064e+02, 3.10125671e+02, 3.49825684e+02,
          2.69200012e+02, 3.00819995e+03, 1.62850000e+03, 1.71096817e+02,
          -4.48801123e+03, -1.45949963e+03, 2.77116547e+02,
          8.78305969e+02, 3.55200012e+02, 2.86350000e+03, 1.63769995e+03,
          -6.87101257e+02, -4.95333545e+03, -6.88949051e+01,
          5.54722290e+02, 1.50830249e+03, 5.95900024e+02, 2.46360010e+03,
          1.14819995e+03, -1.91630042e+03, -4.55853564e+03,
          1.00710657e+03, 4.95917389e+02, 2.13612109e+03, 4.51100006e+02,
          1.62659998e+03, 1.18419995e+03, -1.86790466e+03,
          -3.75973535e+03, 1.21670105e+03, 5.38021240e+02,
          2.64525665e+02, 6.44200012e+02, 3.19680005e+03, 1.71169934e+03,
          1.39897659e+02, -6.15870215e+03, -1.02879871e+03,
          4.47824829e+02, 1.00700659e+03, 1.17340002e+03, 3.28910010e+03,
          1.48849976e+03, -1.05180090e+03, -6.37141260e+03,
          2.24805298e+02, 6.51420593e+02, 1.23670361e+03, 1.55559998e+03,
          2.89210010e+03, 9.21099976e+02, -2.50940283e+03,
          -6.26743555e+03, 1.68770422e+03, 7.77412109e+02,
          2.09082568e+03, 1.12569995e+03, 2.00569995e+03, 9.87099976e+02,
          -1.98641150e+03, -4.74313525e+03, 2.03230017e+03,
          5.00405518e+02, -1.06963930e+01, 2.35399994e+02,
          3.25679980e+03, 2.53309839e+03, 1.18997879e+01,
          -6.41839990e+03, 1.63021851e+02, 9.03025696e+02,
          5.51100403e+02, 9.97799988e+02, 3.97399976e+03, 2.15319946e+03,
          -1.50140063e+03, -6.87759863e+03, 1.22242566e+03,
          9.00913147e+02, 1.01850104e+03, 1.78280005e+03, 4117., 1602.,
          -2.82390308e+03, -7.03290234e+03, 2.45982568e+03,
          9.02802307e+02, 1.38041882e+03, 1.84570020e+03, 3.30810010e+03,
          1229., -2.29280835e+03, -5.32532324e+03, 2.53080469e+03,
          8.03404236e+02, -2.07880151e+03, -1.14039294e+03,
          3.57439746e+03, 3.06989844e+03, -9.63199768e+02, -4994.,
          2.51400195e+03, 1.13270154e+03, -1.04960718e+03,
          -1.35985146e+01, 4.61980127e+03, 2.65280054e+03,
          -2.85289697e+03, -7.31059521e+03, 2.85920264e+03,
          1.40948743e+03, 2.81836624e+01, 1.25640002e+03, 4.94650000e+03,
          1.67490039e+03, -4.03299365e+03, -8.23388672e+03,
          2.55979956e+03, 1.20397559e+03, 7.07487915e+02, 2129.,
          4.43220020e+03, 1.49959998e+03, -4.05879834e+03,
          -7.74090283e+03, 1.95589319e+03, 9.62782410e+02,
          -2.73241309e+03, -1.95697839e+03, 3.24411230e+03,
          2.84819995e+03, -664., -3.77460010e+03, 3.24250000e+03,
          1.25729956e+03, -1.52112634e+03, -6.05785339e+02,
          4.07021387e+03, 2.69670166e+03, -2.82919946e+03,
          -6.50829980e+03, 3.27210010e+03, 1.49209277e+03,
          -4.08425873e+02, 9.01802551e+02, 4.68020264e+03,
          1.80200171e+03, -4.45919580e+03, -7.58499609e+03,
          2.76800073e+03, 1.34248328e+03, 6.43473694e+02, 1.94699707e+03,
          4.30789990e+03, 1.54330005e+03, -4.27659912e+03,
          -7.91029395e+03, 1.71580737e+03, 9.99188782e+02,
          -3.36201147e+03, -2.56818628e+03, 2.61101123e+03,
          2.33519995e+03, -1.40600006e+02, -1.90590002e+03,
          3.41550000e+03, 1.37659998e+03, -1.78432373e+03,
          -1.25448853e+03, 3.14610864e+03, 2.24869995e+03,
          -2.27310010e+03, -4.33520020e+03, 3.35110010e+03,
          1.55650000e+03, -7.08520813e+02, -8.49966049e+01,
          3.46540137e+03, 2.01630005e+03, -3.97719995e+03,
          -6.28979980e+03, 2.76740039e+03, 1.61130017e+03,
          6.09884521e+02, 9.38279236e+02, 3.37789990e+03, 1.69350000e+03,
          -4.16779980e+03, -6.91529980e+03, 2.02080469e+03,
          1.18110315e+03, -3.16440186e+03, -2.35127832e+03,
          2.09440137e+03, 2.37669995e+03, 6.34999817e+02,
          -1.23400215e+02, 3.36319995e+03, 1.71740002e+03,
          -2.24830322e+03, -1.58968860e+03, 2.58930029e+03,
          2.14410010e+03, -1.31590002e+03, -2.09389990e+03,
          3.79989990e+03, 1.78659998e+03, -9.54099976e+02,
          -9.79188538e+02, 2.81969971e+03, 2.14169995e+03,
          -3.08380005e+03, -3.92189990e+03, 3.76910010e+03, 1876.,
          3.94199799e+02, 5.04946976e+01, 2.28840063e+03, 1.92590002e+03,
          -3481., -4.25189990e+03, 2.97590015e+03, 1.80760059e+03,
          -3.21457642e+03, -1.37378833e+03, 1.44049976e+03,
          2.74099976e+03, -4.81503815e+02, 5.28392578e+02,
          3.10119946e+03, 1.19330005e+03, -2.06827368e+03,
          -8.50774353e+02, 1.59669995e+03, 2.58619946e+03,
          -2.63500073e+03, -1.00760400e+03, 3.55019580e+03,
          2.07979810e+03, -7.22193665e+02, -3.19476868e+02,
          1.38770874e+03, 1.84109998e+03, -4.29129980e+03, -1989.,
          3.25649731e+03, 1.83429358e+03, 2.49290024e+02, 2.85621643e+02,
          1.09112646e+03, 1.69209998e+03, -4.47360010e+03,
          -2.13389990e+03, 2.86729932e+03, 1.41209644e+03,
          -2.88577563e+03, -2.52369775e+03, 3.95598938e+02,
          2.17809961e+03, -1.89500427e+02, 9.75394897e+02,
          2.92079785e+03, 1.20659937e+03, -1.60727393e+03,
          -1.56737354e+03, 4.75701904e+02, 1.18190002e+03,
          -2.26619995e+03, 1.71970291e+01, 3.43568164e+03,
          2.08919263e+03, -5.25797241e+02, -6.45573486e+02,
          7.56926514e+02, 3.10500427e+02, -3.74339990e+03,
          -7.73700012e+02, 3.02947656e+03, 2.10528369e+03,
          5.97597900e+02, 2.05314209e+02, 2.58426514e+02, 5.47901062e+02,
          -3.89930005e+03, -1.00490002e+03, 2.31278711e+03,
          1.76298450e+03, -2.59619238e+03, -3.08422778e+03,
          -9.67700195e+02, 6.29700012e+02, 1.64300003e+02,
          1.22540002e+03, 2.77069946e+03, 1.30840149e+03,
          -9.64804871e+02, -2.19239014e+03, -1.33319348e+03,
          -8.17799805e+02, -1.41569983e+03, 919., 2.76039038e+03,
          1.96628027e+03, -2.46001266e+02, -1.23729443e+03,
          -9.79673462e+02, -1.53869421e+03, -2.70599951e+03,
          2.72899994e+02, 2.24816821e+03, 2.27887549e+03, 7.38300232e+02,
          -6.23591919e+02, -7.62473450e+02, -7.39096619e+02, -2644.,
          -1.63201065e+02, 1.71296814e+03, 2.11849390e+03,
          -2.21831909e+03, -2.57323169e+03, -1.48190002e+03,
          -3.66600006e+02, 645., 1436., 2.59620410e+03, 1.30081567e+03,
          -1.30623035e+03, -1.78423059e+03, -1.40889917e+03,
          -1.84319934e+03, -4.22699158e+02, 1.38660168e+03,
          2.78160498e+03, 1.63759827e+03, -3.60316559e+02,
          -1.39580298e+03, -1.26359619e+03, -2.10339453e+03,
          -1.28589807e+03, 8.86104858e+02, 2.75099023e+03,
          1.99838110e+03, 5.50300659e+02, -7.16197449e+02,
          -1.44759558e+03, -1.03349805e+03, -1.29849976e+03,
          5.37197876e+02, 1.99657788e+03, 2.05669775e+03,
          -6.67299377e+02, -1.30072925e+03, -1.63550000e+03,
          -2.39800003e+02, 1.58140002e+03, 1.87399994e+02,
          1.54121594e+03, 9.89527588e+02, -1.50046682e+01,
          -8.53029297e+02, -2.47450000e+03, -1.02359998e+03,
          1.76840002e+03, 5.42205322e+02, 1.88872754e+03, 9.16711243e+02,
          5.61997253e+02, -4.32188835e+01, -2.63680005e+03,
          -1.09280005e+03, 1572., 7.76921448e+02, 2.01402759e+03,
          5.53099976e+02, 1.19469958e+03, 3.66891937e+02,
          -2.62100073e+03, -5.90000010e+00, 1.68670068e+03,
          9.14125671e+02, 1.90352759e+03, 9.31700012e+02,
          -3.15983673e+02, -1.59322925e+03, -3.34039990e+03,
          -1.07990002e+03, 2.02030005e+03, 1.55199997e+02,
          1.42060168e+03, 7.63023560e+02, 2.43197235e+02,
          -1.38522925e+03, -3.95789990e+03, -1.46980005e+03,
          2.17430005e+03, 1.13400848e+02, 1.60431567e+03, 9.69013794e+02,
          5.72198120e+02, -8.21229309e+02, -4.12460010e+03,
          -1.30369995e+03, 1.75960107e+03, 3.77913361e+02,
          1.87082361e+03, 1.10860046e+03, 1.26780005e+03,
          -1.04119095e+02, -4.29860205e+03, -9.12997894e+01,
          2.07691479e+03, 6.36024170e+02, 1.82270972e+03, 1.56869995e+03,
          -2.53480484e+02, -1.99262927e+03, -3.78510010e+03, -1139.,
          2.13819995e+03, 1.94699997e+02, 1204., 9.54905334e+02,
          1.24305092e+02, -1.51072839e+03, -4.35209961e+03,
          -1.08489978e+03, 2.02640002e+03, -1.63999996e+01,
          1.35440088e+03, 1.16550342e+03, 6.59597046e+02,
          -1.48422864e+03, -4.59259912e+03, -4.31194916e+02,
          1.70490515e+03, -2.79796600e+02, 1.52600085e+03,
          1.88890039e+03, 1.62959875e+03, -1.01432672e+03,
          -4.65090088e+03, 3.85810181e+02, 2.25512769e+03,
          -2.58897675e+02, 1.25259998e+03, 2.29989990e+03,
          -3.07378143e+02, -1.46492883e+03, -2.22489990e+03,
          1.58899994e+02, 1.69609998e+03, -1.62199997e+02,
          9.33900024e+02, 1.10650208e+03, 5.06991501e+01,
          -1.27592700e+03, -2.86049536e+03, 1.60602539e+02,
          1.56159998e+03, -4.06500000e+02, 1.07259998e+03,
          1.45010022e+03, 7.37792175e+02, -1.51402905e+03,
          -3.08329175e+03, 3.80519531e+02, 1.67360144e+03,
          -9.88400024e+02, 1.29819995e+03, 2.12850000e+03,
          1.45039465e+03, -1.18592188e+03, -3.33969775e+03,
          9.66227600e+02, 1.97111353e+03, -693., 1.11019995e+03,
          2.42689990e+03, 6.62193848e+02, -6.85020142e+02,
          3.06306793e+02, 2.72790454e+03, 1.89360022e+03,
          -2.83589990e+03, -2.08230005e+03, 1.24469995e+03,
          1.44168237e+03, -6.68425049e+02, -2.10598511e+02,
          2.38022974e+03, 2.00720447e+03, -3861., -2.28550000e+03,
          1.67740002e+03, 2.09298633e+03, -4.90622284e+02,
          -2.72198517e+02, 1.35992969e+03, 1.59060535e+03,
          -3.96160010e+03, -1.94269995e+03, 1.68969995e+03,
          2.28819531e+03, 1.45184723e+02, -2.86994476e+02,
          1.11322974e+03, 1.64930090e+03, -3.22069995e+03,
          -1.26330005e+03, 1.83619995e+03, 8.94484924e+02,
          -1.31471692e+03, -1.42058557e+03, 1.71650916e+03,
          2.32670020e+03, -2.10039990e+03, -1.28840002e+03,
          1.86550000e+03, 1.70577502e+03, -1.20222498e+03,
          -1.83099719e+03, 1.25392969e+03, 1.79750696e+03,
          -3.42919995e+03, -1.40780005e+03, 1.85559998e+03,
          2.20887842e+03, -7.78225037e+02, -1.71250000e+03,
          7.41029724e+02, 1.10511572e+03, -4.17170020e+03,
          -1.17859998e+03, 1.77309998e+03, 2.65159229e+03,
          1.10079842e+02, -1.73479932e+03, 7.40329712e+02,
          1.17730591e+03, -3.93110010e+03, -7.54599976e+02, 1867.,
          1.15838159e+03, -2.31440820e+03, -3.95208203e+03,
          5.83106079e+01, 2.46730005e+03, -479., 4.85100006e+02,
          2.15439990e+03, 1.93497498e+03, -1.76992505e+03,
          -4.48899658e+03, -3.83170288e+02, 2.04710632e+03,
          -1.15719995e+03, 2.38399994e+02, 2.02480005e+03,
          2.01447498e+03, -1.25822461e+03, -4019., -2.69370300e+02,
          1.03591760e+03, -2.32010010e+03, 1.87199997e+02,
          1.92790002e+03, 2.57598657e+03, -5.63114624e+02,
          -3.37089990e+03, 8.71265182e+01, 6.27708252e+02,
          -3.22330005e+03, 4.06100006e+02, 2.12910010e+03,
          1.15528455e+03, -2.22890112e+03, -3.80539014e+03,
          -4.64092987e+02, 2.73980054e+03, 2.73299988e+02,
          1.03140002e+03, 1.99350000e+03, 1.52337500e+03,
          -1.98971130e+03, -4.40829834e+03, -3.70470947e+02,
          2.27680884e+03, -1.71199997e+02, 9.95599976e+02,
          1.90369995e+03, 1.69307495e+03, -1.48011121e+03, -3989.,
          -4.13174957e+02, 1.28311633e+03, -9.02599976e+02,
          9.20299988e+02, 1.81430005e+03, 2.17028296e+03,
          -7.06006348e+02, -3.21160010e+03, -6.27874832e+01,
          6.47207214e+02, -1.33330005e+03, 8.38299988e+02, 1891.,
          4.11913623e+03, -2.00839978e+03, -2.83160620e+03,
          8.98787720e+02, 3.92909888e+03, 7.64900024e+02, 4.09999990e+00,
          1.81559998e+03, 3.59792505e+03, -2.86300024e+03,
          -3.06750073e+03, 1.10609680e+03, 4.24769385e+03,
          9.13997864e+02, -7.68036041e+01, 1.75409851e+03,
          2.43460181e+03, -2.78480005e+03, -2.31550000e+03,
          1.01170001e+03, 3.70780542e+03, 7.78498108e+02,
          -1.43312088e+02, 1.37138281e+03, 2.31658813e+03,
          -1.92740002e+03, -1.52359998e+03, 9.19799988e+02,
          3.67972363e+03, 8.31302307e+02, -3.00203186e+02,
          1.02317773e+03, 3.97103345e+03, -4.06130737e+03,
          -6.44881934e+03, 7.82996155e+02, 4.05949976e+03,
          1.49140002e+03, 461., 2.74439990e+03, 3.53121729e+03,
          -5.47210303e+03, -6.40720215e+03, 9.11399353e+02,
          4.70069873e+03, 1.56379956e+03, 4.43896606e+02, 2.57308667e+03,
          2.34910010e+03, -5.60760010e+03, -5.53170020e+03,
          1.02540002e+03, 4.41790723e+03, 1.56410059e+03, 1.88480911e+02,
          2.15537061e+03, 2.25499609e+03, -3.94689990e+03,
          -4.41779980e+03, 1.09290002e+03, 4.26463330e+03,
          1.52650684e+03, -3.11419952e+02, 1.99427075e+03,
          2.70241650e+03, -5.32431250e+03, -7.00780420e+03,
          -2.39500000e+02, 3.55060010e+03, 1.85150000e+03,
          1.22109998e+03, 2.96979956e+03, 2.03110718e+03,
          -7.13560059e+03, -6945., -8.00000012e-01, 4.06719995e+03,
          1.74950000e+03, 9.91799988e+02, 2.79789209e+03, 9.62774353e+02,
          -7.58310107e+03, -6.02299951e+03, -6.96989365e+01,
          3.71470312e+03, 1.48930066e+03, 8.98798096e+02, 2.24167065e+03,
          9.73595520e+02, -6.14520166e+03, -5.00350000e+03,
          3.03300201e+02, 3.64541846e+03, 1.43110217e+03, 3.81990021e+02,
          1.92638220e+03, 1.37061084e+03, -5.00769043e+03, -4514.,
          -5.52299988e+02, 2.63330005e+03, 1408., 1.47640002e+03,
          2.36689502e+03, 4.30292572e+02, -6.67089111e+03,
          -4.57009912e+03, -5.31400024e+02, 2.87150000e+03,
          1.53630005e+03, 1.54780005e+03, 1.77989722e+03,
          -2.96328430e+02, -7.64991650e+03, -4.06969434e+03,
          -5.37499390e+02, 2.71060034e+03, 1.26469995e+03,
          1.61709998e+03, 1.57209766e+03, 6.02944832e+01,
          -6.65341553e+03, -3.50660132e+03, 4.76014862e+01,
          2.61470630e+03, 1.31620081e+03, 1.00890002e+03, 1.59189783e+03,
          1.37021851e+02, -4.03788672e+03, -2.55300430e+02,
          3.03200012e+02, 1.12250000e+03, 1.06680005e+03, 2.49319995e+03,
          2.69359888e+03, -1.14958765e+03, -6.32488965e+03,
          -3.19900208e+02, 6.89799988e+02, 1.83119995e+03,
          1.55050000e+03, 2.85580005e+03, 2.14589990e+03,
          -2.67140088e+03, -7.17200049e+03, -6.05299561e+02,
          6.15099792e+02, 2.30769995e+03, 2.03490002e+03, 2.96350000e+03,
          1.32259998e+03, -3.52339990e+03, -6.78799609e+03,
          -8.16307190e+02, 9.91896606e+02, 2.68830005e+03,
          2.24810010e+03, 2.75630005e+03, 1.44590002e+03, 1.10831612e+02,
          -3.17190918e+03, 2.88291077e+02, 6.17799988e+02,
          1.15490002e+03, 4.62899994e+02, 1.63340002e+03, 1.51309998e+03,
          -1.48356714e+03, -5.46040674e+03, 3.42778137e+02,
          1.14390002e+03, 1.63159998e+03, 898., 2.01530005e+03,
          1.10030005e+03, -3.08669751e+03, -6.50179834e+03,
          1.29374329e+02, 9.70798950e+02, 2.06510010e+03, 1.73540002e+03,
          2.24339990e+03, 4.33200012e+02, -3.73880005e+03,
          -6.43459424e+03, -3.16624390e+02, 1.32919006e+03,
          2.77939990e+03, 2.13030005e+03, 2.04180005e+03, 8.40599976e+02,
          -2.02566696e+02, -1.68000403e+03, 1.09827087e+03,
          7.97099976e+02, 9.36299988e+02, -7.31999969e+01,
          9.12299988e+02, 6.46900024e+02, -1.95616675e+03,
          -3.29449561e+03, 1.31277112e+03, 1.20059998e+03,
          1.51080005e+03, 2.46899994e+02, 1086., 3.70299988e+02,
          -3.50359692e+03, -4.85349316e+03, 1.25277136e+03,
          1.59609595e+03, 1.65850000e+03, 6.70299988e+02, 1.29690002e+03,
          209., -3.30939941e+03, -5.63999707e+03, 7.16971375e+02,
          1.95798682e+03, 2.35850000e+03, 9.46900024e+02, 1.32030017e+03,
          8.07000183e+02, -4.16766693e+02, -6.89381958e+02,
          1.71387183e+03, 1.32180005e+03, 5.16500000e+02,
          -1.69899994e+02, 8.79200012e+02, 6.77700012e+02,
          -2.03538916e+03, -1.59997046e+03, 2.07577734e+03,
          1.78809937e+03, 7.82299988e+02, -8.00000012e-01,
          1.22969995e+03, 3.91600006e+02, -3.14939819e+03,
          -3.01307910e+03, 2.51417432e+03, 2.25159106e+03,
          1.34959998e+03, -1.79899994e+02, 1478., 3.34100433e+02,
          -3.13219629e+03, -3.68479810e+03, 2.14717090e+03,
          2.39938525e+03, 1.94640002e+03, 8.63000031e+01, 1.07560217e+03,
          9.03203369e+02, 1.61600006e+02, -1.04142676e+03,
          2.79388745e+03, 2.41130859e+03, 1.06603394e+02, -777.,
          4.66200012e+02, 1.02640002e+03, -1.53069788e+03,
          -3.21540625e+03, 3.56038379e+03, 2.91770117e+03,
          7.40799988e+02, -5.24700012e+02, 1.03209998e+03,
          9.50200012e+02, -2.92727905e+03, -3.79848291e+03,
          3.57247192e+03, 3.04799902e+03, 1.40009998e+03, 8.35000000e+01,
          1.60280005e+03, 8.04500000e+02, -2.97847388e+03,
          -3.48729492e+03, 2.75157178e+03, 2.98579468e+03,
          2.11419995e+03, 6.13799988e+02, 1.55169995e+03, 1.24360376e+03,
          7.35599976e+02, -9.07020813e+02, 3.04457983e+03,
          2.75770679e+03, 2.31527638e+00, -2.27829810e+03, -1420.,
          6.41500000e+02, -1.03559363e+03, -2.84401025e+03,
          3.63307764e+03, 3.33890137e+03, 3.38201477e+02,
          -1.86569983e+03, -8.93700012e+02, 5.05100006e+02,
          -2.74317383e+03, -3.86639160e+03, 3.36367188e+03,
          3.26360010e+03, 1349., -9.30599976e+02, -4.23100006e+02,
          4.73600006e+02, -2.55217383e+03, -3.47468188e+03,
          2.09237183e+03, 3.10469946e+03, 2343., 4.00000006e-01,
          -5.50799988e+02, 7.40100403e+02, 1.22190002e+03,
          -1.45033951e+01, 2.60199243e+03, 2.36469751e+03,
          -1.09187057e+02, -3.40918188e+03, -3.70939990e+03,
          -1.43000002e+01, -6.94695711e-01, -1.36200635e+03,
          2.91098120e+03, 2.86369946e+03, 1.80002975e+02,
          -3.09409180e+03, -3.43379980e+03, -3.19600006e+02,
          -1.59677393e+03, -2.61298633e+03, 2.37777173e+03,
          2.78969995e+03, 1.14269995e+03, -1.96469995e+03,
          -3.03399976e+03, -2.41199997e+02, -1.49327393e+03,
          -2.68707983e+03, 1.36667175e+03, 2.55350000e+03,
          2.27710010e+03, -9.32900024e+02, -2.45960010e+03,
          -1.36899994e+02, 1.51069995e+03, 3.02299988e+02,
          1.85809973e+03, 2.13369946e+03, -3.10196808e+02,
          -3.19638403e+03, -3.59120093e+03, -7.80000019e+00,
          6.41900635e+02, -3.19600433e+02, 2.12799780e+03,
          2.39410010e+03, -6.67966080e+01, -3.47868335e+03,
          -3.34390015e+03, -3.33200012e+02, -3.40391083e+02,
          -1.15488562e+03, 1.58509241e+03, 2.28609985e+03,
          5.48399597e+02, -2.74189893e+03, -2.99669922e+03,
          -5.53400024e+02, -5.44388550e+02, -1.52127502e+03,
          7.90789368e+02, 1.65869934e+03, 1.57929980e+03,
          -1.13280005e+03, -2.68819995e+03, -4.40600006e+02,
          1.46040002e+03, -3.52700012e+02, 4.00700012e+02,
          2.68630005e+03, 1.29896606e+02, -2.44829102e+03,
          -7.53299805e+02, -414., 1.00420001e+03, 22., 5.46400024e+02,
          1.96240002e+03, -1.46978779e+01, -2.80948291e+03, -822.,
          -6.38900024e+02, 7.80900024e+02, 6.55299988e+02,
          8.42500000e+02, 7.51400024e+02, -1.23497879e+02,
          -2.62208081e+03, -1.11739978e+03, -1.10030005e+03,
          1.01050427e+03, 1.01020062e+03, 1.47080005e+03, 6.52799988e+02,
          5.32983017e+01, -1.94159045e+03, -1.36939941e+03,
          -9.93799561e+02, 1.41730005e+03, -4.27799988e+02,
          1.75100006e+02, 2.25330005e+03, 5.05843010e+01,
          -2.07690967e+03, 7.58000610e+02, -1.81499573e+02,
          7.74299988e+02, 1.96000004e+01, 2.33600006e+02, 1.91019995e+03,
          -9.46951218e+01, -2.58779346e+03, 6.89899597e+02,
          -6.37299988e+02, 472., 647., 7.25700012e+02, 1.02240002e+03,
          -4.67482391e+02, -2.34859595e+03, 3.05699158e+02,
          -1.59980005e+03, 8.13901489e+02, 1.15540002e+03,
          1.41940002e+03, 8.17400024e+02, -4.18092163e+02,
          -1.76859155e+03, -4.75000641e+02, -1.98839868e+03,
          1.04040088e+03, 4.69899994e+02, 9.63599976e+02, 1.62950000e+03,
          -4.48716339e+02, -1.67292334e+03, 1.89110217e+03,
          -4.85998505e+02, -3.47000008e+01, 4.53500000e+02,
          6.92599976e+02, 1.33109998e+03, -4.02289825e+02,
          -1.51180530e+03, 2.10659302e+03, -1.42569995e+03,
          -8.00900024e+02, 9.39200012e+02, 1.22890002e+03, 1112.,
          -8.61872620e+02, -1.39360535e+03, 1.64969177e+03,
          -2.67250000e+03, 2.18100006e+02, 1152., 1.85880005e+03,
          1.20269995e+03, -4.06178131e+02, -1.25450610e+03,
          4.79297028e+02, -3.03289990e+03, 6.17602783e+02,
          1.44069995e+03, 2.31030005e+03, 1.48440002e+03,
          -7.94909363e+02, -1.32413013e+03, 2.44150073e+03,
          -5.27097900e+02, -1045., 1.38409998e+03, 2.53519995e+03,
          1.35990002e+03, -1.08359070e+03, -8.41714417e+02,
          3.00479175e+03, -2.06489990e+03, -2.02719995e+03,
          1.40109998e+03, 2994., 1.42069995e+03, -1.18997266e+03,
          -5.44408936e+02, 2.86709033e+03, -3698., -8.92700012e+02,
          1.31169995e+03, 2.97060010e+03, 1.51690002e+03,
          -5.54572632e+02, -5.78616333e+02, 1.36799634e+03,
          -3.88980005e+03, -9.73393188e+02, 1.90170129e+03,
          4.53160010e+03, 2.60140039e+03, -1.66400342e+03,
          -2.54243091e+03, 1.60050000e+03, -1.51849878e+03,
          -2.26019897e+03, 2.13760010e+03, 5.33560010e+03,
          2.47270337e+03, -2.40958789e+03, -1.98893201e+03,
          2.36649976e+03, -3.37369995e+03, -2.82730005e+03,
          2.37310010e+03, 5.47510010e+03, 1.50800146e+03,
          -3.11746753e+03, -1.16423157e+03, 2.60819995e+03,
          -5.42329980e+03, -1.47240002e+03, 2.34289990e+03,
          4.78170020e+03, 1.20280017e+03, -3.13396729e+03,
          -7.59418030e+02, 1.91819983e+03, -5.09260010e+03,
          -9.64697693e+02, 1.58509998e+03, 4.46979980e+03,
          2.68780005e+03, -1.88800037e+03, -3.18472144e+03,
          1.75290063e+03, -1.72239600e+03, -2.51849951e+03,
          2.06810010e+03, 5.10210010e+03, 2.18860132e+03,
          -2.33488037e+03, -2.15803149e+03, 2.17929883e+03,
          -4.08839966e+03, -3.49869995e+03, 2.23539990e+03,
          5.56460010e+03, 1.53080212e+03, -3.38907251e+03,
          -9.21732056e+02, 2.53250000e+03, -5.76289990e+03, -1849.,
          2.35439990e+03, 4.79039990e+03, 1.10500037e+03,
          -3.15827319e+03, -5.24729919e+02, 1.85819995e+03,
          -5.46529980e+03, -1.13109998e+03, 1.29219995e+03,
          4.02510010e+03, 2.26160010e+03, -1.95469873e+03,
          -2.88030518e+03, 2.10100098e+03, -1.88409900e+03,
          -2.57669995e+03, 1.80630005e+03, 4432., 1.90140100e+03,
          -2.18937817e+03, -1.97832520e+03, 2.19219922e+03,
          -4.00249976e+03, -3.46060010e+03, 2.12189990e+03,
          4.65950000e+03, 1.39510510e+03, -3.24777490e+03,
          -6.59332031e+02, 2.17689990e+03, -5.12750000e+03,
          -1.86319995e+03, 2.04280005e+03, 4.30570020e+03,
          8.09102356e+02, -3.17007422e+03, -2.48329910e+02,
          1.82440002e+03, -4707., -9.42299988e+02, 7.82500183e+02,
          2.74450024e+03, 2.04910010e+03, -1.31539771e+03,
          -1.61679956e+03, 2.70459961e+03, -7.13900024e+02,
          -2.53660010e+03, 1296., 3.38950000e+03, 1.84990356e+03,
          -1.84728113e+03, -1.05930554e+03, 2.89369971e+03,
          -2.84560010e+03, -3.33830005e+03, 1.61840002e+03,
          3.72860010e+03, 1.09951404e+03, -2.68947095e+03,
          -4.84424622e+02, 3.05150000e+03, -3.78460010e+03,
          -1.97990002e+03, 1.71580005e+03, 3.45330005e+03,
          6.01807861e+02, -2.92877051e+03, 8.40688095e+01,
          2.53130005e+03, -3.04969995e+03, -1.66420886e+03,
          3.49809540e+02, 9.36404236e+02, 2.58090308e+03,
          -3.23299377e+02, -9.69200012e+02, 1.86819983e+03,
          -1.03280103e+03, -3.59560645e+03, 7.40500854e+02,
          1.44300146e+03, 2.27712573e+03, -6.58187256e+02,
          -7.47800232e+02, 2.52269434e+03, -2.90241162e+03, -4297., 957.,
          1.91069995e+03, 1.41072571e+03, -1.22437878e+03,
          -2.27010605e+02, 2.62888354e+03, -3.13400562e+03,
          -2.73289526e+03, 1.31919995e+03, 1.85050000e+03,
          8.89709961e+02, -1.57112158e+03, 4.89073059e+02,
          2.39939746e+03, -1.44809595e+03, -1.64662268e+03,
          1.13823761e+02, -2.89866333e+01, 2.42380518e+03,
          3.93100006e+02, -4.47500000e+02, 1.62969995e+03,
          -1.42250488e+03, -3.30812427e+03, 3.87702332e+02,
          3.99308899e+02, 2.16482568e+03, 1.37408279e+02,
          -2.01100006e+02, 2.24139917e+03, -2.85292188e+03,
          -3.96220166e+03, 5.37700012e+02, 6.73700012e+02,
          1.41302563e+03, -7.66283020e+02, 2.00884720e+02,
          2.64928784e+03, -2.46301050e+03, -2.05689307e+03,
          8.77200012e+02, 5.62599976e+02, 6.00702759e+02,
          -1.20462402e+03, 4.40373047e+02, 2.41689795e+03,
          -6.78175842e+02, -1.38911658e+03, -5.63275391e+02,
          -1.19847961e+03, 1.88380298e+03, 8.89599976e+02, 333.,
          1.78819788e+03, -7.35716125e+02, -2.97112671e+03,
          -5.39697266e+02, -1.11647900e+03, 1.53442529e+03,
          5.22101501e+02, 3.43899994e+02, 2.12160010e+03,
          -1.61082312e+03, -3.37390454e+03, -7.01699585e+02,
          -1.12979871e+03, 1.07561145e+03, -2.96896606e+02,
          3.27692139e+02, 2.24628589e+03, -1.08380444e+03,
          -9.91285583e+02, 3.20000005e+00, -9.53900024e+02,
          1.78200211e+02, -5.92204224e+02, 3.41730537e+01,
          2.19838501e+03, 4.90524414e+02, -1.22620703e+03,
          -1.13218726e+03, -1.44198743e+03, 1.55220020e+03,
          1.38350000e+03, 1.23739978e+03, 2.00079602e+03, 6.53986023e+02,
          -2.61542334e+03, -1.74809424e+03, -1.12408667e+03,
          1.29060217e+03, 5.69799988e+02, 1.05540002e+03, 2.61189990e+03,
          2.32688324e+02, -2.38200488e+03, -1.68969873e+03,
          -1.25489978e+03, 7.59001038e+02, -2.04899994e+02,
          6.93399170e+02, 2.78979565e+03, 5.34311218e+02,
          -2.78583649e+02, -6.43599976e+02, -1.37859998e+03, 100.,
          -8.08500000e+02, 2.57390015e+02, 2.47817896e+03,
          1.35432141e+03, 4.82103394e+02, -2.06490088e+03,
          -3.55550464e+03, 1.97769666e+03, 2.02190027e+03,
          1.21830090e+03, 1.91469995e+03, 1.70740234e+03, 3.69124176e+02,
          -3.81521118e+03, -3.20900488e+03, 1.62469934e+03,
          1.44719995e+03, 1129., 2.48019995e+03, 1.52141162e+03,
          1.06652124e+03, -3.59852686e+03, -3.58280054e+03,
          1.06730005e+03, 3.68799988e+02, 9.54500000e+02, 2.33389990e+03,
          1.36142371e+03, 1.64279810e+03, -2.24081982e+03,
          -3.71489990e+03, 4.77100006e+02, -3.11600006e+02,
          7.59599976e+02, 2.23350024e+03, 1.81152185e+03, 1.27060706e+03,
          -2.72610669e+03, -5.35621680e+03, 1.33249976e+03,
          2.60320166e+03, 1.45409998e+03, 2.01719995e+03, 1.51310046e+03,
          1.17732849e+03, -4.38330762e+03, -5.31581543e+03,
          9.23399780e+02, 1.81740002e+03, 1.39990002e+03, 2.38950000e+03,
          1.61300403e+03, 1.78711694e+03, -4.15392236e+03,
          -5.56130176e+03, 27., 6.07400024e+02, 1.12650000e+03,
          2.61939990e+03, 1.80530994e+03, 2.24380054e+03,
          -3.19401855e+03, -5.82850000e+03, -3.21799988e+02,
          -5.07999992e+01, 7.58200012e+02, 2.67519995e+03,
          2.17301050e+03, 1.47510486e+03, -2.43502148e+03,
          -5.78701855e+03, 8.42301514e+02, 2.85170166e+03,
          1.68959998e+03, 1.64490002e+03, 1.58590002e+03, 1.63682849e+03,
          -3.39810913e+03, -6.07821777e+03, -1.51999998e+01,
          1.98490002e+03, 1.55219995e+03, 2.19360010e+03, 1.55459998e+03,
          2.00211169e+03, -3.45099829e+03, -6.05840186e+03,
          -9.25799988e+02, 5.05200012e+02, 1.00059998e+03,
          2.35219995e+03, 2.12680005e+03, 2.42529614e+03,
          -2.75829224e+03, -6.02270020e+03, -1.24290002e+03,
          -1.09599998e+02, 500., 2.34789990e+03, 2.29760010e+03,
          1.11560132e+03, -1.74812317e+03, -4.33260889e+03,
          7.24201721e+02, 2.47010132e+03, 1.39830005e+03, 1.50240002e+03,
          1913., 1.22840991e+03, -2.12730615e+03, -4.66380811e+03,
          -1.82800003e+02, 1.77990002e+03, 1318., 2.13680005e+03,
          1.75469995e+03, 1.80689624e+03, -2.24179834e+03,
          -4.49430029e+03, -1230., 6.70299988e+02, 9.23700012e+02,
          2.20650000e+03, 2.22889990e+03, 2.00208154e+03,
          -1.32218408e+03, -4.22560010e+03, -1.16390002e+03,
          -3.26100006e+02, 6.64500000e+02, 2.08680005e+03,
          2.31889990e+03, 1.45290002e+03, -2.05728012e+02,
          -1.13208960e+03, 1.29141785e+03, 1.60680005e+03,
          -1.00190002e+03, 2.32800003e+02, 1.62750000e+03,
          1.32669812e+03, -6.96510193e+02, -1.32958032e+03,
          9.91601929e+02, 1.33630005e+03, -2.17100006e+02,
          8.62599976e+02, 9.84299988e+02, 8.95694885e+02,
          -2.61376251e+02, -9.97993408e+02, 1.61800003e+02,
          6.27299988e+02, 4.55200012e+02, 1.39759998e+03,
          -1.14599998e+02, 1.06340784e+03, 6.18833923e+02,
          -5.62699585e+02, 1.48699997e+02, 3.62200012e+02,
          8.10900024e+02, 1.39340002e+03, -7.84500000e+02,
          2.03689941e+03, -6.55128418e+02, -2.35169458e+03,
          1.25300854e+03, 1.42380005e+03, -2.08510010e+03,
          -3.20100006e+02, 1.72269995e+03, 1.58519495e+03,
          -1.13102148e+03, -2.27459180e+03, 9.21000854e+02,
          1.37080005e+03, -1113., -4.55000000e+01, 4.78100006e+02,
          5.93393433e+02, -7.28485596e+02, -1.46999805e+03,
          -3.40000010e+00, 560., 2.72299988e+02, 6.05500000e+02,
          -1.17950000e+03, 8.18915283e+02, 4.11023132e+02,
          -9.83400024e+02, -1.31500000e+02, 3.68700012e+02,
          9.90299988e+02, 7.71400024e+02, -1.99980005e+03,
          2.12659546e+03, -1.07262781e+03, -3.23339575e+03,
          7.38601501e+02, 1.01840002e+03, -2.13830005e+03,
          -4.56600006e+02, 1.58109998e+03, 1.42338916e+03,
          -1.38682629e+03, -2.99479565e+03, 3.22899994e+02,
          1.33869995e+03, -1.18519995e+03, -1.01570001e+03,
          4.44899994e+02, 3.18186859e+02, -1.17571484e+03,
          -2.21559741e+03, -3.90600006e+02, 6.34299988e+02,
          1.18800003e+02, -5.83900024e+02, -9.70700012e+02,
          3.61901276e+02, -4.57984497e+02, -1.79569958e+03,
          -4.64500000e+02, 5.70500000e+02, 9.60900024e+02,
          2.75600006e+02, -1.86440002e+03, 1.72089111e+03,
          -1.01171741e+03, -2.60859692e+03, 3.50200012e+02,
          1.05840002e+03, -1.00129999e+03, -1.14300003e+02,
          1.20559998e+03, 9.51384277e+02, -1.11002698e+03,
          -2.41289551e+03, -9.94997864e+01, 1.07530005e+03,
          -4.59100006e+02, -6.75900024e+02, 3.32299988e+02,
          5.15792084e+01, -1.05402551e+03, -1.90659534e+03,
          -4.05499786e+02, 6.14400024e+02, 487., -6.71400024e+02,
          -5.60900024e+02, -6.81131516e+01, -7.06102112e+02,
          -1.36509766e+03, -2.57100006e+02, 5.53500000e+02,
          9.54500000e+02, 3.38700012e+02, -1.07609998e+03,
          2.46379785e+03, -1.36312158e+03, -2.46730200e+03,
          1.26790002e+03, 3.52692261e+03, 1.49409546e+02,
          -1.05219995e+03, 1050., 3.19890186e+03, -1.18152039e+03,
          -2.58390552e+03, 1.09119995e+03, 3.42150830e+03,
          -1.58492783e+02, -1.34780005e+03, 1.25990125e+03,
          3.43422119e+03, -5.88608459e+02, -2.13310352e+03,
          8.18400024e+02, 2.84119995e+03, -1.08099998e+02,
          -1.03159998e+03, 9.89401245e+02, 3.90812183e+03,
          2.38023338e+01, -1.50420044e+03, 673., 2.90919995e+03,
          1.55699997e+02, -6.67099976e+02, 9.06599976e+02,
          1.89489978e+03, -3.52662695e+03, -5.05271387e+03,
          1.65680005e+03, 3.81392432e+03, 2.13724396e+02,
          -1.82869995e+03, 1696., 3.13110034e+03, -2.87332690e+03,
          -4.80882227e+03, 1.45259998e+03, 3.84141333e+03,
          -3.15879211e+02, -2.37369946e+03, 2.00350171e+03,
          3.93302441e+03, -1.64011951e+03, -4.27091602e+03,
          1.11359998e+03, 3.44400024e+03, -5.89898315e+02,
          -2.17789966e+03, 1.84020166e+03, 4.36002295e+03,
