%YAML:1.0
my_svm: !!opencv-ml-svm
   svm_type: C_SVC
   kernel: { type:LINEAR }
   C: 1.0000000000000001e-01
   term_criteria: { epsilon:2.2204460492503131e-16, iterations:10000000 }
   var_all: 8256
   var_count: 8256
   class_count: 2
   class_labels: !!opencv-matrix
      rows: 1
      cols: 2
      dt: i
      data: [ 0, 1 ]
   sv_total: 1
   support_vectors:
      - [ 1.42216857e-04, 3.10934760e-04, -2.87704839e-04,
          3.48468602e-04, -6.65971747e-05, -1.43115802e-04,
          2.86313243e-05, 3.80234706e-04, 6.57944765e-05, 3.09692929e-04,
          -6.19458733e-04, 2.76028470e-04, -7.96912936e-05,
          -1.98042071e-05, -2.07642603e-04, 5.60894077e-05,
          -2.04197408e-04, -5.67760959e-04, -4.78075730e-04,
          9.32385865e-06, -1.48955864e-04, -1.10304012e-04,
          -2.86585040e-04, -4.05880885e-04, 7.74481858e-04,
          7.61241899e-05, -2.72936973e-04, -9.34795462e-05,
          -2.32031191e-04, -1.69404026e-04, -3.11283628e-04,
          -3.13385477e-04, 6.26589317e-05, 7.54274151e-05,
          3.28017661e-04, -1.07276101e-04, -2.73748126e-04,
          1.79432991e-05, -4.92063467e-04, 2.65572686e-04,
          -3.68892652e-04, -1.25120769e-05, 2.81379034e-04,
          -4.81033785e-04, -6.27558038e-04, 3.59630103e-05,
          -6.74067473e-04, -2.10148835e-04, -5.09934209e-04,
          -7.24564132e-04, -2.46085430e-04, -1.95061555e-04,
          -3.32218711e-04, -5.04854543e-04, -9.34976444e-04,
          -5.36120846e-04, -5.62478090e-04, -5.85020403e-04,
          -5.64887887e-04, -3.28124675e-04, -6.06012007e-04,
          -1.76473448e-04, -4.11552435e-04, -4.12810070e-04,
          -1.48669802e-04, -3.16995138e-05, -1.80487521e-04,
          -3.80742102e-04, -7.02548059e-05, -2.85803428e-04,
          -3.83366743e-04, -2.78189778e-04, -3.34613258e-04,
          -2.45540519e-04, -4.77039212e-05, -3.17576487e-04,
          2.62168498e-04, -5.45617251e-04, -3.58290155e-04,
          -1.52096327e-04, -3.04199784e-04, -2.94476340e-04,
          -5.22171147e-04, -1.96423847e-04, -1.18418975e-04,
          -7.28572631e-05, -3.77384626e-04, -4.43320663e-04,
          -6.46530476e-04, -2.57680600e-04, -1.01553486e-03,
          -2.20124857e-04, -4.16826020e-04, -2.71476019e-04,
          -6.10865536e-05, 1.09910390e-04, -3.49379930e-04,
          -3.48293659e-04, -1.38116200e-04, -2.37521337e-04,
          -3.42967396e-05, 5.36772632e-07, 3.90702975e-04,
          -5.96466271e-05, -1.95280503e-04, -5.81480446e-04,
          -1.52396984e-04, 3.56358039e-04, -8.96076381e-05,
          -2.14945481e-04, 1.56442708e-04, -6.50476315e-04,
          -1.78785940e-05, -2.27509678e-04, 1.35423150e-04,
          1.74577755e-04, -3.65935819e-04, 9.14980992e-05,
          -4.63441625e-04, -2.02955620e-04, -1.77720038e-04,
          -2.03419186e-04, -1.07625849e-03, -5.41619142e-04,
          -1.06061890e-03, 3.19761020e-05, -1.41355849e-04,
          -5.07580058e-04, -4.23310383e-04, 7.01875615e-05,
          2.19209905e-04, 2.58025160e-04, -2.35337749e-04,
          -7.27451334e-05, 1.46682476e-04, -1.90546431e-04,
          -6.31019611e-06, 1.64016295e-04, 1.09201232e-04,
          9.51324691e-05, -4.34146728e-04, -2.99043662e-04,
          -8.65084949e-05, -3.68118664e-04, 2.50448094e-04,
          1.52680106e-04, -2.46682786e-04, 4.83757583e-04,
          -7.93001527e-05, 5.30647405e-04, -2.37283657e-05,
          -2.26639808e-04, -5.46162410e-05, 3.48196510e-04,
          1.82716147e-04, -1.79873285e-04, -1.11454458e-04,
          5.58497617e-04, -3.03867069e-04, 3.56986811e-06,
          -4.53864312e-04, -2.94905854e-04, -2.40606369e-05,
          1.11539885e-04, -2.78337509e-04, 1.17707139e-04,
          7.46950609e-05, -1.49832384e-04, -3.42964253e-04,
          2.98872365e-05, 1.55500951e-04, -6.01103529e-04,
          -1.98744310e-04, -4.52922599e-04, 7.69255974e-04,
          -1.83008269e-05, -3.45185690e-04, 3.77560878e-04,
          -3.82597471e-04, 2.26748729e-04, -4.02797596e-04,
          8.39626082e-05, -6.62793682e-05, -2.96983257e-04,
          4.02386468e-05, -2.30982696e-04, -5.09690552e-04,
          -9.04992339e-05, -2.11359380e-04, -4.33515452e-05,
          -3.31198797e-04, -3.83704435e-04, -2.91577016e-04,
          -8.85209942e-04, -3.48708912e-04, 1.31061868e-04,
          -2.92268931e-04, 1.38907824e-04, -2.50999990e-04,
          -1.73042950e-04, -4.18027950e-04, 5.42556154e-05,
          -4.29668202e-04, -2.21615963e-04, -2.51103658e-04,
          -5.69658412e-04, -3.31484742e-04, -9.40140817e-05,
          -3.48800444e-04, -3.78861354e-04, -7.26772065e-04,
          -6.66701526e-04, -9.70470355e-05, -2.01526535e-04,
          -1.19123561e-03, -5.15670807e-04, -7.73704785e-04,
          -4.17201954e-04, -3.49066941e-05, -5.56870247e-04,
          -4.74351487e-04, 8.88751019e-05, -3.30837676e-04,
          -2.37743778e-04, -4.93765168e-04, 3.24141845e-04,
          3.21552448e-04, -7.12476467e-05, -2.46566924e-04,
          -2.57963053e-04, 1.93699289e-05, -4.87403653e-04,
          -9.36769266e-06, 4.37983515e-04, 5.10248763e-04,
          -1.93743806e-04, -5.08616853e-04, -1.28578424e-04,
          6.01033753e-05, -4.46868624e-04, 1.66389538e-04,
          -1.02862277e-05, -3.51605995e-04, -3.86186322e-04,
          -7.04925100e-04, 3.77709250e-04, 3.49544047e-04,
          2.55905936e-04, -2.07174337e-04, -8.35349667e-04,
          -4.55704838e-04, -1.10687201e-04, -4.37657465e-04,
          6.06238085e-04, -4.57211660e-04, -8.20447240e-05,
          -1.31115579e-04, 9.09382361e-05, 4.76723013e-04,
          7.79615715e-04, -2.77982996e-04, 1.45874277e-04,
          2.45935400e-04, 1.07501801e-04, -5.02324256e-05,
          -2.06787488e-04, 7.82519113e-04, 4.54337482e-04,
          6.93379989e-05, -7.15469941e-05, 2.25638898e-04,
          7.41693366e-05, 2.07760619e-04, 2.81579647e-04,
          -4.26867569e-04, 6.09890791e-04, 2.68707459e-04,
          4.34171743e-05, 4.74753877e-04, 4.09810718e-06,
          -5.68151772e-05, -2.63652852e-04, -1.11242977e-03,
          3.43265043e-07, 8.98800441e-04, 3.25073896e-04,
          -2.49923964e-04, 1.88583115e-04, -1.81333162e-04,
          -3.73062067e-05, 3.99672572e-05, 4.89614962e-04,
          -3.46389425e-04, -6.36134791e-05, -3.22289299e-04,
          -9.52946939e-05, -6.70658992e-05, -9.09402079e-05,
          3.72168899e-04, 1.47870251e-05, 1.30581117e-04,
          -4.01561207e-04, -5.05539901e-05, 2.07586636e-04,
          -3.54669501e-05, 3.98897362e-04, -2.58053769e-04,
          -5.94655634e-04, 1.35589580e-04, -6.05501817e-04,
          -1.03188664e-04, 1.82718111e-04, -5.33398241e-04,
          -1.68309882e-04, -4.56404872e-04, -5.30971622e-04,
          4.77620342e-04, -2.79466076e-05, -3.13418568e-04,
          1.55252972e-04, 2.81692395e-04, -4.76076908e-04,
          4.74330154e-05, 5.91186799e-05, 2.63893835e-05, 1.87433689e-04,
          5.09336096e-05, 6.76498385e-05, 2.04736236e-04,
          -4.31492255e-04, 9.42845581e-05, 2.78436783e-04,
          -5.67571027e-04, 2.71066470e-04, -8.54897589e-05,
          -3.70564638e-04, -2.86209688e-04, -1.48804465e-04,
          -6.76899625e-04, -5.04195166e-04, -2.39760357e-05,
          3.76932760e-04, -1.71734966e-04, -5.97809791e-04,
          -1.88738224e-04, 2.42703856e-04, -9.83790960e-04,
          1.05904095e-04, -1.66835656e-04, -1.73377950e-04,
          -5.60733897e-04, -5.17819892e-04, 1.54973299e-04,
          -1.06106732e-07, 2.61792738e-04, 2.76776525e-04,
          4.38637217e-05, -9.88734173e-05, 2.13152569e-04,
          -6.10263160e-05, 8.56573970e-05, -1.01043712e-04,
          1.66675192e-04, -2.26300734e-04, -2.46011041e-04,
          8.64726098e-05, -2.63689202e-04, -1.22494326e-04,
          -2.08350786e-04, 4.24165482e-05, -8.63023684e-04,
          2.74527192e-05, 1.52537294e-04, -2.41326896e-04,
          -1.19486853e-04, -1.77784386e-04, -1.32255227e-04,
          -3.02537483e-05, -1.77454931e-04, 1.06557658e-04,
          -5.39709348e-04, -3.25543835e-04, -2.04286946e-04,
          -4.43644996e-04, 4.68520680e-04, -4.74523222e-05,
          2.86867522e-04, 1.38683448e-04, -3.62873470e-05,
          -5.32346130e-05, 4.63260512e-04, -5.08779136e-04,
          -2.38739403e-06, 4.62102616e-05, 5.61707930e-05,
          4.06262057e-04, 1.79657058e-04, 9.14317070e-07, 4.17177671e-06,
          -1.72517714e-04, -2.77751038e-04, 4.94956388e-04,
          1.58349125e-04, 3.31408461e-04, 6.68531749e-04, 1.86573787e-04,
          2.09648322e-04, -4.08695836e-04, -1.38085321e-04,
          -3.13626748e-04, -1.85687502e-04, 4.19874705e-04,
          5.25928102e-04, 1.64175552e-04, 1.74840476e-04,
          -8.05961536e-05, 2.59111170e-04, 4.06778709e-05,
          1.83011260e-04, 1.21604011e-04, 6.67707718e-06, 3.63674160e-04,
          4.93285712e-04, -2.56262829e-05, -6.02285145e-05,
          2.80872890e-04, 2.83332076e-04, -5.00094138e-05,
          2.08818710e-05, -3.63347572e-05, 2.82580353e-04,
          -8.03857256e-06, 2.78608859e-05, 1.25441540e-04,
          -4.86241595e-04, 1.40978673e-05, -1.16810676e-04,
          -2.70296325e-04, 2.06296914e-04, -3.79834557e-04,
          -2.47923250e-04, 2.27555487e-04, -5.08248457e-04,
          -2.10888596e-04, -2.20292364e-04, 3.85587162e-04,
          -7.23066973e-04, -6.50563161e-04, -3.09095922e-04,
          2.98050436e-04, 5.84901063e-05, 1.65739388e-04, 1.14888397e-04,
          1.83305063e-04, -2.38036271e-04, 3.47802998e-04,
          -2.73115555e-04, -9.42585539e-05, -1.22251164e-04,
          2.69287302e-05, 3.39506951e-04, -2.18869282e-05,
          -4.99265210e-04, 2.27426608e-05, -2.42972295e-04,
          -4.93148982e-04, -2.00669121e-04, -1.22296726e-04,
          9.07083813e-05, -2.21067166e-04, 1.27157589e-04,
          6.50289439e-05, -6.94939925e-04, -3.89823836e-04,
          -2.40711612e-04, -3.81094229e-04, 2.61777226e-04,
          -1.96659748e-04, -4.03040438e-04, -6.96812116e-04,
          -1.02629769e-04, 8.04831332e-04, 1.51510103e-04,
          6.05640962e-05, 1.72549611e-04, 3.32467971e-05, 5.16871281e-04,
          -8.41195870e-05, -3.51456663e-04, -1.17981217e-04,
          -1.63340403e-04, -3.89755849e-04, 2.00838054e-04,
          -2.48643482e-04, 5.17378037e-04, 1.92761232e-04,
          -3.36250727e-04, -3.10119387e-04, -3.45658278e-04,
          1.32855785e-04, -4.64427634e-04, -2.81945191e-04,
          1.28013518e-04, -1.68083134e-04, -6.84853352e-04,
          8.21349822e-05, -5.43329399e-04, -1.91734041e-04,
          -3.89003893e-04, -4.29409352e-04, -1.73234876e-05,
          8.54097379e-07, -2.51126708e-04, 3.88271728e-04,
          4.09757886e-05, 3.56408709e-04, 8.43043745e-05, 9.07806389e-05,
          5.86830429e-04, -1.35397320e-04, -4.92127037e-06,
          3.95964489e-05, 3.36031546e-04, 2.02561932e-04,
          -3.98634438e-05, 3.19387880e-04, 3.97288590e-04,
          2.21154005e-06, -8.21437061e-05, 3.95394658e-04,
          -1.84158162e-05, 2.16894608e-04, -1.95962086e-04,
          -4.42982011e-04, -5.71024175e-05, -3.70938069e-04,
          2.70550256e-04, -2.63798225e-04, -3.44761880e-04,
          2.78115011e-04, 2.38983717e-04, -2.42851340e-04,
          -1.39510666e-04, -9.84376820e-05, -9.93425419e-05,
          1.51554690e-04, 4.10121538e-05, 2.41464091e-04, 3.68339883e-04,
          9.57414159e-05, -4.47898492e-04, -8.22658985e-05,
          7.42323027e-05, 5.13791492e-05, -1.80190000e-05,
          -3.61425220e-04, -1.48347433e-04, -2.41909118e-04,
          7.89667392e-05, -1.09006423e-05, -4.59469709e-04,
          -1.54075358e-04, -3.15145517e-05, -4.47036437e-04,
          1.35378621e-04, 2.91068893e-04, -5.30611142e-05,
          -1.26839586e-04, -3.25124097e-06, -1.90785955e-04,
          -3.79418954e-04, -1.45539336e-04, -8.57765481e-05,
          -2.96442449e-04, 2.52277765e-04, -6.35746255e-05,
          4.13171860e-04, 6.58099481e-04, 9.73887218e-05, 5.24656556e-04,
          -7.46812802e-05, 1.80687275e-05, 2.61597073e-04,
          -3.49547103e-04, 1.68705301e-04, 4.55720990e-04,
          1.42822673e-05, 3.64046369e-04, -2.48421799e-07,
          -1.70105428e-04, -1.57989380e-05, -2.26050644e-04,
          -7.02248770e-04, 8.50984361e-06, -2.23334835e-04,
          -2.39440778e-04, 3.71178940e-05, -2.44684372e-04,
          -5.65184164e-04, 1.73245877e-04, -3.01899738e-04,
          -3.31608084e-04, -4.72913933e-04, 1.70691725e-04,
          -3.17157072e-04, -2.58960703e-04, -4.07074695e-04,
          -2.85248738e-04, 5.44714683e-04, 5.75623824e-04,
          4.99574002e-04, -1.33752124e-04, -4.38366515e-05,
          7.08001753e-05, 4.08331514e-04, -3.87675609e-05,
          -1.44134567e-04, 7.07630476e-04, 5.21585462e-05,
          -2.98974137e-05, 1.13212074e-04, -7.79799520e-05,
          2.17842040e-04, 6.46724598e-04, -7.85592827e-04,
          7.24246565e-05, -1.56519854e-05, -1.25376959e-04,
          8.86741109e-05, 1.89728380e-04, 2.47002521e-04,
          -4.55951704e-05, -2.85459188e-04, -7.79381080e-04,
          -2.81210843e-04, -1.47505489e-04, -3.74715222e-04,
          2.54279963e-04, 2.65304727e-04, -5.27569500e-04,
          -1.28731030e-04, -6.81299425e-05, 6.49694935e-04,
          -7.33705929e-06, -1.92098378e-04, 7.29464344e-04,
          3.84495157e-04, -3.94275499e-04, 9.15651544e-05,
          6.24990091e-04, -3.52040399e-04, 1.97923855e-05,
          1.70310013e-04, 1.82480740e-04, 1.73856432e-04,
          -3.24713765e-05, -1.22944111e-04, 3.02382773e-06,
          -5.78374718e-04, -4.33550595e-05, 1.16881187e-04,
          1.86428399e-04, 1.51404529e-04, -1.76785634e-05,
          -5.82490757e-04, -6.70602458e-05, -2.65655923e-04,
          -4.70048777e-04, -4.52242210e-04, 5.45977498e-04,
          -4.30212240e-05, 4.01902325e-05, -3.36955389e-04,
          -2.96730490e-04, 4.06967563e-04, 5.89793373e-04,
          -3.79136036e-04, 5.90920972e-04, 1.57161521e-05,
          -5.31429287e-05, 2.43042814e-05, 9.61666447e-05,
          -1.73679233e-04, 2.66489893e-04, -5.61318011e-04,
          3.90703681e-05, 1.82961652e-04, -3.31121206e-04,
          -2.76089093e-04, -5.38524240e-04, 3.95962597e-05,
          -1.34818503e-04, -2.58296379e-04, -2.72104371e-05,
          2.94026977e-05, 3.86617961e-04, -4.08417371e-04,
          -1.90143066e-04, -3.07256822e-04, -3.07096692e-04,
          -6.50333997e-04, -4.57860369e-05, -8.26792559e-04,
          2.95753853e-04, -3.02146742e-04, -7.76139059e-05,
          1.14124712e-04, -7.19317904e-05, -4.47811290e-05,
          7.61440955e-04, -3.52650182e-04, 7.93569343e-05,
          -1.22086829e-04, -8.40667708e-05, -1.51692497e-04,
          -1.74887798e-04, -2.80862878e-04, -9.91139405e-06,
          1.92989115e-04, -4.19198659e-05, -3.86120286e-04,
          -1.91111394e-04, -4.53882385e-04, -3.93283350e-04,
          -2.31420578e-04, -3.14653065e-04, -2.38838475e-04,
          1.08342130e-04, -1.63193672e-05, -4.10856184e-04,
          -7.10598018e-04, -4.69683204e-04, -2.76564184e-04,
          -2.66954914e-04, -4.15353046e-04, -1.01460738e-03,
          -2.76756182e-04, 3.26599955e-04, 2.32625564e-04,
          -7.87962708e-05, 1.90644001e-04, 6.13133132e-04,
          8.16390617e-04, 6.13554148e-05, 7.47522863e-05,
          -1.23865728e-04, -2.95375241e-04, -5.65748996e-05,
          -2.09081059e-04, 4.53452114e-04, 7.72177882e-04,
          3.16973674e-05, -4.07326297e-04, -3.50369024e-04,
          -4.95561166e-04, 4.41218639e-04, -3.59164842e-04,
          -1.31124485e-04, 2.54193088e-04, 9.23176849e-05,
          -4.51072236e-04, -7.35469948e-05, 4.89886079e-05,
          -4.98541689e-04, -4.21964272e-04, -7.02646037e-04,
          2.17597670e-04, -8.10275087e-04, -2.17687208e-04,
          -4.12055997e-05, 2.99690437e-04, -1.04376515e-04,
          -3.58930032e-04, -6.79510122e-05, 8.04203853e-04,
          9.19661179e-05, 1.37302442e-04, -1.04989835e-04,
          -5.36547042e-04, 8.76003396e-05, 3.37848396e-05,
          2.72905832e-04, 2.13143285e-04, 3.27688555e-04,
          -2.69793934e-04, 8.29488738e-04, 1.38097777e-04,
          -5.14869869e-04, -1.21116413e-04, -1.37936177e-05,
          -9.83698992e-05, 1.30046872e-04, -2.14258675e-04,
          2.44939089e-04, 6.78890268e-04, -7.79382070e-04,
          -5.58046275e-04, 9.43991181e-05, 2.17739667e-04,
          -1.71977896e-04, 3.12428456e-04, -6.59021607e-05,
          1.62686585e-04, -1.43431753e-04, -2.81726767e-04,
          4.34609421e-04, 1.83999058e-04, -8.19269480e-05,
          -1.50080930e-04, 6.81035672e-05, -4.64512472e-04,
          -1.23904421e-04, -1.10664594e-04, 5.39116503e-04,
          3.58898833e-05, -3.61678336e-04, -5.86824375e-04,
          2.83743051e-04, -3.47089983e-04, 4.35901195e-04,
          -1.73614942e-04, -1.93281929e-04, -4.35953494e-04,
          -1.88971790e-05, -8.90784897e-04, -1.06528962e-04,
          -3.71850503e-04, -3.86116153e-04, -4.77598776e-04,
          -5.74902515e-04, -4.04482911e-04, -5.96146449e-04,
          5.24554984e-04, -3.23820481e-04, -3.10691568e-04,
          -6.09944182e-05, 4.97417874e-04, -1.87693695e-05,
          9.13804179e-05, 2.31327926e-04, -2.41748698e-04,
          -2.59975699e-04, -2.35268890e-04, 2.55550869e-04,
          -3.26529989e-04, -2.90888556e-06, 4.69845108e-04,
          -1.48904350e-04, -1.81470852e-04, -3.43466454e-05,
          2.31944341e-05, -1.73137250e-05, -8.55803955e-04,
          -4.55217756e-04, -1.00385456e-04, -2.33213636e-04,
          -1.30991553e-04, -8.67185357e-04, -2.92060955e-04,
          -7.27802690e-04, -3.09101539e-04, -3.93293245e-04,
          -4.58952709e-04, -1.19367102e-03, 7.46378864e-05,
          -1.00751568e-05, 8.00284382e-04, 2.73570738e-04,
          3.32388554e-05, 1.40425880e-04, 4.36664763e-04, 6.28795533e-04,
          3.38633778e-04, -4.87492362e-04, -1.28085259e-04,
          -2.16777495e-04, -1.12255206e-04, -5.38519700e-04,
          2.47762771e-04, -5.22575101e-05, 4.38034564e-04,
          -6.73319621e-04, -5.51481244e-05, -4.64734592e-04,
          -1.47879720e-04, -1.43088386e-04, 2.05415505e-04,
          -2.09477890e-04, 1.96485616e-05, -9.55301162e-04,
          -2.68981476e-05, -3.57737590e-04, -4.54406225e-04,
          2.61474052e-04, 5.11256512e-05, -5.34381834e-04,
          2.24172982e-04, -2.83994857e-04, 3.97781754e-04,
          -3.44790256e-04, -3.12314311e-04, 1.74502769e-04,
          -4.11805013e-05, 4.28332896e-05, -1.46786115e-04,
          -5.96601109e-04, -5.39973007e-05, -2.34677689e-04,
          -1.53818022e-04, 1.30224202e-04, -7.79695110e-05,
          -2.84991373e-04, 1.52537257e-06, -1.99685222e-04,
          -9.23351967e-04, -7.44944846e-04, -2.92340381e-04,
          -3.00549029e-04, -1.84814940e-04, -7.96479057e-04,
          -1.14339367e-04, -3.93002047e-05, -3.32926575e-04,
          -1.49982166e-04, -1.33338632e-04, -1.03418381e-04,
          8.83498433e-05, -9.49263107e-04, 1.85430516e-04,
          -4.32908622e-04, -1.45371363e-04, -3.00358282e-04,
          -2.05215023e-04, -2.23541574e-04, 1.30623972e-04,
          -2.68784876e-04, -2.28074452e-04, -6.98558229e-04,
          -2.25266107e-04, 7.03794503e-05, -3.36888479e-04,
          -2.51309189e-04, -3.51379364e-04, 6.85949344e-05,
          2.86633690e-06, -1.05567113e-03, -5.71570999e-04,
          -5.38018299e-04, 1.27597974e-04, -8.55432358e-04,
          -5.09119302e-04, -1.25746417e-04, 1.28978485e-04,
          -7.93178391e-04, -2.29178928e-04, -3.38902028e-05,
          -5.32102276e-05, -5.45263058e-04, -1.78859977e-04,
          -6.61630416e-04, -3.21219268e-04, -1.22656245e-04,
          -1.96141831e-04, 7.88761681e-05, -5.52237500e-04,
          5.32114413e-04, 4.60906922e-05, -2.06646349e-04,
          -6.31114643e-04, -5.39867251e-05, -1.48624007e-04,
          -2.11947656e-04, -4.62852389e-04, 6.14009914e-05,
          -6.68901703e-05, -1.78989678e-04, 4.25568396e-05,
          1.33548083e-05, -8.29636119e-04, -9.42648621e-04,
          1.76911592e-04, -6.66831445e-04, -4.37540933e-04,
          5.35306608e-05, -2.74423423e-04, -3.16545047e-04,
          -4.99134010e-04, -1.21835110e-04, -3.19777726e-04,
          -4.08931024e-04, -1.21846475e-04, -4.99555026e-04,
          -2.41272515e-04, -1.77993308e-04, -2.89588177e-04,
          -6.22710377e-06, 5.79590560e-05, 1.86856123e-04,
          1.58979004e-04, -2.42918832e-05, -3.98574251e-04,
          -5.31067548e-04, -4.29442152e-04, -3.67901433e-04,
          -4.30811400e-04, 3.69557092e-05, -1.86742109e-04,
          -1.42149118e-04, 8.69808173e-06, -4.54025139e-04,
          -4.56934591e-04, -3.58846795e-04, -4.11910965e-04,
          -1.53673245e-04, -6.50180271e-04, -4.21561243e-04,
          -3.12574615e-04, 7.09240194e-05, -2.84669513e-05,
          -1.91011670e-04, -4.31814697e-04, -5.69207594e-04,
          -6.71123387e-04, 1.31973735e-04, 6.49922760e-04,
          3.08422372e-04, -3.98869772e-04, 2.73136771e-04,
          6.72733062e-04, 6.09643612e-05, -4.93017360e-05,
          4.59285016e-04, -1.57634859e-04, 3.98299337e-04,
          -7.78798494e-05, -2.17999783e-04, -2.72579258e-04,
          -4.16091352e-05, -3.07369832e-04, -1.22735029e-04,
          -8.23108203e-05, 2.09172780e-04, -2.15501495e-04,
          3.06916481e-04, -7.63546268e-05, -3.09816765e-04,
          1.70544343e-04, -2.09122823e-04, -3.04632467e-05,
          -1.81539464e-04, -4.30078100e-04, 2.25303564e-04,
          6.31014002e-04, 6.23909655e-05, 8.12899598e-05, 8.80329317e-05,
          8.43737434e-05, 1.97514557e-04, -3.55003722e-05,
          3.58462828e-04, 3.26694106e-04, -1.39584779e-04,
          -6.30892348e-04, 2.05960008e-04, -1.09019769e-04,
          -9.59973913e-05, 1.81104100e-04, -4.81074094e-05,
          -8.71532175e-05, -1.99420072e-04, -4.67032747e-04,
          3.18917999e-04, 1.88913007e-04, -4.38054500e-04,
          -3.88841174e-04, 3.67393914e-05, -1.94895416e-04,
          -2.35450658e-04, 2.44568273e-05, 6.79863515e-05,
          8.67516137e-05, -6.90756133e-04, -1.10297056e-03,
          -3.21202650e-04, 2.11254533e-04, 4.80337883e-04,
          3.27296235e-04, -5.58463042e-04, -2.65202340e-04,
          2.22187140e-04, -3.26506124e-04, -2.03636562e-04,
          5.03608433e-04, 3.06070462e-04, -5.76444145e-04,
          -5.76329359e-04, -4.18760086e-04, -4.88771533e-04,
          -3.75182979e-04, -3.58954247e-04, 4.38399111e-05,
          1.16255847e-04, 2.30438818e-05, -4.63410513e-04,
          6.72554161e-05, 2.27513796e-04, -5.96787140e-04,
          9.42594997e-05, 1.57702059e-04, -7.45346246e-04,
          -2.09571066e-04, -1.62609678e-04, -5.94363199e-04,
          1.02341492e-05, -3.01445660e-04, -6.04128618e-05,
          1.89987055e-04, -7.72302792e-06, -1.10949877e-04,
          -3.50743241e-04, 1.64689438e-04, -1.64577184e-04,
          -3.71505506e-04, -1.07325264e-04, 1.04453829e-04,
          4.02415346e-04, -1.41772456e-04, 1.98457983e-05,
          -2.68714473e-04, -4.26542538e-04, -1.02148333e-04,
          -2.07407675e-06, -4.40435921e-04, 2.50393583e-04,
          -1.16290124e-04, -1.29216991e-04, -3.91875103e-04,
          -7.75394612e-04, -3.97766038e-04, -3.82258091e-04,
          -5.89093725e-05, -1.55292306e-04, -3.31036834e-04,
          -2.03792646e-04, -1.94515742e-04, -4.42550408e-05,
          1.05872241e-04, -7.97958754e-04, -6.22377847e-04,
          -2.93579564e-04, -7.45474303e-04, -6.61815051e-04,
          4.24839905e-04, 5.99603518e-04, 6.23747183e-04, 2.03843359e-04,
          2.69172830e-04, 7.73425214e-04, 3.82775383e-04, 1.09151355e-03,
          6.49555819e-04, 2.12821524e-05, 2.99022853e-04, 5.60890825e-04,
          2.59260531e-04, 8.13087856e-04, 1.41477329e-04, 4.71882086e-04,
          -4.32821136e-04, 5.74391161e-05, -2.17033201e-04,
          4.86623379e-04, 1.25299412e-04, 3.02530214e-04,
          -2.67933123e-04, 5.98932675e-04, -5.83732726e-05,
          -1.91914223e-04, -8.68166971e-04, 5.10729209e-04,
          -3.46143177e-04, 8.79440995e-05, 1.80981588e-04,
          5.03267860e-04, -1.20482568e-04, -1.81743555e-04,
          -1.58227514e-04, 9.91990324e-04, -3.72902432e-04,
          7.93748113e-05, 4.12861817e-04, 8.24207091e-04, 1.57707673e-05,
          1.14647912e-04, -7.55251152e-04, 2.70860328e-04,
          5.00941358e-04, 3.15724552e-04, 1.97564892e-04, 9.01439853e-05,
          -2.42406488e-04, 1.97589316e-06, 1.32817528e-04,
          -5.15399210e-04, -3.24871828e-04, -1.74171160e-04,
          2.30736376e-04, 4.15926741e-04, 4.46290869e-05,
          -1.19513388e-04, -5.06242970e-04, 1.97519985e-04,
          -9.44787287e-04, -5.20764908e-04, -6.22290361e-04,
          2.12144092e-04, 3.79584017e-05, -1.00699617e-05,
          1.23895530e-04, 5.42514201e-04, -2.56888568e-04,
          -1.92681255e-04, 7.51542917e-04, -2.15118256e-04,
          4.98327892e-04, 4.43077937e-04, 5.30050660e-04,
          -3.47450186e-05, 6.26129695e-05, -9.85873994e-05,
          2.71374098e-04, -1.55198577e-04, -2.54943268e-04,
          1.67111284e-05, 9.63781422e-05, 9.66175066e-05,
          -1.37756258e-04, 9.96846575e-06, -7.05370549e-05,
          3.25584318e-04, -2.75836879e-04, -2.99657113e-04,
          -1.37445910e-04, -4.50766209e-04, -1.68105515e-04,
          -3.65447573e-04, -4.25541744e-04, -6.05684509e-05,
          -1.76316651e-04, -5.45491348e-04, 2.05992619e-04,
          6.55094220e-04, -4.99798160e-04, 2.17296634e-04,
          3.75316333e-04, -2.97607650e-04, 1.23104313e-04,
          -2.18492249e-04, -3.19636019e-05, 7.28365732e-04,
          3.50959417e-05, -4.79219671e-05, -1.01108708e-04,
          -4.08888765e-04, 2.14280226e-04, 2.51068443e-04,
          -1.94593071e-04, -1.36409537e-04, -7.29053223e-04,
          -2.04965385e-04, 2.22581184e-05, -8.71873926e-04,
          -1.23959428e-04, 2.61711888e-04, -1.49402651e-04,
          -5.07374993e-04, -9.30232345e-04, -2.18149551e-04,
          -3.19085375e-04, -7.23577512e-04, 2.29117082e-04,
          8.71621014e-04, -8.65652910e-05, 5.10445738e-04,
          2.94690893e-04, 6.09134906e-04, 6.39167381e-04, 3.84746323e-04,
          3.53272975e-04, 9.01310646e-04, 6.14875680e-05, 2.24922027e-04,
          -5.31949700e-05, -9.95148075e-05, 9.92799294e-04,
          2.50017911e-04, 5.49393357e-04, 1.98478898e-04,
          -7.29634939e-06, 2.51432881e-04, 4.73522814e-04,
          -2.52620433e-04, 1.66865881e-04, -7.77555615e-05,
          6.10959192e-04, -1.73950670e-04, -4.37790804e-05,
          5.19104884e-04, -5.15677020e-05, -2.39530291e-05,
          -9.59726895e-05, -3.46855173e-04, 4.26065817e-04,
          1.84060948e-04, 2.96044145e-05, 2.30394115e-04, 7.82779709e-04,
          3.84612707e-04, 1.18113450e-04, -1.19168151e-04,
          -1.35865092e-04, 1.52213732e-04, 2.27461933e-04,
          2.01247662e-04, 1.57609917e-04, -3.08556104e-04,
          2.81967863e-04, 1.11232141e-04, -2.43325208e-04,
          -4.51822671e-05, 1.07035463e-04, -2.80747161e-04,
          1.01753154e-04, -6.74970972e-04, 9.65409781e-05,
          1.64903380e-04, 4.87174198e-04, -2.18824556e-04,
          1.10545341e-04, -1.95503926e-05, -1.29738983e-04,
          -4.73098800e-04, -6.83064340e-04, -1.53097164e-04,
          3.61678191e-04, 6.76258132e-05, 3.51539667e-04, 1.00259509e-04,
          2.49110191e-04, 2.62246438e-04, 2.71898083e-04,
          -3.40259110e-04, 1.24055450e-05, -5.82213630e-04,
          -1.02641163e-04, 2.46849086e-04, -4.28603271e-05,
          -7.07392232e-04, 2.20186834e-04, 3.29986768e-04,
          -6.46810280e-04, -2.57554901e-04, -9.42748957e-05,
          -3.19818850e-04, 1.04585051e-04, -2.09281570e-04,
          1.17500123e-04, -6.81814709e-05, -4.27601015e-04,
          3.36265133e-04, -2.39588931e-04, -3.56960896e-04,
          3.32392927e-04, -1.69757346e-04, -5.52782847e-04,
          -7.04334874e-04, 7.53567147e-04, 5.97483595e-04,
          4.81348514e-04, 1.77378242e-04, -1.21396661e-04,
          2.82166031e-04, 6.31249393e-04, -4.99162008e-04,
          7.05219456e-04, 2.20198926e-05, -2.59864260e-04,
          2.91820234e-05, 1.14476803e-04, -2.88901847e-05,
          -7.18851006e-05, -5.72637036e-05, -6.45575055e-04,
          -2.51956895e-04, -8.48150288e-04, -3.67868925e-04,
          6.52916860e-05, -9.75633957e-05, -2.99377774e-04,
          -5.81678527e-04, -4.79324313e-04, -3.13785586e-06,
          -7.53449393e-04, -1.74059358e-04, -5.71797602e-04,
          2.06476121e-04, -6.28820329e-04, -8.32424674e-04,
          2.77038066e-06, 4.12785303e-04, 5.30525926e-04, 3.77101940e-04,
          4.25177772e-04, 6.15503872e-04, 1.27510983e-03,
          -3.91583191e-04, -9.02362226e-05, 4.72640852e-04,
          -2.09115009e-04, 1.09252258e-04, 4.80829738e-04,
          -1.03367071e-04, 3.69975402e-04, 1.19984383e-04,
          2.82308611e-04, -7.00472956e-05, -1.31273453e-04,
          3.86008847e-04, 5.68338030e-04, -3.57101642e-04,
          1.74721354e-05, -1.77434311e-04, -7.31905820e-05,
          3.73229966e-04, -5.40098874e-04, 7.68105849e-04,
          6.37971913e-04, -6.87884458e-04, 6.49584035e-06,
          -3.62174207e-04, -2.75688712e-04, 2.28979465e-04,
          2.97430845e-04, 3.82658327e-04, 2.03226708e-04, 1.47999061e-04,
          7.93068204e-04, 2.49855628e-04, 5.88178751e-04, 1.39303651e-04,
          -9.88272732e-05, -2.47223099e-04, 5.35427360e-04,
          9.51090697e-05, -1.01369347e-04, 6.15728495e-05,
          1.08503227e-05, 4.72802785e-04, 5.70770462e-05,
          -3.14755191e-04, 1.14735980e-04, 1.95297725e-05,
          -8.74288962e-05, 2.53363018e-04, -7.05571001e-05,
          1.55265836e-04, -6.68823268e-05, 3.95888092e-05,
          2.64785951e-04, -1.18558884e-04, 2.42187074e-04,
          -7.28012819e-04, -6.23144384e-04, 3.97590309e-04,
          1.03847553e-04, 4.72918589e-04, 2.55627034e-04, 8.60276305e-06,
          2.30337755e-04, -3.29073519e-05, 1.49563741e-04,
          -2.08077530e-04, -4.66659461e-04, 3.52237141e-04,
          2.37379747e-04, 7.41613330e-05, 1.61755917e-04,
          -8.69738506e-05, 2.55112885e-04, -5.48718730e-04,
          -3.12922057e-04, -3.38572223e-04, -2.35910164e-04,
          -4.13521193e-04, -2.13675929e-04, 2.62596615e-04,
          -3.56741890e-04, -5.77301369e-04, 4.23433376e-04,
          -2.88000301e-04, 1.69874242e-04, -2.70613178e-04,
          -4.96687309e-04, -5.40212553e-04, -2.15548876e-04,
          4.79225215e-04, 2.10371640e-04, 2.62023503e-04, 6.18138029e-06,
          -4.63001867e-04, 2.66212708e-04, 9.08635920e-05,
          6.79207791e-04, 1.76896385e-04, -7.02084208e-06,
          1.92366657e-04, 3.74407027e-05, -8.70464937e-05,
          5.30703110e-04, 1.12850314e-04, -7.45287514e-04,
          -9.90617264e-05, 2.74072110e-04, -1.29789420e-04,
          -2.97103652e-05, 4.46622398e-05, 3.39022256e-04,
          -1.62000026e-04, -1.04014494e-03, 2.39544752e-04,
          -9.47940280e-05, 9.31889372e-06, 3.62399354e-04,
          -2.09948135e-04, -8.31294688e-04, -3.57210170e-04,
          5.23512936e-05, 1.09300029e-03, 3.39451537e-04, 4.93035826e-04,
          4.68090060e-04, 9.56259028e-05, 5.93411212e-04, 5.44725161e-04,
          1.96435998e-04, 6.52202405e-04, 6.73411414e-04, 2.99867650e-04,
          5.68336167e-04, 2.35765256e-04, 9.25764733e-04,
          -7.27982406e-05, 2.06391211e-04, 2.50801735e-04,
          -1.40818724e-04, -2.49285600e-04, 1.97634494e-04,
          3.42829531e-04, 4.60619718e-04, 2.21250360e-04, 4.59878822e-04,
          -2.54516017e-05, 1.54685622e-04, 4.64415149e-04,
          -7.46854857e-05, -4.45631849e-05, -1.09787188e-05,
          2.39059227e-04, 2.56562580e-05, 1.43553468e-03, 3.85760795e-05,
          2.86705646e-04, 5.32789505e-04, 4.72038111e-04, 2.38507972e-04,
          2.99524254e-04, 3.76828626e-04, -5.75772137e-04,
          8.47161456e-04, -5.30841135e-07, 3.49168346e-04,
          3.73926596e-05, -1.73445369e-05, 3.72611394e-04,
          -4.85730307e-05, -4.49989922e-04, 8.46816038e-05,
          -7.42988603e-04, -6.19266066e-05, 2.95658992e-05,
          4.51756088e-04, 1.90186052e-04, -6.66852211e-05,
          -2.01429226e-04, -2.39831235e-04, -3.97344666e-05,
          3.55242955e-04, 1.17046366e-04, 3.47873756e-05, 3.67760600e-04,
          -1.03465565e-04, 2.41853762e-04, 2.06112571e-04,
          3.47271241e-04, 5.99117542e-04, 5.52591286e-04, 5.89258736e-04,
          1.19910823e-04, 6.35570395e-05, -3.77705233e-04,
          -8.85032932e-05, -6.24313398e-05, 3.13259865e-04,
          9.41721519e-05, 5.41830086e-04, 1.38986128e-04, 1.88173261e-04,
          -3.73051444e-04, -5.07809396e-04, 2.21331647e-04,
          -7.28891813e-04, -1.17875970e-04, -3.92874295e-04,
          -1.19985358e-04, 1.49486179e-04, -3.59333324e-04,
          -2.10854778e-04, 8.38448832e-05, 1.43794459e-04,
          2.27815272e-05, -4.09368397e-04, -2.05964912e-04,
          -8.28696193e-06, -4.98941481e-05, 4.10487817e-04,
          5.84901136e-04, 1.98512826e-05, 4.99129354e-04, 8.00693873e-04,
          -1.65433856e-04, -6.33062518e-05, -8.96013953e-05,
          3.72702256e-04, 1.92036692e-04, -3.16460675e-04,
          -2.82198365e-04, 6.76338153e-04, 3.18534614e-04,
          -4.68799844e-04, -2.58416083e-04, 2.69739103e-04,
          3.32275558e-05, -3.90684378e-04, -5.19197667e-04,
          1.66353755e-04, 1.02726241e-04, -2.86265331e-05,
          1.69187450e-04, -1.40197226e-04, -5.39260567e-04,
          5.12953498e-04, 2.47669348e-04, -9.38993471e-05,
          -3.08575691e-04, -1.16666568e-04, -3.01287975e-04,
          4.20540717e-04, 1.08892296e-03, 2.46160089e-05, 7.54885317e-04,
          2.46461626e-04, 4.32466768e-04, 2.10112077e-04, 1.95322762e-04,
          -1.27974592e-04, -1.09831693e-04, -7.60528637e-05,
          8.45209986e-04, 2.91522796e-04, 2.88424431e-04, 4.80297203e-05,
          -7.12838446e-05, -1.22134821e-04, -6.89381617e-04,
          -5.98007755e-05, -2.35069223e-04, -1.52553330e-05,
          -7.06530336e-05, -4.49900508e-05, 2.48306635e-04,
          -1.59116044e-05, 1.27267384e-04, 2.11928705e-06,
          -4.58348048e-04, 4.36526570e-05, -6.09188341e-04,
          -3.74187257e-05, 1.17094198e-04, 5.27158147e-04,
          4.72771615e-04, 4.21710174e-05, 4.96274384e-04,
          -1.00926176e-04, 5.91312593e-04, 3.73767019e-04,
          1.31302178e-04, -5.77794563e-04, 3.56566998e-05,
          -1.39565265e-04, 2.97548540e-04, 1.22930724e-04,
          7.67239253e-04, 2.45595642e-04, 1.04146668e-04, 1.33387599e-04,
          -4.16590745e-04, 2.31735336e-04, 1.73492313e-04,
          -3.98984179e-04, 4.08927095e-04, -1.84579723e-04,
          -8.75541955e-05, 3.16443475e-05, -2.30840829e-04,
          -1.95687986e-04, -4.11207788e-04, -7.84801305e-05,
          -2.26662480e-04, -1.75867579e-04, 8.09733956e-06,
          6.43821026e-04, 1.07330110e-04, -8.78507853e-05,
          -1.32811052e-04, 4.39731055e-04, 6.34491211e-04,
          1.64902463e-04, 3.30240815e-04, 9.39553502e-05, 2.29175756e-04,
          -5.99183084e-04, 1.70997264e-05, -1.31446679e-04,
          -1.02650163e-04, 2.91784410e-04, -5.59671200e-04,
          -8.72808523e-05, -1.82192714e-04, 3.46222252e-04,
          -5.87893046e-05, -2.61814363e-04, -1.12193084e-04,
          -4.98225447e-04, -2.24340401e-04, -2.79380300e-04,
          -2.87617324e-04, -5.92957513e-05, -2.30697580e-04,
          3.21718544e-04, -1.94835273e-04, 1.89159346e-05,
          4.32642519e-05, 6.92391841e-05, 4.17435542e-04,
          -1.24096114e-04, -3.11594958e-05, 8.89055664e-05,
          3.46198503e-04, -7.29281572e-04, 3.64944717e-04,
          3.34615441e-04, -3.74044961e-04, -5.49857854e-04,
          1.43951518e-04, -3.60311125e-04, 1.33766502e-04,
          -6.59030775e-05, 1.59800737e-04, 8.65606533e-04,
          -5.75845006e-05, 2.37221015e-04, -2.46751326e-04,
          -4.71973734e-04, -2.48651049e-04, -6.56906806e-04,
          5.41496673e-04, 3.27871123e-04, -5.48429613e-04,
          -7.14595153e-05, -2.25984477e-04, -6.48346104e-05,
          -2.89385818e-04, 8.74680190e-05, 2.78236868e-04,
          2.94885744e-04, 3.93188529e-05, -1.03189734e-06,
          7.19113334e-04, 8.25231982e-05, 5.58615022e-04, 2.29014448e-04,
          4.51987027e-04, -3.32391326e-04, -1.41969635e-04,
          2.60883535e-04, 2.66903317e-05, 6.14206889e-04, 3.33400414e-04,
          -1.74187750e-04, 4.19442396e-04, -2.87096336e-04,
          4.58742252e-05, 8.87602277e-04, -4.29522741e-04,
          5.14819170e-04, 5.28706762e-04, -5.58069733e-04,
          -1.64113473e-04, 8.25538373e-05, -2.41925387e-04,
          7.41355543e-05, -2.70645542e-04, 2.15552209e-04,
          -2.83258298e-04, -2.48644210e-04, 3.12467979e-04,
          1.04324310e-03, 7.81551644e-04, -2.49968522e-04,
          3.64207313e-04, 3.72049835e-04, 2.74908176e-04, 2.52960308e-04,
          5.83290348e-05, -3.20710416e-04, 2.85080401e-04,
          3.66208755e-04, 9.20461243e-05, 9.89732507e-05, 5.27413853e-04,
          -3.57291079e-04, -2.06609446e-04, -3.46195884e-04,
          4.28101601e-04, -8.86015914e-05, -6.86596031e-04,
          5.36813714e-05, 1.44826641e-04, 2.15561977e-05,
          -2.94150435e-04, 1.09365377e-04, -2.08789402e-06,
          2.81177548e-04, -8.12600250e-04, -1.42159274e-06,
          -8.47696210e-05, 1.78707691e-04, 2.73793412e-04,
          5.23613184e-04, 2.65579729e-04, 3.53878626e-04, 3.02995788e-04,
          2.28254532e-04, -3.76193493e-04, 4.82926873e-04,
          3.87867360e-04, 1.75990688e-04, -8.56909435e-04,
          5.89751471e-05, 1.34333706e-04, 4.25908569e-04,
          -6.71959715e-05, -2.30817517e-04, -1.44254940e-04,
          -1.76938367e-04, -1.13092130e-04, -6.17649755e-04,
          -4.26977131e-05, 6.24103763e-04, -4.40950767e-04,
          -2.04277221e-05, -3.21878790e-04, 4.40681237e-04,
          1.38868636e-04, -2.81901393e-05, -5.26876014e-04,
          6.48625253e-04, -2.79746600e-04, 7.10135733e-04,
          4.44833771e-04, -2.68001866e-04, 2.74531252e-04,
          3.41513660e-04, 8.15468899e-04, 9.54560994e-04, 1.12488648e-04,
          3.18336446e-04, 3.70416150e-04, 2.33716943e-04, 3.22851010e-05,
          3.38218641e-04, 2.39177782e-04, 1.11123925e-04,
          -1.55629081e-04, -1.90081919e-04, -2.92158540e-04,
          -3.98082222e-04, 4.80669958e-04, -1.55727947e-04,
          7.18773736e-05, -3.17830272e-04, -1.12586604e-04,
          -3.55749042e-04, 2.01065181e-04, 2.33922605e-04,
          -4.45158039e-05, -2.73526098e-06, -3.60895327e-04,
          -2.03818922e-06, 1.27999272e-04, -1.84528562e-05,
          3.63068277e-04, 1.29679916e-04, 3.26405861e-04,
          -2.40460256e-04, 7.64700992e-04, 6.24376844e-05,
          7.59949035e-04, -1.74842426e-04, 3.25555629e-06,
          -1.16236384e-04, 3.16992991e-05, -6.28328125e-04,
          -1.59178919e-04, 5.26811891e-05, 2.66167568e-04,
          9.93027061e-05, -2.08081634e-04, -5.63713256e-04,
          -3.75190604e-04, -4.51202912e-04, -8.22933216e-04,
          6.17345577e-05, -9.08985166e-05, -2.52262864e-04,
          -5.61039196e-04, -2.04017852e-04, -3.36705358e-04,
          -1.59002288e-04, -3.59003170e-04, 4.52523818e-04,
          1.57065166e-04, 3.46544170e-04, -1.01243917e-04,
          7.14007474e-04, 4.39554715e-04, 7.75785666e-05, 3.75344098e-04,
          3.08604678e-04, 5.62090485e-04, 3.04077053e-04,
          -1.81832191e-04, 6.84598344e-05, 1.82777549e-05,
          -1.81484604e-04, -2.01273695e-04, 1.36417962e-04,
          -8.87582282e-05, -4.74451590e-05, -4.75233446e-06,
          -1.26968138e-04, -5.67993906e-04, -1.70061714e-04,
          -4.09399450e-04, -4.48541308e-04, -4.12992638e-04,
          1.14556657e-04, -2.22984410e-04, -3.72386130e-04,
          1.34220856e-04, 2.57999374e-04, -8.52204801e-04,
          -1.91816333e-04, -3.04531888e-04, 3.33756529e-04,
          -3.46689281e-04, 4.02347447e-04, 6.10158662e-04,
          4.73069027e-04, -3.20876352e-05, 4.34416463e-04,
          5.54599683e-04, 1.00604804e-04, -4.09342785e-04,
          -6.23226588e-05, -2.51743855e-04, 4.49100517e-05,
          -2.14725282e-04, 8.11958162e-05, -2.77025974e-04,
          -1.05885947e-05, -3.12258548e-04, -4.23545018e-04,
          -7.09184824e-05, -1.41672455e-04, -4.08956956e-04,
          -2.67043593e-04, -5.16968546e-04, 7.96563399e-05,
          4.55724337e-04, -5.71333076e-05, 1.85131052e-04,
          -1.03608887e-04, -4.43022116e-04, -2.80208362e-04,
          -1.77596754e-04, 3.39855818e-04, -8.84124092e-05,
          -3.69947520e-05, 6.54816104e-04, 4.79398703e-04,
          8.28069897e-05, 1.88798032e-04, 5.58505591e-04, 5.65892609e-04,
          -1.24154525e-04, -3.22540844e-04, 2.17447072e-04,
          1.23196573e-04, 3.29083450e-05, 1.43408834e-04,
          -4.08269087e-04, 2.26444463e-04, -7.33494817e-04,
          -3.67778644e-04, 3.68157518e-04, -1.62145981e-04,
          -3.84581683e-04, 8.60803048e-05, 1.07221320e-04,
          1.21107405e-05, -8.56413331e-04, -7.89452533e-05,
          -7.85191787e-06, 1.59810988e-05, -3.95809533e-04,
          2.07496574e-04, 4.36254661e-04, 7.16058785e-05,
          -4.05092433e-05, -4.64865152e-04, 4.91399085e-04,
          3.28740134e-04, 9.08375732e-05, -2.87502684e-04,
          -6.18514459e-05, -1.62493234e-04, 3.28887458e-04,
          -6.17222569e-04, -4.27694977e-05, -2.59473134e-04,
          2.14364758e-04, -1.63351375e-04, 3.35531258e-05,
          5.60484652e-04, 1.24095008e-04, -4.64388781e-04,
          -2.16695335e-04, -1.55991966e-05, 9.41147955e-05,
          8.41298533e-05, 8.26875184e-05, 3.15013371e-04,
          -4.19267657e-04, -2.24952109e-05, -5.77203115e-04,
          7.60110328e-04, 2.40956215e-04, 1.41119162e-04,
          -1.49653948e-04, 1.02349906e-04, -2.00319497e-04,
          -1.79800954e-05, 4.66055470e-04, 4.78716131e-04,
          6.63860556e-05, 8.52471712e-05, 4.54705805e-05, 1.22055870e-04,
          4.92227438e-04, 3.80954007e-04, -3.51817434e-04,
          -1.94679291e-04, 2.79211934e-04, 2.30230100e-04,
          3.19446408e-04, 7.02091435e-04, 2.79578933e-04, 4.58132447e-04,
          3.50096059e-04, -8.04180963e-05, -2.99259758e-04,
          -1.66572481e-05, -1.73967012e-04, -1.48725085e-04,
          -4.84082528e-04, 3.61273414e-04, -2.48199241e-04,
          2.19789028e-04, 1.21345169e-04, -3.01208813e-04,
          -4.60304203e-04, 9.43622217e-05, 1.18419361e-04,
          -1.41669690e-04, 7.68742641e-04, 4.17515548e-04,
          5.28377481e-04, 2.57417967e-04, 1.93164742e-04,
          -7.56496505e-04, 3.97669908e-04, -1.33703797e-04,
          3.58469057e-04, 4.06154541e-05, 3.99411249e-04, 7.11451285e-05,
          1.24064600e-05, 4.47909173e-04, -2.27285054e-04,
          -8.75983213e-04, 4.80689429e-04, -3.01528111e-04,
          -1.11177644e-04, -2.83460628e-04, 1.26665342e-04,
          -6.43362291e-04, -1.88900100e-04, -3.62937368e-04,
          -4.53577115e-04, 1.57981427e-04, -7.55276851e-05,
          -3.13980709e-04, -5.99937994e-05, 5.68915721e-06,
          1.30767759e-04, -6.75629854e-05, 4.98479581e-04,
          -5.44697046e-04, -3.25678440e-04, 4.68451675e-04,
          2.39441739e-04, -3.79074307e-04, -3.62557243e-04,
          2.67639611e-04, 7.26299331e-05, -1.83263706e-04,
          -3.76115531e-05, -4.97368863e-04, -4.65986050e-05,
          -3.83779232e-04, -1.04908657e-03, -2.44401454e-04,
          -5.78594976e-04, -5.41831832e-04, -2.78778258e-04,
          -9.45670123e-04, -5.98269835e-05, -1.15059654e-03,
          -9.30966053e-05, -6.71255984e-04, -7.71119492e-04,
          -6.23792701e-04, -9.19120357e-05, -7.60575174e-04,
          -2.07731602e-04, 4.48892970e-04, 6.42877945e-04,
          7.20524753e-04, 2.25368800e-04, -1.52868030e-04,
          6.88121421e-04, 3.90210917e-04, 7.30329135e-04, 4.56278416e-04,
          8.08518264e-04, 4.46104415e-04, 6.94765651e-04, 2.91655248e-04,
          4.47905884e-04, 1.51140150e-04, 1.15932162e-05, 3.19034356e-04,
          3.52134113e-04, 1.17689808e-04, 3.28738504e-04, 4.95858294e-05,
          2.98699801e-04, -7.30411441e-04, 3.33275791e-04,
          -1.17337935e-04, 4.82999421e-05, -3.48955306e-04,
          4.07060405e-04, -1.43136320e-04, 2.99557229e-04,
          -2.86972732e-04, 8.86278518e-04, 4.14267881e-04,
          -9.56960594e-06, 2.64087692e-04, 5.78333042e-04,
          -2.74496851e-04, 3.20186082e-04, 6.73435163e-04,
          3.62699502e-04, 3.48615489e-04, -2.19934998e-04,
          3.46046465e-04, 4.23013582e-04, -8.38455599e-05,
          -1.69842795e-04, 3.90230794e-04, -1.19071388e-04,
          3.74434458e-04, -2.59070395e-04, 3.95096686e-05,
          2.38854060e-04, -5.82101929e-04, 4.14088747e-04,
          -1.96761859e-04, -1.33758949e-04, 3.25003057e-04,
          8.49428034e-05, -7.28154992e-05, -5.33628103e-04,
          -3.21053558e-05, 3.42836458e-04, -6.57302793e-04,
          2.66121260e-05, 3.36366560e-04, 1.31220950e-04,
          -2.56497238e-04, 6.86895601e-06, 3.43279593e-04,
          -1.13740258e-04, 8.01328628e-04, 5.29224635e-04,
          2.47555727e-04, -2.24844174e-04, -3.05093534e-04,
          -1.06984095e-04, -6.36643745e-05, -1.07700405e-04,
          4.62155789e-04, -2.65094714e-05, 1.08972788e-04,
          -7.86648598e-04, -3.02390690e-04, -1.65555757e-04,
          -2.54945830e-04, -2.22942661e-04, -2.68009462e-04,
          1.60954936e-04, -4.89506987e-04, -3.15254729e-04,
          1.91495463e-04, -7.95714324e-04, 1.75667723e-04,
          -3.03450593e-04, -4.60927957e-04, -6.46160333e-04,
          4.44380363e-04, 6.22418243e-04, 3.21182713e-04, 4.55230969e-04,
          -5.74969861e-04, -2.29828176e-04, 5.62608620e-05,
          1.89728617e-05, 3.90978472e-04, 2.09111284e-04, 7.79451511e-04,
          1.07607077e-04, -9.23410407e-04, 9.39612801e-05,
          -9.94303628e-06, -2.13385327e-04, 5.35162799e-05,
          -1.67876133e-04, -1.25765349e-04, 1.00938982e-04,
          -1.94781693e-04, -1.27265332e-04, 3.03905224e-04,
          -1.59325733e-04, -6.33683580e-04, -4.13930684e-04,
          -2.32161721e-04, -9.42710994e-06, -8.24292540e-04,
          -5.05991164e-04, 4.08785163e-05, -8.90370517e-04,
          3.72009235e-04, 2.64492613e-04, 4.00633553e-06, 1.11360324e-03,
          -6.83792459e-05, 5.51664561e-04, 2.45375821e-04,
          6.04099128e-04, 1.54746012e-04, 6.65582425e-04,
          -6.66226115e-05, 7.12816429e-04, -1.61039497e-04,
          3.53285548e-04, 4.35438764e-04, -9.36529323e-05,
          7.30388332e-04, 2.82254041e-04, 4.73293563e-04, 1.50794527e-04,
          -2.74671707e-04, 4.81038092e-04, 2.09253303e-05,
          -8.07081960e-05, 3.36783996e-04, -8.59392821e-05,
          3.66198874e-05, -3.51856238e-06, -3.01747146e-04,
          2.93826015e-04, 3.12408200e-04, 1.65681995e-04, 2.41058078e-04,
          -9.80396871e-05, 2.83299974e-04, 4.55456902e-04,
          3.99564829e-04, 6.86248648e-04, 4.82365198e-04, 9.51774855e-05,
          -1.43034806e-04, -3.91792681e-04, -4.57457936e-04,
          3.57928220e-04, 4.33670008e-04, 1.50749634e-04, 3.84273328e-04,
          6.05490000e-04, 2.24007119e-04, -1.85779820e-04,
          1.02775790e-04, -1.78367249e-04, -3.45084874e-04,
          3.06616712e-05, 1.06300649e-05, -3.35254867e-06,
          -1.33194742e-04, 3.17273109e-04, -5.31285186e-04,
          -6.01610169e-04, 6.26956462e-05, 1.09277797e-04,
          -2.89631571e-04, 1.17767711e-04, 1.02430577e-05,
          6.06845191e-04, 5.37069689e-04, -4.29273903e-04,
          1.96878784e-04, 5.03032425e-05, 6.55606214e-04,
          -1.42411460e-04, 1.77833557e-04, 2.90561467e-04,
          -5.16156550e-04, -3.22992768e-04, 5.14251878e-04,
          3.79501027e-04, -4.46739083e-04, -2.49856894e-05,
          -4.35392431e-05, -2.55492905e-05, 2.48261149e-05,
          -2.01917952e-04, -1.65747959e-04, -1.85245153e-04,
          -4.96888300e-04, -4.47306287e-04, -2.05963675e-04,
          3.48241098e-04, -1.59610441e-04, -1.08010472e-05,
          7.12339533e-05, -5.34824649e-05, -4.87114216e-04,
          -5.88980969e-04, -4.25944978e-04, 7.11616711e-04,
          3.81767488e-04, 1.44993668e-04, -2.76314298e-04,
          -7.01072568e-05, 9.74689494e-04, 3.55628959e-04,
          -7.43926284e-05, 3.51920724e-04, 2.81920366e-04,
          -2.79666448e-04, -4.98247209e-05, 2.93352816e-04,
          -1.11308815e-04, -2.92977584e-05, -3.99551122e-04,
          -3.73788527e-04, 2.50524259e-04, -6.65306055e-04,
          -1.28135889e-05, 6.56162520e-05, -8.16013853e-05,
          -3.40475206e-04, -7.41260243e-04, -9.67294618e-05,
          1.65692341e-04, -3.28001246e-04, 1.85826779e-04,
          1.79495310e-05, -1.28012281e-04, -6.71112910e-04,
          2.36658409e-04, -1.77891925e-04, 5.85065398e-04,
          6.19895698e-04, 7.14815920e-04, 2.39476212e-04, 2.69978191e-04,
          8.24904826e-04, 3.16644902e-04, -5.84554276e-04,
          1.00158236e-03, 2.47266813e-04, 5.76310093e-04,
          -3.88776243e-05, 2.18251516e-04, 1.53886576e-05,
          8.02439870e-04, -7.52599008e-05, 1.69263454e-04,
          9.11624447e-05, 1.66639889e-04, -3.28749826e-04,
          8.02370996e-05, -4.92186751e-04, 3.69501155e-04,
          4.95811400e-04, 3.54198914e-04, 1.08136446e-04, 4.80600109e-04,
          -4.14183101e-04, -4.04609425e-04, -3.25659057e-04,
          -3.82344697e-05, -2.01218922e-04, 4.50720196e-04,
          5.53216669e-04, 1.34339833e-04, -5.63590256e-05,
          3.66330409e-04, 2.22058443e-04, 1.11327725e-04, 2.56724830e-04,
          1.85741774e-05, -3.58214864e-04, 3.85550840e-04,
          3.28506605e-04, -3.54700460e-05, -4.04104037e-04,
          -1.11456575e-04, -9.89321852e-05, 4.42784440e-05,
          -6.54471689e-04, -5.85038797e-04, 4.14041187e-06,
          1.97270783e-04, -1.92739550e-04, -3.59930855e-04,
          -4.89867176e-04, -1.71053049e-04, 9.17679645e-05,
          -2.33017243e-04, -3.85472958e-04, -1.63490651e-04,
          -4.93282569e-04, -6.31304056e-06, 3.24659253e-04,
          -1.12176625e-04, 6.76075928e-04, 6.10767049e-04,
          4.49624815e-04, 1.90513438e-05, 1.34866481e-04, 5.21194015e-05,
          3.22216685e-04, -2.73102341e-04, 2.61828129e-04,
          1.78536255e-04, 1.13304246e-04, -3.27550777e-04,
          -1.18544667e-04, -1.85267185e-04, 3.52897740e-04,
          -4.13946371e-04, -6.14050194e-04, -5.59664797e-04,
          -5.43855072e-04, 1.27902385e-04, -1.37060459e-04,
          -6.43653562e-04, -3.47171910e-04, -3.83197388e-04,
          -7.35266367e-05, 1.66512138e-04, -1.26408006e-04,
          -1.25631326e-04, -3.24160181e-04, 2.13737891e-04,
          3.44734071e-05, 4.25152684e-04, 6.93328795e-04, 1.52502631e-04,
          2.61173234e-04, 7.74740241e-04, 3.00291111e-04, 2.50299257e-04,
          -3.66128777e-04, 1.72371816e-04, -1.15283503e-04,
          -1.87343161e-04, -7.72996191e-06, 4.71735926e-04,
          -1.32209470e-05, -7.76476692e-04, 1.55939531e-04,
          1.59970426e-04, -2.75633247e-05, 9.83694117e-05,
          -4.84506163e-04, -2.54862854e-04, -1.36742819e-05,
          -1.01750367e-03, -1.57341288e-04, 7.14722846e-05,
          -3.65917251e-04, 3.62942519e-04, -4.37903043e-04,
          -6.67306595e-04, -5.72362565e-04, -1.63511228e-04,
          1.98110880e-04, 1.13904197e-03, 6.38545549e-04, 6.25107263e-04,
          -1.27743333e-04, 4.09939355e-04, 8.03032308e-05,
          1.99174188e-04, 1.91771236e-04, 5.85735543e-04,
          -2.22622024e-04, 5.23593510e-04, -4.84272256e-04,
          2.14264524e-04, -2.30341248e-05, -7.48632156e-05,
          -1.30619374e-05, 5.96554892e-04, -8.07356482e-05,
          -1.36431307e-04, -1.30423519e-04, 2.79724569e-04,
          -2.05768883e-04, 6.13894445e-05, -4.35397786e-04,
          3.82434548e-04, 9.46455984e-05, 6.92900736e-04, 1.60929805e-04,
          3.76516313e-04, -2.99910957e-04, 2.74844060e-04,
          5.27862867e-04, 8.07537115e-04, 4.44055418e-04, 9.11549607e-04,
          3.36963363e-04, 2.20688889e-04, 6.63727496e-06, 1.25067279e-04,
          3.15704528e-04, 5.91804215e-04, 2.91915232e-04,
          -1.73490858e-04, 2.38434135e-04, 1.12596637e-04,
          6.75610281e-05, 4.02481994e-04, -4.23168327e-04,
          7.69778271e-04, 1.47772516e-04, 9.92774076e-05,
          -8.40055218e-05, 1.43551923e-04, 4.22078272e-04,
          -2.47926910e-05, -2.34701711e-05, 4.25900507e-04,
          6.19319544e-05, 5.71738754e-04, 1.01712226e-06, 5.71785669e-04,
          -1.09009481e-04, 1.77675000e-04, -5.07574179e-04,
          5.72494464e-04, 1.30915054e-04, 7.21425895e-05, 4.03093931e-04,
          2.43874820e-04, -5.38538334e-05, 7.84002623e-05,
          1.62705823e-04, -6.28457929e-05, -2.80965003e-04,
          -4.61490534e-04, 1.42314806e-04, 2.47902295e-04,
          4.56592606e-05, -1.29603286e-05, -3.81544029e-04,
          8.09570192e-05, 2.23721829e-04, 2.03339951e-04,
          -5.22925053e-04, 4.37435112e-04, 3.20159917e-04,
          -1.45988970e-05, -2.01274772e-04, 3.91445734e-04,
          3.53184150e-04, 1.96489691e-05, -2.76738603e-04,
          3.48404341e-04, -2.65538285e-04, 2.00115057e-04,
          -9.41999606e-04, 4.49599756e-04, -7.60187759e-05,
          1.61479329e-05, 1.52860724e-04, 5.30856669e-05, 1.88529419e-04,
          3.53078038e-04, -4.14861017e-04, 3.73714836e-04,
          -5.66430281e-05, 1.95641460e-05, 8.32153091e-05,
          -1.25050341e-04, -2.56575440e-04, 1.89948041e-05,
          -4.56207083e-04, 9.27843561e-04, 3.67365283e-04,
          -8.59248976e-05, -3.75449919e-04, 1.71115025e-04,
          -3.41988401e-04, 4.39676835e-04, 1.67345876e-04,
          8.32119433e-04, -3.40867788e-04, -2.22954477e-04,
          1.07947249e-04, 4.40566626e-04, -2.33690575e-04,
          2.29756843e-04, 7.23436242e-04, 5.62794739e-04, 6.45249209e-04,
          -6.29124581e-04, 3.78749595e-04, 4.31261084e-04,
          4.36757808e-04, 3.41025298e-04, -4.86773979e-06,
          2.87980278e-04, 6.63659768e-04, -2.27593642e-04,
          1.01131463e-05, 3.02256929e-04, 5.81688713e-04, 2.43982082e-04,
          -4.95257671e-04, -2.42462498e-04, 7.92183782e-05,
          1.02700503e-03, -1.46515624e-04, -2.57294741e-04,
          9.92945788e-05, -9.09599767e-05, -3.98154007e-05,
          2.64782400e-04, 6.12575444e-04, -4.19802935e-04,
          1.11276095e-04, -4.63535602e-04, 4.52342210e-04,
          3.65034037e-04, 2.06699129e-04, 1.80554009e-04, 6.82178797e-05,
          -3.98010714e-04, 5.26114949e-04, -1.84439505e-05,
          4.94655571e-04, 1.60493975e-04, -6.71397502e-05,
          2.09867867e-04, 3.08052026e-04, -5.36675434e-05,
          -5.33611921e-04, 3.96639225e-04, 2.17086781e-04,
          3.09597206e-04, -1.37204566e-04, 1.34509915e-04,
          1.52003573e-04, 1.89497674e-04, -3.37631820e-04,
          -3.09487601e-04, -3.10698560e-05, -2.00963739e-04,
          3.01991939e-04, 2.12272469e-04, 1.62354307e-04,
          -1.19069628e-04, 1.37066687e-04, 4.71503190e-05,
          -1.31798603e-04, -2.31046088e-05, 1.08105167e-04,
          1.25944949e-04, -2.10852202e-04, -7.60365583e-05,
          4.17952309e-04, 1.90626306e-04, 1.49660729e-04,
          -2.23158306e-04, 2.18810470e-04, -2.10851467e-05,
          -1.47395796e-04, 4.09315922e-04, 4.67487225e-05,
          3.50883027e-04, -1.26016821e-04, -6.67638005e-07,
          -2.40385943e-05, -3.09351366e-04, -2.16871093e-04,
          -6.46660119e-05, -5.95102145e-04, 2.88881740e-04,
          -5.38185821e-04, -2.13739229e-04, -1.96962908e-04,
          -3.29150760e-04, -6.06343528e-05, -3.02808650e-04,
          -3.75728152e-04, 5.23761613e-04, 2.85286136e-04,
          -6.42312458e-04, -2.18031884e-04, 5.43518923e-04,
          -4.46155173e-04, 2.19690555e-04, 4.82878415e-04,
          2.00402661e-04, 5.67444717e-04, -5.55440842e-04,
          -2.92125565e-04, -1.47344153e-05, -7.00527235e-05,
          7.50986801e-04, 5.64354472e-04, 2.83351837e-04, 3.35525518e-04,
          4.08959022e-05, -2.69688404e-04, 1.66979618e-04,
          4.42939694e-04, 2.62371541e-05, -3.22747161e-04,
          -3.27619869e-04, -4.03065169e-05, -3.52111587e-04,
          2.41696507e-05, 3.52030445e-04, 1.18091833e-04,
          -4.73587337e-04, -7.95518805e-04, 5.71507007e-05,
          -8.45505201e-05, 3.97650329e-05, 2.12351602e-04,
          7.70453262e-05, -7.88844700e-05, -3.54895950e-04,
          2.48343917e-04, -3.66509994e-05, -7.82970092e-05,
          1.06037558e-04, 5.32279955e-04, -2.40209352e-04,
          -2.82570923e-04, 1.93895219e-04, -1.00841469e-04,
          3.12638906e-04, -1.56270005e-04, -4.23249789e-04,
          2.30647565e-04, 9.90389672e-05, 2.30004647e-04,
          -3.32342112e-04, -4.64357472e-05, 9.64027568e-05,
          -2.61112640e-04, -8.01287315e-05, 1.95635599e-04,
          3.81450402e-04, 1.86041609e-04, -8.94552446e-04,
          -3.17858299e-04, 1.67495280e-04, -4.78479815e-05,
          -9.16654244e-06, 1.64839352e-04, 3.97302269e-04,
          2.00108825e-05, -7.29792169e-04, 3.35369929e-04,
          -1.94599153e-04, 7.04219638e-05, 2.93579011e-04,
          -3.93408758e-04, 6.70719674e-05, -3.05954047e-04,
          3.16272257e-04, -1.06900123e-04, -9.23059706e-05,
          3.80041718e-04, -3.35743862e-05, -4.29245047e-05,
          1.32292087e-04, 2.52848055e-04, -1.13956776e-06,
          -1.18203447e-04, -4.14745969e-04, -2.31282960e-04,
          3.20828141e-04, 1.79964729e-04, -2.80253007e-04,
          4.05949890e-04, -9.00290906e-05, -9.86847008e-05,
          -3.19358893e-04, 1.74828558e-04, -3.09694209e-04,
          1.49422980e-04, 1.91180719e-04, -1.91290655e-05,
          -2.04533731e-04, 3.65672837e-04, -2.10240236e-04,
          3.18035687e-04, 4.45851008e-04, -5.85778442e-04,
          -3.37322053e-05, 2.68030737e-04, 3.84040322e-04,
          -5.55265346e-04, -4.79031769e-06, 1.82896445e-04,
          -3.46846093e-04, 2.40899681e-04, -1.78990667e-04,
          -2.84938433e-04, 2.80683133e-04, -3.76819400e-04,
          3.92651011e-04, -9.12269825e-05, 4.25957951e-05,
          1.86256235e-04, -2.44623923e-04, 1.72329732e-04,
          1.14431125e-04, -1.77214737e-04, 8.44953465e-05,
          1.19739088e-04, -3.66316090e-04, -2.21350725e-04,
          9.93940412e-05, 5.12832950e-04, -2.64212547e-04,
          3.66677268e-04, -1.31382505e-04, 5.48225653e-04,
          -2.62217160e-04, -4.19089396e-04, 2.51221965e-04,
          -9.42248225e-05, 4.18527430e-04, 8.09776539e-05,
          -2.45246716e-04, 6.32435142e-04, -7.18327181e-04,
          1.87105223e-04, 2.78277555e-04, -1.77660171e-04,
          8.21295616e-05, -5.80400403e-04, 1.14287242e-04,
          8.40012624e-04, 1.04445200e-04, 8.59733846e-05,
          -2.30501773e-05, 1.72032233e-04, -2.85861519e-04,
          -5.07825462e-04, 1.36757051e-04, 4.58711474e-05,
          1.48589403e-04, -4.75801498e-05, 8.92220240e-04,
          1.75781795e-04, -9.99483673e-05, -2.98091094e-04,
          3.38976184e-04, 5.76392980e-04, 1.47516585e-05, 1.04647937e-04,
          7.78537651e-04, -1.87169178e-04, 2.18631933e-04,
          -4.73190972e-04, 4.39303374e-04, 3.81192192e-04,
          -7.06372957e-05, -3.72544600e-05, 1.99400136e-04,
          -2.73027836e-04, 2.69251381e-04, 5.15152024e-05,
          -2.68779433e-04, 9.74483846e-05, -3.55277189e-05,
          -1.16819974e-04, -1.29268510e-05, 2.18255343e-04,
          -3.59744823e-04, -1.39129188e-05, 1.57632148e-05,
          1.62891869e-04, -2.03476971e-04, 1.95741304e-04,
          1.51983986e-04, -1.51871616e-04, 2.10686616e-04,
          -8.51611767e-05, 1.32707311e-04, 6.45928318e-04,
          2.64858372e-05, -3.03479319e-04, 4.17172880e-04,
          -8.64163812e-05, -4.90716542e-04, -3.43176245e-04,
          1.99194197e-04, 2.23612515e-04, -1.99643357e-04,
          -1.63125573e-04, -1.70270767e-04, 5.55340783e-04,
          2.56320232e-06, -1.87837941e-04, -1.95642482e-04,
          3.18628707e-04, -5.77284627e-05, -2.34768289e-04,
          1.09667861e-04, 3.29537470e-05, -2.89440184e-04,
          -1.17632633e-04, -2.87310511e-04, 6.04049710e-04,
          -2.68868433e-04, -1.16155294e-04, 2.92322715e-04,
          -3.99706332e-05, 3.13910074e-04, 1.06454536e-04,
          5.90722892e-04, 3.30373441e-04, 2.21082460e-04, 1.24668528e-04,
          1.10824854e-04, 1.05907173e-04, -1.65726990e-04,
          1.37128169e-04, -2.88001960e-04, -4.28240834e-04,
          2.57818319e-04, -4.65314981e-04, -6.84527331e-05,
          -1.70769563e-04, 5.16023370e-04, 1.57227289e-04,
          1.08123742e-04, -5.67382958e-05, -3.12305929e-04,
          -3.35457007e-04, 4.17836156e-04, -3.67737346e-04,
          2.44076466e-04, -8.22107890e-04, 1.15370691e-04,
          3.98624834e-04, -3.82288745e-05, -4.17953197e-05,
          3.23085202e-04, 3.83547216e-04, 3.62188148e-04,
          -3.73179209e-04, 4.36742615e-04, 9.20446124e-04,
          -5.20801404e-05, -8.77262064e-05, 6.43709136e-05,
          -7.98085675e-05, 8.47367992e-05, -8.04248848e-05,
          -1.48517545e-04, 2.08308367e-04, -5.20057756e-06,
          6.93810216e-05, 8.59417196e-05, -1.74631532e-06,
          3.92395566e-04, 2.77004088e-04, -5.27597649e-06,
          -8.00244961e-05, -2.84230133e-04, 2.18333080e-04,
          2.59898050e-04, -8.44622846e-05, 5.21939888e-04,
          -4.13763628e-04, 8.95411576e-05, 1.97182730e-04,
          5.46529598e-04, -1.79947630e-04, -7.15666509e-04,
          1.81091164e-04, -6.35744072e-05, -3.04784538e-04,
          4.30356653e-04, 1.60013980e-04, 5.07504272e-04,
          -3.53896285e-05, -6.16468547e-04, 3.17499682e-04,
          1.22498852e-04, 9.75909134e-05, -1.20342025e-04,
          1.45391663e-04, 8.02761351e-05, -2.48899451e-04,
          -1.00951533e-04, 1.46642560e-04, 1.03454455e-04,
          -3.20208455e-05, 1.05939143e-04, 5.77363862e-05,
          6.97454787e-04, -7.77069305e-04, 8.87407950e-05,
          3.28097754e-04, 6.55896030e-04, 2.32752733e-04, 1.33137670e-04,
          2.05885168e-04, 8.38846026e-05, 3.59878555e-04, 3.71498434e-04,
          3.07505718e-04, 1.09029161e-05, -1.52116394e-04,
          -2.61380686e-04, 1.27034684e-04, -2.07798133e-04,
          -2.09351820e-05, 8.91745440e-05, -2.48189957e-04,
          2.53335893e-04, -2.98364830e-05, -1.89343555e-04,
          5.60441869e-04, -1.36105606e-04, -1.30577362e-04,
          2.76874547e-04, -7.52647407e-04, 4.00782621e-04,
          -9.15441415e-05, 1.32148081e-04, -5.98984370e-05,
          6.81333418e-04, -3.17718310e-04, -1.78599712e-05,
          2.41195914e-04, 2.84966663e-04, -6.19657148e-05,
          -6.80443336e-05, 5.77648789e-05, 1.73739973e-04,
          4.33776848e-04, 8.48548370e-05, 4.52879103e-05, 5.54076047e-04,
          4.33765126e-05, 1.99896182e-04, -2.74233662e-05,
          -3.65934800e-04, 1.18612996e-04, 7.94499138e-05,
          -8.91408417e-05, 3.76138632e-04, -8.15359745e-05,
          -1.78222435e-05, 9.33880292e-05, -3.87200744e-05,
          7.71358464e-06, -5.19262045e-04, -4.65133839e-04,
          1.73562330e-05, -2.47375603e-04, 1.47422674e-04,
          -9.85683891e-06, 7.11755070e-04, -3.98905249e-05,
          6.68763241e-05, -2.04323107e-04, -2.93882593e-04,
          4.46107093e-04, 3.76091630e-04, -6.43430030e-05,
          1.93682121e-04, 1.17031377e-04, 6.29662420e-04, 1.18907737e-04,
          -3.60213126e-05, 2.52498867e-04, -1.65247387e-04,
          -2.88892770e-04, -2.01000934e-04, -9.97007824e-04,
          7.34864210e-04, 4.34539717e-04, -7.28423358e-04,
          -4.29465232e-04, -3.76015989e-04, 3.33393575e-04,
          -9.69910325e-05, -1.06582756e-03, -3.84309911e-04,
          -3.85743217e-04, -3.65177548e-04, -6.40815822e-04,
          -2.18386936e-04, -1.00901940e-04, 2.88738811e-04,
          -3.94426956e-04, -8.52235768e-04, -1.06693595e-04,
          -9.63015133e-04, 2.17932393e-04, -2.40105626e-04,
          -2.78699910e-04, 4.08980821e-04, 8.43409507e-04,
          -1.88391823e-05, 1.58319381e-04, 1.36955452e-04,
          6.21462183e-04, 3.74059513e-04, 3.52003641e-04, 6.25897199e-04,
          5.43346105e-04, 6.61359663e-05, 2.54776969e-04,
          -6.61942249e-05, 6.15484081e-04, -1.33044756e-04,
          -7.05638959e-05, 2.11821520e-04, 5.84777954e-05,
          -1.22453333e-04, 1.04069359e-05, 2.74636084e-04,
          3.40311497e-04, 4.72361309e-04, -2.33417726e-04,
          -1.47345811e-04, -2.94672820e-04, 4.19634423e-04,
          2.68317235e-04, 3.90881614e-04, 6.01358362e-04, 1.92104329e-04,
          4.87827609e-04, 4.09050175e-04, 2.61991605e-04, 2.52063241e-04,
          5.29096520e-04, -3.66615044e-04, 9.23676125e-05,
          4.09949105e-04, 4.84437915e-04, 1.07876491e-04, 2.54418501e-05,
          9.29456946e-05, 6.45998749e-04, -1.86227218e-04,
          -1.26256549e-04, 3.01912805e-04, 4.04402788e-04,
          -2.07775709e-04, 2.28209159e-04, -6.52387273e-04,
          2.79378408e-04, -6.98925069e-05, -1.48159539e-04,
          1.90693419e-04, 4.17468080e-04, -1.00844336e-04,
          1.22431593e-05, -3.02979111e-04, -3.21881991e-04,
          3.98450560e-04, -6.39741193e-05, -2.97134393e-04,
          7.75025808e-04, 1.51080123e-04, 2.91485485e-04, 3.22073814e-04,
          2.28170422e-04, -5.31633035e-04, -3.18392325e-04,
          3.94355768e-04, 3.91652196e-04, -3.34263197e-04,
          2.00008086e-04, -1.32715300e-04, 6.40350743e-04,
          1.72399465e-04, -8.82107197e-05, -1.29165681e-04,
          5.33639453e-04, -5.45671443e-04, 1.62265133e-04,
          -3.56010532e-05, 1.94536871e-04, -1.55699207e-04,
          -8.32106525e-05, -3.58283723e-04, -5.66583658e-05,
          -3.59272934e-04, -3.07366281e-05, 2.19370602e-04,
          -4.55822039e-04, 7.88575126e-05, 1.67269696e-04,
          -8.42249603e-04, -9.18335809e-06, 5.46054507e-04,
          -2.10345388e-04, -2.17507317e-04, 2.59488501e-04,
          3.05784088e-05, -1.85447410e-04, 1.87673522e-05,
          3.57686135e-04, -1.47708575e-04, -1.73359149e-04,
          1.14505834e-04, 1.17914315e-04, -4.73136810e-04,
          3.28007474e-04, -2.22586707e-04, 1.60936208e-04,
          -2.76983134e-04, -1.45223923e-04, 1.38876654e-04,
          -8.77648068e-04, -5.80378866e-04, -9.70926048e-05,
          -3.15046753e-04, -5.98744140e-04, -5.03660413e-04,
          -2.11894931e-05, -1.59287360e-04, -5.08516910e-04,
          -5.72275312e-04, -4.48597595e-04, -8.84763358e-06,
          -5.66720671e-04, 6.41025021e-04, 1.34454705e-04,
          4.91500483e-04, 6.38089550e-04, 1.42833582e-04, 1.12544768e-03,
          -5.79362750e-05, 5.37034590e-04, 4.73950699e-04,
          -2.41138725e-04, 3.79999256e-04, 3.11723154e-04,
          -4.41794582e-05, 2.77457788e-04, 1.59110878e-05,
          -3.05649563e-04, 1.79665731e-04, 3.64722189e-04,
          8.12904000e-06, -6.44895117e-05, -1.36935836e-04,
          -6.15173194e-04, 3.27525340e-04, -5.72828576e-04,
          2.54527054e-04, -1.25482256e-04, -2.76363455e-04,
          5.27052965e-04, -4.99299786e-04, 6.87797583e-05,
          4.54066670e-04, -3.64195992e-04, 3.17294936e-04,
          8.68307077e-04, 8.75949452e-04, 2.17345238e-04, 3.87578650e-04,
          2.69309036e-04, 2.87249684e-04, -1.12988724e-04,
          9.13245720e-04, -3.39057064e-04, 4.23964171e-04,
          1.45206795e-04, 3.19627434e-05, -3.85754502e-05,
          -1.70622283e-04, -2.44637602e-04, 4.53614135e-04,
          -2.15130771e-04, 2.78600666e-04, -2.50874698e-04,
          -1.46419174e-04, 4.12112713e-04, 1.79531315e-04,
          7.18635129e-05, 2.96796934e-04, 1.51221111e-05, 3.46427405e-04,
          -2.96829472e-04, -9.55099040e-06, 7.26220824e-05,
          1.25962877e-04, 2.24274088e-04, 2.77939485e-04, 4.59854724e-04,
          7.54486711e-04, -6.44058600e-05, 2.55694438e-04,
          -1.61482778e-04, 1.04828179e-03, -1.53254485e-04,
          8.63202877e-06, -2.94951460e-04, 1.83337732e-04,
          2.18564295e-04, 4.18324053e-04, -1.36783216e-04,
          1.36172702e-03, -1.66719066e-04, 9.62061458e-05,
          -5.40813489e-04, -5.67426059e-06, 1.86157762e-04,
          8.11430145e-05, -1.62281518e-04, 1.57221933e-04,
          -8.18550994e-04, 2.75436760e-04, 5.21451817e-04,
          7.00981240e-04, -4.78729726e-06, 2.96845072e-04,
          -2.14066647e-04, -3.71114817e-04, 1.07345346e-04,
          8.57020670e-04, -1.14924813e-04, 1.78450486e-04,
          -4.47775783e-05, 2.42542868e-04, -1.55333328e-04,
          4.53672343e-04, -3.88347908e-05, 1.95709799e-04,
          -1.63992809e-04, 4.73317305e-05, 3.35269520e-04,
          4.41324228e-04, -3.30085371e-04, 4.40640521e-04,
          6.49237714e-04, -4.30151995e-04, -3.56135046e-04,
          2.82702298e-04, -6.40090875e-05, 3.18671489e-04,
          -1.86613706e-05, 2.45055708e-04, -5.24705800e-04,
          -2.86638766e-04, 3.27081885e-04, 1.21393176e-04,
          -7.64022698e-05, 7.57097790e-04, -4.55459885e-05,
          1.52231578e-05, -1.09409948e-03, 4.67354228e-04,
          2.43529226e-04, 4.38495597e-04, 3.63904517e-04, 4.40795586e-04,
          4.53221961e-04, 5.96835394e-04, -4.91639366e-04,
          4.64273879e-04, -2.90772459e-05, 5.23382332e-04,
          2.24186195e-04, 2.14518499e-04, 4.42874647e-04, 4.59437957e-04,
          4.37667011e-04, 3.01491527e-04, 2.01852919e-04, 1.94869994e-04,
          3.51062859e-04, 1.40589240e-04, 2.14641201e-04, 3.35743214e-04,
          3.33798089e-04, 7.18442607e-04, 1.59913383e-04, 2.90482421e-04,
          -7.01523852e-04, 5.06982451e-06, -1.59158262e-05,
          4.20828408e-04, -4.44205158e-04, 5.77072205e-04,
          -7.75715162e-05, 4.42554185e-04, -1.63939636e-04,
          3.92835762e-04, -1.13627248e-05, -1.52896537e-04,
          6.56929988e-05, 7.40767864e-04, -1.69178544e-04,
          4.19680837e-05, -1.34296439e-04, 2.72742152e-04,
          7.72194820e-04, 9.85046645e-05, 4.62829048e-04, 2.17620527e-05,
          -2.60558882e-04, -3.46526329e-04, 4.33857465e-04,
          4.67727841e-05, 5.01788454e-04, 3.69779475e-04,
          -3.20704217e-04, 3.14957462e-04, 5.14500949e-04,
          3.02228855e-05, -7.74768632e-05, 1.85038487e-04,
          -6.29149654e-05, 8.08615354e-04, -4.16267576e-04,
          2.82928871e-04, 1.29658947e-04, 2.17756606e-04, 1.89501516e-04,
          4.62401367e-04, -2.21600945e-04, 1.17435388e-03,
          2.13924912e-04, 4.86137869e-04, 1.82689851e-04, 5.12250735e-05,
          4.57951091e-06, 9.96509061e-06, 1.43382029e-04, 1.59265968e-04,
          4.36359434e-04, -3.53846641e-04, -2.98865998e-05,
          4.34937756e-05, 1.99081027e-04, -1.97869056e-04,
          -1.13960596e-04, 1.81167372e-04, -9.29899616e-05,
          7.27181614e-04, 5.09300618e-04, 1.88194332e-04,
          -1.90601655e-04, 3.72223614e-04, -3.50428250e-04,
          6.73719856e-04, -7.18679861e-04, 1.52120221e-04,
          -1.46369217e-04, 8.03240750e-04, -6.04837733e-05,
          1.97772504e-04, 2.13867970e-04, 5.55525708e-04, 1.12189127e-06,
          5.91287119e-07, -1.14086106e-04, 4.88974387e-04,
          1.73845663e-04, 2.67434487e-04, 1.86446370e-04, 3.74848860e-05,
          -1.57748465e-04, -7.69035483e-04, 1.20628923e-04,
          1.99427785e-04, -2.79432861e-04, 1.09896268e-04,
          -3.66012857e-04, 2.93690944e-04, 4.30615561e-04,
          3.87615262e-04, 4.42591234e-04, 3.96724827e-05,
          -4.23863821e-04, 5.00594360e-05, -7.59630348e-04,
          8.09606339e-04, 1.39960175e-05, 4.12176101e-04,
          -4.59371193e-04, 8.51653516e-04, -9.95544633e-06,
          -2.44076655e-04, -1.84326927e-04, 4.64431127e-04,
          1.28077940e-04, -2.74624559e-04, 4.23935329e-04,
          4.19993361e-04, -1.08815912e-05, 6.06215326e-04,
          -3.55656550e-04, 3.55236029e-04, -2.09405203e-04,
          -1.34718532e-04, -1.75061112e-04, 1.37046765e-04,
          2.40594803e-04, 4.46644583e-04, -3.11428943e-04,
          5.11057850e-04, 1.24273138e-04, 2.89820338e-04, 5.96174854e-04,
          8.43444897e-04, -6.80510275e-05, -3.63506930e-04,
          -5.76662715e-04, 3.81334365e-04, 9.38135054e-05,
          2.56622530e-04, -4.01156984e-04, 1.74439090e-04,
          7.87838944e-05, -5.18900924e-04, 1.96889028e-04,
          1.80241346e-04, 2.84044683e-04, 3.31792951e-04,
          -2.42467650e-05, 1.42498626e-04, -1.89156490e-04,
          4.22268873e-04, -5.59309083e-05, 4.08439024e-04,
          -2.01586518e-04, -5.92238612e-05, -1.80144358e-04,
          -1.95890898e-05, 8.41709334e-05, 4.75151435e-04,
          1.45418933e-04, 3.57798301e-04, -1.82744101e-04,
          -1.96841342e-04, 4.59145260e-04, 1.76826841e-04,
          3.25402129e-06, 7.49590399e-05, -2.05791890e-04,
          3.61576152e-04, 4.84705874e-04, -1.11504611e-04,
          -1.79458933e-04, -1.69507213e-04, 3.14600220e-05,
          3.19097482e-04, 1.47115628e-04, 1.65330755e-04, 3.58274992e-04,
          2.40372538e-04, -8.81752203e-05, 3.79485020e-04,
          -2.40369496e-04, 1.53998117e-04, -3.74070922e-04,
          -1.86331890e-04, 2.05555596e-04, 5.14994259e-04,
          -9.86849482e-05, 2.72830366e-04, -2.43252522e-04,
          7.32809858e-05, 2.89180953e-05, -3.18337930e-04,
          -1.29291628e-04, -1.44207603e-04, 2.76291510e-04,
          -7.20601602e-05, -2.25315278e-04, -1.37307565e-04,
          -4.82643663e-04, -1.61625285e-04, -3.12115357e-04,
          2.09816899e-05, -5.48561045e-04, 5.17356675e-04,
          1.88979375e-05, 5.56520419e-04, 2.23886629e-04, 7.29020569e-04,
          2.54734769e-04, -1.62879121e-04, -2.22763236e-04,
          2.79139902e-04, -3.89210836e-05, -2.05166842e-04,
          8.03326475e-05, 3.31867283e-04, -3.68782889e-06,
          1.85879398e-04, -2.05434728e-04, -1.04394683e-04,
          -1.84659744e-04, -2.77710933e-04, 3.84627900e-04,
          2.01188300e-06, -5.64213144e-04, -1.14758928e-04,
          4.37100789e-05, 1.28043001e-04, -3.11699463e-04,
          -1.43868441e-04, 2.17861889e-04, 1.93227199e-04,
          -4.72753309e-04, 2.44945491e-04, 1.67865612e-04,
          2.72719044e-04, -2.15592852e-04, -3.63647385e-04,
          -1.54717403e-04, 4.09505126e-04, -2.79234606e-04,
          -1.57602728e-04, 1.90981576e-04, -9.36283504e-06,
          7.06287043e-04, -1.69910913e-04, -3.06245987e-04,
          4.25940874e-04, 1.05336294e-04, 2.11700419e-04,
          -1.67484686e-04, 3.65104177e-04, 8.56304716e-04,
          7.91293278e-05, -1.64800091e-04, -9.76060437e-06,
          3.76290758e-04, -6.26531371e-04, -3.85513922e-05,
          3.02688841e-05, 8.31853977e-05, 1.28877837e-05, 1.86599951e-04,
          2.56559870e-04, 2.45546635e-05, 3.03958281e-04,
          -3.81225400e-04, -6.00887574e-07, 1.66564612e-04,
          -9.48141023e-05, 2.33453276e-04, 1.34553396e-04,
          1.60304931e-04, -1.62116645e-04, -1.12511174e-04,
          2.89341173e-04, 4.32132394e-04, 1.76202127e-04,
          -5.37425978e-04, 4.79554496e-04, 3.94542411e-04,
          4.80302551e-05, -6.47812994e-05, 4.25200269e-04,
          3.03383131e-04, 2.28074750e-05, -5.23231749e-04,
          3.82639642e-04, 3.62192106e-04, 1.69379462e-04, 2.09785139e-04,
          -3.33725067e-04, 1.32576606e-04, 1.94670662e-04,
          1.17975585e-04, 7.01866113e-04, -3.70801354e-05,
          -7.98679248e-05, 3.33231437e-04, -4.16452473e-04,
          4.53851739e-04, 1.64165845e-04, 6.64419145e-04, 2.96465092e-04,
          1.34668066e-04, 1.93987478e-04, -2.65267881e-04,
          1.51263564e-04, 9.45627107e-05, -2.35730986e-04,
          2.41946720e-04, 2.45529285e-04, -7.47919476e-05,
          -5.92922042e-05, 2.34538122e-04, 5.14092273e-04,
          -1.73848879e-04, -1.90264473e-04, 3.12964694e-04,
          -2.36471213e-04, -3.76984273e-04, 7.29849096e-04,
          2.53999897e-04, 1.14019836e-04, -1.10254310e-04,
          -2.91038246e-04, -5.91691460e-05, 4.27350897e-04,
          2.61529320e-04, -1.62438810e-05, 1.73586974e-04,
          -4.72105923e-04, 2.03196454e-04, 1.71629756e-04,
          6.08474365e-04, -2.92912562e-04, 2.67950207e-04,
          7.04038393e-05, 6.72936294e-05, -2.41197675e-04,
          6.03616179e-04, 2.46352080e-04, 4.41920347e-05,
          -4.03431659e-05, 2.59889639e-04, -1.61808159e-04,
          8.07265751e-05, 3.15417378e-06, 3.35261080e-04, 2.19453752e-04,
          3.00745800e-04, 2.24273463e-04, 5.82167355e-04, 6.78113953e-04,
          5.48105338e-04, -4.98814217e-04, 1.68953411e-04,
          1.41913697e-04, 1.85325189e-04, -1.09962624e-04,
          9.28386464e-04, 2.89183285e-04, 2.11693870e-04,
          -6.77725402e-05, -5.57955413e-04, 2.91917841e-05,
          -1.83707089e-04, -1.57531424e-04, 6.83762890e-04,
          7.50153267e-05, 2.43723043e-04, 3.39877937e-04,
          -3.86658619e-04, 2.96788872e-04, 5.96253303e-05,
          6.06413450e-05, -1.77176524e-04, 6.26440975e-04,
          5.24419651e-04, 5.47555101e-04, -6.71088537e-06,
          -4.73401669e-05, -1.13561931e-04, 3.46754707e-04,
          -4.02036909e-04, 1.13477628e-03, 4.63447621e-04,
          1.13886657e-04, -1.61243748e-04, -3.47229128e-04,
          -5.30895137e-04, 4.04402061e-04, -3.63650615e-04,
          1.23941165e-04, -2.53071368e-04, -5.42379799e-04,
          -8.19847119e-05, -8.03186267e-05, -2.69953540e-04,
          -1.39522643e-04, -1.71537686e-05, 1.33986949e-04,
          -8.22318310e-04, -2.05883407e-04, -2.55686085e-04,
          4.67880716e-04, -3.97441800e-05, 1.01238700e-04,
          -7.33516063e-04, 2.96753977e-04, -6.46724307e-04,
          7.15789065e-05, -2.99557811e-04, 3.28107235e-05,
          -6.32828451e-04, 3.06987902e-04, -5.77880783e-05,
          4.60811629e-04, 1.35551702e-04, 1.44309379e-05,
          -2.53406961e-05, 1.58864088e-04, -3.12939461e-04,
          -2.62425656e-05, -1.36842966e-04, 1.48037769e-04,
          -4.99663351e-04, 4.98525449e-04, 2.22644172e-04,
          -1.38611867e-04, -5.00638387e-04, 1.22905214e-04,
          -2.96558719e-04, -1.05601011e-05, -9.40974642e-05,
          3.16785969e-04, -1.90185834e-04, -1.14228998e-04,
          1.93903834e-04, -2.88420415e-05, 1.78803675e-04,
          -1.97638088e-04, -5.09640202e-04, 3.46158951e-04,
          -1.04897939e-04, -5.39389846e-04, -1.67255039e-05,
          4.73118329e-04, 2.43925184e-04, -4.47914586e-04,
          1.29615495e-04, 3.43791820e-04, -3.21974308e-04,
          -1.11171743e-04, -1.79744660e-04, 2.77952149e-05,
          -2.70787947e-04, -1.60883908e-04, -9.23384578e-05,
          8.15392777e-05, 1.77554917e-04, 9.92584173e-05,
          -1.94845095e-04, 1.96995286e-04, -7.53073473e-05,
          -1.78174494e-04, 1.51309825e-04, -3.80012993e-04,
          5.59576030e-04, 2.40343754e-04, -3.27829504e-04,
          -2.99682957e-04, 5.22725677e-05, -1.32634363e-04,
          4.00771160e-06, -1.72147702e-04, 3.69544025e-04,
          4.31899563e-04, -3.73754941e-04, -8.18197514e-05,
          -6.22138963e-04, 1.33982991e-04, -3.58031830e-04,
          1.67285049e-04, -4.37589915e-04, 4.73289139e-04,
          -5.50738070e-04, -4.27942112e-04, -4.20842000e-04,
          3.48106783e-04, -2.53139267e-04, -1.13877948e-04,
          4.59139148e-04, -4.49486688e-04, 4.90122475e-04,
          -3.43091844e-04, 3.43351829e-04, -1.33522233e-04,
          1.98209586e-04, 3.70018854e-04, 1.04975436e-04, 6.52838557e-04,
          1.89870843e-04, 3.23765707e-04, -2.83507165e-04,
          2.08115234e-04, 4.46640741e-04, -3.30690265e-04,
          2.37668093e-04, 7.60277791e-04, -9.56583011e-04,
          3.11136653e-04, 3.45985987e-04, 4.08100197e-04, 3.24774650e-04,
          -3.67147848e-04, 6.20366845e-05, 7.39859941e-04,
          -2.54437677e-04, 9.56935328e-05, 2.07908874e-04,
          2.34109219e-04, 2.80439825e-04, 3.93406022e-04,
          -1.43209370e-04, 7.82395146e-05, -1.04252649e-04,
          1.33583046e-04, 5.16843793e-05, 9.62558188e-05, 6.78767101e-05,
          -1.83657743e-04, 2.16175060e-04, 1.39563374e-04,
          -6.29866263e-04, -3.85182102e-05, 1.13698705e-04,
          -9.52616829e-05, -2.07773453e-04, 6.14289951e-04,
          -1.54215435e-04, -2.89686053e-04, 6.14831106e-06,
          3.30503564e-04, -1.77573223e-04, -2.80931108e-05,
          3.45240522e-04, 8.04346637e-05, 1.77508846e-04, 4.00700956e-04,
          2.96503422e-04, 2.02649477e-04, -6.14684192e-04,
          4.87533107e-04, -4.96971305e-04, -1.31566208e-04,
          -1.51567961e-04, 2.59034277e-05, -2.17680659e-04,
          4.78174567e-04, -1.47560626e-04, 7.06951192e-04,
          -1.30201675e-04, 8.92901517e-05, -3.33360600e-04,
          -1.89022085e-05, -7.65904697e-05, -9.18663209e-05,
          -4.76328278e-04, -1.48670195e-04, -2.59612221e-04,
          4.54937486e-04, -3.69589456e-04, -1.84115139e-04,
          -1.62785946e-04, -1.16347393e-04, -9.45281878e-04,
          2.84717407e-05, 7.57664247e-06, 3.17677623e-05, 3.68427718e-04,
          1.44926380e-04, -2.95700796e-04, 7.36341171e-05,
          6.72549941e-05, 1.56042370e-04, -4.70387226e-04,
          -4.67615697e-04, 2.46908807e-04, 5.51322184e-04,
          3.67229281e-04, 2.17647816e-04, 6.22936466e-04, 5.98130136e-05,
          -4.78266942e-04, -3.79671052e-04, 5.92772500e-04,
          4.66841229e-05, -1.29107750e-04, -2.90266558e-04,
          6.39628503e-04, 1.62598444e-04, 4.29755251e-04,
          -8.92567405e-05, -3.06435075e-04, 1.74877350e-04,
          5.64866241e-05, -2.70056713e-04, 4.10977555e-05,
          2.69208336e-04, 3.06610280e-04, -4.97929053e-04,
          1.41019118e-04, 7.28842628e-04, 2.78893916e-04, 3.27663176e-04,
          1.05472333e-04, 1.01166789e-03, -4.74075176e-04,
          2.41946342e-04, 1.98324036e-04, 4.84993943e-04, 5.36266773e-04,
          -6.78501674e-05, -4.17350384e-04, 2.44522031e-04,
          3.74348565e-05, -1.68654034e-04, -2.18557543e-04,
          7.64375960e-04, 4.20897471e-04, 2.11923307e-05,
          -2.56547821e-04, 3.95227748e-04, -3.68578680e-04,
          5.75878148e-05, 4.14946589e-05, 3.51137314e-05, 6.46960907e-05,
          1.19658107e-04, 1.79000199e-04, 4.25828126e-04,
          -4.20107361e-04, 6.58956851e-05, 1.69652427e-04,
          6.10947493e-04, -2.46169191e-04, -5.69391523e-05,
          2.35355779e-04, 6.85430889e-04, -2.50869693e-04,
          1.34019618e-04, 4.03436425e-04, -4.29791777e-04,
          5.58797619e-04, -8.01842543e-05, -7.46143109e-04,
          1.55595335e-04, -1.34676855e-04, 2.11769715e-04,
          4.07025509e-04, 2.06579949e-04, -2.03997726e-04,
          -7.84457588e-05, 3.42878018e-04, -7.71031337e-05,
          -7.25550126e-05, -1.77905938e-04, -2.53361301e-04,
          5.60189947e-04, 1.30076543e-04, -3.44029919e-04,
          1.92188727e-05, 1.41333963e-04, 2.78173975e-04, 1.06252824e-04,
          -1.83715638e-05, 5.49682009e-04, -2.49408113e-05,
          -2.87549512e-04, 3.28176393e-04, 4.01648285e-05,
          3.87404696e-04, -8.76843260e-05, -6.52197166e-04,
          -3.24916589e-04, 2.93324614e-04, 3.58216603e-05,
          -2.90331402e-04, -3.07150738e-04, -1.61011325e-04,
          -4.18769661e-04, -4.62556491e-04, 1.50404740e-04,
          -5.58667933e-04, -1.62983575e-04, 5.84769296e-04,
          -3.49225622e-04, 1.38877775e-04, -3.39280959e-04,
          -2.80081731e-04, 1.19582110e-04, -1.11268589e-03,
          -5.28359436e-04, 3.62037332e-04, 1.39749056e-04,
          2.05819830e-04, 2.86473543e-04, -2.40908281e-04,
          -4.60539508e-04, -7.30080355e-04, -1.50576059e-04,
          4.64910263e-04, -2.21602138e-04, -6.41573220e-04,
          1.61741468e-06, -4.27700143e-04, -3.66213426e-05,
          -3.28185888e-05, -6.40899932e-04, 6.51978131e-04,
          -1.68940634e-04, -4.58267750e-04, -5.96499420e-04,
          1.49236294e-04, 2.70691002e-04, -4.18972486e-04,
          -6.16586010e-04, 1.35834896e-04, -4.05726692e-04,
          -8.50685232e-04, -3.33461096e-04, -3.85084597e-04,
          -8.24413801e-05, -7.87489771e-05, 3.26668451e-05,
          -2.57809152e-04, -1.83166758e-05, -6.78053300e-04,
          -5.27930715e-05, -1.93819258e-04, -3.21372907e-04,
          -1.29804146e-04, 1.24886355e-05, 2.10748709e-04,
          6.83650083e-04, -2.92350596e-05, 2.81785731e-04,
          1.31689798e-04, 3.97571530e-05, 8.70536081e-04,
          -1.29486623e-04, 9.03662352e-04, 5.67209674e-04,
          3.25715839e-04, 2.43842354e-04, 2.36653854e-04, 6.78438577e-04,
          3.54329823e-04, 2.35074604e-05, 4.84435732e-04, 5.26002150e-05,
          -1.96155903e-04, 3.90515015e-05, 1.94209904e-04,
          9.05697598e-05, 1.59098272e-04, -2.32357570e-06,
          3.40078100e-06, -1.55173257e-04, -4.79230308e-04,
          8.51063669e-05, 9.23350162e-04, 2.45396164e-04, 1.26266270e-04,
          2.64910166e-04, 6.08032919e-04, 5.51896577e-04, 3.52869654e-04,
          -5.26117394e-04, 2.70030287e-04, -2.05871314e-04,
          1.62277327e-04, 7.16091599e-04, 2.31021157e-04, 7.98381690e-04,
          -1.27076913e-04, -2.38027933e-04, 4.51446365e-04,
          4.87002864e-04, -8.86707421e-05, 4.47138009e-04,
          1.46273902e-04, -3.77692595e-05, -2.93088233e-04,
          3.98480537e-04, 2.36403012e-05, -7.37688897e-05,
          5.60759450e-04, -2.31136873e-05, -1.24666753e-04,
          4.03528917e-04, 1.30795142e-05, -4.90186467e-05,
          5.03828691e-04, -5.13208670e-06, 7.37630122e-04,
          -4.68533573e-04, 7.88640609e-05, -2.67282412e-05,
          -2.82584951e-04, 1.23042773e-04, -3.63532221e-04,
          -1.40914170e-04, 1.72059517e-04, 3.02794448e-04,
          5.23699098e-04, -4.43391735e-04, -1.73449022e-04,
          -2.71779245e-05, -5.86283895e-05, -1.79513227e-04,
          1.76394024e-04, -2.28369739e-04, -2.32120059e-04,
          -3.72401904e-04, -2.27630793e-04, 8.85806337e-04,
          -5.82086031e-05, 3.13088058e-05, -9.33336996e-05,
          -2.22711722e-04, -2.77087151e-04, 3.13936383e-04,
          -9.61527185e-05, 4.34901536e-04, 1.51282176e-04,
          -1.92624881e-04, -1.30823595e-04, -1.13628987e-04,
          -1.09572051e-04, 1.63715653e-04, -6.72666763e-04,
          2.53375212e-04, -3.16080084e-04, -4.69853723e-04,
          2.18222965e-04, -2.13718115e-04, 1.47426530e-04,
          -2.73265410e-04, 1.67502658e-05, -4.11968969e-04,
          -5.10840851e-04, -5.92121389e-04, 4.57464703e-05,
          4.29291365e-04, -2.97704421e-04, -2.24817210e-04,
          -8.74401303e-05, -3.00963089e-04, -1.84463115e-05,
          -2.64958617e-05, -4.86086996e-04, 7.56963505e-04,
          9.27983929e-05, 6.00660802e-04, -4.01098048e-04,
          5.20003028e-04, 2.13584746e-04, -2.46147702e-05,
          -8.16377928e-04, 2.16019122e-04, 3.59989208e-04,
          8.90482566e-04, -3.62012681e-04, -3.64607869e-04,
          -2.34348729e-04, -4.27363237e-04, 8.64920497e-04,
          -8.75139303e-05, 2.38068751e-04, 3.94238712e-04,
          5.01973846e-04, 8.66502087e-05, 2.11675302e-04,
          -3.21126834e-04, 2.96811311e-04, 1.76856105e-04,
          2.81505549e-04, -3.61849641e-04, 9.92427114e-04,
          9.69567191e-05, -5.29274039e-05, 5.19131863e-05,
          4.28741623e-04, 8.67360330e-04, 1.36511633e-04, 2.35204952e-05,
          1.70547544e-04, 4.03762388e-04, -9.13920303e-05,
          6.05703623e-04, 5.16120170e-04, 7.80085102e-04, 3.25137080e-04,
          -5.98331717e-05, -7.09159125e-04, 6.40997838e-04,
          -1.71488398e-04, -1.61531454e-04, 2.68557167e-04,
          -5.63030226e-05, 5.00419934e-04, -6.14945020e-04,
          -5.65091286e-05, 2.76133971e-04, 3.24317953e-04,
          -2.49309378e-05, 3.25422909e-04, 4.33545298e-04,
          2.66828516e-04, -1.75616558e-04, 4.17105257e-05,
          3.41322331e-04, -1.01242178e-04, 1.33035966e-04,
          6.62863749e-05, 2.23649593e-04, 3.55567259e-04, 3.94245842e-04,
          -1.27268126e-04, 6.10331772e-04, 1.68103186e-04,
          8.94691912e-04, 1.37878334e-04, -6.63752551e-04,
          5.81826142e-04, -5.75612066e-04, 3.37174599e-04,
          5.96340571e-04, 3.04196787e-04, 6.70259178e-04,
          -1.89174447e-04, 9.13101485e-06, -5.33394268e-05,
          3.29391245e-04, 5.44629365e-05, -4.44839621e-04,
          -2.70292163e-04, 3.74626601e-04, -2.00355978e-04,
          6.57296274e-04, -1.52892710e-04, -2.35727653e-04,
          -4.00960882e-04, -1.20281940e-04, 2.84831709e-04,
          3.62716586e-04, -4.08510794e-04, 7.59452698e-04,
          -2.65189621e-04, 3.15895391e-04, 4.25522230e-05,
          1.18388860e-04, 1.20728517e-04, 4.21066885e-04,
          -1.07768610e-04, 2.07585108e-05, 1.68086786e-04,
          8.39307031e-05, -2.28802208e-04, 2.07586767e-04,
          -3.53633397e-04, 2.89527408e-04, 2.19857611e-05,
          -7.82168645e-04, 1.22323298e-04, 6.68201945e-04,
          -2.74904160e-04, 1.55025555e-04, -3.43070045e-04,
          2.69847485e-04, -6.11270889e-06, -4.86062481e-06,
          2.13035819e-04, 6.82695361e-04, -7.95987376e-04,
          1.14350012e-04, -9.56386430e-05, 3.60832113e-04,
          4.24288504e-04, -1.31218650e-04, -1.89041675e-04,
          3.86266474e-04, -3.03560519e-04, -7.40268661e-05,
          -3.86514293e-05, -3.44900654e-05, 2.91416014e-04,
          -4.48899591e-05, 1.98561058e-04, 2.57132109e-04,
          1.73071705e-04, 5.38714921e-05, 1.94960783e-04, 8.62322864e-04,
          6.66311535e-05, 2.57353182e-04, -4.86837293e-04,
          1.06961881e-04, -7.28871819e-05, 4.85191849e-05,
          9.36317520e-05, 4.24898259e-04, -1.24072234e-04,
          2.41339236e-04, 1.24833095e-04, 2.37766071e-04,
          -3.10381904e-04, -1.29671171e-05, 6.79885328e-04,
          -9.23004045e-05, -1.43618716e-04, 4.19211487e-04,
          -6.26284163e-05, 8.57126317e-04, 3.28954076e-04,
          7.23609410e-04, 7.61713658e-04, 7.60370167e-05, 6.80018638e-05,
          4.26295708e-04, -8.90857846e-05, -1.66187063e-04,
          -2.84159003e-04, 2.66565883e-04, -1.43479498e-04,
          2.25007490e-04, 4.46972175e-04, 8.55316815e-04, 5.57201674e-05,
          2.70451390e-04, 1.31802110e-04, -7.41622935e-05,
          -9.42494735e-05, 1.96110646e-04, -4.80921444e-04,
          6.78964425e-04, -6.14823803e-05, 2.23696014e-04,
          -1.02282182e-04, 2.69408454e-04, 6.66870110e-05,
          2.74455670e-04, 9.06590649e-05, 2.42462702e-04,
          -7.37864248e-05, 9.63360071e-05, 3.34548495e-05,
          8.72077537e-04, 3.36994097e-04, -3.88634180e-05,
          2.50435678e-05, 3.28814785e-04, 3.96954652e-04, 3.96159419e-04,
          -1.42565012e-04, 7.72320345e-05, -4.08178574e-04,
          -2.52059079e-04, -2.37140310e-04, 5.06162876e-04,
          -3.98853517e-05, 8.32974387e-04, -1.67997860e-04,
          -9.84798316e-05, -3.26875270e-05, 2.39064480e-04,
          -2.85129121e-04, 2.55013030e-04, -6.24387758e-04,
          1.37730720e-04, -1.10296451e-05, 2.23382740e-04,
          -2.34789302e-04, 2.60848261e-04, 7.23452176e-05,
          2.94541271e-04, -4.49435436e-04, 2.16784665e-05,
          -1.18222915e-05, 4.47883300e-04, -3.20929161e-04,
          1.40938719e-04, 4.61849064e-04, 1.98531037e-04, 1.84955963e-04,
          3.45620443e-04, -1.17419018e-04, 1.83726137e-04,
          6.88313094e-06, -8.51013174e-05, -1.29856620e-04,
          1.28694383e-05, -1.89313752e-04, 5.48177341e-04,
          -2.36256587e-04, 1.35559123e-04, 1.75325622e-04,
          -2.15147811e-05, -4.66136815e-04, 1.72756292e-04,
          8.61011649e-05, 3.81258840e-04, -5.48037679e-05,
          1.30761036e-04, 3.32144809e-05, -3.32189578e-04,
          -1.33588219e-05, 5.87504008e-04, -1.78061106e-04,
          -8.48102900e-06, 1.48169667e-04, 3.42398067e-04,
          3.37009878e-05, 1.46938371e-04, 3.73468996e-04, 3.10088013e-04,
          -7.10408858e-05, 6.39298698e-04, 3.05075664e-04,
          4.16263356e-04, 5.11819730e-04, 2.02939977e-04, 4.18214768e-05,
          8.08920740e-05, -5.07875637e-04, 3.27282876e-04,
          -5.71635261e-04, 3.73373186e-04, 9.11433744e-05,
          -2.98710685e-04, -4.94220003e-04, 3.23661836e-04,
          -1.60503725e-04, -1.99377810e-05, 1.64487326e-04,
          4.38310934e-04, -1.45209560e-05, 1.06864078e-04,
          -2.89981428e-04, 3.56586679e-04, -4.06047824e-04,
          1.46646140e-04, 6.47448120e-04, 3.07978247e-04, 1.93628453e-04,
          -5.66394374e-06, -7.32168483e-05, -3.07317459e-05,
          -2.68923730e-04, -1.01169717e-04, 7.01472978e-04,
          2.81924178e-04, 3.50208109e-04, -4.21425764e-04,
          2.21294802e-04, -2.60418543e-04, 9.69801913e-05,
          -6.32616648e-05, -4.82756041e-05, -2.02771524e-04,
          -4.42620658e-04, 3.90721434e-05, -3.80869169e-04,
          8.88812283e-05, 6.98449614e-04, -2.19004345e-04,
          -1.54989946e-04, 5.32978156e-04, 4.21193807e-04,
          -4.80193594e-05, 6.15588564e-04, 5.59564389e-04,
          -1.30727421e-04, 3.32405703e-04, -1.92881998e-05,
          9.90418775e-05, -2.04785858e-04, -3.77656339e-04,
          7.65335630e-04, 6.03643188e-04, 4.18181044e-05,
          -1.84987177e-04, 5.12708866e-05, 4.23493999e-04,
          4.10506909e-04, -2.31581478e-04, 2.63575435e-04,
          1.78692193e-04, 2.75248403e-05, 2.05562988e-04,
          -5.67942217e-04, -5.31374099e-05, 6.27231202e-04,
          -3.56091507e-04, -4.07752610e-04, 8.69025257e-07,
          4.01031866e-04, -2.75299280e-05, 2.83477682e-04,
          3.63442232e-04, 2.33870538e-04, -2.30761856e-04,
          2.24156523e-04, -3.15837633e-06, -3.74345371e-04,
          4.15428804e-04, -1.39448792e-04, 2.30471880e-04,
          -3.13719502e-04, 4.58708055e-05, 1.70922416e-04,
          4.25963546e-04, -1.66187747e-04, -3.86398315e-04,
          -2.65062001e-04, 4.04308579e-04, -1.99074682e-04,
          5.45325456e-04, 8.98043916e-04, -5.77411629e-06,
          1.12960377e-04, 3.84808372e-04, -3.70478141e-04,
          4.45429265e-04, 1.44893434e-04, 1.43566795e-04, 5.50130499e-04,
          -2.22681891e-04, 1.64871453e-04, 3.92936781e-04,
          8.57186446e-04, 9.27017463e-05, 1.42576580e-04, 1.25679981e-05,
          1.56631650e-04, 5.90300420e-04, 2.63911497e-04, 6.91103050e-05,
          4.66384663e-04, -1.47028361e-04, 6.43793552e-04,
          -1.88180275e-04, 1.90859340e-04, 1.16652541e-03,
          4.79895796e-04, -9.70832843e-05, -5.44510440e-05,
          7.06315550e-05, 3.32753552e-04, 3.59926889e-05, 5.67995186e-04,
          -1.24335071e-04, -1.90671286e-04, -5.16707660e-04,
          -4.20581870e-04, 4.25987993e-04, -2.99786130e-04,
          -1.79638795e-04, -2.50238139e-04, -3.84198065e-05,
          -3.44597735e-04, 4.05716826e-04, -2.66596617e-04,
          7.49603496e-05, 3.02506000e-04, -4.21249715e-04,
          -4.94413543e-04, -6.64554318e-05, -1.19538718e-05,
          5.05323987e-04, 8.82845430e-04, 5.70275937e-04,
          -7.16573923e-05, -2.64905568e-04, -1.20734738e-04,
          1.67514503e-04, -9.38893845e-06, 2.52215250e-04,
          2.65675655e-04, -3.81719030e-04, 3.68657638e-04,
          1.15552197e-04, 1.63625518e-04, 5.22567425e-04,
          -5.89095522e-04, 8.02328941e-06, -1.88953956e-04,
          3.26541223e-04, -1.75581081e-04, -7.86003875e-05,
          -9.27957357e-04, 3.28690134e-04, -2.71629367e-04,
          1.47228988e-04, -2.18939531e-04, -1.85535275e-04,
          -2.10523664e-04, -1.29134249e-04, 1.22853380e-05,
          -8.13211227e-05, -4.61081683e-04, 1.68813727e-04,
          7.69405335e-04, 6.66063104e-04, -4.93664644e-04,
          1.66511454e-04, -9.89047257e-05, -2.28697318e-04,
          -3.71660397e-04, 2.20858550e-04, 6.90779707e-04,
          1.74673245e-04, 3.34498181e-04, 7.21691933e-04,
          -3.54080519e-04, 1.64087542e-04, 4.83254349e-04,
          5.86768074e-05, 3.95042793e-04, 5.55293664e-05, 3.64360865e-04,
          -2.92802491e-04, -7.43844721e-04, -5.33942075e-04,
          -5.63646827e-05, -3.15480924e-04, -8.85453890e-04,
          -6.10341995e-05, 3.31327989e-04, -5.11920807e-05,
          -3.36806785e-04, -1.27322608e-04, -2.27283599e-04,
          -2.22530944e-04, -6.57232958e-05, 3.04913498e-04,
          -2.88715673e-04, 2.77941435e-04, -1.50293257e-04,
          -2.85393594e-06, -2.32805047e-04, 5.11228500e-05,
          -2.39639441e-04, 2.43783536e-04, 3.42165120e-04,
          1.51913948e-04, 2.39921195e-04, 1.12970090e-04, 7.33374502e-04,
          5.40654699e-04, -1.36620176e-04, 3.65399785e-04,
          3.38240789e-04, -3.14289849e-04, -1.55547445e-04,
          1.91439351e-04, 7.19057804e-04, 1.54576584e-04, 7.06310020e-05,
          1.43531259e-04, -3.70804657e-04, 2.17128705e-04,
          2.11469796e-05, 6.62354345e-04, -1.15640025e-04,
          -4.84630509e-05, -2.12272294e-04, -3.90180212e-04,
          -8.85790447e-04, 4.42454795e-04, 3.11211828e-04,
          3.82013241e-04, -6.68076624e-04, -2.20580347e-04,
          -2.33217186e-04, 3.76600889e-04, 1.91546569e-04,
          -1.45930026e-04, 2.98253144e-06, 6.52251110e-05,
          -7.59196482e-05, 1.46666091e-04, -3.22971202e-04,
          -1.91991916e-04, 4.39256633e-04, 3.64445907e-04,
          -2.32758262e-04, 2.01202653e-04, 6.13531211e-06,
          4.10846609e-04, 3.45332694e-04, -8.58004423e-05,
          1.46251332e-04, -8.90166048e-05, -1.01771460e-04,
          2.84745183e-04, -1.74292436e-04, -3.66808963e-04,
          1.32467761e-03, 1.06892192e-04, -1.76377245e-04,
          1.48456165e-04, 2.08134625e-05, -2.14641332e-04,
          -7.92895808e-05, 3.77462507e-04, 1.87190541e-04,
          5.57180392e-05, -1.58393508e-04, -6.19528466e-04,
          -3.58436984e-04, 2.45229428e-04, 3.08320072e-04,
          6.78349403e-04, -1.44609818e-04, -3.32127354e-04,
          1.72750879e-05, 4.21063742e-04, 1.29276290e-04,
          -2.03254691e-04, -5.66863164e-04, 7.35522073e-04,
          -3.27620772e-04, 2.04739379e-04, -2.69022305e-04,
          3.69819027e-04, 4.29687090e-04, 4.37377239e-05,
          -4.55035217e-04, 1.79309718e-04, 5.52457292e-04,
          -4.74459608e-04, -3.10419535e-04, 1.76927482e-04,
          -5.25029354e-05, 2.17460751e-04, -2.64040846e-05,
          5.67755887e-05, -1.05691870e-04, -1.18895026e-04,
          -2.93853140e-04, -6.47889974e-05, 2.27466662e-04,
          -7.87517420e-05, 1.41479279e-04, -1.48533611e-04,
          2.67982308e-04, 5.63320820e-04, -5.14566724e-04,
          3.33543692e-04, -7.76322486e-05, -1.44322927e-04,
          -4.03197628e-04, 4.15417395e-04, -2.25400887e-04,
          4.03129990e-04, 1.68718179e-04, 3.79822130e-04, 4.71403269e-04,
          -6.78376877e-04, 5.39565481e-05, 5.67562412e-04,
          -2.14749292e-04, -1.12383656e-04, -1.01411615e-05,
          2.51153164e-04, -1.54900408e-04, -4.67234713e-05,
          -3.88562294e-05, -1.80352799e-04, -3.74375057e-04,
          -2.51287798e-04, -1.28245592e-04, 6.93457958e-04,
          1.04688850e-04, 2.44009261e-05, 4.56778711e-04,
          -2.21923590e-04, -4.14999522e-05, -1.37063820e-04,
          -8.15787425e-05, 2.89060081e-05, -3.86516214e-04,
          3.25640285e-04, -2.94055673e-04, 3.08509218e-04,
          -4.79929411e-04, 3.49780094e-05, 3.72870156e-04,
          -3.38023412e-04, -2.54022074e-04, -1.54331603e-04,
          4.28000145e-04, 7.32380548e-04, 4.46593040e-04,
          -4.50611784e-04, -4.00159683e-04, -3.57420155e-04,
          2.67548166e-04, 2.30046644e-04, 2.18075336e-04, 3.18418577e-04,
          -2.06428995e-05, 1.52043227e-04, 3.86487955e-04,
          7.05969171e-04, 2.71431229e-04, -5.47629270e-06,
          8.44250899e-05, -3.97967851e-05, 6.76221171e-05,
          1.27223451e-04, 3.06555477e-04, -8.75018529e-08,
          5.39360277e-04, 4.42947407e-04, 1.44995080e-04,
          -4.06571024e-04, 9.94735528e-05, -1.44089017e-05,
          -5.51253543e-05, 2.95735168e-04, -1.80429226e-04,
          5.20816131e-04, -1.15471870e-04, -4.12349997e-04,
          4.54044319e-04, 3.82337515e-04, 5.41420071e-04,
          -2.59072782e-04, 5.55651313e-05, 3.26153793e-04,
          -4.07428452e-04, 1.17285017e-04, 2.60871020e-04,
          -4.61015559e-04, 3.32282973e-04, 2.60017929e-04,
          4.88363330e-05, -5.73633988e-05, 5.65728897e-06,
          5.85048634e-04, -7.93746367e-05, 5.74376434e-04,
          2.84091075e-04, 5.57296735e-04, -4.43468190e-04,
          -3.92339571e-05, 2.43155318e-05, -3.33381380e-04,
          2.66639021e-04, 8.90041192e-05, -4.70353116e-04,
          4.82886651e-04, -4.83515178e-04, -2.04979074e-06,
          -6.46567787e-04, -9.97331008e-05, -1.60795771e-05,
