%YAML:1.0
my_svm: !!opencv-ml-svm
   svm_type: C_SVC
   kernel: { type:LINEAR }
   C: 1.0000000000000001e-01
   term_criteria: { epsilon:2.2204460492503131e-16, iterations:10000000 }
   var_all: 9536
   var_count: 9536
   class_count: 2
   class_labels: !!opencv-matrix
      rows: 1
      cols: 2
      dt: i
      data: [ 0, 1 ]
   sv_total: 1
   support_vectors:
      - [ -5.19732057e-05, 2.14435902e-04, -3.00950524e-05,
          1.34795147e-04, -3.08974886e-05, -1.77131689e-04,
          6.00742314e-05, 3.52322561e-04, 5.59905584e-06, 1.05570987e-04,
          -1.82346193e-04, 8.29863784e-05, -5.34453611e-05,
          -2.40595284e-04, -2.05858669e-04, 1.47732106e-04,
          -1.98310794e-04, -3.39909428e-04, -3.10278294e-04,
          3.14344034e-05, 4.82251235e-05, -1.10221867e-04,
          -3.11669457e-04, -2.17071138e-04, 3.63738538e-04,
          -9.15179553e-05, -5.19258101e-05, -1.92074294e-04,
          -1.72868415e-04, -6.55087642e-05, -2.11136445e-04,
          -1.96328605e-04, -4.82878386e-06, 7.97019311e-05,
          2.19340873e-04, -2.09998703e-04, 6.04227398e-06,
          -1.36966453e-04, -1.95363347e-04, 1.52342560e-04,
          -1.46018370e-04, 4.22394478e-05, 1.01225385e-04,
          -4.02404141e-04, -3.04119574e-04, -1.56106151e-04,
          -5.13897103e-04, -2.00384791e-04, -3.29330738e-04,
          -4.16724797e-04, -2.37799919e-04, -8.67168492e-05,
          -1.35027185e-05, -2.42152193e-04, -6.84310973e-04,
          -2.37641885e-04, -1.88124002e-04, -4.98966896e-04,
          -1.45396727e-04, -6.89787848e-05, -3.68860579e-04,
          -2.63232563e-04, -2.60938599e-04, -2.62627233e-04,
          -5.31960177e-05, -1.39599884e-04, -1.12424364e-04,
          -2.57086329e-04, 5.94953381e-05, -1.60314870e-04,
          -3.37323872e-05, -1.50170134e-04, -1.48371866e-04,
          -5.76681996e-05, -1.67517806e-04, -2.44127426e-04,
          1.70247149e-04, -3.05843598e-04, -1.23616832e-04,
          -1.79292023e-04, -2.34758700e-04, -2.45723350e-04,
          -5.01579489e-04, -5.11824801e-05, 5.88619987e-05,
          1.06034153e-04, -2.05370248e-04, -3.24813154e-04,
          -2.12645886e-04, -2.12619518e-04, -6.29497343e-04,
          5.51721205e-05, -2.21879396e-04, -2.80013919e-04,
          -1.07519641e-04, -7.39174138e-05, -1.93531014e-04,
          -3.10542091e-04, -1.80920499e-04, -4.42667042e-05,
          4.44265170e-05, -3.69587797e-05, 3.77916236e-04,
          -1.18042772e-04, -4.52553795e-05, -4.16505471e-04,
          -2.33553495e-04, 3.44819593e-04, -9.57100492e-05,
          2.45800675e-05, 1.70409985e-04, -3.83843319e-04,
          -9.98300093e-05, -1.29608059e-04, 1.02181082e-04,
          1.73950422e-04, -3.58244579e-04, 3.82754864e-04,
          -2.56318133e-04, -2.63628317e-04, 8.51905043e-06,
          1.52722205e-04, -5.54669474e-04, -3.32932941e-05,
          -6.41841383e-04, 5.13073464e-05, 6.26285837e-05,
          -2.36644060e-04, -2.79610482e-04, 1.36653354e-04,
          1.24234284e-04, 9.11904353e-05, -1.56776630e-04,
          -2.75674811e-05, 7.16004506e-05, -2.47742446e-05,
          -1.62222423e-04, 1.16751027e-04, -3.95112402e-05,
          -5.08723606e-05, -1.81099676e-04, -1.24837738e-04,
          -6.66550986e-05, -1.74049506e-04, 1.68150786e-04,
          1.29960026e-04, -1.26301107e-04, 1.39636511e-04,
          -1.00096717e-04, 2.49007804e-04, 6.77358330e-05,
          -1.22344863e-04, -9.64265710e-05, 2.11507810e-04,
          2.82830151e-04, -2.06434415e-04, -3.02704400e-04,
          2.59589462e-04, -1.00540034e-04, 1.35205526e-04,
          -1.67747523e-04, -7.64662036e-05, 7.24413039e-05,
          -1.55195667e-05, -1.35834693e-04, -2.46560177e-07,
          1.62272758e-04, -2.78826410e-05, -1.83659533e-04,
          1.53919718e-05, -6.06712274e-05, -3.25864588e-04,
          -1.12690344e-04, -2.95277074e-04, 5.64325077e-04,
          -7.81500275e-05, -1.52894718e-04, 1.72794244e-04,
          -2.15529784e-04, 1.95914967e-04, -3.28256283e-06,
          -1.24309023e-04, 1.06694126e-04, -6.85749765e-05,
          1.59858901e-04, -1.13205664e-04, -9.69242537e-05,
          -5.35220852e-06, -2.57374544e-04, -5.99590712e-05,
          -1.41158918e-04, -2.04689437e-04, -1.37493989e-04,
          -3.73648043e-04, -6.10816132e-05, -3.13680212e-05,
          -2.16253233e-04, -1.34393367e-05, 1.12782172e-05,
          -1.27005667e-04, -4.07803818e-05, 1.92944808e-05,
          -1.06852931e-04, -5.14399062e-06, -2.96548882e-04,
          -4.04238148e-04, -8.25989337e-05, -1.78527116e-04,
          -1.25094637e-04, 3.13025812e-05, -3.31948890e-04,
          -1.86631238e-04, -7.03841797e-05, -1.30219181e-04,
          -4.50106629e-04, -3.49477632e-04, -9.63656930e-05,
          -2.45975039e-04, 4.20182147e-08, -2.75134953e-04,
          -4.86382225e-04, 1.28481261e-04, -3.54862452e-04,
          -1.26775951e-04, -2.25499447e-04, 1.61175922e-04,
          -3.18240272e-05, -1.12777700e-04, -1.46914696e-04,
          2.04678254e-05, 7.97390749e-05, -3.43629828e-04,
          -3.75243253e-05, -5.73673276e-07, 1.05461724e-04,
          -2.91080651e-04, -3.99371173e-04, 1.83750948e-04,
          7.31858745e-06, -2.10428989e-04, 1.29147911e-05,
          -1.49052757e-05, 1.53631458e-06, -1.56309208e-04,
          -1.77373367e-04, 2.20432485e-04, -4.97590445e-05,
          2.17381588e-04, -6.23141386e-05, -2.26866556e-04,
          -2.20940958e-04, 2.24896012e-05, -2.70347169e-04,
          2.35482032e-04, -3.25147528e-04, 9.13165422e-05,
          -6.00983913e-05, -2.04028529e-05, 5.53744554e-04,
          3.00989312e-04, -1.30302855e-04, 2.38427689e-04,
          -8.01853021e-05, -3.56019846e-05, -9.99940457e-05,
          -1.20893397e-04, 6.55081822e-04, 2.75885337e-04,
          5.25982468e-05, 5.29320714e-05, -3.47347195e-05,
          -2.12071645e-05, 2.43239498e-04, 4.33787354e-05,
          6.75113333e-05, 4.69291728e-04, 2.03325908e-04, 5.58754873e-05,
          2.54003302e-04, 1.46147853e-04, 1.81602678e-04,
          -1.93768137e-04, -3.38667305e-04, 2.48072698e-04,
          5.97030332e-04, 2.02942203e-04, -2.23696006e-05,
          2.84947950e-04, -1.44343416e-04, -5.61216439e-05,
          7.64894285e-05, 2.58788234e-04, -4.53746143e-05,
          -6.68363427e-05, -1.60248528e-04, -8.50260840e-05,
          -7.74453802e-05, 2.47440603e-05, 1.70416679e-04,
          8.31449433e-05, 1.24328857e-04, -2.72062229e-04,
          7.19300369e-05, 2.28773453e-04, -3.77150682e-05,
          2.03818519e-04, -1.83763826e-04, -2.82688125e-04,
          -3.72470913e-06, -2.31960046e-04, 1.38497169e-04,
          2.16129643e-04, -2.03241158e-04, -1.39694574e-04,
          -4.44171368e-04, -3.08253104e-04, 3.53337266e-04,
          7.37497394e-05, -1.39347263e-04, -1.32566187e-04,
          2.15202046e-04, -7.03322803e-05, 3.12026277e-05,
          2.37040585e-04, -8.37912648e-06, 1.12994960e-04,
          -1.60035470e-05, -1.93928590e-05, 2.16194749e-04,
          -1.31681300e-04, -8.79440922e-05, 3.20559804e-04,
          -2.05095552e-04, 8.08342520e-05, 5.84739355e-05,
          -2.38301422e-04, -1.95166635e-04, 9.76120064e-05,
          -3.57808458e-04, -2.61219830e-04, 3.31080737e-05,
          1.73924782e-04, -7.17325747e-05, -4.66977071e-04,
          -1.85143072e-04, 2.35137006e-04, -7.86500226e-04,
          9.71604168e-05, -2.40092450e-05, -1.99371527e-04,
          -3.41404666e-04, -7.61163246e-04, 2.35038082e-04,
          1.95147557e-04, 2.49148929e-04, 1.94082299e-04,
          -1.33358640e-06, 1.84711898e-04, 2.81003595e-04,
          8.94494733e-05, 1.88751190e-04, -2.11597708e-05,
          -6.59016077e-05, -5.49901597e-06, -1.49021173e-04,
          1.92279622e-04, -1.08554530e-04, 1.91138552e-05,
          -1.25417486e-04, 1.18971817e-04, -4.15219256e-04,
          -2.33860264e-05, 2.70729852e-05, 3.06495385e-05,
          4.63859797e-05, -3.61270388e-04, -2.21712413e-04,
          2.34011153e-04, -3.00308981e-04, 8.28299962e-05,
          -2.76471808e-04, -2.14572254e-04, -2.29347250e-04,
          -6.47479785e-04, 2.50372192e-04, 6.70740610e-06,
          9.27172805e-05, 6.87755746e-05, -2.93889843e-05,
          8.02162467e-05, 3.00948683e-04, -8.24827075e-05,
          -4.80967856e-06, 3.15753678e-05, 1.99319868e-04,
          3.53923650e-04, 5.26322910e-05, 4.76639580e-05, 1.50747888e-04,
          -1.19167089e-04, -1.84324570e-04, 3.36661760e-04,
          1.34310525e-04, 2.61854613e-04, 3.72525858e-04, 9.09051523e-05,
          1.51382090e-04, -2.33318424e-04, -9.33128467e-05,
          3.11619187e-05, 8.58146523e-05, 2.93586229e-04, 3.92976246e-04,
          1.16182440e-04, 2.50097655e-04, -1.25681283e-04,
          2.20898277e-04, -2.90437511e-05, 1.63995835e-04,
          -1.67867529e-05, 1.28159038e-04, 2.83401256e-04,
          1.17981974e-04, -1.83462316e-06, 1.18086236e-05,
          6.99251177e-05, 2.35752479e-04, 1.16116804e-04, 4.61764721e-05,
          6.38210113e-05, 3.86980173e-05, -8.09568955e-05,
          5.81092099e-05, 1.86375764e-04, -3.97633761e-04,
          1.21425772e-04, 3.57760437e-05, -8.91306845e-05,
          -1.09618479e-04, -6.51809387e-05, -2.29955069e-04,
          9.15959099e-05, -2.48083059e-04, 2.40814770e-05,
          -8.90623051e-05, 3.48518224e-04, -4.99387213e-04,
          -4.52557259e-04, -1.49504267e-04, 1.93294545e-04,
          -3.42785388e-05, 2.34807725e-04, 6.14143355e-05,
          2.03250718e-04, 2.83795744e-05, 2.45101954e-04,
          -2.14119616e-04, 1.15973795e-04, -5.46758238e-05,
          3.11391668e-05, 2.08365818e-04, 9.57997108e-05,
          -1.14841394e-04, 6.23451560e-05, -2.60801520e-04,
          -3.43353167e-05, -2.15009757e-04, -2.21421884e-04,
          1.41944052e-04, 2.20765742e-05, 3.65038468e-05, 1.31049572e-04,
          -5.72060118e-04, -9.98051910e-05, -8.56631450e-05,
          -2.46311276e-04, 9.47185763e-05, 3.32818636e-05,
          -1.64906771e-04, -4.32206085e-04, -9.91267370e-05,
          5.23368595e-04, 1.43787329e-04, 1.79524970e-04,
          -1.00537181e-04, 1.39569951e-04, 2.42429771e-04,
          -5.43320857e-05, -2.97316641e-04, -3.01277105e-05,
          -1.34468981e-04, -1.33286128e-04, 1.99030728e-05,
          -3.05511348e-05, 3.03102570e-04, 2.36766537e-05,
          -3.01997730e-04, -1.47315586e-04, -2.40441659e-04,
          -2.18855406e-04, -2.08102705e-04, -5.82363391e-05,
          -6.50529910e-05, -8.14252344e-05, -4.70634172e-04,
          -1.77414709e-04, -2.48175114e-04, -3.78605735e-04,
          -2.82128225e-04, -8.08255863e-05, -1.02341282e-05,
          -7.06041537e-05, -1.16800431e-04, 2.75753759e-04,
          1.47313709e-04, 3.02497705e-04, -4.16420298e-05,
          4.89908743e-05, 2.96334241e-04, -2.15123626e-04,
          -1.23670732e-04, 3.32408781e-05, 2.29279452e-04,
          2.40728987e-04, 1.60779920e-04, 1.37528783e-04, 2.91337725e-04,
          -6.07502407e-05, 4.85342252e-06, 1.72712957e-04,
          7.25463906e-05, 1.96708381e-04, 1.52646244e-04,
          -2.96546168e-05, 5.62857094e-05, -2.51900870e-04,
          1.33225927e-04, 1.36964169e-04, -1.92320484e-04,
          1.31067238e-04, 1.42700126e-04, -1.93493892e-04,
          -2.56696745e-04, 1.02268452e-04, -3.23719032e-05,
          1.94030290e-04, 1.83488373e-04, 7.37571245e-05, 7.73384381e-05,
          3.75619238e-05, -1.81152689e-04, -1.51933506e-04,
          8.87561910e-05, -2.39165765e-05, 8.57954947e-05,
          -1.89514962e-04, -6.90244269e-05, -1.96696928e-04,
          7.88687521e-06, 7.38360541e-05, -1.46259277e-04,
          -2.53873935e-04, -2.69908996e-05, -1.01576486e-04,
          1.35289767e-04, 3.53189913e-04, -2.06117656e-05,
          -4.91158462e-05, -7.51427287e-05, 8.14049781e-06,
          -1.92242267e-04, -5.32173799e-05, -1.27665800e-04,
          -1.04420596e-05, 8.81911619e-05, -6.78270517e-05,
          2.37079075e-04, 5.81567117e-04, -1.82584336e-04,
          8.35557003e-05, 9.31823888e-06, -9.74322538e-05,
          1.05593557e-04, -2.79737345e-04, 1.92156236e-04,
          4.90253617e-04, -1.27451989e-04, -3.62415085e-05,
          1.75424342e-04, -6.78927536e-05, -6.22100633e-05,
          -1.55053967e-05, -3.66066350e-04, -1.46544422e-04,
          2.86401832e-04, 1.02401682e-05, 1.06357402e-04, 6.12569711e-05,
          -2.08971484e-04, -1.82753047e-06, -1.24193873e-04,
          -6.66756823e-05, -2.44638853e-04, -1.16397445e-04,
          -3.02627101e-04, -4.20523866e-05, 1.13539045e-05,
          -2.32305843e-04, 2.43432558e-04, 3.87450185e-04,
          1.03923965e-04, -4.99387206e-05, -3.75227205e-06,
          -6.63523394e-07, 2.29204801e-04, -3.50165624e-06,
          -1.91201034e-04, 4.34995658e-04, -9.18835067e-05,
          -4.07770276e-05, 8.23095252e-05, -4.62335993e-05,
          1.22327998e-04, 4.23003105e-04, -5.63026697e-04,
          5.18976049e-06, 6.70429654e-05, -1.02666760e-04,
          2.49154313e-04, 1.10141707e-04, 1.52092805e-04, 1.24015351e-04,
          -3.27875954e-04, -2.18224959e-04, -1.32029600e-04,
          -3.43377469e-04, -2.78105610e-04, 1.69808161e-04,
          1.27408668e-04, -1.58988027e-04, -1.33618203e-04,
          6.51012742e-05, 4.76748042e-04, 1.53891247e-04,
          -9.86753639e-06, 2.91302189e-04, 2.03617717e-04,
          -1.40362521e-04, 3.49445872e-05, 4.00827499e-04,
          9.22869076e-05, 1.40652919e-04, 9.67929009e-05, 2.08163139e-04,
          1.54416557e-04, -9.99703989e-05, -1.00023855e-04,
          8.99367587e-05, -1.23654841e-04, 4.64740551e-05,
          6.42738378e-05, 3.44973407e-04, 1.06340151e-04, 1.16328047e-04,
          -2.85155984e-04, -1.79322771e-04, -1.28275147e-04,
          -1.34268121e-04, -1.65690974e-04, 3.69545218e-04,
          -1.55664966e-05, 9.78954049e-05, -1.58849289e-04,
          -1.51758955e-04, 2.15288994e-04, 2.78159278e-04,
          -8.39660788e-05, 2.58605840e-04, 9.67581509e-05,
          1.19122931e-04, 1.93936154e-04, -2.94991478e-05,
          2.00688119e-05, 7.35324284e-05, -3.26659792e-04,
          7.40200339e-05, 3.19203071e-04, -2.74560225e-05,
          -3.64775304e-04, -3.38342536e-04, 4.23574384e-05,
          -1.61573716e-05, -1.48760708e-04, 1.75376103e-04,
          -3.62781575e-05, 2.15290798e-04, -2.78763589e-04,
          -7.52084379e-05, -1.69619030e-04, -1.74245884e-04,
          -2.04247015e-04, -8.08543118e-05, -4.63185075e-04,
          -3.25545225e-05, -2.30935111e-05, -1.42274497e-04,
          4.06167737e-06, -2.29049747e-05, 3.52610732e-05,
          5.52114565e-04, 6.54714386e-05, 7.24223937e-05, 1.15012786e-04,
          -1.21064550e-05, 5.94308767e-06, -1.45661412e-04,
          -2.72603356e-04, -8.04109004e-06, 2.90420081e-04,
          1.13197311e-04, -6.29746064e-05, -1.02394290e-04,
          -1.63503879e-04, -1.80972012e-04, -1.31700799e-04,
          -9.03467590e-05, -1.56366470e-04, -5.48717908e-05,
          -2.52223370e-04, -2.66155082e-04, -3.34068201e-04,
          -2.13543390e-04, -2.48500961e-04, -2.47789692e-04,
          -2.01258081e-04, -5.43460890e-04, -8.34824241e-05,
          1.41535056e-04, 1.51074826e-04, 1.16620853e-04, 1.47462924e-04,
          4.21023578e-04, 6.00876054e-04, 5.05748249e-05, 6.13729062e-05,
          -1.35989481e-04, -1.87403930e-05, 7.32858462e-05,
          -1.84514109e-04, 3.63160420e-04, 5.85186179e-04,
          1.07426540e-05, -9.62049453e-05, -1.49471991e-04,
          -2.01018935e-04, 2.08554309e-04, -3.89213441e-04,
          1.77010908e-04, 2.96350365e-04, -1.75737456e-04,
          -2.03877440e-04, 6.19727916e-06, -1.03726132e-04,
          -5.05769509e-04, -2.84334936e-04, -4.01205005e-04,
          4.40439835e-05, -5.51121193e-04, -3.23696513e-05,
          6.82135651e-05, 1.20109813e-04, -6.19824932e-05,
          -5.41359004e-05, 9.54467614e-05, 4.51237458e-04,
          8.39269560e-05, 1.15347275e-05, 4.55401605e-05,
          -3.14722623e-04, -1.39229614e-05, 1.54546244e-04,
          2.36531501e-04, 3.00750282e-04, 4.19613789e-04,
          -3.55917902e-04, 5.12292550e-04, 1.45840662e-04,
          -3.72623792e-04, 7.26321887e-05, -9.61062615e-05,
          8.76280101e-05, 2.86876515e-04, -3.13789671e-04,
          1.38888819e-04, 5.60291810e-04, -4.87801211e-04,
          -2.05223623e-04, 1.47263495e-06, 1.46834223e-04,
          -1.54775713e-04, 2.65768380e-04, -4.25718317e-05,
          -1.39087133e-04, -6.52702947e-05, -3.38783320e-05,
          3.09482537e-04, 9.34852869e-05, -3.49175607e-05,
          -4.66925339e-05, -8.25430616e-05, -2.78459454e-04,
          3.90805581e-05, 6.73282193e-05, 3.26366542e-04, 5.99473151e-06,
          -1.70820844e-04, -3.98864737e-04, 2.43717863e-04,
          -1.27988067e-04, 1.94228560e-04, -9.23752523e-05,
          -2.46457843e-04, -1.90933468e-04, -1.84623750e-05,
          -5.62397530e-04, -1.07648651e-04, -4.92091422e-05,
          -2.65513692e-04, -2.33669052e-04, -3.06895439e-04,
          -1.14928778e-04, -3.24024295e-04, 2.95081089e-04,
          -1.15532974e-04, 5.23025083e-05, 2.85449205e-05,
          1.73889857e-04, 9.46592190e-05, 1.05337997e-04, 1.08293818e-04,
          -1.13564718e-04, -1.05105471e-04, 3.22714332e-05,
          2.03868854e-04, -2.36444001e-04, 6.24563399e-05,
          4.22423007e-04, -3.39234975e-05, -1.82747317e-04,
          -2.14547672e-05, -9.05271736e-05, 4.45625956e-05,
          -6.43480802e-04, -2.33431070e-04, 1.75209963e-04,
          -1.85514611e-04, -1.18559976e-04, -5.65679744e-04,
          -1.89618469e-04, -2.82154302e-04, -2.62440270e-04,
          -2.25570446e-04, -2.30540012e-04, -7.31416512e-04,
          9.39694219e-05, -1.05893356e-04, 5.46868891e-04,
          4.14700662e-05, -7.93245545e-06, 1.19859411e-04,
          4.19575255e-04, 3.69432964e-04, 2.54226878e-04,
          -4.20331548e-04, 3.00222218e-05, -1.37564508e-04,
          -8.29688943e-05, -1.47257655e-04, 4.07550513e-04,
          8.83898538e-05, 2.85364891e-04, -2.51600344e-04,
          -1.63003788e-04, -2.91007804e-04, -8.47872434e-05,
          -1.17169671e-04, 3.04455258e-04, -1.58484763e-04,
          1.36070885e-04, -6.16234145e-04, -1.11353393e-05,
          -1.40307500e-04, -1.03042454e-04, 5.24722491e-05,
          8.37595235e-06, -4.12928697e-04, 3.20340710e-04,
          -1.29841268e-04, 2.20080285e-04, -1.71997264e-04,
          -2.06344135e-04, 2.00634211e-04, 4.14341375e-05,
          -6.91397581e-05, 8.66338305e-05, -3.48703441e-04,
          -8.65821348e-05, -6.89156732e-05, -2.98243394e-04,
          8.34925304e-05, 2.11520364e-05, -1.55382906e-04,
          1.19784881e-05, -2.78752896e-06, -5.14381274e-04,
          -3.13604483e-04, -3.54065764e-04, -4.40728072e-05,
          2.33060400e-05, -3.74854571e-04, 8.09514822e-05,
          -1.64386933e-04, -1.87192229e-04, 2.74293634e-05,
          -1.65389021e-04, -7.49628862e-06, 1.44312398e-05,
          -4.79123410e-04, 2.54467624e-04, -2.65632174e-04,
          1.38135738e-05, -2.24584830e-04, -9.54075367e-05,
          -7.57437665e-05, 7.59761606e-05, -1.11336325e-04,
          -5.98146580e-05, -3.37059813e-04, -4.77604517e-05,
          -8.74651232e-05, -1.91377840e-04, -1.28047541e-04,
          -2.43750372e-04, -1.46966368e-05, -9.55687865e-05,
          -3.63187544e-04, -3.34892975e-04, -1.91028390e-04,
          6.41113293e-05, -3.72661714e-04, -1.56367954e-04,
          -1.14670831e-04, 7.22933110e-05, -3.32432654e-04,
          -3.60051286e-04, 9.66400112e-05, 3.65864435e-05,
          -2.30310223e-04, -1.98642330e-04, -4.48663719e-04,
          -1.05665087e-04, -1.64132129e-04, -1.11656365e-04,
          8.35994251e-06, -3.05445865e-04, 1.57319984e-04,
          2.73474634e-05, -8.93707838e-05, -3.09997500e-04,
          -2.02052979e-04, -1.21164012e-04, -1.93476430e-04,
          -2.18624351e-04, -1.66870421e-04, -2.71064666e-04,
          -1.55391084e-04, -1.12764363e-04, -1.93091371e-04,
          -4.80330171e-04, -5.40180888e-04, 2.92534551e-05,
          -4.91889659e-04, -2.06155339e-04, -5.13726409e-05,
          1.54216439e-04, -4.10523731e-04, -4.20725002e-04,
          -1.22600279e-04, -8.73747704e-05, -3.78278492e-04,
          -1.22070203e-04, -3.38516867e-04, -3.52322531e-05,
          -1.68493600e-04, -2.33552681e-04, 4.84958291e-05,
          -1.86169797e-04, 1.46487539e-04, -1.02945320e-04,
          -3.75740310e-05, -1.69814390e-04, -5.12270490e-04,
          -1.86400604e-04, -6.29624919e-05, -3.99455224e-04,
          8.58615113e-06, -2.20361297e-04, -1.73864246e-04,
          1.60869931e-05, -4.34512622e-04, -1.16418960e-04,
          -2.28684046e-04, -3.61997023e-04, -2.06498080e-04,
          -2.18900284e-04, -1.87099780e-04, -2.54737661e-05,
          -2.05993158e-04, -2.66032439e-05, -5.13937630e-05,
          -1.30562243e-04, -4.95433982e-04, -3.67475470e-04,
          -4.46715649e-06, 2.86330382e-04, 1.80386123e-04,
          -3.38524987e-04, 8.64291869e-05, 4.10354696e-04,
          -2.17909510e-05, -4.57061833e-05, -4.30522869e-06,
          -1.56284532e-05, 3.10495845e-04, -1.51613916e-04,
          -2.03026328e-04, 8.53784422e-06, -1.41923505e-04,
          -1.10696375e-04, -1.12101101e-04, 8.09026824e-06,
          2.68655276e-04, -2.98340194e-04, 3.19022482e-04,
          5.60085609e-05, -1.71203486e-04, -1.80105180e-05,
          3.13120945e-05, -5.59303735e-05, 1.39198528e-05,
          -2.79355532e-04, 2.38517008e-04, 4.20792931e-04,
          2.94648664e-04, -1.08606982e-04, 8.90021038e-05,
          1.04550738e-04, -5.97629105e-06, -1.55211543e-04,
          2.78426480e-04, 2.53714243e-04, -7.03408950e-05,
          -3.30876122e-04, -3.35373479e-05, -7.59617033e-05,
          -1.43722937e-04, -3.00067563e-06, 1.06777115e-05,
          1.07288106e-04, -2.47615390e-04, -2.08395009e-04,
          2.30866761e-04, 4.99858870e-05, -1.51750690e-04,
          -3.08272603e-04, -1.07081514e-05, 4.56871312e-05,
          -1.89769460e-04, -4.87404177e-05, 1.44023681e-04,
          2.14945048e-05, -3.77816526e-04, -6.56309945e-04,
          -8.68094940e-05, 1.25636216e-04, 3.80837446e-04,
          9.81219782e-05, -2.14607717e-04, -1.03144484e-04,
          1.21820798e-04, -3.20767955e-04, -4.78366601e-05,
          2.89554155e-04, 1.52785433e-04, -3.07490642e-04,
          -3.05564201e-04, -2.90203519e-04, -3.89591965e-04,
          -3.57616373e-04, -7.54541034e-05, 8.51260775e-05,
          5.16238906e-05, -9.39436068e-05, -5.08283774e-05,
          -5.65668270e-05, 6.58289500e-05, -3.74869996e-04,
          1.64434168e-04, 4.02619371e-05, -4.83017095e-04,
          -1.36201124e-04, -1.13586837e-04, -2.02222553e-04,
          -1.66214319e-04, -2.41626840e-04, -9.41356702e-05,
          -1.15800744e-04, -7.70147308e-05, -6.15636527e-05,
          -2.53523467e-04, 2.17933484e-04, -1.17595198e-04,
          -1.98895388e-04, 5.33159036e-05, 1.61879943e-04,
          2.33500381e-04, -1.30515527e-05, -6.83617554e-06,
          -3.07969720e-04, -3.12034012e-04, -1.54731867e-06,
          2.65651994e-04, -1.47487764e-04, 1.82803968e-04,
          -1.30733926e-04, 1.59691743e-04, -3.00213054e-04,
          -3.35769379e-04, -1.11417248e-04, -1.10516085e-04,
          1.74997167e-05, -2.18310524e-04, -3.19800631e-04,
          6.59155412e-05, -1.14843373e-04, 6.03479093e-05,
          4.46600643e-05, -3.23021464e-04, -2.78208259e-04,
          -2.46478739e-04, -4.66396654e-04, -3.45021690e-04,
          1.94828783e-04, 5.28404664e-04, 4.24368453e-04, 1.83521537e-04,
          1.82658696e-04, 6.36604091e-04, 2.44427734e-04, 5.97501406e-04,
          3.80439858e-04, 1.05647887e-04, 2.81529356e-04, 2.37603876e-04,
          1.07950182e-04, 3.45291832e-04, 1.63696051e-04, 3.84239538e-04,
          -1.26679181e-04, -2.86868726e-06, -4.19642947e-06,
          1.67140024e-04, -3.30500006e-05, 6.92265485e-06,
          -1.52800378e-04, 4.14824375e-04, 3.28724163e-05,
          -4.14112474e-05, -4.60418407e-04, 2.03337695e-04,
          -9.14818374e-05, -3.80204910e-05, 1.74688190e-04,
          2.14981876e-04, 7.77560344e-05, 1.50387466e-04,
          -5.20807152e-05, 5.84935537e-04, -1.68589773e-04,
          2.49782606e-04, 1.93368920e-04, 4.60321375e-04, 1.28209183e-04,
          1.76136964e-04, -8.98181534e-05, 1.19702772e-05,
          4.12984198e-04, 3.52452364e-04, -7.37909504e-05,
          1.23251797e-04, -8.05266245e-05, -1.22223631e-04,
          -5.46916563e-05, -2.12453946e-04, -1.98927126e-04,
          -1.29531007e-04, 9.95330411e-05, 1.45178186e-04,
          1.34131260e-04, -1.53584697e-04, -5.12083177e-04,
          9.52271439e-05, -4.50204680e-04, -3.20230611e-04,
          -6.41979714e-05, 1.20015888e-04, 9.74289651e-05,
          6.81291422e-05, -3.11394365e-06, 5.17405511e-04,
          -3.15002864e-04, 2.19721973e-04, 3.75927455e-04,
          -6.56458069e-05, 1.74012559e-04, 2.16222907e-04,
          3.47742200e-04, 1.51410568e-04, 2.59299104e-05, 1.20364253e-04,
          7.07131476e-05, -1.18339383e-04, -2.30425258e-06,
          1.68917777e-05, 1.24082662e-05, 9.97605748e-05,
          -1.88936072e-04, -1.30322485e-04, 7.89742116e-05,
          3.96944779e-05, -8.16009415e-05, -9.02303000e-05,
          -1.85155499e-04, -1.39997312e-04, -1.10717527e-04,
          -3.06456350e-04, -1.62328186e-04, -1.15097908e-04,
          2.02478768e-05, -3.34075186e-04, 8.17712207e-05,
          3.58922320e-04, -3.23016429e-04, 1.62403565e-04,
          3.79512960e-04, -5.88587936e-05, 5.09430211e-05,
          -2.41877773e-04, -1.13260030e-04, 3.56791250e-04,
          -9.88396787e-05, 2.81089233e-05, 8.66180926e-05,
          -1.21339857e-04, 9.57568554e-05, 3.44040673e-05,
          -2.65355309e-04, 6.54385258e-06, -5.64691145e-04,
          -1.36776536e-04, 5.38619752e-05, -3.30010225e-04,
          -1.57114642e-04, 2.59384804e-04, -2.10765313e-04,
          -2.74093269e-04, -4.80004092e-04, -7.23437915e-05,
          -2.02121781e-04, -3.16499412e-04, 3.68062290e-04,
          4.80061339e-04, -1.53089877e-05, 2.68969336e-04,
          2.99016741e-04, 4.62331111e-04, 3.11821786e-04, 2.39946326e-04,
          1.73625987e-04, 5.30546473e-04, 1.01516904e-04, 3.04420508e-04,
          1.71341875e-04, 7.74487125e-05, 3.93892755e-04, 1.88266320e-04,
          3.46802117e-04, 2.20636648e-04, 2.00084804e-04, 1.92854466e-04,
          2.52130936e-04, -1.27415740e-04, -1.88379090e-05,
          -8.35081082e-05, 2.78507214e-04, 1.38135229e-05,
          3.40327970e-04, 4.96822177e-04, 1.73108619e-05,
          -4.31451444e-05, 8.77389248e-05, -3.08012852e-04,
          4.43977158e-04, 3.15249345e-04, -5.79290099e-05,
          2.04777316e-04, 3.94075556e-04, 3.09516123e-04, 1.31198292e-04,
          -1.02519189e-04, 4.91805658e-05, 1.66470927e-04,
          -5.76306920e-05, 3.80067504e-04, 2.48180528e-04,
          1.22308747e-05, 1.58172770e-04, 1.92609034e-04,
          -8.95379781e-05, -9.22202435e-06, -7.85871234e-05,
          -9.87778840e-05, 1.28398853e-04, -5.03299059e-04,
          1.71662614e-04, 1.24335529e-05, 1.53563276e-04,
          -1.07936030e-04, 2.02814099e-05, 1.59399831e-04,
          3.35389428e-04, -3.68668727e-04, -3.83191800e-04,
          -2.40660796e-04, 1.99531991e-04, 9.07742578e-05,
          2.67167139e-04, 1.20346253e-04, -9.57975644e-05,
          1.25969134e-04, 3.64170119e-04, -8.04377050e-05,
          8.02949799e-05, -3.94919480e-04, -4.33439891e-05,
          2.05854885e-04, -4.12012450e-05, -2.50295940e-04,
          2.22805465e-04, 2.59874680e-04, -4.40209405e-04,
          -1.68098239e-04, -1.36329472e-04, -1.87394937e-04,
          -2.70212040e-05, -2.74439633e-04, 1.39777025e-04,
          -4.11657602e-05, -2.33136569e-04, 7.64770175e-06,
          -2.64521252e-04, -2.35632717e-04, 2.15424821e-04,
          1.98754242e-05, -4.49798245e-04, -5.61153283e-04,
          3.53987591e-04, 2.72205012e-04, 3.03809997e-04, 2.70210556e-04,
          -2.91676086e-04, -1.23827907e-04, 3.71848932e-04,
          -3.05690628e-04, 3.58873280e-04, -6.23849992e-05,
          -3.41099330e-05, 1.84848846e-04, 3.36188459e-05,
          -1.92129228e-04, -1.66529557e-04, -2.35107349e-04,
          -3.85575899e-04, 1.00826710e-05, -4.68803075e-04,
          -2.46494543e-04, -7.33938796e-05, -1.72455097e-04,
          -2.92189565e-04, -4.89327183e-04, -3.22565204e-04,
          -1.05179613e-04, -5.19539346e-04, -1.21636491e-04,
          -3.07594979e-04, 2.84135331e-05, -5.43013099e-04,
          -6.28571375e-04, -1.48694409e-04, 4.17754869e-04,
          2.31259313e-04, 2.08102501e-04, 3.18133098e-04, 3.15739191e-04,
          6.77252421e-04, -1.24923550e-04, 4.48920910e-05,
          3.47875262e-04, -1.93047556e-04, 2.03793883e-04,
          3.25034285e-04, -2.02790063e-04, 4.03973594e-04,
          -4.85069177e-05, 2.30114631e-04, 1.02627833e-04,
          -2.68556876e-04, 3.61967279e-04, 3.33705655e-04,
          -4.48984909e-04, 1.48385603e-04, -5.42725575e-05,
          1.75709632e-04, 1.36115588e-04, -3.50024988e-04,
          4.82091797e-04, 3.07134032e-04, -6.03489985e-04,
          4.88786609e-04, -4.40188851e-05, -1.12245143e-04,
          1.54806898e-04, 1.08796557e-04, 2.11856735e-04, 7.89260375e-05,
          2.75280880e-04, 5.71395038e-04, -4.52170425e-05,
          3.45262437e-04, 1.81073716e-04, -2.28649660e-04,
          8.58386120e-05, 2.80700478e-04, 2.16710687e-05, 1.03572762e-04,
          -5.20178728e-05, 1.37936062e-04, 1.26996616e-04,
          -2.28801859e-04, -1.37845855e-04, 3.07260198e-04,
          -1.77152833e-05, -3.33887401e-05, 1.40080316e-04,
          1.38188960e-04, 9.21026149e-05, -3.08741728e-05,
          -5.54318358e-05, 2.41184549e-04, -2.36703243e-04,
          1.83279437e-04, -4.32689849e-04, -3.26938229e-04,
          -1.66420577e-05, 1.91690546e-04, 3.13349738e-04,
          3.37561709e-04, 8.99628867e-05, 2.04052601e-04,
          -1.09943234e-04, 2.28506644e-04, -1.79512252e-04,
          -2.24796313e-04, 1.85880242e-04, 6.29811038e-05,
          1.44514779e-04, 1.46901759e-04, 1.04485262e-04, 6.71677262e-05,
          -4.13458270e-04, -1.60794953e-04, -3.27777670e-04,
          -7.12740948e-05, -1.97035100e-04, -8.19524284e-05,
          5.90804439e-06, -3.19400104e-04, -1.65131976e-04,
          1.57715680e-04, -2.57232430e-04, 2.66339834e-04,
          -1.55785281e-04, -6.25526518e-05, -5.94133860e-04,
          -1.52062683e-04, 3.60451377e-04, 6.74420298e-05,
          1.48624851e-04, 4.81671414e-05, -2.31326499e-04,
          8.06676835e-05, 1.01041027e-04, 4.14627226e-04, 3.86265820e-05,
          -1.55422938e-04, 1.49033494e-05, -2.82085730e-05,
          5.70736047e-05, 3.55796335e-04, 2.05637552e-04,
          -5.14615735e-04, -2.39467001e-04, -9.07529975e-05,
          -2.77755662e-05, -2.59599237e-05, 2.23629220e-04,
          2.27099052e-04, -1.30719127e-04, -5.85990550e-04,
          -2.84337220e-05, -1.81693045e-04, -1.18568933e-04,
          2.44308700e-04, 1.39828480e-04, -3.69027402e-04,
          -4.66343859e-04, -5.72659665e-05, 7.10051449e-04,
          2.69451732e-04, 1.96874214e-04, 1.09610373e-04, 9.16804929e-05,
          3.78078519e-04, 4.01351252e-04, -2.51979473e-05,
          3.37474106e-04, 3.90933186e-04, 2.97253398e-04, 1.07366599e-04,
          5.59736582e-05, 3.09046853e-04, 6.10270326e-05,
          -1.56357739e-04, 9.96424787e-05, 2.07717210e-04,
          -9.50351678e-05, 2.65503128e-04, 2.18758723e-04,
          6.65682383e-05, -3.88631306e-05, 2.17332767e-04,
          -1.20250166e-04, 1.30769724e-04, 2.65853392e-04,
          4.57564129e-05, 5.66381859e-05, -1.16887582e-04,
          -9.82659913e-05, 8.25521784e-05, 8.99765175e-04,
          -2.77306717e-05, 1.35896742e-04, 2.45599193e-04,
          2.71073921e-04, 4.12159803e-04, 1.61225893e-04, 9.92049318e-05,
          -3.20217951e-04, 3.58527352e-04, 1.70863772e-04,
          2.58522254e-04, -4.92673607e-05, 1.12197195e-04,
          2.62092915e-04, -1.30734174e-04, -3.00079089e-04,
          1.93770524e-04, -1.65100704e-04, -2.60897377e-05,
          2.88264073e-05, 3.93823633e-04, -1.59207611e-05,
          1.11619607e-04, -3.05957568e-04, -1.25280771e-04,
          1.89008970e-05, 8.08036129e-05, 2.06776036e-04,
          -2.77577437e-05, 1.95898814e-04, 8.35479877e-05,
          2.30031234e-04, 1.76808510e-06, 1.44904508e-04, 2.67565571e-04,
          3.44222644e-04, 4.16204362e-04, 1.30286586e-04,
          -2.12385610e-04, -2.10882688e-04, -8.46799230e-06,
          1.57655813e-04, 1.97814239e-04, -7.68990940e-05,
          2.78316613e-04, 1.57840710e-04, 1.32388857e-04,
          -2.28553923e-04, -2.91222124e-04, 1.58335548e-04,
          -3.58447083e-04, -1.82372038e-04, -2.43035000e-04,
          -3.11192707e-05, 1.85511482e-04, -3.33472679e-04,
          -2.06431476e-04, 5.14389649e-05, 6.21492509e-05,
          2.70052024e-05, -3.20679304e-04, 3.70372873e-05,
          -7.85035299e-05, -1.25353312e-04, 1.62816970e-04,
          3.71313072e-04, 2.08984075e-05, 2.11840292e-04, 4.79890790e-04,
          2.85093047e-05, -1.81425567e-04, -2.01502655e-04,
          2.11196486e-04, 1.49560408e-04, 4.52326713e-05,
          -1.22249796e-04, 4.58846102e-04, 2.01968694e-04,
          -3.00493470e-04, -2.36031519e-05, 1.72592117e-04,
          -3.05601046e-04, -1.35428869e-04, -1.32632122e-04,
          2.74324866e-05, -5.28471683e-05, -1.18875840e-04,
          -4.11691653e-05, -1.17258140e-04, -4.47278231e-04,
          2.55069954e-05, 1.40147473e-04, -8.36617073e-06,
          -5.63809881e-05, -9.53742056e-05, -7.74271903e-05,
          2.40764115e-04, 4.40800068e-04, 7.80612318e-05, 5.66382310e-04,
          2.91717588e-04, 1.38471980e-04, 2.87240018e-05, 8.07364486e-05,
          1.02464528e-05, -7.63877506e-06, 1.03074257e-04,
          4.21280332e-04, 3.93715571e-04, 2.66638934e-04, 5.20187932e-05,
          3.98789889e-05, -1.77445268e-04, -2.75597878e-04,
          -5.00322458e-05, 6.86817366e-05, -1.06650070e-04,
          1.40105651e-04, -1.20734519e-04, 6.25581160e-05,
          -8.11761784e-05, 9.83821228e-05, -1.51670392e-04,
          -1.99671616e-04, -4.07152766e-05, -1.74234403e-04,
          6.95305644e-05, 6.95402123e-05, 4.91830870e-04, 2.35935309e-04,
          1.37142750e-04, 3.76660064e-05, 1.46690145e-04, 3.74600262e-04,
          1.38709089e-04, 3.25819638e-05, -1.06451487e-04,
          -2.74855192e-05, -1.20117787e-04, 8.88414288e-05,
          2.93670804e-04, 4.72586311e-04, 8.02567592e-05, 6.97313881e-05,
          1.31799519e-04, -2.42571477e-04, 2.72738020e-04,
          1.50514432e-04, -2.30643767e-04, 2.90483498e-04,
          -1.30803674e-04, -1.31889130e-04, -9.39092133e-05,
          -1.34929360e-04, -9.27286965e-05, -1.17713229e-04,
          -2.70521385e-04, -2.39949411e-04, 4.79552727e-05,
          1.34905611e-04, 3.67272703e-04, 1.09012064e-04, 1.36385570e-04,
          -2.86423892e-04, 2.74643971e-04, 5.42434165e-04,
          -5.73469697e-06, 1.60573400e-04, 6.37981202e-06,
          8.92044482e-05, -3.18870792e-04, -2.23522457e-05,
          8.99094593e-05, 2.02958166e-04, -8.12625585e-05,
          -1.84121483e-04, 1.64701087e-05, -1.46397622e-04,
          1.44024598e-04, -1.94975892e-05, -2.54953571e-04,
          2.38525240e-06, -3.58358520e-04, -5.94073754e-05,
          -1.36692513e-04, -2.32403298e-04, -5.70171542e-05,
          5.99261075e-05, -1.29044143e-04, -1.20816912e-04,
          1.58736962e-04, 2.73454847e-04, -6.47751949e-05,
          2.24183386e-04, 1.27328574e-04, -1.95199100e-04,
          8.68574425e-05, 2.20643706e-04, -5.19052206e-04,
          4.63640899e-04, 1.45590573e-04, -1.71794250e-04,
          -2.56118248e-04, -1.63966979e-04, -4.76627756e-05,
          -3.41912491e-05, -6.89582812e-05, 2.66883144e-04,
          3.91626381e-04, -1.15014045e-04, 2.44295734e-05,
          -1.99760310e-04, -2.62204063e-04, -2.53731181e-04,
          -5.02530427e-04, 4.36616159e-04, 8.64839312e-05,
          -2.86660361e-04, -1.41958488e-04, -1.01315774e-04,
          -1.48944673e-04, -8.67202034e-05, 1.86462596e-04,
          9.57010998e-05, 5.11523336e-04, 3.69779125e-04, 7.63930366e-05,
          3.16185178e-04, 2.16069398e-04, 2.93062156e-04, 3.03311172e-05,
          1.65794496e-04, -7.03562591e-06, 4.11947731e-05,
          1.48403851e-05, -1.09858876e-04, 4.53527551e-04,
          1.89791273e-04, -2.93287274e-04, 2.81701185e-04,
          -1.51326836e-04, 6.02683685e-05, 3.02436383e-04,
          -2.02762734e-04, 2.64603703e-04, 3.26927780e-04,
          -3.24876397e-04, -1.11813024e-04, -1.77238126e-05,
          9.80708137e-05, 1.60407537e-04, -1.43973275e-05,
          1.18347445e-04, -2.34328501e-04, -8.08997429e-05,
          3.04803165e-04, 5.39288274e-04, 5.19175024e-04,
          -9.41012604e-06, 2.17805224e-04, 3.81250284e-04,
          7.96389795e-05, -5.82817156e-05, 1.41211334e-04,
          -1.74912100e-04, 5.05282223e-05, 6.17472833e-05,
          -8.88151990e-05, 4.16338822e-04, 6.88683504e-05,
          -3.50541202e-04, -2.27523225e-04, -2.87930452e-04,
          2.85780668e-04, 5.52565507e-05, -5.86917973e-04,
          2.21141963e-04, 1.49412663e-04, -4.76055684e-05,
          -1.72439934e-04, -8.58583444e-05, 7.25999489e-05,
          3.08687158e-04, -5.56459534e-04, -3.52812385e-05,
          -1.39963173e-04, 2.19252950e-04, 1.95931876e-04,
          1.79816168e-04, 1.36605478e-04, 1.92252293e-04, 2.58466462e-04,
          1.74583096e-04, -1.26800951e-04, 3.62537685e-04,
          2.62335438e-04, 1.77631417e-04, -4.55889967e-04,
          -1.59589938e-04, 9.57720331e-05, 1.03931372e-04,
          9.57796219e-05, -1.73045264e-04, -1.60809519e-04,
          -2.63019552e-04, 9.39063557e-06, -3.60862323e-04,
          -2.05074917e-04, 1.44207836e-04, -2.01202041e-04,
          -3.36510944e-04, -3.08887858e-04, 1.08470318e-04,
          1.39568147e-04, -1.43592639e-04, -4.38988587e-04,
          2.08127502e-04, -2.28135294e-04, 3.21545871e-04,
          2.83300062e-04, -6.71090529e-05, 1.65301099e-04,
          1.20653167e-04, 5.53429651e-04, 4.26309940e-04, 1.42629637e-04,
          1.02954902e-04, 1.01321719e-04, 3.20861873e-04,
          -1.35101673e-05, 1.05262552e-05, 1.10277040e-04,
          -1.14851871e-04, -9.55788255e-06, -1.22646583e-04,
          -2.90416065e-04, -2.41537753e-04, 2.58936834e-05,
          -7.97224930e-05, 1.09459406e-05, -2.37283894e-04,
          -1.96313616e-04, -2.61932611e-04, -1.30053042e-04,
          -1.27505278e-04, 9.22155505e-06, -1.21450990e-04,
          -1.42892910e-04, -5.15752545e-05, -5.36447296e-05,
          2.36050619e-05, 1.83693715e-04, 1.39473166e-04, 3.47553549e-04,
          -7.28097584e-05, 3.21555912e-04, 1.76931149e-04,
          3.70139373e-04, -2.72031582e-04, -6.29661226e-05,
          -1.25126971e-04, 7.76782836e-05, -4.25050413e-04,
          -1.80679795e-04, 3.03399167e-04, 2.84635316e-04,
          -6.00350068e-05, -1.94307839e-04, -3.03275854e-04,
          -3.17026890e-04, -3.16988007e-04, -5.20842150e-04,
          9.69645844e-05, -5.82192370e-05, -3.28278897e-04,
          -2.83237838e-04, -2.06716009e-04, -3.11752665e-04,
          -1.25631123e-04, -4.18024079e-04, 2.48029421e-04,
          -7.64558572e-05, 3.34855024e-04, -1.05243964e-06,
          2.96749058e-04, 3.39903141e-04, 7.41941258e-05, 1.46426348e-04,
          1.93687622e-04, 2.57858046e-04, 2.34215040e-05,
          -1.16042866e-04, 8.70098665e-05, 9.63860512e-05,
          -4.28124849e-06, -3.02828907e-04, 2.87816860e-04,
          -2.28453591e-05, -1.12580572e-04, 3.40049082e-05,
          9.88085740e-05, -4.14696755e-04, -1.91189625e-04,
          -3.45765933e-04, -1.28442116e-04, -3.24881985e-04,
          -1.17512081e-06, -7.39787938e-05, -3.79481207e-04,
          -1.31034860e-04, 1.12412534e-04, -5.29911893e-04,
          -4.49223407e-05, -1.98704700e-04, 4.36395028e-04,
          -3.08168674e-04, 1.84870922e-04, 2.06435274e-04,
          4.31450258e-04, 5.40051515e-05, 2.10531653e-04, 2.60008965e-04,
          2.77674291e-04, -3.37907491e-04, 1.76815069e-04,
          -1.07545369e-04, 4.12406298e-05, -1.63226359e-04,
          1.36057584e-04, -6.21666768e-05, 5.36415173e-05,
          -3.76450713e-04, -1.08660184e-04, -1.97199988e-04,
          -1.48561652e-04, -3.39429826e-04, -9.54141797e-05,
          -1.43289450e-04, 1.44069083e-04, -8.34574735e-07,
          -1.28517640e-04, 1.04559047e-04, -1.29133463e-04,
          -3.52140953e-04, 2.99116482e-06, -2.06318611e-04,
          3.61159036e-04, -4.96839602e-05, 3.03020697e-05,
          3.60175094e-04, 3.06521717e-04, 2.34178951e-04, 7.52944979e-05,
          3.00406973e-04, 4.95282002e-04, -2.16977161e-04,
          3.46939742e-05, 1.84485907e-05, 9.78580210e-05, 1.86424411e-04,
          -2.21339706e-05, -4.51033375e-05, 1.68982675e-04,
          -4.97498142e-04, -1.03736449e-04, 1.43371246e-04,
          -2.13871492e-04, -3.10342875e-04, 1.72909349e-04,
          1.61361982e-04, 1.26717903e-04, -5.42798080e-04,
          -1.02668882e-05, 4.95960921e-05, -1.59334348e-04,
          -2.40578986e-04, 2.11854538e-04, 1.95789486e-04,
          1.43798068e-04, 7.05965795e-05, -1.62472294e-04,
          2.17279929e-04, 3.22267937e-04, 1.44313934e-04,
          -2.52188445e-04, 2.63311904e-05, 1.43351615e-04,
          1.76723712e-04, -2.00274546e-04, 9.21018000e-05,
          1.42900113e-04, 1.63406949e-04, -1.34240938e-04,
          1.59950519e-04, 3.54249380e-04, -1.42891455e-04,
          -6.06570975e-05, 9.79294273e-05, 8.42684312e-05,
          4.83640470e-05, 1.37254683e-04, 1.40279444e-04, 1.90836072e-04,
          -2.28192090e-04, -7.33551531e-07, -3.37284902e-04,
          6.38056663e-04, 9.67741216e-05, 4.59358380e-05, 1.41062956e-05,
          2.01273549e-04, -1.47757281e-04, -7.60125331e-05,
          2.17156005e-04, 4.37775219e-04, 2.48178083e-04, 2.49447339e-06,
          3.02375338e-05, 1.36484930e-04, 2.88098236e-04, 3.51985102e-04,
          -9.19875965e-05, 2.17568195e-05, 2.08313431e-04,
          6.84227271e-05, 1.98713416e-04, 4.45107929e-04, 3.90896639e-05,
          1.38569711e-04, 2.60336499e-04, -6.56469783e-05,
          -6.22522275e-05, 1.88054546e-05, -1.06458254e-04,
          -8.84158799e-05, -1.77260357e-04, 2.42299095e-04,
          -2.06562851e-04, 2.97345337e-04, 2.29674333e-04,
          -1.04292689e-04, -3.02864006e-04, 1.32563728e-04,
          -2.85059068e-04, -1.30075685e-04, 3.24235763e-04,
          3.40374419e-04, 4.33846813e-04, 3.15256941e-04, 9.81467383e-05,
          -3.81560996e-04, -8.32727965e-05, -5.24210591e-05,
          3.82830949e-05, 3.08488452e-05, 1.67683102e-04, 1.21789461e-04,
          -1.18399894e-05, 9.31878749e-05, -2.04344848e-04,
          -4.09483531e-04, 9.56235453e-05, -2.59126857e-04,
          -1.75014749e-04, -2.08174373e-04, 5.71160090e-05,
          -4.83176234e-04, -2.32301609e-05, -2.45097646e-04,
          -2.35237167e-04, -4.56413145e-05, -2.78242405e-05,
          -2.87657196e-04, -1.33792186e-04, 4.33376226e-06,
          7.46590922e-06, -1.80965697e-04, 2.96839018e-04,
          -1.30360029e-04, -1.95296197e-05, 3.72055976e-04,
          -2.35948828e-05, -2.94089492e-04, -8.52585144e-05,
          6.42398736e-05, 6.81233796e-05, -5.99762961e-06,
          -1.09967870e-04, -2.99979612e-04, -1.07585278e-04,
          -2.20657050e-04, -5.86259528e-04, -5.43419410e-05,
          -1.55601752e-04, -4.09226312e-04, -2.99614825e-04,
          -6.84107828e-04, -1.49482454e-04, -6.02823915e-04,
          -2.36324398e-04, -4.64113575e-04, -2.23195748e-04,
          -3.24954861e-04, -1.61383257e-04, -4.28020809e-04,
          -1.11964880e-04, 3.77305143e-04, 6.18712802e-04,
          3.38424288e-04, 4.14332462e-05, -1.71660737e-04,
          3.24522087e-04, 1.71222971e-04, 3.56792298e-04, 3.10900272e-04,
          5.09721576e-04, 3.16775258e-04, 2.72712263e-04, 1.76247762e-04,
          3.69825255e-04, 8.84722685e-05, 3.32441086e-05, 3.52748117e-04,
          8.33098748e-05, 2.32239167e-04, 2.86371505e-04,
          -1.38207848e-04, 1.98783760e-04, -2.81134970e-04,
          1.24363592e-04, 1.01305523e-04, -3.95716706e-05,
          -9.25951899e-05, 2.76194129e-04, -1.39943528e-04,
          2.86224822e-04, -2.83701345e-04, 4.70357336e-04,
          4.47856029e-04, 1.16004645e-04, 2.88015930e-04, 1.91384621e-04,
          -1.50815089e-04, 5.33971106e-05, 4.65752499e-04,
          2.50775454e-04, 3.26862675e-04, -1.17770927e-04,
          2.03939082e-04, 1.99688220e-04, 2.42815848e-04,
          -1.26116764e-04, 3.12408112e-04, 2.61852274e-05,
          2.60455243e-04, -2.24745745e-04, -4.86452773e-05,
          -2.80899549e-05, -1.76904883e-04, 2.25326163e-04,
          -2.36987195e-04, 1.16551390e-04, 2.43318820e-04,
          -5.74002570e-06, -5.50596633e-05, -2.03847929e-04,
          -1.11094989e-04, 1.83825934e-04, -4.26711631e-04,
          5.26984259e-05, 3.33243515e-04, 1.59960779e-04, 2.82913697e-05,
          8.58810745e-05, 1.52193854e-04, -2.66119081e-04,
          4.40830103e-04, 3.33253556e-04, 1.12114241e-04, 1.75698715e-05,
          -6.28068228e-05, -1.69827199e-05, 2.20648799e-05,
          -9.02385509e-05, 2.43545815e-04, -7.33235938e-05,
          3.03445904e-05, -3.58115067e-04, -1.50884138e-04,
          -4.42735109e-05, -1.86831719e-04, -1.61172095e-04,
          -2.21805603e-04, -2.61164274e-07, -2.32786435e-04,
          -2.00166061e-04, 1.45860715e-04, -3.39442748e-04,
          -1.24671802e-04, -2.53752893e-04, 1.90304690e-05,
          -2.62465968e-04, 1.92290681e-04, 4.27115941e-04,
          -6.33078671e-05, 3.29431001e-04, -6.36825789e-05,
          -2.16691478e-04, -4.31658327e-06, 4.91937062e-05,
          1.18848737e-04, 1.64920901e-04, 3.07061942e-04, 2.39118250e-04,
          -5.16178145e-04, 2.70606834e-05, 4.22960075e-05,
          -3.14358243e-04, -1.50560027e-05, 8.96795536e-05,
          3.42806161e-05, 1.45743788e-05, -3.21906002e-04,
          -1.27075633e-04, -3.06388974e-05, -3.08085902e-04,
          -3.63568368e-04, -6.62045841e-06, -3.57178760e-05,
          -7.73131978e-05, -6.24144683e-04, -4.09795350e-04,
          -5.99169252e-05, -5.19078283e-04, 2.19204976e-05,
          1.02128084e-04, 2.34384337e-04, 9.41866776e-04, 1.54301015e-04,
          5.01623254e-05, 3.40822589e-04, 1.94124179e-04, 1.60765907e-04,
          2.76419683e-04, 1.36116578e-04, 3.43327760e-04, 1.65590813e-04,
          3.92815738e-04, 1.69277162e-04, -8.79536765e-06,
          3.45633976e-04, 3.94299306e-04, 1.61174001e-04,
          -2.08516713e-06, -1.26296916e-04, 3.26296780e-04,
          -1.17638898e-04, 2.03550779e-04, 2.07882797e-04,
          5.90395684e-05, -5.86480164e-05, -7.81610142e-05,
          -3.29311646e-04, 1.42987978e-04, -6.43096655e-06,
          1.69066567e-04, -4.03288650e-05, 2.24440237e-06,
          2.67010182e-04, 2.75963219e-04, 2.15200154e-04, 2.60304689e-04,
          2.56113388e-04, 8.55384678e-06, 2.16029966e-05,
          -1.21996804e-04, -3.96401265e-05, 9.82015990e-05,
          3.18268081e-04, -3.35774166e-05, 4.01925296e-04,
          1.83657190e-04, 4.00657911e-04, 8.85130503e-05, 1.11585887e-05,
          -4.53919929e-05, -1.18398078e-04, -6.73443083e-06,
          2.95029640e-05, 3.17603281e-06, 1.11188674e-04, 3.08343762e-04,
          -3.81597958e-04, -2.55346007e-04, -1.55155416e-04,
          8.35584942e-05, -2.69529119e-04, -1.46695369e-04,
          -1.86429952e-05, 4.79899201e-04, 2.97126651e-04,
          -3.89673776e-04, 4.83231961e-05, 1.57726405e-04,
          2.74078426e-04, 1.11325244e-04, 1.57747752e-04, 2.26039643e-04,
          -1.96967740e-04, -2.56516942e-04, 3.16543767e-04,
          4.33377318e-05, -1.92217805e-04, 1.18714590e-04,
          1.92310399e-04, 6.43748863e-05, 7.44081626e-05, 8.78794090e-05,
          -1.34944581e-04, -2.39569446e-04, -1.73458946e-04,
          -4.70935105e-04, -1.54618916e-04, 2.16507993e-04,
          1.55913076e-04, 5.82070461e-05, -5.11004109e-05,
          -1.45493876e-04, -2.88705400e-04, -4.99574293e-04,
          -1.50834283e-04, 5.84223890e-04, 3.51095048e-04,
          5.59836917e-05, -1.52564666e-04, -1.05451611e-04,
          4.01824858e-04, 2.10112281e-04, 1.49392421e-04, 3.38878483e-04,
          3.03532754e-04, -1.59759758e-04, 2.03925767e-04,
          -1.54944501e-05, -2.22946415e-04, 3.31138199e-06,
          -1.02587401e-05, -1.03937018e-04, 2.53551319e-04,
          -2.90539028e-04, 1.95298431e-04, 1.11289453e-04,
          -1.14810260e-04, -2.93506600e-04, -3.03026987e-04,
          -8.92756798e-05, 3.31330346e-04, -1.95973800e-04,
          1.07119238e-04, -4.72758220e-05, -1.87084050e-04,
          -4.79993294e-04, 2.44684546e-04, -1.31197827e-04,
          4.81355732e-04, 6.76942815e-04, 3.58570338e-04, 4.18300951e-05,
          1.44892532e-04, 4.06576728e-04, 2.87259638e-04,
          -2.24068717e-04, 7.26984465e-04, 2.72326608e-04,
          2.43478033e-04, -1.12783535e-04, 4.47944149e-05,
          1.13320035e-04, 2.78779567e-04, -2.01992698e-05,
          2.00540584e-04, 2.58163564e-05, 2.65949318e-04,
          -1.65137069e-04, 8.86976413e-05, -1.59353047e-04,
          2.38452907e-04, 2.23368872e-04, 2.03919291e-04, 1.55780086e-04,
          2.55417166e-04, -1.73023960e-04, -1.25358609e-04,
          -1.42158024e-04, -4.84950433e-05, -1.26595303e-04,
          4.86974663e-04, 4.27455438e-04, 2.95486738e-04,
          -6.79941368e-05, 2.15309221e-04, 2.43284332e-04,
          1.15907351e-04, 4.18537238e-04, 3.35131976e-04,
          -2.29036712e-04, 1.82680291e-04, 6.33116870e-05,
          1.10024885e-05, -1.55160247e-04, 7.76848174e-06,
          8.49222197e-05, 1.01820100e-04, -2.09466481e-04,
          -1.13628812e-04, -2.10150065e-05, 1.77645998e-05,
          -1.72560016e-04, -3.54387521e-05, -1.38783595e-04,
          6.97496434e-05, 2.37663553e-05, -7.48226958e-05,
          -2.05793403e-04, 2.97912866e-05, -1.74054498e-04,
          -1.50804452e-04, 5.00876886e-05, 1.02093007e-04,
          3.59598896e-04, 2.81485729e-04, 2.00621100e-04, 2.77838062e-05,
          -3.77125398e-05, 1.34189468e-05, 4.04988532e-04,
          -9.28858426e-05, 2.22497838e-04, 1.80820251e-04,
          5.81986242e-05, -7.90281847e-05, -2.06093580e-04,
          -8.01449823e-06, 2.03117699e-04, -8.87801798e-05,
          -1.94720880e-04, -1.61653545e-04, -2.96909537e-04,
          2.00188704e-04, -3.67433648e-04, -2.34923253e-04,
          -9.10362651e-05, -6.27119953e-05, -1.97763060e-04,
          9.35352655e-05, -1.95378714e-04, -2.16854255e-06,
          -4.39794792e-04, -1.15377552e-04, -1.67973296e-04,
          2.14617525e-04, 3.55100638e-04, 8.60943255e-05,
          -3.14089157e-05, 2.87995237e-04, 2.38256500e-04,
          -3.61233360e-05, -1.01146892e-04, 1.19107652e-04,
          1.24170721e-04, -6.10071911e-05, -9.61862752e-05,
          2.88794748e-04, -8.71646698e-05, -2.87028117e-04,
          2.16497428e-04, 1.49456784e-04, -4.54198562e-05,
          7.73233696e-05, -1.51858883e-04, -3.32415233e-08,
          -4.62802302e-04, -4.75385837e-04, 9.13272233e-05,
          1.23336067e-04, -2.26172793e-04, 1.88839243e-04,
          -2.30476304e-04, -2.52268714e-04, -4.87670331e-04,
          -2.46380718e-04, 4.21924924e-05, 7.03623053e-04,
          4.49815852e-04, 3.88686720e-04, -1.79997107e-04,
          2.93911842e-04, 1.91436440e-04, 3.44271357e-05, 6.34793978e-05,
          5.02216571e-04, -1.15285628e-04, 3.13285855e-04,
          -4.22184094e-04, 2.25223863e-04, 2.88878073e-06,
          4.22323719e-05, 3.17642844e-05, 3.86633445e-04,
          -1.79262279e-04, 1.72616143e-04, -6.92608664e-05,
          1.63709061e-04, -7.62517957e-05, 1.08306129e-04,
          -1.58444614e-04, 2.06499433e-04, 2.15922028e-05,
          3.48964328e-04, -5.77064238e-05, 1.43673664e-04,
          -4.42854580e-05, -1.58450785e-04, 3.27059533e-04,
          4.57196758e-04, 2.66345916e-04, 6.04128989e-04, 2.62838294e-04,
          1.45400249e-04, 1.85138517e-04, -6.67751519e-05,
          2.89754389e-04, 5.42390568e-04, 4.82495052e-05,
          -3.17235390e-05, 5.68862488e-05, 4.59075018e-05,
          1.26133355e-05, 2.72635807e-04, -1.04181941e-04,
          6.35403558e-04, 1.17354735e-04, 1.27722073e-04,
          -6.28223424e-05, 4.53744497e-06, 3.27250527e-05,
          6.17334736e-05, 8.73813988e-05, 5.24902833e-04, 2.23620718e-05,
          1.96479858e-04, -3.92542206e-05, 2.53400620e-04,
          7.54974390e-05, 1.34738430e-05, -1.34373622e-04,
          1.39699026e-04, 2.64788541e-04, 1.52628476e-04, 3.65762244e-04,
          1.85410012e-04, 5.88196053e-05, -1.68983333e-05,
          -1.06450265e-04, 1.39521871e-04, 6.26636611e-05,
          -1.20109922e-04, 1.13657843e-04, 1.60840951e-04,
          -4.99353155e-05, 7.40427276e-05, -2.60421977e-04,
          1.61157310e-04, 3.78041790e-04, 2.17510271e-04,
          -1.73206892e-04, 3.68555367e-04, 9.44357380e-05,
          8.73254703e-06, -8.25326133e-05, 3.48663598e-04,
          2.21067734e-04, -4.19855751e-05, -5.63052781e-05,
          4.31357272e-04, -4.63938341e-05, 2.19927351e-05,
          -6.65248430e-04, 2.69440236e-04, 1.71961248e-04,
          -2.12777359e-05, 2.11695762e-04, 1.00845609e-04,
          2.75353261e-04, 2.29648758e-05, -5.75211423e-04,
          4.33965673e-04, 5.27183261e-07, -5.44087779e-05,
          1.95248613e-05, 1.20189638e-04, 2.14193624e-05,
          -1.17167052e-04, -3.77137709e-04, 4.78456088e-04,
          2.39462082e-04, -5.04580312e-05, -1.55183734e-04,
          4.43967496e-04, -1.71084495e-04, 2.26230113e-04,
          -7.76442830e-05, 4.21370467e-04, 9.66210246e-06,
          -2.31784914e-04, 1.90883162e-04, 3.01902124e-04,
          -8.63604728e-05, 8.39141794e-05, 3.22976033e-04,
          4.52851644e-04, 4.58225579e-04, -2.03572636e-04,
          3.94064060e-04, -5.06067590e-06, 9.63088314e-05,
          2.03369200e-05, 7.19650488e-05, 3.19581130e-04, 5.07562305e-04,
          -6.54011819e-05, 1.36964285e-04, 1.75422130e-04,
          3.89360881e-04, 8.60299479e-05, -6.89038643e-05,
          1.23862810e-05, 2.26216536e-04, 4.90362057e-04,
          -1.08000058e-04, -3.87120272e-05, 2.81072338e-04,
          -1.35432376e-04, 1.87646758e-04, 2.65644194e-04,
          4.71502717e-04, -4.06587606e-05, 1.82019328e-04,
          -1.71588821e-04, 1.61203759e-04, 8.52196172e-05,
          -9.39153688e-06, 9.15648488e-05, 2.14397660e-04,
          -6.79994555e-05, 2.90817843e-04, 1.20808560e-04,
          1.36512070e-04, 8.78364517e-05, 6.14530363e-05, 1.16556599e-04,
          3.99835291e-04, 2.38074150e-04, -1.63596269e-04,
          3.12356045e-04, 2.12790503e-04, 2.37650365e-05, 8.23143127e-05,
          2.48980446e-04, 2.28465869e-04, 8.02700888e-05,
          -1.48683845e-04, -9.22917206e-06, 1.60402138e-04,
          -2.12377476e-04, 2.87425995e-04, 2.04450946e-04,
          3.22044303e-04, 1.24526900e-06, 1.70959669e-04,
          -1.82599415e-05, -3.50257869e-05, -2.35730840e-04,
          -3.25592046e-05, -1.55516682e-05, -1.05687606e-04,
          1.02156395e-04, 2.17284716e-04, 2.20520116e-04,
          -1.21406674e-05, -1.87783560e-04, 1.46927021e-04,
          4.06913496e-05, 1.19882570e-05, 4.86317731e-04, 5.47461968e-05,
          1.98944836e-04, -4.96683206e-05, -8.89686926e-05,
          -1.74338493e-05, -1.05840256e-04, -1.03101971e-04,
          -2.82667334e-05, -1.06444066e-04, 1.67272898e-04,
          6.42513351e-06, -2.51711986e-04, -1.67890576e-05,
          -1.16697913e-04, 6.97173600e-05, 6.08139726e-06,
          4.24551617e-05, 3.11039330e-04, 2.77006358e-04,
          -5.03426767e-04, -2.85200833e-04, 2.68170872e-04,
          -1.62779805e-04, 1.08929933e-04, 2.30618723e-04,
          -4.09168642e-05, 1.50827182e-04, -3.82040191e-04,
          -1.68603379e-04, -1.10572300e-05, 8.73028766e-05,
          3.32441239e-04, 1.41109776e-04, 2.00414943e-04, 9.81022167e-05,
          -2.21342139e-04, -1.41229757e-04, -3.88687586e-05,
          1.44269856e-04, 3.79849953e-05, -1.79677489e-04,
          -7.83988344e-06, -6.22086663e-05, -4.34353104e-04,
          -2.47401240e-05, 1.14133210e-04, 7.39882671e-05,
          -9.52759510e-05, -1.52476408e-04, 2.47087446e-04,
          -6.45349937e-05, 6.50225002e-06, -5.93341319e-05,
          7.01326207e-05, 9.62828562e-06, -1.67546707e-04,
          1.15650095e-04, 2.26827629e-04, -3.35188452e-05,
          1.00122605e-04, 3.13125987e-04, -1.26320359e-04,
          -9.33337506e-05, 1.40975200e-04, 7.07061263e-05,
          3.18688777e-04, 2.55392024e-05, -8.11083737e-05,
          6.89330700e-05, 1.33023626e-04, 2.13391642e-04,
          -1.95064742e-04, 9.68152890e-05, 6.56030097e-05,
          -1.17658434e-04, 9.99435579e-05, -4.68878352e-05,
          2.86381895e-04, 1.26899104e-04, -3.45419394e-04,
          -7.75869339e-05, -1.32292786e-04, -1.79445458e-04,
          -1.56510810e-04, -9.25153727e-05, 1.74942004e-04,
          1.20077224e-04, -2.40673922e-04, 1.44815116e-04,
          2.09910722e-04, 2.07056073e-04, 6.58460340e-05,
          -1.72109882e-04, 1.59503717e-04, -6.87338324e-05,
          1.27774911e-04, -1.00225720e-04, 4.39462201e-05,
          3.51975381e-04, 6.56898919e-06, -1.20973127e-04,
          1.20305143e-04, 1.19724296e-04, 1.11434107e-04,
          -3.17191116e-05, -2.21350128e-04, 1.14722179e-05,
          1.65742895e-04, 1.18627620e-04, 3.78131444e-05, 2.10643902e-05,
          3.03351135e-05, -1.38967516e-05, -2.66819756e-04,
          6.60541482e-05, -3.49498063e-04, -5.15573738e-05,
          2.10203594e-04, 1.87233294e-04, -3.72680697e-05,
          1.41186581e-04, -1.33879614e-04, 3.03464127e-04,
          6.88021828e-05, -2.07740115e-04, 1.80472591e-04,
          8.26944815e-05, 1.11250774e-04, -3.46557645e-04,
          1.25506383e-04, 2.19554902e-04, -2.90065218e-04,
          1.44442733e-04, -7.57705275e-05, 1.35604641e-04,
          1.59515374e-04, -3.51113762e-04, 3.25490342e-04,
          1.47283317e-05, -2.61161971e-04, 3.14689853e-04,
          -5.76141829e-05, 7.88302059e-05, 2.26843971e-04,
          -2.86504073e-04, 7.96883396e-05, 1.34934467e-04,
          -4.31284949e-04, -1.78719551e-04, 3.01318032e-05,
          3.05353082e-04, 9.02501051e-05, 1.89183920e-04,
          -5.55287843e-05, 3.96668329e-04, -1.39396099e-04,
          -1.70781714e-04, 2.45854288e-04, -1.54864592e-05,
          2.36450433e-04, -2.51573256e-05, -8.73657264e-05,
          3.44313186e-04, -2.40149631e-04, -3.46342313e-05,
          2.60823057e-04, 1.52919791e-04, 2.06111836e-05,
          -3.43195745e-04, 6.24010208e-05, 3.38767073e-04,
          4.73798609e-05, 1.04506425e-05, -9.62803751e-05,
          -1.19022252e-05, -1.14405506e-04, -2.50450539e-04,
          6.33117597e-05, 1.35388938e-04, 2.01887997e-05,
          -1.54256918e-06, 4.52927867e-04, 1.01135425e-04,
          -1.47113082e-04, -6.31303628e-05, 3.07890587e-04,
          1.64052006e-04, -8.70619624e-05, 3.60849954e-04,
          4.79135604e-04, -1.07199507e-04, 1.74979534e-04,
          -2.83994887e-04, 2.53573176e-04, 1.75464869e-04,
          1.14937093e-05, 5.68406431e-05, 2.12975807e-04,
          -6.82322934e-05, 2.79785949e-04, -2.48212473e-05,
          -1.79393988e-04, 1.44470803e-04, 3.84655550e-06,
          -1.74364381e-04, 6.76845229e-05, 2.54341663e-04,
          -1.37090043e-04, -5.90327581e-05, -1.02461827e-05,
          2.16711152e-04, -7.72910280e-05, 2.60930428e-05,
          -2.98843970e-05, -1.40721897e-06, -3.11016862e-07,
          -5.85174848e-06, 4.70609666e-05, 2.80559500e-04,
          -4.87544567e-05, 8.57888517e-05, 1.71947118e-04,
          2.33355731e-05, -1.79866387e-04, -2.75787839e-04,
          -4.79499176e-05, 3.10199131e-04, 9.93317226e-05,
          -3.20259656e-04, -7.29502208e-05, 2.50465382e-04,
          7.31320397e-05, -1.82777992e-04, -1.65157777e-04,
          1.81166019e-04, 1.12045833e-04, -2.57521577e-04,
          5.71211604e-05, 1.91540952e-04, -3.33013129e-04,
          8.69300493e-05, 7.41524636e-05, 3.04376154e-04,
          -1.37218412e-05, -1.25391642e-04, 1.23910257e-04,
          2.34493400e-05, 8.61676235e-05, 6.39470964e-05, 1.59775867e-04,
          2.25188400e-04, 1.68271756e-04, -1.65957608e-05,
          5.14146996e-05, 3.72290197e-05, -7.91491548e-05,
          8.78630381e-05, -1.21504694e-04, -2.03559284e-05,
          2.16539178e-04, -3.06490605e-04, -4.11124893e-05,
          -1.52954322e-04, 2.81738816e-04, 1.62942495e-04,
          1.52423279e-04, 9.45250285e-05, -1.34155576e-04,
          -3.00302432e-04, 1.80267554e-04, 4.34649046e-05,
          -1.28578104e-05, -2.61812820e-04, 1.31990862e-04,
          1.67149759e-04, 1.85519059e-06, -8.41868678e-05,
          2.87242845e-04, 3.68741748e-04, 9.68491731e-05,
          -1.79835464e-04, 1.53390414e-04, 4.26621729e-04,
          2.09688355e-04, -3.60128433e-05, 7.72669591e-05,
          -3.00028096e-05, 1.82067903e-04, -5.35020590e-05,
          -9.53208873e-05, -2.10859980e-05, 6.42687082e-05,
          6.52312083e-05, 9.68631939e-05, -1.76190733e-04,
          5.40001492e-04, 1.19520373e-04, -1.26711602e-04,
          -4.58374707e-05, 7.65142067e-06, -1.95956400e-05,
          1.85584271e-04, 4.32885863e-05, 3.19440063e-04,
          -1.80090195e-04, -1.10344881e-05, 8.28225820e-05,
          2.61143432e-04, 3.50981718e-05, -2.00282433e-04,
          -3.86156862e-05, 2.04191834e-04, 3.75938034e-05,
          1.11893576e-04, 2.94465717e-04, 2.21160721e-04,
          -2.90279349e-05, -1.28764936e-04, 1.04243052e-04,
          5.83665205e-05, 1.25904102e-04, -1.50022388e-05,
          2.23585535e-04, 2.53653619e-04, -1.37448049e-04,
          5.68881951e-05, 1.83722921e-04, 2.85043025e-05, 4.63286560e-05,
          1.65823905e-04, -2.13540588e-05, 4.09072993e-04,
          -3.44259257e-04, -1.25964823e-06, 2.79954576e-04,
          3.79202946e-04, -3.94264998e-06, 1.43439218e-04,
          1.09959838e-04, 1.04204904e-04, 1.72697328e-04, 2.56932835e-04,
          1.46585793e-04, 2.20537477e-04, -8.67960480e-05,
          -8.84146211e-05, 1.19577140e-04, -8.37496627e-05,
          2.08045712e-05, 4.41085904e-05, -1.38524876e-04,
          1.63169374e-04, 3.07027130e-06, -1.14026065e-04,
          2.05345830e-04, -4.36734609e-07, -1.23604186e-04,
          2.09164034e-04, -4.15721850e-04, 1.51257598e-04,
          5.04911804e-05, 7.46309233e-05, 6.05623754e-05, 4.76358749e-04,
          -3.84059356e-04, -3.76865828e-05, 1.53037981e-04,
          1.96039182e-04, 7.61826595e-05, 2.31670983e-05, 7.35631475e-05,
          2.80335807e-04, 6.33880609e-06, 2.26625543e-05, 1.93861473e-04,
          3.33468808e-04, -1.79221315e-04, 1.20554672e-04,
          1.40153439e-04, -9.59172685e-05, 7.97261328e-06,
          -1.50860296e-05, 5.64850161e-05, 1.56028560e-04,
          -1.95253640e-04, 6.55217300e-05, 8.01122042e-06,
          -4.65875382e-05, -1.09960340e-04, -2.60141212e-04,
          -1.76319314e-04, -6.07728725e-05, -3.10697833e-05,
          -1.96730016e-05, -3.58854486e-05, 4.95941960e-04,
          -8.37758125e-05, -1.52450899e-04, -2.05728997e-04,
          -1.25090635e-04, 3.28072492e-04, 1.10121320e-04,
          3.39076396e-05, 2.40170339e-04, 1.01398393e-04, 2.63372349e-04,
          -6.36996629e-05, -1.52917739e-04, 1.90771010e-04,
          -2.72102625e-04, -1.26906480e-05, -1.66464248e-04,
          -6.43681095e-04, 4.37161565e-04, 4.81849820e-05,
          -5.00094786e-04, -2.31584781e-04, -3.70327325e-04,
          2.95438018e-04, -1.05858693e-04, -6.32617273e-04,
          -2.01769333e-04, -1.88588616e-04, -3.76508891e-04,
          -4.18163167e-04, -1.24821410e-04, -1.48934894e-04,
          1.78261747e-04, -1.54550871e-04, -3.78369296e-04,
          -1.43154801e-04, -5.25000214e-04, 1.97397545e-04,
          -1.82620133e-04, -7.24184138e-05, 3.67111585e-04,
          7.66946119e-04, 1.55298156e-04, 7.56706459e-06, 2.75094935e-04,
          4.16591443e-04, 1.86513527e-04, 4.11758607e-04, 1.84917473e-04,
          3.53103504e-04, 1.16408039e-04, 2.17443478e-04, 2.26081858e-04,
          5.97545819e-04, 4.15435097e-05, 1.89892289e-05,
          -2.07126086e-05, 9.77973250e-05, 1.12058424e-05,
          7.06984720e-05, 2.48221273e-04, 3.63471219e-04, 2.27712750e-04,
          -6.05561909e-05, -1.70488420e-04, -3.64414998e-04,
          2.82131863e-04, 6.19237544e-05, 2.16590532e-04, 4.60585608e-04,
          7.01528697e-05, 3.16586171e-04, 4.24351718e-04, 1.74202563e-04,
          9.49618188e-05, 2.98344152e-04, -2.84730020e-04,
          6.04942079e-06, 6.20511928e-05, 4.27229214e-04,
          -6.45098335e-05, -1.31102197e-05, -1.15393515e-04,
          5.22614282e-04, -6.86474668e-05, 4.03890544e-06,
          1.42366975e-04, 1.03128317e-04, -1.46984807e-04,
          1.34363931e-04, -2.65411683e-04, 1.74838555e-04,
          5.87953182e-05, 1.01019927e-04, 7.58490642e-05, 1.78803399e-04,
          -1.81532232e-04, -1.60780037e-04, -4.44994039e-05,
          -1.19108605e-04, 4.62452517e-05, 1.74637171e-04,
          -1.69903957e-04, 5.49082877e-04, 2.86980008e-04,
          -1.92971729e-05, 3.44695116e-04, 1.38143267e-04,
          -4.92015737e-04, -1.76559814e-04, 2.21953771e-04,
          1.48666804e-04, -3.27760441e-04, 5.66390918e-05,
          1.15994553e-05, 4.12351510e-04, 1.11621221e-05,
          -1.77911334e-05, 3.78961704e-05, 1.01160522e-05,
          -1.65327510e-04, 7.21403485e-05, 1.91742693e-05,
          2.21522918e-04, -1.61849108e-04, -1.05292384e-04,
          -3.42563348e-04, 5.26405131e-07, -1.94129258e-04,
          -7.68051468e-05, 5.20334652e-05, -1.81581345e-04,
          -1.13827227e-04, 6.27011686e-05, -5.32009057e-04,
          1.15562703e-04, 2.71264114e-04, 1.64006233e-05,
          -2.33136125e-05, 3.23447224e-04, -3.18725215e-05,
          -2.80634529e-04, 6.70928930e-05, -5.11095607e-07,
          -1.01414938e-04, -1.09667290e-05, 1.17493211e-04,
          1.91371844e-04, -2.07840567e-04, 2.49380537e-04,
          -2.09416772e-04, -3.12509546e-05, -1.79702678e-04,
          6.25947214e-05, 7.40465330e-05, -4.10986686e-04,
          -3.50125076e-04, 2.06567216e-04, -2.37643239e-04,
          -1.80729068e-04, -2.71306664e-04, 1.56245515e-04,
          1.96724613e-05, -1.85733021e-04, -3.47629160e-04,
          -6.45610417e-05, -1.55595480e-04, -1.20155993e-04,
          3.90758913e-04, 1.13598020e-04, 4.09255619e-04, 2.98240309e-04,
          1.12645750e-04, 4.59119357e-04, -1.72294633e-04,
          3.26333247e-04, 3.91666865e-04, -6.70272129e-05,
          3.55408498e-04, 1.86909907e-04, 2.67142041e-05, 1.20783981e-04,
          -4.45608821e-05, -3.06553811e-05, 2.09544189e-04,
          2.69880751e-04, 1.23340084e-04, -2.76805804e-05,
          -1.48556079e-04, -2.12330749e-04, 1.72822591e-04,
          -4.32359811e-04, 9.24807755e-05, 1.54493682e-05,
          1.35897077e-04, 2.34403808e-04, -3.41983105e-04,
          5.57303429e-05, 3.79632635e-04, -4.13956208e-04,
          3.56727163e-04, 3.51613940e-04, 4.28675936e-04, 1.48590378e-04,
          2.57799722e-04, 3.03174456e-04, 2.29337675e-04,
          -1.83799522e-04, 5.98115206e-04, -2.09943828e-04,
          2.73539044e-04, 1.74334840e-04, 8.89994917e-05, 1.78770264e-04,
          1.45077047e-05, -3.03600740e-04, 3.04060784e-04,
          -5.10246391e-05, 1.82146308e-04, -3.06065849e-05,
          -1.74080837e-04, 1.43026788e-04, 2.17578985e-04,
          -8.52407247e-05, -6.42368832e-05, -2.23784195e-06,
          4.20510769e-04, 4.20575489e-05, -1.25447725e-04,
          -3.16865153e-05, 9.17981088e-05, -4.95101012e-05,
          2.28436940e-04, 2.34846491e-04, 5.29124693e-04, 2.35365849e-04,
          1.91749568e-04, 1.94997134e-04, 4.88431309e-04,
          -6.63810351e-05, -5.43030910e-06, -2.13437510e-04,
          4.54174442e-04, 2.84699752e-04, 3.04996327e-04,
          -1.20334153e-04, 6.53419003e-04, -2.67352862e-05,
          1.88384263e-04, -1.77329101e-04, -7.84523072e-05,
          1.96091059e-04, 1.33798909e-04, -1.35065333e-04,
          2.92373559e-04, -4.62065247e-04, 7.18244992e-05,
          1.93489439e-04, 2.06532553e-04, 2.01660332e-05, 3.05433874e-04,
          -5.85327252e-05, -1.94969893e-04, -1.29957480e-04,
          5.07598335e-04, -1.35052484e-04, 1.67124614e-04,
          1.40239514e-04, 2.18924280e-04, -1.47558676e-04,
          5.14420717e-05, 2.93311838e-04, 5.47366035e-05,
          -1.40064803e-04, 1.42715027e-04, 2.41790956e-04,
          2.82663590e-04, -1.99512098e-04, 2.41947535e-04,
          4.52161243e-04, -2.07690042e-04, -5.49685974e-05,
          3.76978132e-05, 1.21541882e-04, 1.43607424e-04, 6.28606576e-05,
          2.21126538e-04, -4.82146163e-04, -1.01081336e-04,
          2.50255835e-04, -1.89794955e-04, -1.93594969e-05,
          4.12349880e-04, 2.56771295e-06, 1.06553307e-04,
          -7.91568484e-04, 7.25373102e-05, 1.66550264e-04,
          3.09668365e-04, 2.91589939e-04, 1.22692698e-04, 2.17591267e-04,
          3.40823550e-04, -1.05358435e-04, -4.61323471e-05,
          3.82014114e-05, 2.64519913e-04, 2.82300840e-04, 1.50127802e-04,
          2.67658790e-04, 2.25766664e-04, 2.88460396e-05,
          -5.19033529e-05, 1.33808368e-04, 7.00898527e-05,
          3.40551516e-04, 1.11623209e-04, -2.26889842e-05,
          2.20243572e-04, 9.70245383e-05, 4.13663656e-04, 2.76785169e-04,
          5.24042775e-07, -3.81650927e-04, -1.47591039e-04,
          -3.31958465e-04, 1.21388533e-04, -3.71357717e-04,
          3.05111491e-04, -1.19143806e-05, 3.89203895e-04,
          2.75283994e-04, 2.21347756e-04, 2.24578289e-05, 1.04457024e-04,
          -6.84867555e-05, 3.09935480e-04, -7.06509018e-05,
          1.01953505e-04, 3.17248952e-04, 2.15993306e-04, 2.72990728e-04,
          2.03302945e-04, 9.27452056e-05, 4.09925051e-05,
          -1.99050512e-04, -7.24050915e-05, 4.43768775e-04,
          6.45866603e-05, 6.20837091e-05, 3.93429218e-04,
          -3.01034415e-05, 2.44020310e-04, 2.98751722e-04,
          -1.29373337e-04, -1.15767762e-04, -1.20620032e-04,
          2.46551917e-05, 4.65804944e-04, -3.20322084e-04,
          9.68313907e-05, 7.17917064e-05, 4.35611873e-04, 2.47004034e-04,
          5.03355404e-04, -1.80458534e-04, 4.40508476e-04,
          -1.01854428e-04, 2.82381690e-04, 2.07119563e-04,
          2.35231608e-04, 6.94015616e-05, 3.65690154e-04, 3.03756533e-04,
          1.11339679e-04, 7.95710221e-05, -1.13351503e-04,
          -4.47367456e-05, 4.66062920e-05, 3.28427304e-05,
          4.55100162e-05, 1.55144706e-04, 3.90654168e-04,
          -4.13297712e-05, 2.69026030e-04, 3.33168224e-04,
          4.65054254e-05, -2.77492392e-04, 9.85355509e-05,
          -1.29697699e-04, 4.85054421e-04, -3.82872677e-04,
          8.93862089e-05, -9.66553634e-05, 3.82363709e-04,
          3.60730337e-05, 2.57739099e-04, -5.98854749e-05,
          3.61568353e-04, -1.94332970e-04, 1.91344894e-04,
          6.95657727e-05, 2.01780844e-04, 7.76569941e-05, 1.33267895e-04,
          8.23338414e-05, 1.62916083e-04, -1.15891547e-04,
          -1.77854658e-04, 1.44550620e-04, 3.62339888e-05,
          -1.21895027e-04, 9.59636091e-05, 1.27678040e-05,
          2.77577376e-04, 8.23612208e-05, -2.73422593e-05,
          1.18577562e-04, 2.25744603e-04, -2.09243663e-04,
          -1.26044062e-04, -3.92773160e-04, 5.66648436e-04,
          -9.17599027e-05, 1.38354262e-05, -3.27269867e-04,
          4.85553057e-04, 9.50158719e-05, 4.60738811e-05, 1.78950315e-04,
          2.37573244e-04, 5.41560294e-05, -1.19428529e-04,
          9.44781059e-05, 3.89745604e-04, -1.36426519e-04,
          1.70487547e-04, 7.68999817e-05, 2.16886416e-04,
          -1.65264486e-04, -8.36600957e-05, -8.38509550e-06,
          1.79493421e-04, -2.22956514e-05, 2.21206152e-04,
          -6.51417649e-05, 3.56114731e-04, 1.18109965e-04,
          -8.29189012e-05, 1.44312260e-04, 4.01375670e-04,
          -1.66395796e-04, 6.96971474e-05, -2.74723483e-04,
          3.38872400e-04, 6.50241345e-05, 1.28745814e-04,
          -3.50889284e-04, 2.38333043e-04, 8.67231647e-05,
          -1.08657996e-05, 5.78224281e-05, 9.14229713e-06,
          -3.99067467e-05, 2.49382923e-04, 2.36590640e-05,
          2.24055097e-04, 3.57685676e-05, 1.96928871e-04,
          -2.74091326e-05, 1.48752486e-04, -1.13351176e-04,
          -3.91374888e-05, 1.11482339e-04, 1.09879802e-04,
          1.54679175e-04, 3.16178121e-05, 6.45922992e-05, 3.21376254e-04,
          4.58514114e-05, -1.88831385e-04, 1.40665084e-04,
          3.03912646e-04, -2.28871708e-04, 1.64622819e-04,
          -2.47980133e-05, 1.16213887e-04, 2.16670218e-04,
          -7.40358882e-05, -3.04708839e-04, 2.16328881e-05,
          6.24443783e-05, 2.75187398e-04, 3.13274271e-04, 3.16161197e-04,
          2.09575781e-04, 2.27543860e-04, 5.68146825e-05, 5.84236732e-05,
          -8.44735678e-06, 1.55704838e-04, -8.64102549e-05,
          -2.15960381e-06, 3.46919929e-04, 3.27964925e-04,
          9.10975796e-05, 5.91998069e-05, -3.83439219e-05,
          -6.93645852e-05, -7.94591397e-05, 6.39504142e-05,
          -5.26693184e-05, -2.27692857e-04, 2.30598176e-04,
          2.52452533e-04, -2.06735378e-04, -1.12405633e-05,
          -1.01404985e-04, -1.14990442e-04, -1.46090868e-04,
          -3.39194594e-05, -4.57254355e-04, 1.99096059e-04,
          2.42954455e-04, 2.81491666e-04, 2.29108016e-04, 5.16291708e-04,
          3.41448322e-04, -1.99469996e-05, -6.65581902e-05,
          8.64585600e-05, 2.35481475e-05, 1.67545895e-05, 3.48815549e-04,
          1.97612011e-04, -2.95516529e-05, 1.29895852e-04,
          -2.80866589e-05, 5.20840658e-05, -2.67812284e-05,
          -2.07216108e-05, 1.33219713e-04, 7.75857698e-05,
          -9.82142956e-05, -2.28049059e-04, 3.26575973e-04,
          1.02222919e-04, -1.70696978e-04, -7.12088804e-05,
          2.04468335e-04, 6.04813577e-05, -1.04653773e-04,
          -5.15883767e-05, 1.23067206e-04, 2.37903092e-04,
          1.77410649e-04, -9.13419572e-05, -9.23940606e-05,
          2.11529565e-04, -1.71812862e-04, -1.78588962e-04,
          1.20450582e-04, 7.28142186e-05, 5.85674541e-04,
          -7.33217094e-05, -2.06629062e-04, 2.57866603e-04,
          3.53653159e-05, 1.23719743e-04, 5.87515060e-05, 1.02608035e-04,
          4.47155617e-04, 2.59098771e-04, -2.41998627e-04,
          -1.31182405e-05, 2.64498638e-04, -1.28304731e-04,
          1.40701159e-04, -9.25169388e-06, 3.71298265e-05,
          1.28457075e-04, -1.47571627e-04, 6.99274606e-05,
          1.64264507e-04, 1.37575902e-04, -1.88086095e-04,
          7.14599810e-05, 3.50419694e-04, 4.10984649e-05, 1.88287449e-04,
          9.31912291e-05, 9.27720539e-05, -8.83302419e-05,
          -9.27729197e-05, 5.43616712e-04, 3.18591163e-04,
          1.67156977e-04, -9.55758878e-05, 3.50309769e-04,
          3.19811516e-04, 3.42064814e-05, 1.93636170e-05, 3.87410226e-04,
          3.49679205e-04, -2.13319049e-06, -3.00565385e-04,
          2.47849617e-04, 2.75101658e-04, 4.61032050e-06, 2.84488488e-04,
          -8.63672358e-06, 2.70190620e-04, -1.39969095e-04,
          -8.73742174e-05, 3.41390638e-04, 2.67542055e-05,
          -1.84539778e-04, 1.65665595e-04, -1.94330016e-04,
          5.57502499e-04, 2.13764535e-04, 4.47572966e-04, 1.96900044e-04,
          8.39803688e-05, 9.70041365e-05, -9.34244890e-05,
          2.88448471e-04, 4.67725738e-04, 1.57099057e-04, 1.94655644e-04,
          6.55625117e-05, 4.46056074e-05, 1.98889975e-04, 1.53460947e-04,
          2.90011609e-04, 8.20696296e-05, 3.18663224e-05, 2.37131448e-04,
          -1.00468802e-04, -7.47720187e-05, 4.27203689e-04,
          2.91810953e-04, -1.91074723e-04, 6.46647968e-05,
          -1.42643694e-04, -5.86368442e-05, 1.17825119e-04,
          2.81485936e-05, -2.45007774e-04, 4.56478265e-05,
          -5.18211164e-04, 3.13132390e-04, 2.65899987e-04,
          2.71886063e-04, -4.31863336e-05, 1.91986852e-04,
          -1.68473547e-04, 3.98757002e-05, -2.15440043e-04,
          5.32862672e-04, 1.59762771e-04, 2.58391170e-04, 1.43104247e-04,
          1.20508041e-04, 5.02849161e-06, 6.97373980e-05,
          -3.11858894e-05, 1.94860724e-04, 1.59461895e-04,
          1.93311149e-04, 3.00905871e-04, 3.83575389e-04, 3.00573738e-04,
          2.69258046e-04, -3.66358319e-04, -1.78958362e-05,
          1.82897365e-05, 1.27312422e-04, 2.08048019e-04, 5.03800169e-04,
          2.03396150e-04, -4.58211653e-05, 3.48470967e-05,
          -4.69397273e-05, 1.62142736e-04, -1.11933099e-04,
          -2.83055124e-04, 1.27135791e-04, 8.05907694e-05,
          1.59242081e-05, 7.99188419e-05, -2.51881174e-05,
          4.13677299e-05, 2.33193685e-04, -1.91682320e-05,
          -1.55340196e-04, 5.51367004e-04, 2.02548021e-04,
          1.12940004e-04, 7.18982119e-05, -2.47925050e-06,
          2.04928889e-04, 2.12612707e-04, -2.87465344e-04,
          7.19283533e-04, 2.18957124e-04, -2.27933979e-05,
          1.49561063e-04, -1.56413924e-04, -1.57290720e-04,
          2.18988134e-04, -1.12391572e-04, 1.42548961e-04,
          -3.61955899e-04, 2.02799929e-05, 2.58992135e-04,
          -2.18316090e-05, -1.99562448e-04, -3.56337878e-05,
          -3.44181572e-05, 1.50385531e-04, -4.38977237e-04,
          -4.83045869e-06, -1.67494494e-04, 1.08340346e-05,
          9.21155442e-05, 7.33570196e-05, -3.93194263e-04,
          2.37970773e-04, -2.09665115e-04, 2.49178469e-04,
          -4.22531390e-04, -9.87238891e-05, -6.92515096e-05,
          1.69592327e-04, -3.14138917e-04, 3.77751334e-04,
          2.40402323e-06, 2.31044643e-04, 1.14468850e-04, 1.10872927e-04,
          -1.30437969e-04, 2.01694740e-04, -8.20843052e-05,
          9.33417832e-05, -3.70503578e-04, 1.82880118e-04,
          2.75416678e-04, -3.52818097e-05, -2.22506336e-04,
          1.53052199e-04, -5.33045422e-05, -2.26462430e-06,
          1.01776954e-04, 1.13367103e-04, -5.09434212e-05,
          -1.10252848e-04, 1.69357416e-04, 7.61833217e-05,
          -4.40512413e-05, -1.75162029e-04, -2.32107966e-04,
          3.13729863e-04, 2.28615827e-05, -2.90398952e-04,
          -1.39357697e-04, 2.48894881e-04, 2.93028424e-05,
          4.05884603e-05, -7.15503575e-07, 3.83482489e-04,
          5.72281097e-05, 9.49639070e-06, -1.14759772e-04,
          5.57053936e-05, -3.92403417e-05, -4.80680828e-05,
          -1.44776801e-04, -3.28360882e-04, 1.26061699e-04,
          2.76269653e-04, -5.47992749e-05, 1.22107609e-04,
          2.64908100e-04, -1.73658002e-04, 8.74225498e-06,
          -3.94988223e-04, 2.17699620e-04, 1.38977237e-04,
          -9.56591757e-05, -2.05585529e-04, 6.14363598e-05,
          -1.52803521e-04, -7.68681421e-05, -5.97841754e-05,
          1.39717391e-04, 1.66633021e-04, -1.45894635e-04,
          -1.29263690e-05, -4.56303416e-04, 2.18463101e-04,
          -2.52938888e-04, 2.19572059e-04, -8.90407173e-05,
          2.53486302e-04, -1.97409536e-04, -2.98315368e-04,
          -1.72678076e-04, 1.37505820e-04, -5.26967851e-05,
          -2.11151255e-05, 1.98972586e-04, -1.24150582e-04,
          2.02989831e-05, -7.91839993e-05, 2.38923400e-04,
          1.01691090e-04, 2.30338715e-04, -7.62110494e-06,
          4.95244458e-05, 3.59565485e-04, -2.87109960e-05,
          7.51586776e-05, -2.63833081e-05, 3.92346672e-04,
          3.16262624e-04, -1.93421190e-04, 1.96917754e-04,
          2.48774712e-04, -5.18909597e-04, 1.42692530e-04,
          2.67827359e-04, 4.95935499e-04, 2.63773643e-07,
          -9.22188774e-05, 4.75047011e-04, 2.22883158e-04,
          -4.33825298e-05, 1.52651101e-05, 2.36108899e-05,
          6.25691828e-05, -8.57628584e-06, 1.78127477e-04,
          -1.66777136e-05, 8.27568656e-05, -6.35610413e-05,
          -7.34511241e-06, 2.58971530e-04, 2.23713811e-04,
          4.31399567e-05, -1.23052552e-04, 7.20597163e-05,
          1.70645246e-04, -2.81389977e-04, -5.16797118e-05,
          1.21126999e-04, 2.08012061e-04, 8.93542529e-06, 2.68501521e-04,
          2.17523720e-05, 2.09175734e-04, -1.62383105e-04,
          2.51569203e-04, -1.47193234e-04, 5.24058014e-05,
          1.18303498e-04, 2.62874033e-04, 3.91333888e-04, 4.06487961e-04,
          1.11095242e-05, 1.93586849e-04, -4.73012769e-04,
          3.69987421e-04, -2.72063568e-04, -4.41117299e-05,
          -1.33268622e-04, -2.00592025e-04, -1.05331969e-06,
          2.09878068e-04, -9.25711865e-05, 3.07977287e-04,
          3.85238636e-05, 1.19324577e-04, -2.25934535e-04,
          -3.27411290e-05, -1.27062503e-05, -1.26191280e-05,
          -4.18977404e-04, 9.51951370e-05, 3.74725132e-05,
          1.93236643e-04, -1.52385546e-04, 1.46259641e-04,
          -7.22289988e-05, 4.22236953e-05, -4.28213621e-04,
          4.98379886e-05, -8.74736634e-06, 1.12398382e-04,
          1.65640537e-04, 1.28550761e-04, -8.86532798e-05,
          3.14954377e-04, -9.87819803e-05, 1.74970191e-04,
          -4.92978026e-04, -2.24066243e-04, -1.86048183e-05,
          1.64783705e-04, 2.03374890e-04, 1.47193598e-04, 1.93003696e-04,
          -1.37357143e-04, -2.96678249e-04, -3.46341170e-04,
          1.13077971e-04, 9.56518124e-05, -1.84934231e-06,
          -5.59696346e-05, 2.33800616e-04, 4.99094640e-05,
          2.37357541e-04, -1.68129525e-04, -1.10047251e-04,
          1.36151313e-04, -1.90349529e-05, 4.45658879e-05,
          1.05858751e-04, -2.61217592e-05, 1.77778915e-04,
          -1.95812943e-04, 1.60235068e-04, 2.69356417e-04,
          1.22364203e-04, 4.54954890e-04, 1.21568199e-04, 7.84783217e-04,
          -3.25349029e-05, 9.19590639e-06, 1.79669500e-04,
          1.60028649e-04, 3.73260380e-04, -1.69099745e-04,
          -2.79077911e-04, 2.96904938e-04, 6.01736865e-05,
          -1.26901345e-04, 3.74698102e-05, 3.26129055e-04,
          2.33172512e-04, 2.40058921e-06, -2.13230349e-04,
          2.86442548e-04, -1.73824534e-04, -1.14704599e-04,
          2.77406885e-04, 6.13195807e-05, 9.08574511e-05, 1.05244435e-05,
          4.86843273e-05, 2.45705392e-04, -1.79763098e-04,
          -1.20985576e-04, 1.86856851e-04, 2.97982391e-04,
          -1.69052204e-04, -7.05972270e-05, 1.38897347e-04,
          6.37933437e-04, 8.85428381e-05, -2.78317766e-05,
          1.24188271e-04, -1.98422669e-04, 2.56285188e-04,
          -1.92323816e-04, -2.83587287e-04, 1.83222481e-04,
          -6.09276758e-05, 1.73084627e-04, 3.43062886e-04,
          9.36244905e-05, -4.61734126e-05, -5.85466478e-05,
          1.79663810e-04, 8.71863667e-05, -1.54938080e-05,
          -7.55375440e-05, 3.49985021e-05, 4.13288391e-04,
          9.40562968e-05, -1.82021889e-04, 4.08938322e-05,
          2.39061628e-04, 8.16279571e-05, -2.08348065e-05,
          5.03256451e-05, 2.95392383e-04, -5.13014747e-05,
          -2.65407522e-04, 2.61056819e-04, 1.52368069e-04,
          1.33647918e-04, -1.27959676e-04, -1.82961405e-04,
          -8.91408126e-05, 7.52598935e-05, -2.75857819e-05,
          3.68685687e-05, 7.19729724e-05, -7.39094446e-07,
          -1.55221031e-04, -1.22720026e-04, 6.31927396e-05,
          -1.94665801e-04, -1.18307209e-04, 3.63643718e-04,
          -6.85461418e-05, 5.71182027e-05, -8.23677910e-05,
          -1.10889225e-04, 2.26780103e-04, -4.31726425e-04,
          -1.59132673e-04, 1.42704564e-04, 1.13871982e-04,
          1.14196439e-04, 1.79544964e-04, -1.74945715e-04,
          1.91266668e-06, -2.20715534e-04, -1.79901035e-04,
          2.53795530e-04, -2.87622352e-05, -3.63255007e-04,
          1.32583271e-04, -3.00652697e-04, -4.38964016e-05,
          -2.54291754e-05, -4.10733570e-04, 5.05919801e-04,
          -1.39327185e-05, -2.72185571e-04, -3.92659043e-04,
          -4.68845901e-05, 1.63104196e-04, -3.40609549e-04,
          -3.49802751e-04, 2.08982412e-04, -2.55808642e-04,
          -6.37958059e-04, -2.54832674e-04, -1.34782604e-04,
          9.24194392e-05, -2.17424240e-04, 1.98234284e-05,
          -1.12530950e-04, -1.69554347e-04, -6.01332285e-04,
          -3.41400755e-06, -1.38176692e-04, -9.48855595e-05,
          -1.16192801e-04, 1.11886424e-04, 1.70424668e-04,
          3.53900628e-04, 1.86490535e-04, -2.09712161e-05,
          2.02970565e-04, 1.22767611e-04, 4.73150052e-04,
          -1.41475975e-04, 7.00061384e-04, 1.07496999e-04,
          1.73092281e-04, -1.06151010e-05, 4.35456808e-04,
          3.93310213e-04, 2.43307484e-04, 8.30514618e-05, 4.43315017e-04,
          -5.77609317e-05, -1.11696063e-04, -2.99025432e-05,
          2.43277944e-04, 1.94001259e-04, 2.60534813e-04, 2.09617265e-05,
          3.17093160e-04, -9.19141821e-05, -3.33751115e-04,
          1.01745252e-04, 4.38001181e-04, 1.74755594e-04, 2.12077168e-04,
          1.29033593e-04, 4.08614578e-04, 4.36377159e-04, 2.49716104e-04,
          -3.73235613e-04, -8.09361227e-05, 1.70690415e-04,
          7.68562895e-05, 2.23881492e-04, 2.83525325e-04, 4.24093334e-04,
          -8.12771104e-05, -1.86218866e-04, 2.66211719e-04,
          2.17943772e-04, 9.67754022e-05, 4.32595198e-06, 1.39240685e-04,
          -3.98910197e-05, -1.65561156e-04, 6.51555820e-05,
          2.33282655e-04, -9.56295989e-05, 5.24964358e-04,
          -9.90386434e-06, -6.14948221e-05, 6.95914787e-05,
          2.33008068e-05, 2.53464459e-05, 4.03187907e-04,
          -1.43128054e-04, 5.89259493e-04, -1.92779073e-04,
          -4.12430600e-05, -5.75969971e-05, -2.24630894e-05,
          -3.59393089e-05, -9.81643752e-05, 2.20175002e-06,
          1.81898140e-05, 1.93590255e-04, 1.87293233e-04,
          -1.19401644e-04, -4.29320753e-05, 1.13450333e-05,
          2.25345066e-05, -1.00371828e-04, 3.04519999e-05,
          -8.93927427e-05, -3.38178535e-04, -1.68185055e-04,
          -3.98222619e-04, 4.31228545e-04, 1.69430379e-04,
          7.03657279e-05, 3.77151700e-05, -1.55768619e-04,
          -1.85730809e-04, 1.53576766e-04, -3.62785329e-04,
          3.68900481e-04, 1.57812028e-04, -3.37819511e-04,
          2.27294368e-04, -5.50769873e-05, 4.08143896e-05,
          1.21951809e-04, -3.51445109e-04, 2.27106473e-04,
          -2.88249321e-05, -7.24996280e-05, 1.61986958e-04,
          -8.14337036e-05, 1.00200363e-04, -1.22556681e-04,
          -9.93471622e-05, -5.03313750e-05, -2.65733805e-04,
          -1.45311249e-04, -5.75131235e-05, 1.83603173e-04,
          -2.06618657e-04, -1.17097115e-04, -3.00599640e-04,
          4.03100858e-05, 2.36470893e-04, -4.54110486e-05,
          -2.63263675e-04, 3.61083163e-04, 6.44577085e-05,
          2.54911749e-04, -3.10494652e-04, 5.01692994e-04,
          1.85963028e-04, -1.74170666e-04, -2.14194559e-04,
          2.24704170e-04, 1.96494497e-04, 2.42015623e-04, 9.84462094e-05,
          9.80860932e-05, -1.60083786e-04, -2.91676144e-04,
          3.38505110e-04, 6.77527059e-05, 2.36128053e-05, 2.10202983e-04,
          8.83007597e-05, 3.51671421e-04, 3.87047185e-05,
          -1.61873850e-05, 8.55030885e-05, 5.95852252e-05,
          2.30071179e-04, -2.46009033e-04, 4.86039295e-04,
          1.82477554e-04, -1.11373498e-04, 1.04006584e-04,
          1.51256943e-04, 2.95339385e-04, 3.11753902e-05,
          -4.62521784e-05, 3.12111253e-04, 2.56628380e-04,
          -2.13035688e-04, 4.03138896e-04, 1.46892911e-04,
          2.81330460e-04, -9.09142836e-05, -8.38309861e-05,
          -4.17536648e-04, 4.07490064e-04, 1.79183000e-04,
          -2.17458321e-04, 1.30211083e-05, 1.49279571e-04,
          1.44839330e-04, -1.19481701e-04, -1.23824779e-04,
          3.91285575e-04, 2.04811076e-04, 4.24131358e-05, 2.43134273e-04,
          1.99038943e-04, 1.01624348e-04, -2.83313537e-04,
          3.11155713e-06, 2.48752156e-04, -1.04866653e-04,
          3.38416052e-04, -7.00977898e-06, 6.31399816e-05,
          2.00860319e-04, 1.92115956e-04, -1.61922901e-04,
          2.16937304e-04, 7.46070509e-05, 5.54825761e-04, 4.37450144e-05,
          -3.05697788e-04, 1.90610415e-04, -6.76470881e-05,
          -8.92303433e-06, 1.85538855e-04, 9.90120534e-05,
          3.09310562e-04, -3.12064949e-04, 5.00007955e-05,
          1.70188141e-05, 2.16770524e-04, -7.18477095e-05,
          -7.19967575e-05, -1.28114436e-04, 1.13792346e-04,
          -1.87447731e-04, 3.38762708e-04, -8.40569046e-05,
          -2.27455894e-04, -1.42276433e-04, 9.08372676e-05,
          1.77564536e-04, 3.08985909e-04, -1.18748743e-04,
          4.35133406e-04, -2.56680039e-04, 2.48428289e-04,
          -1.41659330e-04, 1.20221703e-05, -2.11314837e-05,
          3.19037354e-04, -8.29227647e-05, -8.91984164e-05,
          5.73995494e-05, 1.88285543e-04, -2.42289403e-04,
          1.67763341e-04, -1.21413133e-04, 6.39842619e-05,
          -1.67066522e-04, -6.13220909e-04, 7.26616272e-05,
          4.38031653e-04, -1.69312116e-04, 3.08850140e-04,
          -9.44890053e-05, 1.33941619e-04, -6.49778012e-05,
          -2.15032109e-04, 4.35319816e-05, 1.79103939e-04,
          -2.90636090e-04, 2.60637928e-04, 7.92924184e-05,
          1.96257839e-04, 8.17467881e-05, -1.49199850e-05,
          -1.08936387e-04, 2.38547189e-04, -2.41510454e-04,
          6.47614506e-05, 7.21502875e-05, 1.21463461e-04, 2.23776824e-05,
          3.70522575e-05, -4.25924118e-05, 6.79534132e-05,
          1.16941155e-04, 7.79107941e-05, 2.96220587e-05, 4.53069893e-04,
          1.97450554e-05, 7.79375041e-05, -4.21595527e-04,
          1.16828865e-04, -4.31427979e-05, 1.52661640e-04,
          1.03999177e-04, 3.20664170e-04, -1.18522112e-04,
          4.73744367e-05, -1.98612310e-04, 3.09936586e-04,
          -2.22819930e-04, 2.22926959e-04, 4.90754726e-04,
          1.84676886e-04, -1.48479521e-04, 5.66137896e-05,
          -1.32132511e-04, 6.52845134e-04, 3.79575577e-05,
          4.22761310e-04, 4.49335988e-04, 7.04356571e-05,
          -5.64352340e-05, 3.73603398e-05, 2.45775191e-05,
          -1.68179147e-04, -5.36309162e-05, 4.20550467e-04,
          -1.80879397e-05, 3.14827717e-04, 2.47262971e-04,
          3.90532659e-04, -5.27755146e-05, 8.06179523e-05,
          1.35362308e-04, -7.91905550e-05, 1.93570944e-04,
          3.35991208e-04, -2.89349322e-04, 4.42157820e-04,
          7.66005178e-06, 1.10057059e-04, -8.99235602e-06,
          2.95452715e-04, 2.33145940e-04, 2.12439976e-04,
          -1.03267048e-04, 2.41129659e-04, -9.50503454e-05,
          2.62150075e-04, 9.74378127e-05, 4.96917230e-04, 1.93737040e-04,
          -8.76612758e-05, -1.64036701e-05, -2.46396467e-05,
          2.77241546e-04, -7.83364499e-07, -5.29410790e-05,
          2.86666764e-04, -2.46872896e-05, 3.12623088e-05,
          -6.58052013e-05, 1.43719386e-04, -4.57903843e-05,
          2.63034715e-04, 1.06380852e-04, -2.25385429e-05,
          5.69054246e-05, 3.16447520e-04, -2.39713205e-04,
          4.94377055e-05, -2.71220953e-04, 1.16685515e-05,
          -3.60451995e-05, 1.53268978e-04, -2.23802926e-05,
          1.69051302e-04, -9.76630836e-05, 3.32638709e-04,
          -1.85245168e-04, 3.02265515e-04, 1.02368547e-04,
          7.91233469e-05, -7.61277915e-05, -1.63301389e-04,
          1.93197011e-05, 3.25952016e-04, 2.75400351e-04, 1.34887290e-04,
          1.47875908e-05, 1.91738160e-04, 1.87151687e-04,
          -5.38521308e-05, -2.76749895e-04, 2.56098938e-05,
          -3.49077949e-04, 2.64582399e-04, 1.03479157e-04,
          -5.49258184e-05, 4.35150614e-05, -6.46882399e-05,
          -3.27600370e-04, 1.35544266e-04, -2.26748904e-04,
          3.70115566e-04, 3.63298277e-05, -1.61123651e-04,
          -1.37649375e-04, -1.81309661e-04, -1.67473801e-04,
          3.95472394e-04, -7.35033827e-05, 2.73542944e-04,
          1.52510373e-04, -1.96467197e-04, -1.66134574e-04,
          -6.30228024e-05, -1.31141933e-04, 3.73383693e-04,
          1.35704278e-04, 2.05947363e-04, -1.79924991e-05,
          3.31070012e-04, 4.60514275e-04, -3.32342438e-06,
          2.77525862e-04, -1.04596664e-04, -5.65277180e-04,
          -2.05283595e-05, -2.46300158e-04, 3.55828175e-04,
          4.31770255e-04, -1.04512728e-04, -1.97334055e-04,
          1.23474456e-04, -4.27446124e-04, -6.90603774e-05,
          4.22932091e-04, 3.46355198e-04, 2.71043536e-04, 5.56394916e-05,
          -1.54686917e-04, 1.82392992e-04, -2.63652590e-04,
          1.40243254e-04, 4.15570656e-04, 2.10231243e-04, 2.49038363e-04,
          -2.25468219e-04, -2.74853577e-04, -2.74198712e-04,
          3.22478045e-05, -2.32811231e-04, 4.37408162e-05,
          3.51061928e-04, 3.22806154e-04, -1.35344293e-04,
          3.96247953e-04, -1.19835659e-05, -3.11183510e-04,
          -6.11601208e-05, -2.88996089e-05, 2.14653264e-04,
          5.18315501e-05, 1.95584973e-04, 4.11657275e-05, 1.80109142e-04,
          1.73371373e-04, 3.40377992e-05, 1.91353738e-05, 3.29852599e-04,
          4.29854437e-04, -9.76984884e-05, 4.05199185e-04,
          2.48469383e-04, -1.48352527e-04, 1.41315511e-04,
          1.35574053e-04, 2.01207542e-04, -8.16362590e-05,
          -3.20731313e-04, 3.81761609e-04, 2.48816417e-04,
          1.36125818e-04, -2.51396646e-04, -2.83632049e-04,
          3.03240668e-04, 3.59836675e-04, -8.54678437e-05,
          3.82682221e-04, 2.53111502e-04, -1.51899832e-04,
          -1.22809623e-04, -3.46541958e-04, -8.76030681e-05,
          3.95022798e-04, -1.53376270e-04, -1.04812716e-04,
          3.21493921e-04, 1.28246596e-04, 1.61006727e-04, 2.90417869e-04,
          5.50630211e-05, 4.38312200e-05, 4.82942924e-05, 1.81381576e-04,
          2.85556831e-04, -1.00260273e-04, 1.13754853e-04,
          3.53933283e-05, 1.74140456e-04, -5.30703583e-05,
          -5.85150519e-05, 6.02226683e-05, 4.09819273e-04,
          4.78920192e-05, -3.78527358e-04, -2.48078461e-04,
          1.15251685e-04, 6.62462553e-05, 3.80008452e-04, 5.69732743e-04,
          -3.75235550e-06, -1.36361065e-04, 2.59611770e-05,
          -2.02490701e-04, 1.75548223e-04, 2.14368818e-04,
          3.07367554e-05, 2.88349431e-04, -3.13778801e-05,
          1.43455429e-04, 2.76158680e-04, 6.13680342e-04, 1.13489608e-04,
          1.14692142e-04, 5.04368509e-05, 1.74685119e-04, 3.61503160e-04,
          8.27996264e-05, 3.87782493e-05, 4.50117368e-04, 8.86324779e-05,
          3.09556868e-04, -1.76535454e-04, 1.27522086e-04,
          4.96791152e-04, 1.14338305e-04, 1.87483492e-05, 2.36412292e-04,
          2.61749119e-05, 2.96566664e-04, 1.20446435e-04, 2.11996026e-04,
          -9.42142942e-05, -4.70222112e-05, -2.65103212e-04,
          8.12611906e-05, 3.98780569e-04, -1.17962605e-04,
          4.76281566e-05, -1.25501523e-04, -1.85163139e-04,
          -1.56260037e-04, 2.37312677e-04, 1.27857449e-04,
          3.31670599e-04, 7.69374965e-05, -2.11642968e-04,
          -1.09776927e-04, -2.20436021e-04, -5.38175373e-05,
          1.72506596e-04, 5.75713580e-04, 4.16169525e-04,
          -1.58858369e-04, -1.33193069e-04, 1.07924541e-04,
          6.37761550e-05, -1.07063570e-05, 1.21724486e-04,
          2.33183004e-04, -1.82686781e-04, 4.88693826e-04,
          5.02791409e-05, 1.78624585e-04, 2.01731469e-04,
          -1.03569379e-04, -2.77334693e-05, 5.11658582e-05,
          1.95598390e-04, 2.10913742e-04, 2.01032468e-04,
          -3.46784916e-04, 1.49770694e-05, 5.17449848e-07,
          2.67893454e-04, 1.79403054e-04, 2.31435275e-04,
          -1.48170235e-04, 1.10893081e-04, -1.66143946e-04,
          7.07533909e-05, -3.00534419e-04, 3.49808892e-04,
          4.84216871e-04, 5.38348337e-04, -5.00995084e-04,
          1.34543079e-04, -7.16024515e-05, -5.32205922e-05,
          -1.91214029e-04, 4.35274269e-05, 3.68328474e-04,
          1.02379920e-04, 4.53600718e-04, 3.21530766e-04,
          -7.05580678e-05, 1.51509550e-04, 2.03169970e-04,
          5.95490455e-05, 1.07184955e-04, 3.42030216e-05, 3.83664388e-04,
          1.46336708e-04, -2.10712300e-04, -9.14247139e-05,
          5.82224166e-05, 2.38723995e-04, -2.12383849e-04,
          1.04109742e-04, 2.78360767e-05, 9.39127131e-05,
          -2.36460488e-04, 1.13827525e-06, -7.17657313e-05,
          2.43845294e-04, 1.02336737e-04, 2.39625704e-04,
          -1.78603790e-04, 8.58063941e-05, -1.47677594e-04,
          1.23379461e-04, -2.50923108e-07, 3.75727068e-05,
          -1.19128839e-04, 5.39671346e-05, 2.49028089e-04,
          1.91429222e-04, 1.59726405e-04, 1.55758345e-04, 2.84367154e-04,
          1.47254541e-04, -8.20384230e-06, 1.83420503e-04,
          2.16649671e-04, 4.00071622e-05, 4.62976204e-05, 2.30190839e-04,
          3.69588000e-04, 2.31228787e-05, 1.04024752e-04, 2.03106290e-04,
          -2.23767784e-04, 4.33656096e-05, 6.07942525e-07,
          5.18150046e-04, 5.54895314e-06, 8.21921640e-05, 7.47307349e-05,
          -1.78485905e-04, -4.11893736e-04, -8.62931411e-05,
          4.04817692e-05, 3.34996672e-04, -2.33928469e-04,
          -1.48141567e-04, -3.45619301e-05, 5.34089922e-04,
          3.66435008e-04, -3.75639902e-05, -4.02328487e-06,
          3.40928309e-05, -6.15983809e-05, -3.31709925e-05,
          -1.74301284e-04, 1.85153782e-04, 3.98724776e-04,
          1.48357576e-04, 5.15317988e-05, 1.34324699e-04, 2.34300865e-06,
          1.75308363e-04, 2.46239098e-04, 1.91205196e-04, 1.45579077e-04,
          4.86573626e-05, -1.23403761e-05, 2.39696339e-04,
          -1.50727239e-04, 1.93893720e-06, 7.06127088e-04,
          2.44657684e-04, -5.81383065e-05, 3.98619595e-05,
          1.11938447e-04, -6.69723086e-05, -1.92588268e-04,
          2.22267117e-04, 1.69129940e-04, 1.20221530e-05, 6.37791600e-05,
          -1.83402080e-04, -3.20911175e-04, 1.11634705e-04,
          2.47731750e-05, 3.18823499e-04, -2.02730283e-04,
          -4.81574934e-05, 2.24522373e-04, 1.43775513e-04,
          2.02198044e-05, -5.73882899e-05, -1.65880730e-04,
          4.88935038e-04, -2.38042179e-04, 5.43487185e-05,
          -2.94711717e-05, 2.20938469e-04, 8.71896191e-05,
          7.09321512e-06, -2.88581417e-04, 1.99076763e-04,
          3.32800904e-04, -3.63988423e-04, 5.64293659e-05,
          1.38903823e-04, 8.42803856e-05, 1.31691791e-04,
          -2.70534772e-04, 2.35813990e-04, -5.18337329e-05,
          -2.17026856e-04, -3.02969624e-04, 8.18475601e-05,
          -1.72665386e-05, -2.39041590e-04, -5.43912938e-05,
          1.23229765e-05, 1.68776911e-04, 1.41729688e-04,
          -1.15471514e-04, 2.92574754e-04, -1.44323465e-04,
          -8.07153192e-05, -4.59731382e-04, 3.17687372e-04,
          -4.82951600e-06, 1.30127475e-04, 5.33520506e-05,
          3.38436192e-04, 5.23896051e-05, -3.06899543e-04,
          -2.07363599e-04, 5.10161335e-04, -3.77167235e-05,
          -8.71564043e-05, 6.21594299e-05, 7.87142344e-05,
          -1.13804039e-04, 5.59201217e-05, -7.89428213e-06,
          2.08591628e-05, -6.72370224e-05, -1.21502657e-04,
          -1.30708475e-04, 2.79338885e-04, 9.05387060e-05,
          -7.60110634e-05, 5.42185662e-05, -2.00248804e-04,
          -1.15939751e-04, 1.14602721e-04, -8.64316171e-05,
          2.75517144e-04, -3.59502359e-04, 8.28242628e-05,
          -5.81802487e-05, 3.31865245e-04, -2.52771802e-04,
          1.46479404e-04, -8.55795806e-05, 1.41538039e-04,
          -4.01892874e-04, -6.81159599e-06, 3.78048338e-04,
          6.75477728e-04, 2.83456902e-04, -1.87359212e-04,
          -2.47206568e-04, -1.80636445e-04, 1.31221619e-04,
          2.47792457e-04, 3.18768260e-04, 2.19076843e-04,
          -2.39344608e-05, 1.28122949e-04, 6.62561506e-05,
          3.82969156e-04, 1.51601518e-04, -1.28541695e-04,
          -1.44908030e-04, 8.07712859e-05, -4.85177734e-05,
          1.14218819e-04, -2.43923896e-05, 1.58680050e-04,
          2.10703671e-04, 2.94548925e-04, -9.54012648e-05,
          -1.22811616e-04, -9.93818976e-05, 2.67044292e-04,
          3.43490537e-05, 1.45290440e-04, -1.57226619e-04,
          5.26392483e-04, 8.02386785e-05, -2.59755743e-05,
          -9.49334026e-06, 2.18054756e-05, 3.80987360e-04,
          -5.22665759e-05, -2.66250536e-05, 3.56948294e-04,
          -1.38738149e-04, 7.50773906e-05, -1.61608332e-05,
          -1.93981337e-04, 1.54082707e-04, 1.33786772e-04,
          2.82556248e-05, -2.58844288e-04, 1.19984099e-04,
          2.32697188e-04, 1.76112037e-04, 1.03395047e-04, 7.33858687e-05,
          5.11388236e-04, -3.14245088e-04, 6.68315770e-05,
          -1.00404446e-04, -1.82342919e-04, 2.38370922e-04,
          2.72503705e-04, -2.00555500e-04, 2.71539117e-04,
          -1.75158450e-04, 1.57180635e-04, -3.28568101e-04,
          2.95444552e-05, 6.43609019e-05, 1.53197034e-04, 5.65733462e-05,
          3.10749136e-04, 1.29485983e-04, 1.39820149e-05,
          -1.74251647e-04, -2.28742210e-05, -6.08711089e-05,
          6.44694728e-06, -1.30236818e-04, 2.50732322e-04,
          3.11629294e-04, -4.93204789e-05, 1.26902552e-04,
